%YAML:1.0
my_svm: !!opencv-ml-svm
   svm_type: C_SVC
   kernel: { type:RBF, gamma:5.0625000000000009e-01 }
   C: 6.2500000000000000e+01
   term_criteria: { epsilon:2.2204460492503131e-16, iterations:1000 }
   var_all: 11
   var_count: 11
   class_count: 2
   class_labels: !!opencv-matrix
      rows: 1
      cols: 2
      dt: i
      data: [ 0, 1 ]
   sv_total: 216
   support_vectors:
      - [ 6.05660006e-02, 5.88180013e-02, 5.71289994e-02, 5.51679991e-02,
          5.48290014e-02, 5.29280007e-02, 5.18219993e-02, 4.80719991e-02,
          4.69739996e-02, 4.66989987e-02, 3.58540006e-02 ]
      - [ 6.44799992e-02, 6.25180006e-02, 5.59520014e-02, 5.36499992e-02,
          5.36260009e-02, 5.31699993e-02, 5.25499992e-02, 5.02309985e-02,
          4.96950001e-02, 4.87559997e-02, 3.64030004e-02 ]
      - [ 6.08449988e-02, 6.04420006e-02, 5.93699999e-02, 5.86099997e-02,
          5.50649986e-02, 5.16939983e-02, 5.06860018e-02, 5.01039997e-02,
          4.99599986e-02, 4.98609990e-02, 3.99370007e-02 ]
      - [ 7.02259988e-02, 7.01439977e-02, 5.72849996e-02, 5.72180003e-02,
          5.71440011e-02, 5.63470013e-02, 5.44200018e-02, 5.24480008e-02,
          5.16909994e-02, 5.10400012e-02, 3.98340002e-02 ]
      - [ 7.45040029e-02, 7.41399974e-02, 7.03829974e-02, 7.00839981e-02,
          6.74920008e-02, 6.54079989e-02, 6.38120025e-02, 6.28369972e-02,
          6.21129982e-02, 6.11599982e-02, 4.56379987e-02 ]
      - [ 7.43160024e-02, 7.29909986e-02, 6.76539987e-02, 6.55969977e-02,
          5.82929999e-02, 5.70579991e-02, 5.57020009e-02, 5.44609986e-02,
          5.18720001e-02, 5.16609997e-02, 4.11919989e-02 ]
      - [ 6.30360022e-02, 6.20590001e-02, 6.05439991e-02, 5.98040000e-02,
          5.93799986e-02, 5.77020012e-02, 5.73769994e-02, 5.49519993e-02,
          5.31429984e-02, 5.29149994e-02, 4.32350002e-02 ]
      - [ 7.18419999e-02, 6.76919967e-02, 6.67899996e-02, 6.54790029e-02,
          6.34799972e-02, 6.24350011e-02, 6.00720011e-02, 5.71219996e-02,
          5.57149984e-02, 5.51129989e-02, 4.15229984e-02 ]
      - [ 7.64280036e-02, 7.46800005e-02, 6.53460026e-02, 6.43709973e-02,
          6.27460033e-02, 6.24839999e-02, 6.19429983e-02, 6.05939999e-02,
          6.03090003e-02, 5.97609989e-02, 4.58110012e-02 ]
      - [ 7.04730004e-02, 6.81950003e-02, 6.36309981e-02, 6.32340014e-02,
          6.29900023e-02, 6.26190007e-02, 6.19879998e-02, 6.01189993e-02,
          5.97640015e-02, 5.80889992e-02, 4.08679992e-02 ]
      - [ 6.54039979e-02, 6.16329983e-02, 5.80129996e-02, 5.64410016e-02,
          5.58639988e-02, 5.46290018e-02, 5.44009991e-02, 5.42499982e-02,
          5.41520007e-02, 5.37820011e-02, 4.01819982e-02 ]
      - [ 7.23539963e-02, 7.16459975e-02, 7.10140020e-02, 7.01450035e-02,
          6.73860013e-02, 6.66569993e-02, 6.63900003e-02, 6.54430017e-02,
          6.48709983e-02, 6.46860003e-02, 4.79400009e-02 ]
      - [ 6.66529983e-02, 6.42779991e-02, 6.30230010e-02, 6.25009984e-02,
          5.79579994e-02, 5.79419993e-02, 5.54260015e-02, 5.49109988e-02,
          5.28820008e-02, 5.11419997e-02, 3.91589999e-02 ]
      - [ 7.93339983e-02, 7.62770027e-02, 6.95590004e-02, 5.58689982e-02,
          5.32910004e-02, 5.19299991e-02, 5.17099984e-02, 5.12740016e-02,
          5.06949984e-02, 5.05620018e-02, 4.02150005e-02 ]
      - [ 6.62050024e-02, 6.28599972e-02, 6.27280027e-02, 5.49230017e-02,
          5.48719987e-02, 5.28259985e-02, 5.19809984e-02, 5.13390005e-02,
          5.07950000e-02, 5.07379994e-02, 3.95990014e-02 ]
      - [ 6.66780025e-02, 6.48469999e-02, 6.22490011e-02, 6.01899996e-02,
          5.82019985e-02, 5.80619983e-02, 5.75889982e-02, 5.63720018e-02,
          5.59329987e-02, 5.48989996e-02, 3.98720019e-02 ]
      - [ 6.38149977e-02, 5.90910017e-02, 5.82709983e-02, 5.50849997e-02,
          5.50229996e-02, 5.32599986e-02, 5.20559996e-02, 5.19630015e-02,
          5.02699986e-02, 4.99650016e-02, 4.05789986e-02 ]
      - [ 7.38039985e-02, 7.06970021e-02, 6.81290030e-02, 6.76800013e-02,
          6.65400028e-02, 6.55239969e-02, 6.20080009e-02, 5.87179996e-02,
          5.61689995e-02, 5.53730018e-02, 4.35159989e-02 ]
      - [ 7.27559999e-02, 6.56299964e-02, 6.28649965e-02, 6.14770018e-02,
          6.10609986e-02, 6.04959987e-02, 6.03649989e-02, 5.96240014e-02,
          5.85459992e-02, 5.85220009e-02, 4.57420014e-02 ]
      - [ 6.66270033e-02, 6.52500018e-02, 6.52090013e-02, 6.37170002e-02,
          6.30619973e-02, 6.15140013e-02, 5.73810004e-02, 5.56799993e-02,
          5.52860014e-02, 5.52360006e-02, 4.26190011e-02 ]
      - [ 6.83709979e-02, 6.45010024e-02, 6.39400035e-02, 6.17929995e-02,
          6.11060001e-02, 6.09750003e-02, 6.02170005e-02, 5.96209988e-02,
          5.95039986e-02, 5.89380004e-02, 4.54390012e-02 ]
      - [ 7.73560032e-02, 7.12260008e-02, 7.09739998e-02, 6.81179985e-02,
          6.30899966e-02, 5.78709990e-02, 5.35910018e-02, 5.22789992e-02,
          5.10619991e-02, 5.05440012e-02, 3.88550013e-02 ]
      - [ 6.81689978e-02, 6.79880008e-02, 6.58169985e-02, 5.84239997e-02,
          5.82810007e-02, 5.80280013e-02, 5.57599999e-02, 5.37009984e-02,
          5.22519983e-02, 5.17430007e-02, 3.92379984e-02 ]
      - [ 7.57829994e-02, 7.46370032e-02, 6.62299991e-02, 6.58660010e-02,
          6.54689968e-02, 6.49029985e-02, 6.41869977e-02, 6.39429986e-02,
          6.13300018e-02, 6.02389984e-02, 4.15370017e-02 ]
      - [ 6.50240034e-02, 6.42519966e-02, 6.38139993e-02, 6.07849993e-02,
          6.05640002e-02, 5.82760014e-02, 5.70640005e-02, 5.61110005e-02,
          5.57629988e-02, 5.56389987e-02, 4.06740010e-02 ]
      - [ 6.34559989e-02, 6.30030036e-02, 5.83369993e-02, 5.39500006e-02,
          5.27470000e-02, 5.19540012e-02, 5.12490012e-02, 5.10290004e-02,
          5.00929989e-02, 4.88240011e-02, 3.82059999e-02 ]
      - [ 6.55770004e-02, 6.47680014e-02, 6.41909987e-02, 6.15670010e-02,
          6.11459985e-02, 5.89900017e-02, 5.81960008e-02, 5.80930002e-02,
          5.59299998e-02, 5.54089993e-02, 3.83579992e-02 ]
      - [ 6.38549998e-02, 6.05619997e-02, 5.98450005e-02, 5.95350005e-02,
          5.81419989e-02, 5.71230017e-02, 5.65860011e-02, 5.26620001e-02,
          5.18600009e-02, 5.04840016e-02, 3.96890007e-02 ]
      - [ 7.75889978e-02, 6.96569979e-02, 6.91000000e-02, 6.87419996e-02,
          6.86430037e-02, 6.86269999e-02, 6.55229986e-02, 6.52759969e-02,
          6.52529970e-02, 6.37990013e-02, 4.61549982e-02 ]
      - [ 7.21850023e-02, 6.56339973e-02, 6.50189966e-02, 6.45179972e-02,
          6.17569983e-02, 6.16910011e-02, 6.07369989e-02, 5.83750010e-02,
          5.76209985e-02, 5.71230017e-02, 4.26420011e-02 ]
      - [ 6.35609999e-02, 6.26460016e-02, 5.65299988e-02, 5.48069999e-02,
          5.31070009e-02, 5.14510013e-02, 4.87039983e-02, 4.73500006e-02,
          4.70799990e-02, 4.69899997e-02, 3.76950018e-02 ]
      - [ 6.55279979e-02, 5.90259992e-02, 5.59859984e-02, 5.21689989e-02,
          5.19720018e-02, 5.16889989e-02, 5.12670018e-02, 4.97110002e-02,
          4.93239984e-02, 4.89489995e-02, 3.76739986e-02 ]
      - [ 7.65350014e-02, 7.57990032e-02, 6.55580014e-02, 6.29810020e-02,
          6.20360002e-02, 6.16099983e-02, 6.11380003e-02, 5.95749989e-02,
          5.78869991e-02, 5.77460006e-02, 4.32539992e-02 ]
      - [ 7.14249983e-02, 6.52149990e-02, 6.44270033e-02, 6.37890026e-02,
          6.09889999e-02, 6.05570003e-02, 6.01090007e-02, 5.95729984e-02,
          5.76470010e-02, 5.74500002e-02, 4.32920009e-02 ]
      - [ 6.60870001e-02, 6.49660006e-02, 6.30360022e-02, 6.17120005e-02,
          6.14500009e-02, 6.14150017e-02, 6.11109994e-02, 6.09439984e-02,
          5.59270009e-02, 5.56389987e-02, 4.14890014e-02 ]
      - [ 7.54659995e-02, 6.47659972e-02, 6.01450019e-02, 5.96400015e-02,
          5.94860017e-02, 5.90680018e-02, 5.83489984e-02, 5.76040000e-02,
          5.71819991e-02, 5.67659996e-02, 4.12040018e-02 ]
      - [ 6.82659969e-02, 6.71140030e-02, 6.43120036e-02, 6.32079989e-02,
          6.23980016e-02, 6.14209995e-02, 6.07689992e-02, 6.01489991e-02,
          5.93970008e-02, 5.78790009e-02, 4.24229987e-02 ]
      - [ 6.64979964e-02, 6.35550022e-02, 6.07360005e-02, 5.92049994e-02,
          5.91560006e-02, 5.84909990e-02, 5.79690002e-02, 5.62629998e-02,
          5.62339984e-02, 5.61450012e-02, 4.36029993e-02 ]
      - [ 6.65450022e-02, 6.63819984e-02, 6.40100017e-02, 6.12690002e-02,
          6.05110005e-02, 6.02979995e-02, 6.00740016e-02, 5.92780001e-02,
          5.84710017e-02, 5.70669994e-02, 4.42049988e-02 ]
      - [ 6.18720017e-02, 6.06269985e-02, 6.01579994e-02, 6.01230003e-02,
          5.81629984e-02, 5.77070005e-02, 5.67549989e-02, 5.59069999e-02,
          5.06540015e-02, 5.03429994e-02, 4.00360003e-02 ]
      - [ 7.99380019e-02, 7.54590034e-02, 7.14209974e-02, 6.99189976e-02,
          6.96410015e-02, 6.36349991e-02, 6.09630011e-02, 6.01809993e-02,
          5.66189997e-02, 5.39399981e-02, 4.29180004e-02 ]
      - [ 6.84499964e-02, 6.47199973e-02, 5.97920008e-02, 5.85800000e-02,
          5.77359982e-02, 5.74910007e-02, 5.63660003e-02, 5.56229986e-02,
          5.18330000e-02, 5.16799986e-02, 3.81920002e-02 ]
      - [ 6.89160004e-02, 6.46099970e-02, 6.16290011e-02, 5.99609986e-02,
          5.95160015e-02, 5.85100017e-02, 5.76910004e-02, 5.48360012e-02,
          5.22839986e-02, 5.20920008e-02, 4.28170003e-02 ]
      - [ 6.77570030e-02, 6.72470033e-02, 6.45729974e-02, 6.13359995e-02,
          6.10699989e-02, 5.72559983e-02, 5.60959987e-02, 5.44500016e-02,
          5.39430007e-02, 5.20929992e-02, 4.03430015e-02 ]
      - [ 7.00829998e-02, 6.11689985e-02, 6.03840016e-02, 5.95950000e-02,
          5.71519993e-02, 5.69679998e-02, 5.68820015e-02, 5.64269982e-02,
          5.64259999e-02, 5.45139983e-02, 4.11860012e-02 ]
      - [ 6.33599982e-02, 6.21500015e-02, 6.14829995e-02, 5.87939993e-02,
          5.65759987e-02, 5.60709983e-02, 5.59029989e-02, 5.48139997e-02,
          5.47370017e-02, 5.44890016e-02, 4.06470001e-02 ]
      - [ 6.68430030e-02, 6.53309971e-02, 6.37409985e-02, 6.17670007e-02,
          6.01879992e-02, 5.86649999e-02, 5.67229986e-02, 5.66850007e-02,
          5.65470010e-02, 5.56380004e-02, 4.22840007e-02 ]
      - [ 6.47210032e-02, 6.41129985e-02, 6.08359985e-02, 5.76610006e-02,
          5.59859984e-02, 5.49670011e-02, 5.41820005e-02, 5.28570004e-02,
          5.19590005e-02, 5.13140000e-02, 4.17970009e-02 ]
      - [ 6.37260005e-02, 6.34199977e-02, 6.33819997e-02, 6.17359988e-02,
          6.04889989e-02, 5.90570010e-02, 5.80990016e-02, 5.63170016e-02,
          5.61969988e-02, 5.54849990e-02, 4.18209992e-02 ]
      - [ 6.37499988e-02, 6.36650026e-02, 6.26389980e-02, 6.15170002e-02,
          5.98700009e-02, 5.82889989e-02, 5.71440011e-02, 5.64740002e-02,
          5.64029999e-02, 5.59469983e-02, 4.11569998e-02 ]
      - [ 6.77450001e-02, 6.21379986e-02, 6.04699999e-02, 5.95330000e-02,
          5.64199984e-02, 5.62810004e-02, 5.51030003e-02, 4.80169989e-02,
          4.72269990e-02, 4.63330001e-02, 3.80179994e-02 ]
      - [ 6.56730011e-02, 6.15350008e-02, 6.01629987e-02, 5.97129986e-02,
          5.96849993e-02, 5.61649986e-02, 5.61389998e-02, 5.46290018e-02,
          5.16729988e-02, 4.94679995e-02, 3.89040001e-02 ]
      - [ 7.71550015e-02, 7.60710016e-02, 6.76729977e-02, 6.70019984e-02,
          6.46559969e-02, 6.40570000e-02, 6.33269995e-02, 6.13639988e-02,
          6.08379990e-02, 5.97510003e-02, 4.42989990e-02 ]
      - [ 6.28580004e-02, 6.13589995e-02, 5.88009991e-02, 5.66690005e-02,
          5.60280010e-02, 5.57140000e-02, 5.15230000e-02, 5.12199998e-02,
          5.01080006e-02, 4.99330014e-02, 3.97079997e-02 ]
      - [ 6.60030022e-02, 6.36769980e-02, 6.09619990e-02, 6.05759993e-02,
          5.94719984e-02, 5.80860004e-02, 5.80510013e-02, 5.60979992e-02,
          5.60510010e-02, 5.57189994e-02, 4.31010015e-02 ]
      - [ 5.72809987e-02, 5.69799989e-02, 5.47819994e-02, 5.34959994e-02,
          5.05319983e-02, 4.93879989e-02, 4.72539999e-02, 4.71640006e-02,
          4.48440015e-02, 4.26150002e-02, 3.27519998e-02 ]
      - [ 7.02830032e-02, 6.91709965e-02, 6.39799982e-02, 6.29339963e-02,
          6.22440018e-02, 6.13240004e-02, 6.06100000e-02, 6.01300001e-02,
          5.76170012e-02, 5.63110001e-02, 4.21879999e-02 ]
      - [ 6.85049966e-02, 6.79749995e-02, 6.71999976e-02, 5.84219992e-02,
          5.71199991e-02, 5.65820001e-02, 5.60799986e-02, 5.52910008e-02,
          5.51359989e-02, 5.34829982e-02, 4.04380001e-02 ]
      - [ 6.72049969e-02, 6.46060035e-02, 6.25080019e-02, 6.21359982e-02,
          6.09299988e-02, 5.94890006e-02, 5.51090017e-02, 5.40289991e-02,
          5.40109985e-02, 5.31719998e-02, 3.91019993e-02 ]
      - [ 7.42610022e-02, 6.95749968e-02, 6.78630024e-02, 6.58899993e-02,
          6.52209967e-02, 6.34920001e-02, 6.28649965e-02, 6.19949996e-02,
          6.09759986e-02, 6.09310009e-02, 4.24729995e-02 ]
      - [ 6.83339983e-02, 6.13370016e-02, 5.89919984e-02, 5.88200018e-02,
          5.78400008e-02, 5.66890016e-02, 5.66469990e-02, 5.65569997e-02,
          5.50949983e-02, 5.10820001e-02, 3.69280018e-02 ]
      - [ 7.00049996e-02, 6.62539974e-02, 6.43550009e-02, 6.32940009e-02,
          6.24150001e-02, 6.20810017e-02, 5.96430004e-02, 5.71609996e-02,
          5.68060018e-02, 5.44679984e-02, 4.33190018e-02 ]
      - [ 7.00739995e-02, 6.75290003e-02, 6.51480034e-02, 6.34239987e-02,
          6.32039979e-02, 6.18029982e-02, 6.17559999e-02, 6.02310002e-02,
          5.84629998e-02, 5.79750016e-02, 4.23649997e-02 ]
      - [ 6.93650022e-02, 6.71169981e-02, 6.66159987e-02, 6.06480017e-02,
          6.03840016e-02, 5.64120002e-02, 5.59200011e-02, 5.57680018e-02,
          5.29749990e-02, 5.22629991e-02, 3.98479998e-02 ]
      - [ 7.03689978e-02, 6.95390031e-02, 6.44040033e-02, 6.43849969e-02,
          6.42329976e-02, 6.30109981e-02, 6.24210015e-02, 6.15219995e-02,
          6.08819984e-02, 6.06079996e-02, 4.54670005e-02 ]
      - [ 7.30710030e-02, 6.79780021e-02, 5.90189993e-02, 5.82179986e-02,
          5.80630004e-02, 5.79629987e-02, 5.70469983e-02, 5.54139987e-02,
          5.44660017e-02, 5.42609990e-02, 4.04449999e-02 ]
      - [ 1.23475999e-01, 1.15993001e-01, 1.05237998e-01, 1.01019002e-01,
          1.00484997e-01, 9.26909968e-02, 8.46929997e-02, 8.45810026e-02,
          7.95269981e-02, 7.70509988e-02, 5.33259995e-02 ]
      - [ 7.29150027e-02, 7.07300007e-02, 6.89890012e-02, 6.84890002e-02,
          6.50589988e-02, 6.29680008e-02, 6.24070019e-02, 6.12480007e-02,
          6.08419999e-02, 6.04799986e-02, 4.44130003e-02 ]
      - [ 7.99029991e-02, 7.49510005e-02, 6.50769994e-02, 6.15600012e-02,
          5.63759990e-02, 5.61930016e-02, 5.46929985e-02, 5.38240001e-02,
          5.24110012e-02, 5.22969998e-02, 4.04909998e-02 ]
      - [ 8.28019977e-02, 7.33620003e-02, 6.99589998e-02, 6.85769990e-02,
          6.64310008e-02, 6.21850006e-02, 6.04959987e-02, 6.03669994e-02,
          6.03069998e-02, 6.02140017e-02, 4.20549996e-02 ]
      - [ 7.76610002e-02, 6.99269995e-02, 5.87499999e-02, 5.66469990e-02,
          5.64070009e-02, 5.58030009e-02, 5.42519987e-02, 5.34910001e-02,
          5.31620011e-02, 5.24699986e-02, 3.79879996e-02 ]
      - [ 7.38589987e-02, 7.19299987e-02, 6.38369992e-02, 6.21649995e-02,
          6.20770007e-02, 5.68300001e-02, 5.63240014e-02, 5.57530001e-02,
          5.54100014e-02, 5.47409989e-02, 4.23949994e-02 ]
      - [ 6.38390034e-02, 6.29469976e-02, 6.24569990e-02, 5.90780005e-02,
          5.60079999e-02, 5.59000000e-02, 5.56269996e-02, 5.40620014e-02,
          5.39770015e-02, 5.37960008e-02, 3.93779986e-02 ]
      - [ 7.27970004e-02, 6.57510012e-02, 6.44079968e-02, 6.30510002e-02,
          6.16119988e-02, 6.09720014e-02, 6.08169995e-02, 5.98860011e-02,
          5.90640008e-02, 5.89529984e-02, 4.45940010e-02 ]
      - [ 6.55229986e-02, 6.38310015e-02, 5.94119988e-02, 5.75940013e-02,
          5.65729998e-02, 5.65279983e-02, 5.24820015e-02, 4.97209989e-02,
          4.90010008e-02, 4.89969999e-02, 3.93589996e-02 ]
      - [ 6.59089983e-02, 6.28129989e-02, 5.64710014e-02, 5.61220013e-02,
          5.49860001e-02, 5.41229993e-02, 5.40179983e-02, 5.20839989e-02,
          4.91760001e-02, 4.83499989e-02, 3.86249982e-02 ]
      - [ 6.20799996e-02, 6.17440008e-02, 6.02389984e-02, 5.80600016e-02,
          5.67510016e-02, 5.65650016e-02, 5.46140000e-02, 5.16790003e-02,
          5.05089983e-02, 5.03179990e-02, 3.98290008e-02 ]
      - [ 6.13359995e-02, 6.03390001e-02, 6.00350015e-02, 5.70929982e-02,
          5.53920008e-02, 5.52400015e-02, 5.31780012e-02, 4.95290011e-02,
          4.86279987e-02, 4.74190004e-02, 3.70859988e-02 ]
      - [ 7.33639970e-02, 7.01169968e-02, 6.07809983e-02, 5.37719987e-02,
          5.32729998e-02, 5.28209992e-02, 5.21840006e-02, 5.17599992e-02,
          5.16300015e-02, 5.15329987e-02, 4.16739993e-02 ]
      - [ 6.62340000e-02, 6.62039965e-02, 5.69269992e-02, 5.39410003e-02,
          5.38339987e-02, 5.27499989e-02, 5.26489988e-02, 5.22340015e-02,
          5.18149994e-02, 5.16909994e-02, 3.96520011e-02 ]
      - [ 6.71179965e-02, 6.49449974e-02, 6.29800037e-02, 6.13010004e-02,
          5.88059984e-02, 5.75120002e-02, 5.58869988e-02, 5.53769991e-02,
          5.53340018e-02, 5.51230013e-02, 4.04449999e-02 ]
      - [ 6.90229982e-02, 6.73649982e-02, 5.79699986e-02, 5.69059998e-02,
          5.49350008e-02, 5.44789992e-02, 5.38280010e-02, 5.05709983e-02,
          5.02200015e-02, 4.79580015e-02, 3.89109999e-02 ]
      - [ 6.72459975e-02, 6.49710000e-02, 6.45999983e-02, 6.32029995e-02,
          5.90839982e-02, 5.81820011e-02, 5.71429990e-02, 5.69409989e-02,
          5.63419983e-02, 5.62769994e-02, 4.05119993e-02 ]
      - [ 6.92979991e-02, 6.29549995e-02, 6.15039989e-02, 6.11190014e-02,
          6.06140010e-02, 6.00770004e-02, 5.79719990e-02, 5.77180013e-02,
          5.22430018e-02, 5.20370007e-02, 3.98689993e-02 ]
      - [ 7.19050020e-02, 6.95130005e-02, 6.73649982e-02, 6.61600009e-02,
          6.35079965e-02, 6.30050004e-02, 6.27060011e-02, 6.14079982e-02,
          6.07529990e-02, 6.00159988e-02, 4.47539985e-02 ]
      - [ 6.31769970e-02, 6.24510013e-02, 5.93959987e-02, 5.74500002e-02,
          5.50770015e-02, 5.41750006e-02, 5.26710004e-02, 5.26610017e-02,
          5.15719987e-02, 5.13140000e-02, 3.82529981e-02 ]
      - [ 5.91319986e-02, 5.90920001e-02, 5.86300008e-02, 5.58370017e-02,
          5.18300012e-02, 5.14370017e-02, 5.02570011e-02, 4.85199988e-02,
          4.84200008e-02, 4.72010002e-02, 3.90890017e-02 ]
      - [ 6.08440004e-02, 5.88609986e-02, 5.84629998e-02, 5.74540012e-02,
          5.47930002e-02, 5.41989990e-02, 5.19450009e-02, 5.11210002e-02,
          4.94749993e-02, 4.93169986e-02, 3.58919986e-02 ]
      - [ 6.61190003e-02, 6.53410032e-02, 6.24339990e-02, 5.97800016e-02,
          5.88349998e-02, 5.36909997e-02, 5.24379984e-02, 5.19549996e-02,
          5.18889986e-02, 5.17640002e-02, 3.95769998e-02 ]
      - [ 6.86639994e-02, 6.50070012e-02, 6.40750006e-02, 6.27759993e-02,
          6.15880005e-02, 6.03559986e-02, 6.01029992e-02, 5.98499998e-02,
          5.77859990e-02, 5.73219992e-02, 4.28560004e-02 ]
      - [ 7.65250027e-02, 6.69519976e-02, 6.65460005e-02, 6.26339987e-02,
          6.11880012e-02, 5.90719990e-02, 5.75059988e-02, 5.71709983e-02,
          5.66969998e-02, 5.56810014e-02, 4.63929996e-02 ]
      - [ 6.78009987e-02, 6.28729984e-02, 6.17589988e-02, 6.10440001e-02,
          6.08800016e-02, 6.03390001e-02, 5.94689995e-02, 5.86800016e-02,
          5.79940006e-02, 5.70259988e-02, 4.37459983e-02 ]
      - [ 6.73639998e-02, 6.32940009e-02, 6.12620004e-02, 5.92800006e-02,
          5.92450015e-02, 5.80470003e-02, 5.33850007e-02, 5.30549996e-02,
          5.24750017e-02, 5.21739982e-02, 3.92789990e-02 ]
      - [ 6.71000034e-02, 5.93929999e-02, 5.92960007e-02, 5.74649982e-02,
          5.63649982e-02, 5.42740002e-02, 5.11300005e-02, 5.09090014e-02,
          5.08730002e-02, 5.04800007e-02, 3.85290012e-02 ]
      - [ 7.73470029e-02, 7.20620006e-02, 6.88060001e-02, 6.45549968e-02,
          6.19760007e-02, 6.10960014e-02, 6.00429997e-02, 5.99679984e-02,
          5.97740002e-02, 5.96500002e-02, 4.68280017e-02 ]
      - [ 6.99540004e-02, 6.96320012e-02, 6.30619973e-02, 6.25440031e-02,
          6.03960007e-02, 5.98260015e-02, 5.92599995e-02, 5.92349991e-02,
          5.88149987e-02, 5.85369989e-02, 4.34850007e-02 ]
      - [ 6.94729984e-02, 6.31359965e-02, 5.83130009e-02, 5.82720004e-02,
          5.77059984e-02, 5.58249988e-02, 5.44119999e-02, 5.30500002e-02,
          5.24699986e-02, 5.21019995e-02, 4.15150002e-02 ]
      - [ 5.91569990e-02, 5.52919991e-02, 4.80669998e-02, 4.80300002e-02,
          4.66430001e-02, 4.64240015e-02, 4.61140014e-02, 4.44030017e-02,
          4.35549989e-02, 4.32160012e-02, 3.34729999e-02 ]
      - [ 6.31109998e-02, 6.16610013e-02, 6.04050010e-02, 5.82830012e-02,
          5.78930005e-02, 5.72209992e-02, 5.52630015e-02, 5.29780015e-02,
          5.27990013e-02, 5.27429990e-02, 3.97490002e-02 ]
      - [ 7.55530000e-02, 7.41410032e-02, 7.10280016e-02, 6.83910027e-02,
          6.42170012e-02, 6.40449971e-02, 6.26389980e-02, 6.14559986e-02,
          6.08140007e-02, 5.89210019e-02, 4.40009981e-02 ]
      - [ 6.92889988e-02, 6.47699982e-02, 6.45219982e-02, 6.13150001e-02,
          6.12539984e-02, 5.97570017e-02, 5.96509986e-02, 5.90940006e-02,
          5.84050007e-02, 5.81689999e-02, 4.28999998e-02 ]
      - [ 6.92790002e-02, 6.62309974e-02, 6.21969998e-02, 6.15519993e-02,
          5.89269996e-02, 5.77890016e-02, 5.75009994e-02, 5.71210012e-02,
          5.67499995e-02, 5.50680012e-02, 4.21530008e-02 ]
      - [ 6.54240027e-02, 6.46559969e-02, 6.19839989e-02, 6.14829995e-02,
          6.05800003e-02, 5.89950010e-02, 5.77719994e-02, 5.76889999e-02,
          5.49039990e-02, 5.26750013e-02, 4.12349999e-02 ]
      - [ 8.00359994e-02, 6.88989982e-02, 6.65950030e-02, 6.38440028e-02,
          6.07080013e-02, 5.86730018e-02, 5.14630005e-02, 5.13060018e-02,
          5.12659997e-02, 5.07140011e-02, 3.70130017e-02 ]
      - [ 6.70569986e-02, 6.39349967e-02, 6.18560016e-02, 5.66340014e-02,
          5.31510003e-02, 5.25659993e-02, 5.17630018e-02, 5.13500012e-02,
          5.06829992e-02, 4.98719998e-02, 3.85119990e-02 ]
      - [ 7.15840012e-02, 6.60659969e-02, 6.58079982e-02, 6.50589988e-02,
          6.33379966e-02, 6.27859980e-02, 6.26809970e-02, 5.92380017e-02,
          5.90200014e-02, 5.79369999e-02, 4.36820015e-02 ]
      - [ 8.08750018e-02, 7.91350007e-02, 7.73219988e-02, 7.54320025e-02,
          6.60730004e-02, 5.97350001e-02, 5.48489988e-02, 5.42469993e-02,
          5.00449985e-02, 4.91859987e-02, 4.04589996e-02 ]
      - [ 7.30950013e-02, 7.27420002e-02, 7.22879991e-02, 7.18559995e-02,
          6.64189979e-02, 6.51559979e-02, 6.48180023e-02, 6.41110018e-02,
          6.26470000e-02, 6.15830012e-02, 4.35380004e-02 ]
      - [ 7.12049976e-02, 6.35690019e-02, 5.83529994e-02, 5.76520003e-02,
          5.65790012e-02, 5.58530018e-02, 5.55859990e-02, 5.48099987e-02,
          5.37910014e-02, 5.35130017e-02, 3.74090001e-02 ]
      - [ 5.11830002e-02, 4.85560000e-02, 4.80509996e-02, 4.54420000e-02,
          4.50709984e-02, 4.17679995e-02, 4.17429991e-02, 4.03559990e-02,
          3.98680009e-02, 3.87189984e-02, 3.31729986e-02 ]
      - [ 9.35959965e-02, 9.19620022e-02, 8.46299976e-02, 8.31039995e-02,
          8.01760033e-02, 7.86890015e-02, 7.40260035e-02, 7.36180022e-02,
          7.15309978e-02, 7.02230036e-02, 4.98719998e-02 ]
      - [ 1.30710006e-01, 1.27849996e-01, 1.23506002e-01, 1.21506996e-01,
          1.15764998e-01, 1.15116000e-01, 1.14878997e-01, 1.11869000e-01,
          1.10412002e-01, 1.09392002e-01, 6.77250028e-02 ]
      - [ 4.77400012e-02, 4.69719991e-02, 4.66209985e-02, 4.56670001e-02,
          4.36839983e-02, 4.26210016e-02, 4.16520014e-02, 4.12309989e-02,
          4.10749987e-02, 4.03099991e-02, 3.48949991e-02 ]
      - [ 1.17435999e-01, 1.17179997e-01, 1.15682997e-01, 1.14964001e-01,
          1.14963003e-01, 1.10946998e-01, 1.07773997e-01, 1.02612004e-01,
          1.00599997e-01, 9.96870026e-02, 5.82129993e-02 ]
      - [ 6.82569966e-02, 6.80499971e-02, 6.78299963e-02, 6.16590008e-02,
          5.99180013e-02, 5.92500009e-02, 5.87520003e-02, 5.53289987e-02,
          5.37480004e-02, 5.35009988e-02, 4.07110006e-02 ]
      - [ 7.45849982e-02, 7.06819966e-02, 6.91429973e-02, 5.95740005e-02,
          5.68209998e-02, 5.21349981e-02, 4.95840013e-02, 4.90080006e-02,
          4.90050018e-02, 4.88040000e-02, 3.82210016e-02 ]
      - [ 8.96819979e-02, 8.95759985e-02, 8.82890001e-02, 8.66189972e-02,
          8.65769982e-02, 8.43740031e-02, 8.40959996e-02, 8.09049979e-02,
          7.82660022e-02, 7.27749988e-02, 4.89309989e-02 ]
      - [ 5.47380000e-02, 5.19100018e-02, 4.68050018e-02, 4.54329997e-02,
          4.49430011e-02, 4.34009992e-02, 4.26830016e-02, 4.20980006e-02,
          4.14119996e-02, 4.10190001e-02, 3.36599983e-02 ]
      - [ 4.81889993e-02, 4.78000008e-02, 4.72199991e-02, 4.68520001e-02,
          4.41449992e-02, 4.41149995e-02, 4.25370000e-02, 4.24280018e-02,
          4.12059985e-02, 3.99570018e-02, 3.49959992e-02 ]
      - [ 7.76629969e-02, 7.71860033e-02, 7.69570023e-02, 7.68430009e-02,
          7.62659982e-02, 7.61199966e-02, 7.57170022e-02, 7.55660012e-02,
          7.54820034e-02, 7.52540007e-02, 5.47830015e-02 ]
      - [ 5.99550009e-02, 5.30010015e-02, 4.87749986e-02, 4.72769998e-02,
          4.65810001e-02, 4.53470014e-02, 4.53369990e-02, 4.10740003e-02,
          4.09119986e-02, 4.06530015e-02, 3.55830006e-02 ]
      - [ 6.51800036e-02, 5.97659983e-02, 5.85400015e-02, 5.68809994e-02,
          5.46780005e-02, 5.17540015e-02, 5.17180003e-02, 4.92219999e-02,
          4.88529988e-02, 4.87640016e-02, 3.84050012e-02 ]
      - [ 5.97289987e-02, 5.49909994e-02, 4.13939990e-02, 3.73650007e-02,
          3.54910009e-02, 3.54240015e-02, 3.48809995e-02, 3.44489999e-02,
          3.44449989e-02, 3.24839987e-02, 3.08079999e-02 ]
      - [ 7.46219978e-02, 6.05010018e-02, 5.72890006e-02, 5.62169999e-02,
          5.48730008e-02, 5.48270009e-02, 5.35730012e-02, 5.28689995e-02,
          5.06369993e-02, 4.99360003e-02, 3.81550007e-02 ]
      - [ 4.96379994e-02, 4.61709984e-02, 4.61249985e-02, 4.59679998e-02,
          4.47870009e-02, 4.46190014e-02, 4.43429984e-02, 4.38049994e-02,
          4.36789989e-02, 4.18270007e-02, 3.49689983e-02 ]
      - [ 5.83389997e-02, 5.46969995e-02, 5.38429990e-02, 5.01880012e-02,
          4.89200018e-02, 4.86139990e-02, 4.54570018e-02, 4.47920002e-02,
          4.14949991e-02, 4.08690013e-02, 3.61690000e-02 ]
      - [ 5.71609996e-02, 5.42519987e-02, 5.34380004e-02, 4.58980016e-02,
          4.28839996e-02, 3.83399986e-02, 3.75589989e-02, 3.69740017e-02,
          3.67420018e-02, 3.65400016e-02, 3.28299999e-02 ]
      - [ 5.20580001e-02, 5.15919998e-02, 5.12299985e-02, 4.66089994e-02,
          4.65129986e-02, 4.60850000e-02, 4.56570014e-02, 4.50860001e-02,
          4.39560004e-02, 4.33810018e-02, 3.60220000e-02 ]
      - [ 5.23520000e-02, 5.18169999e-02, 4.59679998e-02, 4.57689986e-02,
          4.41580005e-02, 4.41359989e-02, 4.30929996e-02, 4.25929986e-02,
          4.07779999e-02, 4.05000001e-02, 3.42109986e-02 ]
      - [ 4.38929982e-02, 4.34769988e-02, 4.26100008e-02, 4.21629995e-02,
          4.07940000e-02, 3.77999991e-02, 3.71709988e-02, 3.69919986e-02,
          3.64940017e-02, 3.63389999e-02, 3.31280008e-02 ]
      - [ 1.34951994e-01, 1.30205005e-01, 1.15562998e-01, 1.10799998e-01,
          1.05719000e-01, 1.02268003e-01, 9.92890000e-02, 9.27970037e-02,
          9.09539983e-02, 8.82750005e-02, 6.22299984e-02 ]
      - [ 9.89779979e-02, 9.64389965e-02, 9.42059979e-02, 8.46929997e-02,
          8.33019987e-02, 8.30660015e-02, 8.22819993e-02, 7.77710006e-02,
          7.27019981e-02, 7.03139976e-02, 4.93450016e-02 ]
      - [ 5.29880002e-02, 4.94230017e-02, 4.88529988e-02, 4.61589992e-02,
          4.23189998e-02, 4.21800017e-02, 3.96660008e-02, 3.86740007e-02,
          3.78599986e-02, 3.69470008e-02, 3.22399996e-02 ]
      - [ 8.77349973e-02, 8.20130035e-02, 8.04980025e-02, 7.72010013e-02,
          7.13590011e-02, 6.86839968e-02, 6.41750023e-02, 6.30260035e-02,
          6.28399998e-02, 6.23960011e-02, 4.63129990e-02 ]
      - [ 8.70599970e-02, 8.31890032e-02, 8.29010010e-02, 8.00990015e-02,
          7.75519982e-02, 7.69229978e-02, 7.61020035e-02, 7.59639964e-02,
          7.07750022e-02, 7.03559965e-02, 5.21610007e-02 ]
      - [ 6.48289993e-02, 6.17330000e-02, 6.15530014e-02, 5.63380010e-02,
          5.33009991e-02, 4.99450006e-02, 4.98999991e-02, 4.95750010e-02,
          4.85959984e-02, 4.83700000e-02, 3.99519987e-02 ]
      - [ 3.82540002e-02, 3.77090015e-02, 3.51600014e-02, 3.51470001e-02,
          3.37430015e-02, 3.16860005e-02, 2.94560008e-02, 2.88720001e-02,
          2.88009997e-02, 2.86630001e-02, 2.81530004e-02 ]
      - [ 1.15672998e-01, 1.13557003e-01, 1.12907998e-01, 1.08994000e-01,
          1.07031003e-01, 1.01939000e-01, 9.29969996e-02, 8.98419991e-02,
          8.97229984e-02, 8.81720036e-02, 6.06469996e-02 ]
      - [ 6.76890016e-02, 6.69270009e-02, 6.15959987e-02, 5.89510016e-02,
          5.86320013e-02, 5.81360012e-02, 5.75970002e-02, 5.70929982e-02,
          5.69880009e-02, 5.42300008e-02, 4.27040011e-02 ]
      - [ 5.45499995e-02, 5.13609983e-02, 4.82480004e-02, 4.81420010e-02,
          4.72589992e-02, 4.71649989e-02, 4.70310003e-02, 4.49850000e-02,
          4.42459993e-02, 4.33170013e-02, 3.54220010e-02 ]
      - [ 5.31009994e-02, 5.18690012e-02, 5.10310009e-02, 4.89850007e-02,
          4.88779992e-02, 4.46190014e-02, 4.30309996e-02, 4.20130007e-02,
          4.17839997e-02, 4.16539982e-02, 3.55620012e-02 ]
      - [ 9.01060030e-02, 8.82389992e-02, 7.84450024e-02, 7.73660019e-02,
          7.73139969e-02, 7.72819966e-02, 7.64639974e-02, 7.55319968e-02,
          7.50880018e-02, 7.35870004e-02, 5.06459996e-02 ]
      - [ 6.60929978e-02, 6.42900020e-02, 6.28890023e-02, 5.72930016e-02,
          5.24839982e-02, 5.19930013e-02, 4.80410010e-02, 4.68499996e-02,
          4.64680009e-02, 4.56920005e-02, 3.66570018e-02 ]
      - [ 4.28970009e-02, 4.06219997e-02, 3.98849994e-02, 3.96200009e-02,
          3.84219997e-02, 3.79539989e-02, 3.70929986e-02, 3.63809988e-02,
          3.63380015e-02, 3.58109996e-02, 3.21279988e-02 ]
      - [ 4.88420017e-02, 4.73669991e-02, 4.40150015e-02, 4.38660011e-02,
          4.20840010e-02, 4.04440016e-02, 4.00139987e-02, 3.96619998e-02,
          3.75769995e-02, 3.58970016e-02, 3.22959982e-02 ]
      - [ 1.20929003e-01, 1.16798997e-01, 1.16337001e-01, 1.12411998e-01,
          1.07152998e-01, 1.04808003e-01, 1.02268003e-01, 9.99550000e-02,
          9.94570032e-02, 9.89409983e-02, 6.14169985e-02 ]
      - [ 5.35320006e-02, 4.73590009e-02, 4.21350002e-02, 3.96520011e-02,
          3.93600017e-02, 3.85870002e-02, 3.83859985e-02, 3.70719992e-02,
          3.67450006e-02, 3.54919992e-02, 3.19250003e-02 ]
      - [ 6.93780035e-02, 6.51310012e-02, 6.35100007e-02, 6.26059994e-02,
          6.01119995e-02, 5.71889989e-02, 5.67030013e-02, 5.50310016e-02,
          5.41579984e-02, 5.27230017e-02, 3.81809995e-02 ]
      - [ 8.68609995e-02, 8.63680020e-02, 8.24830011e-02, 7.27910027e-02,
          6.61749989e-02, 6.07579984e-02, 4.88049984e-02, 4.73069996e-02,
          4.20549996e-02, 3.88670005e-02, 3.82319987e-02 ]
      - [ 1.33015007e-01, 1.31281003e-01, 1.23418003e-01, 1.18992999e-01,
          1.13334000e-01, 1.12168998e-01, 1.07294001e-01, 1.05355002e-01,
          1.03322998e-01, 1.02926001e-01, 6.64979964e-02 ]
      - [ 6.66970015e-02, 5.99320009e-02, 5.35719991e-02, 4.65370007e-02,
          4.31770012e-02, 4.27579992e-02, 4.24670018e-02, 4.24310006e-02,
          4.19469997e-02, 4.03130017e-02, 3.41029987e-02 ]
      - [ 4.64419983e-02, 4.54280004e-02, 4.39499989e-02, 4.05049995e-02,
          4.01140004e-02, 3.97230014e-02, 3.94119993e-02, 3.93359996e-02,
          3.88280004e-02, 3.86190005e-02, 3.18930000e-02 ]
      - [ 5.20149991e-02, 5.18920012e-02, 5.08750007e-02, 4.99220006e-02,
          4.93049994e-02, 4.89480011e-02, 4.68130000e-02, 4.17089984e-02,
          4.06339988e-02, 4.05450016e-02, 3.51519994e-02 ]
      - [ 5.77909984e-02, 5.67420013e-02, 5.07469997e-02, 4.93110009e-02,
          4.66520004e-02, 4.55459990e-02, 4.46429998e-02, 4.24490012e-02,
          4.23399992e-02, 4.18870002e-02, 3.44230011e-02 ]
      - [ 1.25380993e-01, 1.23934999e-01, 1.22721002e-01, 1.19823001e-01,
          1.19119003e-01, 1.09595999e-01, 1.08530998e-01, 1.03944004e-01,
          9.82090011e-02, 9.79340002e-02, 6.57730028e-02 ]
      - [ 5.95330000e-02, 5.31250015e-02, 4.52120006e-02, 3.88679989e-02,
          3.74849997e-02, 3.66710015e-02, 3.51170003e-02, 3.48600000e-02,
          3.39539982e-02, 3.32259983e-02, 3.21299993e-02 ]
      - [ 5.02480008e-02, 4.56410013e-02, 4.44080010e-02, 4.41950001e-02,
          4.38780002e-02, 4.33159992e-02, 4.25200015e-02, 4.12879996e-02,
          4.10030000e-02, 4.05769981e-02, 3.36549990e-02 ]
      - [ 5.58740012e-02, 5.24990000e-02, 5.17980009e-02, 4.78489995e-02,
          4.43420000e-02, 4.40549999e-02, 4.18719985e-02, 4.13740017e-02,
          4.04650010e-02, 4.02209982e-02, 3.28239985e-02 ]
      - [ 1.04038000e-01, 9.98789966e-02, 9.66169983e-02, 9.40880030e-02,
          9.17539969e-02, 9.11839977e-02, 8.63550007e-02, 8.29119980e-02,
          8.20510015e-02, 8.18009973e-02, 5.42420000e-02 ]
      - [ 6.86710030e-02, 6.54729977e-02, 6.49529994e-02, 5.81840016e-02,
          5.71519993e-02, 5.68870008e-02, 5.68669997e-02, 5.65479994e-02,
          5.63950017e-02, 5.57969995e-02, 4.31310013e-02 ]
      - [ 6.06379993e-02, 5.87669984e-02, 5.75300008e-02, 5.69170006e-02,
          5.32569997e-02, 5.05080000e-02, 5.00859991e-02, 4.81359996e-02,
          4.75470014e-02, 4.72639985e-02, 3.85529995e-02 ]
      - [ 6.20899983e-02, 5.00250012e-02, 4.88899983e-02, 4.88779992e-02,
          4.62399982e-02, 4.56969999e-02, 4.40480001e-02, 4.39280011e-02,
          4.18640003e-02, 4.06470001e-02, 3.37769985e-02 ]
      - [ 5.86320013e-02, 5.39110005e-02, 5.20830005e-02, 5.16269989e-02,
          5.15599996e-02, 4.96609993e-02, 4.77669984e-02, 4.72609997e-02,
          4.59409989e-02, 4.50920016e-02, 3.69589999e-02 ]
      - [ 1.11321002e-01, 1.07460000e-01, 1.02828003e-01, 8.85469988e-02,
          8.85189995e-02, 8.56629983e-02, 8.28619972e-02, 8.08710009e-02,
          7.97080025e-02, 7.83919990e-02, 5.62129989e-02 ]
      - [ 8.25460032e-02, 7.86919966e-02, 7.50110000e-02, 6.63480014e-02,
          6.52119964e-02, 6.23189993e-02, 6.07700013e-02, 6.07459992e-02,
          6.00420013e-02, 5.99059984e-02, 4.24790010e-02 ]
      - [ 5.79180010e-02, 5.52720018e-02, 5.36380000e-02, 5.06599993e-02,
          4.95789982e-02, 4.81970012e-02, 4.80559990e-02, 4.58699986e-02,
          4.57829982e-02, 4.45589982e-02, 3.60860005e-02 ]
      - [ 7.33020008e-02, 6.48609996e-02, 5.91830015e-02, 5.35119995e-02,
          5.31949997e-02, 5.28949983e-02, 5.12039997e-02, 5.02800010e-02,
          4.98710014e-02, 4.84180003e-02, 3.74619998e-02 ]
      - [ 4.93160002e-02, 4.69990000e-02, 4.54109982e-02, 4.51689996e-02,
          4.39019985e-02, 4.27859984e-02, 4.25660014e-02, 4.25070003e-02,
          4.23789993e-02, 4.18439992e-02, 3.41340005e-02 ]
      - [ 5.43119982e-02, 4.34480011e-02, 4.26059999e-02, 4.08629999e-02,
          3.97379994e-02, 3.97019982e-02, 3.70929986e-02, 3.69120017e-02,
          3.52360010e-02, 3.33169997e-02, 3.24410014e-02 ]
      - [ 5.35219982e-02, 5.11739999e-02, 4.85679992e-02, 4.83779982e-02,
          4.37519997e-02, 3.99830006e-02, 3.88880000e-02, 3.83850001e-02,
          3.80720012e-02, 3.68009992e-02, 3.27610001e-02 ]
      - [ 5.83110005e-02, 5.69869988e-02, 5.40309995e-02, 5.01179993e-02,
          4.78430018e-02, 4.48900014e-02, 4.02589999e-02, 3.89049985e-02,
          3.81430015e-02, 3.77670005e-02, 3.47039998e-02 ]
      - [ 5.41849993e-02, 5.35500012e-02, 5.17549999e-02, 5.16990013e-02,
          4.86150011e-02, 4.74550016e-02, 4.72749993e-02, 4.53570001e-02,
          4.52760011e-02, 4.48990017e-02, 3.66810001e-02 ]
      - [ 5.88909984e-02, 5.72270006e-02, 5.26029989e-02, 5.20580001e-02,
          5.10709994e-02, 4.69059981e-02, 4.69020009e-02, 4.63469997e-02,
          4.48869988e-02, 4.47570011e-02, 3.66140008e-02 ]
      - [ 4.40680012e-02, 4.34640013e-02, 4.31360006e-02, 4.14419994e-02,
          3.87529992e-02, 3.87010016e-02, 3.86620015e-02, 3.86409983e-02,
          3.81929986e-02, 3.74410003e-02, 3.33489999e-02 ]
      - [ 1.04914002e-01, 1.01731002e-01, 9.55189988e-02, 9.34080034e-02,
          9.15990025e-02, 8.36400017e-02, 7.73279965e-02, 7.67650008e-02,
          7.46390000e-02, 7.31289983e-02, 5.11940010e-02 ]
      - [ 1.31132007e-01, 1.24620996e-01, 1.18841998e-01, 1.09444000e-01,
          9.79020000e-02, 9.35809985e-02, 9.35050026e-02, 8.96570012e-02,
          8.91129971e-02, 8.70610029e-02, 5.37570007e-02 ]
      - [ 7.41999969e-02, 6.84989989e-02, 6.75809979e-02, 6.66449964e-02,
          6.53460026e-02, 6.51070029e-02, 6.31449968e-02, 6.16980009e-02,
          6.15749992e-02, 5.85869998e-02, 4.32070009e-02 ]
      - [ 7.31299967e-02, 6.30119964e-02, 5.66370003e-02, 5.55679984e-02,
          5.45560010e-02, 5.43829985e-02, 5.42580001e-02, 5.30520007e-02,
          5.18289991e-02, 5.15049994e-02, 3.83669995e-02 ]
      - [ 5.32119982e-02, 5.01490012e-02, 4.35549989e-02, 4.24750000e-02,
          4.11739983e-02, 4.07290012e-02, 3.98549996e-02, 3.90609987e-02,
          3.90009992e-02, 3.80630009e-02, 3.42179984e-02 ]
      - [ 5.53110018e-02, 4.67749983e-02, 4.66680005e-02, 4.56769988e-02,
          4.53410000e-02, 4.48280014e-02, 4.45649996e-02, 4.40949984e-02,
          4.37849984e-02, 4.25960012e-02, 3.53399999e-02 ]
      - [ 1.17463000e-01, 1.12048998e-01, 1.03579000e-01, 9.16899964e-02,
          9.12009999e-02, 9.00660008e-02, 8.64349976e-02, 7.91129991e-02,
          7.70569965e-02, 7.67479986e-02, 5.31940013e-02 ]
      - [ 4.33240011e-02, 4.30740006e-02, 4.26950008e-02, 4.17210013e-02,
          4.13589999e-02, 4.01629992e-02, 3.80569994e-02, 3.76619995e-02,
          3.64009999e-02, 3.60030010e-02, 3.21969986e-02 ]
      - [ 5.83180003e-02, 4.88240011e-02, 4.57560010e-02, 4.41869982e-02,
          4.33529988e-02, 4.28019986e-02, 3.97309996e-02, 3.87820005e-02,
          3.76939997e-02, 3.65080014e-02, 3.34060006e-02 ]
      - [ 4.26019989e-02, 4.23920006e-02, 4.13139984e-02, 4.11959998e-02,
          4.02240008e-02, 3.78610007e-02, 3.52870002e-02, 3.46149988e-02,
          3.40970010e-02, 3.40650007e-02, 3.11190002e-02 ]
      - [ 4.02199998e-02, 3.82380001e-02, 3.79800014e-02, 3.71450000e-02,
          3.63759995e-02, 3.62779982e-02, 3.62589993e-02, 3.58840004e-02,
          3.49299982e-02, 3.47930007e-02, 3.11999992e-02 ]
      - [ 7.35159963e-02, 6.95030019e-02, 6.84790015e-02, 5.70250005e-02,
          5.52809983e-02, 5.36159985e-02, 5.33789992e-02, 5.19540012e-02,
          4.94230017e-02, 4.91599999e-02, 3.82889993e-02 ]
      - [ 7.49069974e-02, 7.28709996e-02, 7.12340027e-02, 7.02539980e-02,
          6.83609992e-02, 6.82659969e-02, 6.40729964e-02, 6.24170005e-02,
          6.08050004e-02, 5.83890006e-02, 4.38529998e-02 ]
      - [ 5.76770008e-02, 5.21310009e-02, 5.11969998e-02, 5.07539995e-02,
          4.89469990e-02, 4.62150015e-02, 4.43230011e-02, 4.32289988e-02,
          4.28720005e-02, 4.04380001e-02, 3.40470001e-02 ]
      - [ 5.67109995e-02, 5.47549985e-02, 5.33449985e-02, 5.29429987e-02,
          5.22110015e-02, 5.09359986e-02, 4.98390011e-02, 4.74950001e-02,
          4.48990017e-02, 4.44869995e-02, 3.68129984e-02 ]
      - [ 9.85620022e-02, 9.45250019e-02, 8.52520019e-02, 8.46069977e-02,
          8.17200020e-02, 7.90849999e-02, 7.90719986e-02, 7.74810016e-02,
          7.73539990e-02, 7.65120015e-02, 5.08759990e-02 ]
      - [ 8.39750022e-02, 8.19920003e-02, 7.66910017e-02, 7.27880001e-02,
          6.96490034e-02, 6.68720007e-02, 6.45539984e-02, 6.17079996e-02,
          6.11589998e-02, 5.63439988e-02, 4.23960015e-02 ]
      - [ 5.81780002e-02, 5.61290011e-02, 5.57160005e-02, 5.27589992e-02,
          5.26550002e-02, 5.13859987e-02, 5.06240018e-02, 4.90599982e-02,
          4.66159992e-02, 4.61260006e-02, 3.80290002e-02 ]
      - [ 5.71900010e-02, 5.69089986e-02, 4.59370017e-02, 4.51250002e-02,
          4.27989997e-02, 4.27500010e-02, 4.14239988e-02, 4.05599996e-02,
          4.01199982e-02, 3.78380008e-02, 3.29589993e-02 ]
      - [ 1.18380003e-01, 1.15098998e-01, 1.13802001e-01, 1.12002000e-01,
          1.06876999e-01, 1.00667998e-01, 9.84169990e-02, 9.81149971e-02,
          8.39200020e-02, 8.31179991e-02, 5.61500005e-02 ]
      - [ 1.05053000e-01, 9.82460007e-02, 9.64249969e-02, 9.05169994e-02,
          8.81910026e-02, 8.68569985e-02, 8.37770030e-02, 8.28040019e-02,
          7.84099996e-02, 7.82039985e-02, 5.15480004e-02 ]
      - [ 1.06242999e-01, 1.03316002e-01, 9.87349972e-02, 9.63990018e-02,
          9.60059986e-02, 9.29870009e-02, 8.77880007e-02, 8.55970010e-02,
          8.42859969e-02, 8.29600021e-02, 5.31800017e-02 ]
      - [ 1.32386997e-01, 1.25029996e-01, 1.13485999e-01, 1.11584000e-01,
          1.08825997e-01, 1.02131002e-01, 1.00281999e-01, 9.98139977e-02,
          9.76260006e-02, 9.67980027e-02, 6.18200004e-02 ]
      - [ 5.47819994e-02, 4.91769984e-02, 4.45349999e-02, 4.37729992e-02,
          4.34359983e-02, 4.34210002e-02, 4.25870009e-02, 4.19019982e-02,
          4.05739993e-02, 3.97869982e-02, 3.39730009e-02 ]
      - [ 6.12419993e-02, 5.98499998e-02, 5.93089983e-02, 5.75819984e-02,
          5.62359989e-02, 5.60140014e-02, 5.45919985e-02, 5.37000000e-02,
          5.36010005e-02, 5.11020012e-02, 4.10959981e-02 ]
      - [ 5.27560003e-02, 5.27269989e-02, 5.25089987e-02, 5.20230010e-02,
          4.82980013e-02, 4.81849983e-02, 4.76710014e-02, 4.66349982e-02,
          4.24829982e-02, 4.16200012e-02, 3.59839983e-02 ]
      - [ 1.18873000e-01, 1.13456003e-01, 1.07417002e-01, 9.51810032e-02,
          8.78499970e-02, 8.47200006e-02, 8.34010020e-02, 8.17290023e-02,
          8.03420022e-02, 8.00720006e-02, 5.08669987e-02 ]
      - [ 5.72090000e-02, 5.52680008e-02, 4.79860008e-02, 4.61539999e-02,
          4.53509986e-02, 4.39409986e-02, 4.36020009e-02, 3.89330015e-02,
          3.77160013e-02, 3.69650014e-02, 3.49810012e-02 ]
      - [ 4.14250009e-02, 4.07060012e-02, 4.02330011e-02, 3.99749987e-02,
          3.84530015e-02, 3.82560007e-02, 3.80229987e-02, 3.71470004e-02,
          3.68169993e-02, 3.62630002e-02, 3.06659993e-02 ]
      - [ 5.24949990e-02, 4.94860001e-02, 4.85499986e-02, 4.85230014e-02,
          4.72479984e-02, 4.61779982e-02, 4.46860008e-02, 4.42730002e-02,
          4.38500009e-02, 4.33200002e-02, 3.49459983e-02 ]
      - [ 6.15070015e-02, 5.13640009e-02, 4.94140014e-02, 4.81830016e-02,
          4.73770015e-02, 4.71399985e-02, 4.68490012e-02, 4.64930013e-02,
          4.52350006e-02, 4.46770005e-02, 3.69959995e-02 ]
      - [ 6.18560016e-02, 6.16029985e-02, 5.47010005e-02, 5.40819988e-02,
          5.40679991e-02, 5.37969992e-02, 5.03470004e-02, 4.85409983e-02,
          4.54740003e-02, 4.45769988e-02, 3.82749997e-02 ]
      - [ 9.95289981e-02, 9.74270031e-02, 9.71139967e-02, 9.44020003e-02,
          9.14800018e-02, 8.65020007e-02, 8.43769982e-02, 8.36170018e-02,
          8.32640007e-02, 8.27049986e-02, 5.97499982e-02 ]
      - [ 1.06891997e-01, 1.01947002e-01, 9.93430018e-02, 9.48510021e-02,
          8.54239985e-02, 8.51389989e-02, 8.41830000e-02, 7.95599967e-02,
          7.44339973e-02, 7.39929974e-02, 5.08060008e-02 ]
      - [ 5.05379997e-02, 4.47530001e-02, 4.36990000e-02, 4.21810001e-02,
          4.21719998e-02, 4.21079993e-02, 4.13409993e-02, 4.08239998e-02,
          3.78779992e-02, 3.68909985e-02, 3.16909999e-02 ]
      - [ 5.33059984e-02, 4.63249981e-02, 4.15429994e-02, 4.13959995e-02,
          4.11720015e-02, 4.03990000e-02, 3.91829982e-02, 3.75230014e-02,
          3.72529998e-02, 3.72380018e-02, 3.27339992e-02 ]
      - [ 6.25969991e-02, 6.10280000e-02, 5.70780002e-02, 5.47449999e-02,
          5.41189983e-02, 5.30010015e-02, 5.10360003e-02, 5.04460000e-02,
          5.03990017e-02, 4.87929992e-02, 3.78080010e-02 ]
      - [ 6.95239976e-02, 6.90549985e-02, 6.48069978e-02, 6.12329990e-02,
          6.11580014e-02, 5.82709983e-02, 5.74299991e-02, 5.59390001e-02,
          5.28049991e-02, 4.81709987e-02, 3.78450006e-02 ]
      - [ 6.60229996e-02, 5.48710003e-02, 5.27120009e-02, 5.10409996e-02,
          5.08110002e-02, 4.89679985e-02, 4.78620008e-02, 4.53130007e-02,
          4.17889990e-02, 3.93050015e-02, 3.52870002e-02 ]
      - [ 1.11901000e-01, 9.70119983e-02, 9.63990018e-02, 9.10610035e-02,
          9.05639976e-02, 9.05350000e-02, 8.94649997e-02, 8.63690004e-02,
          8.56219977e-02, 8.24740008e-02, 5.53099997e-02 ]
      - [ 6.75640032e-02, 6.43529966e-02, 5.65569997e-02, 5.46119995e-02,
          5.27979992e-02, 5.20710014e-02, 5.16609997e-02, 5.06930016e-02,
          5.05760014e-02, 4.74940017e-02, 3.82089987e-02 ]
      - [ 5.81049994e-02, 5.46439998e-02, 5.14709987e-02, 4.59080003e-02,
          4.48900014e-02, 4.44420017e-02, 4.43719998e-02, 4.36520018e-02,
          4.29020002e-02, 4.16610017e-02, 3.52989994e-02 ]
   decision_functions:
      -
         sv_count: 216
         rho: 1.4746597425141864e+01
         alpha: [ 6.2500000000000000e+01, 6.2500000000000000e+01,
             6.2500000000000000e+01, 6.2500000000000000e+01,
             6.2500000000000000e+01, 6.2500000000000000e+01,
             6.2500000000000000e+01, 6.2500000000000000e+01,
             6.2500000000000000e+01, 6.2500000000000000e+01,
             6.2500000000000000e+01, 6.2500000000000000e+01,
             6.2500000000000000e+01, 6.2500000000000000e+01,
             6.2500000000000000e+01, 6.2500000000000000e+01,
             6.2500000000000000e+01, 6.2500000000000000e+01,
             6.2500000000000000e+01, 6.2500000000000000e+01,
             6.2500000000000000e+01, 6.2500000000000000e+01,
             6.2500000000000000e+01, 6.2500000000000000e+01,
             6.2500000000000000e+01, 6.2500000000000000e+01,
             6.2500000000000000e+01, 6.2500000000000000e+01,
             6.2500000000000000e+01, 6.2500000000000000e+01,
             6.2500000000000000e+01, 6.2500000000000000e+01,
             6.2500000000000000e+01, 6.2500000000000000e+01,
             6.2500000000000000e+01, 6.2500000000000000e+01,
             6.2500000000000000e+01, 6.2500000000000000e+01,
             6.2500000000000000e+01, 6.2500000000000000e+01,
             6.2500000000000000e+01, 6.2500000000000000e+01,
             6.2500000000000000e+01, 6.2500000000000000e+01,
             6.2500000000000000e+01, 6.2500000000000000e+01,
             6.2500000000000000e+01, 6.2500000000000000e+01,
             6.2500000000000000e+01, 6.2500000000000000e+01,
             6.2500000000000000e+01, 6.2500000000000000e+01,
             6.2500000000000000e+01, 6.2500000000000000e+01,
             6.2500000000000000e+01, 6.2500000000000000e+01,
             6.2500000000000000e+01, 6.2500000000000000e+01,
             6.2500000000000000e+01, 6.2500000000000000e+01,
             6.2500000000000000e+01, 6.2500000000000000e+01,
             6.2500000000000000e+01, 6.2500000000000000e+01,
             6.2500000000000000e+01, 6.2500000000000000e+01,
             6.2500000000000000e+01, 6.2500000000000000e+01,
             6.2500000000000000e+01, 6.2500000000000000e+01,
             6.2500000000000000e+01, 6.2500000000000000e+01,
             6.2500000000000000e+01, 6.2500000000000000e+01,
             6.2500000000000000e+01, 6.2500000000000000e+01,
             6.2500000000000000e+01, 6.2500000000000000e+01,
             6.2500000000000000e+01, 6.2500000000000000e+01,
             6.2500000000000000e+01, 6.2500000000000000e+01,
             6.2500000000000000e+01, 6.2500000000000000e+01,
             6.2500000000000000e+01, 6.2500000000000000e+01,
             6.2500000000000000e+01, 6.2500000000000000e+01,
             6.2500000000000000e+01, 6.2500000000000000e+01,
             6.2500000000000000e+01, 6.1667342003143233e+01,
             6.2500000000000000e+01, 6.2500000000000000e+01,
             6.2500000000000000e+01, 6.2500000000000000e+01,
             6.2500000000000000e+01, 4.0015531083952887e+01,
             6.2500000000000000e+01, 6.2500000000000000e+01,
             6.2500000000000000e+01, 6.2500000000000000e+01,
             6.2500000000000000e+01, 6.2500000000000000e+01,
             6.2500000000000000e+01, 6.2500000000000000e+01,
             6.2500000000000000e+01, 6.2500000000000000e+01,
             -6.2500000000000000e+01, -6.2500000000000000e+01,
             -6.2500000000000000e+01, -6.2500000000000000e+01,
             -6.2500000000000000e+01, -6.2500000000000000e+01,
             -6.2500000000000000e+01, -6.2500000000000000e+01,
             -6.2500000000000000e+01, -6.2500000000000000e+01,
             -6.2500000000000000e+01, -6.2500000000000000e+01,
             -6.2500000000000000e+01, -6.2500000000000000e+01,
             -6.2500000000000000e+01, -6.2500000000000000e+01,
             -6.2500000000000000e+01, -6.2500000000000000e+01,
             -6.2500000000000000e+01, -6.2500000000000000e+01,
             -6.2500000000000000e+01, -6.2500000000000000e+01,
             -3.9182873087096134e+01, -6.2500000000000000e+01,
             -6.2500000000000000e+01, -6.2500000000000000e+01,
             -6.2500000000000000e+01, -6.2500000000000000e+01,
             -6.2500000000000000e+01, -6.2500000000000000e+01,
             -6.2500000000000000e+01, -6.2500000000000000e+01,
             -6.2500000000000000e+01, -6.2500000000000000e+01,
             -6.2500000000000000e+01, -6.2500000000000000e+01,
             -6.2500000000000000e+01, -6.2500000000000000e+01,
             -6.2500000000000000e+01, -6.2500000000000000e+01,
             -6.2500000000000000e+01, -6.2500000000000000e+01,
             -6.2500000000000000e+01, -6.2500000000000000e+01,
             -6.2500000000000000e+01, -6.2500000000000000e+01,
             -6.2500000000000000e+01, -6.2500000000000000e+01,
             -6.2500000000000000e+01, -6.2500000000000000e+01,
             -6.2500000000000000e+01, -6.2500000000000000e+01,
             -6.2500000000000000e+01, -6.2500000000000000e+01,
             -6.2500000000000000e+01, -6.2500000000000000e+01,
             -6.2500000000000000e+01, -6.2500000000000000e+01,
             -6.2500000000000000e+01, -6.2500000000000000e+01,
             -6.2500000000000000e+01, -6.2500000000000000e+01,
             -6.2500000000000000e+01, -6.2500000000000000e+01,
             -6.2500000000000000e+01, -6.2500000000000000e+01,
             -6.2500000000000000e+01, -6.2500000000000000e+01,
             -6.2500000000000000e+01, -6.2500000000000000e+01,
             -6.2500000000000000e+01, -6.2500000000000000e+01,
             -6.2500000000000000e+01, -6.2500000000000000e+01,
             -6.2500000000000000e+01, -6.2500000000000000e+01,
             -6.2500000000000000e+01, -6.2500000000000000e+01,
             -6.2500000000000000e+01, -6.2500000000000000e+01,
             -6.2500000000000000e+01, -6.2500000000000000e+01,
             -6.2500000000000000e+01, -6.2500000000000000e+01,
             -6.2500000000000000e+01, -6.2500000000000000e+01,
             -6.2500000000000000e+01, -6.2500000000000000e+01,
             -6.2500000000000000e+01, -6.2500000000000000e+01,
             -6.2500000000000000e+01, -6.2500000000000000e+01,
             -6.2500000000000000e+01, -6.2500000000000000e+01,
             -6.2500000000000000e+01, -6.2500000000000000e+01,
             -6.2500000000000000e+01, -6.2500000000000000e+01,
             -6.2500000000000000e+01, -6.2500000000000000e+01,
             -6.2500000000000000e+01, -6.2500000000000000e+01,
             -6.2500000000000000e+01, -6.2500000000000000e+01,
             -6.2500000000000000e+01, -6.2500000000000000e+01,
             -6.2500000000000000e+01, -6.2500000000000000e+01 ]
         index: [ 0, 1, 2, 3, 4, 5, 6, 7, 8, 9, 10, 11, 12, 13, 14, 15,
             16, 17, 18, 19, 20, 21, 22, 23, 24, 25, 26, 27, 28, 29, 30,
             31, 32, 33, 34, 35, 36, 37, 38, 39, 40, 41, 42, 43, 44, 45,
             46, 47, 48, 49, 50, 51, 52, 53, 54, 55, 56, 57, 58, 59, 60,
             61, 62, 63, 64, 65, 66, 67, 68, 69, 70, 71, 72, 73, 74, 75,
             76, 77, 78, 79, 80, 81, 82, 83, 84, 85, 86, 87, 88, 89, 90,
             91, 92, 93, 94, 95, 96, 97, 98, 99, 100, 101, 102, 103, 104,
             105, 106, 107, 108, 109, 110, 111, 112, 113, 114, 115, 116,
             117, 118, 119, 120, 121, 122, 123, 124, 125, 126, 127, 128,
             129, 130, 131, 132, 133, 134, 135, 136, 137, 138, 139, 140,
             141, 142, 143, 144, 145, 146, 147, 148, 149, 150, 151, 152,
             153, 154, 155, 156, 157, 158, 159, 160, 161, 162, 163, 164,
             165, 166, 167, 168, 169, 170, 171, 172, 173, 174, 175, 176,
             177, 178, 179, 180, 181, 182, 183, 184, 185, 186, 187, 188,
             189, 190, 191, 192, 193, 194, 195, 196, 197, 198, 199, 200,
             201, 202, 203, 204, 205, 206, 207, 208, 209, 210, 211, 212,
             213, 214, 215 ]
