%YAML:1.0
my_svm: !!opencv-ml-svm
   svm_type: C_SVC
   kernel: { type:RBF, gamma:5.0625000000000009e-01 }
   C: 2.5000000000000000e+00
   term_criteria: { epsilon:2.2204460492503131e-16, iterations:1000 }
   var_all: 12
   var_count: 12
   class_count: 2
   class_labels: !!opencv-matrix
      rows: 1
      cols: 2
      dt: i
      data: [ 0, 1 ]
   sv_total: 88
   support_vectors:
      - [ 2.38889996e-02, 2.33379994e-02, 2.31149998e-02, 2.28460003e-02,
          2.22219992e-02, 2.19550002e-02, 0., 0., 0., 0., 2.28940006e-02,
          7.16999988e-04 ]
      - [ 2.64069997e-02, 2.35730000e-02, 2.33500004e-02, 2.31330004e-02,
          2.29659993e-02, 2.27380004e-02, 2.24760007e-02, 2.24559996e-02,
          2.21919995e-02, 0., 2.32539997e-02, 1.26399996e-03 ]
      - [ 2.62570009e-02, 2.40209997e-02, 2.39029992e-02, 2.25740001e-02,
          2.23929994e-02, 0., 0., 0., 0., 0., 2.38290001e-02,
          1.54700002e-03 ]
      - [ 2.50390004e-02, 2.48789992e-02, 2.41149999e-02, 2.35029999e-02,
          2.18780003e-02, 0., 0., 0., 0., 0., 2.38830000e-02,
          1.27899996e-03 ]
      - [ 2.25430001e-02, 2.23290008e-02, 2.05090009e-02, 2.03389991e-02,
          2.02249996e-02, 2.01600008e-02, 2.01159995e-02, 0., 0., 0.,
          2.08889991e-02, 1.06699998e-03 ]
      - [ 2.31509991e-02, 2.27310006e-02, 2.24879999e-02, 2.21989993e-02,
          2.16409992e-02, 2.16099992e-02, 2.14920007e-02, 0., 0., 0.,
          2.21870001e-02, 6.36000012e-04 ]
      - [ 2.44260002e-02, 2.38460004e-02, 2.24430002e-02, 2.21839994e-02,
          2.15540007e-02, 2.14230008e-02, 2.12180000e-02, 0., 0., 0.,
          2.24420000e-02, 1.24500005e-03 ]
      - [ 2.35409997e-02, 2.34469995e-02, 2.32560001e-02, 2.24239994e-02,
          2.17099991e-02, 0., 0., 0., 0., 0., 2.28760000e-02,
          7.86999997e-04 ]
      - [ 2.83140000e-02, 2.43490003e-02, 2.42660008e-02, 2.37590000e-02,
          2.29230002e-02, 2.25980002e-02, 2.25869995e-02, 0., 0., 0.,
          2.41139997e-02, 1.99600006e-03 ]
      - [ 2.38029994e-02, 2.32209992e-02, 2.28209998e-02, 2.27140002e-02,
          2.20120009e-02, 2.13910006e-02, 2.13539992e-02, 0., 0., 0.,
          2.24740002e-02, 9.26000008e-04 ]
      - [ 2.45050006e-02, 2.31560003e-02, 2.28669997e-02, 2.18029991e-02,
          2.17860006e-02, 2.13530008e-02, 0., 0., 0., 0., 2.25779992e-02,
          1.17099995e-03 ]
      - [ 2.33449992e-02, 2.27220003e-02, 2.17049997e-02, 2.16690004e-02,
          2.14070007e-02, 2.13220008e-02, 2.08650008e-02, 2.04559993e-02,
          0., 0., 2.16860007e-02, 9.43000021e-04 ]
      - [ 2.29679998e-02, 2.24980004e-02, 2.23709997e-02, 2.13070009e-02,
          2.09909994e-02, 2.08919998e-02, 0., 0., 0., 0., 2.18380000e-02,
          8.82000022e-04 ]
      - [ 2.31929999e-02, 2.26089992e-02, 2.24200003e-02, 2.20999997e-02,
          2.16310006e-02, 2.15760004e-02, 2.12939996e-02, 0., 0., 0.,
          2.21180003e-02, 6.70999987e-04 ]
      - [ 2.46559996e-02, 2.33650003e-02, 2.21940000e-02, 2.20720004e-02,
          2.17390005e-02, 2.16249991e-02, 2.13200003e-02, 2.09410004e-02,
          0., 0., 2.22389996e-02, 1.21300004e-03 ]
      - [ 2.32159998e-02, 2.25159992e-02, 2.20780000e-02, 2.20589992e-02,
          2.18509994e-02, 2.17039995e-02, 0., 0., 0., 0., 2.22369991e-02,
          5.53000020e-04 ]
      - [ 2.68079992e-02, 2.33670007e-02, 2.32609995e-02, 2.26930007e-02,
          2.26809997e-02, 2.23099999e-02, 0., 0., 0., 0., 2.35200003e-02,
          1.65800005e-03 ]
      - [ 2.38770004e-02, 2.36350000e-02, 2.24939995e-02, 2.24479996e-02,
          2.24249996e-02, 0., 0., 0., 0., 0., 2.29759999e-02,
          7.17999996e-04 ]
      - [ 2.27509998e-02, 2.25770008e-02, 2.16429997e-02, 2.16119997e-02,
          2.15189997e-02, 2.14579999e-02, 0., 0., 0., 0., 2.19269991e-02,
          5.77999977e-04 ]
      - [ 2.68610008e-02, 2.34549996e-02, 2.27409992e-02, 2.22469997e-02,
          2.22399998e-02, 2.14179996e-02, 0., 0., 0., 0., 2.31599994e-02,
          1.93300005e-03 ]
      - [ 2.57360004e-02, 2.42389999e-02, 2.35709995e-02, 2.27349997e-02,
          2.27339994e-02, 2.27109995e-02, 2.22740006e-02, 2.22629998e-02,
          2.20190007e-02, 0., 2.31420007e-02, 1.19500002e-03 ]
      - [ 2.43679993e-02, 2.38569994e-02, 2.28540003e-02, 2.27189995e-02,
          2.25750003e-02, 2.25140005e-02, 2.24949997e-02, 0., 0., 0.,
          2.30550002e-02, 7.47999991e-04 ]
      - [ 2.32699998e-02, 2.27530003e-02, 2.23699994e-02, 2.18230002e-02,
          2.17739996e-02, 2.17380002e-02, 2.17140000e-02, 2.14779992e-02,
          0., 0., 2.21149996e-02, 6.23000029e-04 ]
      - [ 2.25479994e-02, 2.24789996e-02, 2.24029999e-02, 2.19069999e-02,
          2.18899995e-02, 0., 0., 0., 0., 0., 2.22449992e-02,
          3.21000000e-04 ]
      - [ 2.54890006e-02, 2.43250001e-02, 2.32699998e-02, 2.20139995e-02,
          2.13070009e-02, 0., 0., 0., 0., 0., 2.32810006e-02,
          1.69299997e-03 ]
      - [ 2.27589998e-02, 2.26659998e-02, 2.17950009e-02, 2.17470005e-02,
          2.17250008e-02, 2.15329994e-02, 0., 0., 0., 0., 2.20379997e-02,
          5.31000027e-04 ]
      - [ 2.73550004e-02, 2.54549999e-02, 2.28400007e-02, 2.22399998e-02,
          2.18850002e-02, 0., 0., 0., 0., 0., 2.39550006e-02,
          2.36000004e-03 ]
      - [ 2.51839999e-02, 2.39339992e-02, 2.31379997e-02, 2.17649993e-02,
          2.15499997e-02, 0., 0., 0., 0., 0., 2.31139995e-02,
          1.51900004e-03 ]
      - [ 2.56089997e-02, 2.47879997e-02, 2.46210005e-02, 2.29359996e-02,
          2.28140000e-02, 0., 0., 0., 0., 0., 2.41540000e-02,
          1.22600002e-03 ]
      - [ 2.31430009e-02, 2.29250006e-02, 2.27799993e-02, 2.26160008e-02,
          2.22190004e-02, 0., 0., 0., 0., 0., 2.27370001e-02,
          3.48000001e-04 ]
      - [ 2.40790006e-02, 2.28080004e-02, 2.18139999e-02, 2.18100008e-02,
          2.17150003e-02, 2.14579999e-02, 0., 0., 0., 0., 2.22810004e-02,
          9.95000009e-04 ]
      - [ 2.49540005e-02, 2.37590000e-02, 2.37579998e-02, 2.24370006e-02,
          2.24159993e-02, 2.22980008e-02, 2.22660005e-02, 2.20730007e-02,
          0., 0., 2.29950007e-02, 1.03599997e-03 ]
      - [ 2.48540007e-02, 2.34750006e-02, 2.32459996e-02, 2.24280003e-02,
          2.07310002e-02, 2.06610002e-02, 2.06489991e-02, 0., 0., 0.,
          2.22919993e-02, 1.66800001e-03 ]
      - [ 2.51850002e-02, 2.47389991e-02, 2.43009999e-02, 2.37429999e-02,
          2.37039998e-02, 2.28710007e-02, 2.28000004e-02, 2.21430007e-02,
          2.20160000e-02, 0., 2.34999992e-02, 1.12100004e-03 ]
      - [ 2.35420000e-02, 2.29950007e-02, 2.23789997e-02, 2.22629998e-02,
          2.16440000e-02, 2.15579998e-02, 0., 0., 0., 0., 2.23970003e-02,
          7.68999977e-04 ]
      - [ 2.32529994e-02, 2.28640009e-02, 2.24590003e-02, 2.19880007e-02,
          2.18720008e-02, 0., 0., 0., 0., 0., 2.24869996e-02,
          5.82000008e-04 ]
      - [ 2.61509996e-02, 2.42459998e-02, 2.18749996e-02, 2.14099996e-02,
          2.09580008e-02, 0., 0., 0., 0., 0., 2.29279995e-02,
          2.20300001e-03 ]
      - [ 2.31330004e-02, 2.22549997e-02, 2.22270004e-02, 2.21570004e-02,
          2.15930007e-02, 2.15750001e-02, 0., 0., 0., 0., 2.21570004e-02,
          5.69999975e-04 ]
      - [ 2.72189993e-02, 2.35179998e-02, 2.33740006e-02, 2.33309995e-02,
          2.14040000e-02, 0., 0., 0., 0., 0., 2.37690005e-02,
          2.11600005e-03 ]
      - [ 2.55210008e-02, 2.41459999e-02, 2.36000009e-02, 2.34440006e-02,
          2.32069995e-02, 2.26409994e-02, 0., 0., 0., 0., 2.37600002e-02,
          9.92999994e-04 ]
      - [ 2.53780000e-02, 2.37199999e-02, 2.33479999e-02, 2.27010008e-02,
          2.23379992e-02, 2.17409991e-02, 0., 0., 0., 0., 2.32040007e-02,
          1.27699994e-03 ]
      - [ 2.76880004e-02, 2.41519995e-02, 2.35740002e-02, 2.30689999e-02,
          2.25840006e-02, 2.23120004e-02, 2.19010003e-02, 0., 0., 0.,
          2.36109998e-02, 1.95299997e-03 ]
      - [ 2.45249998e-02, 2.44089998e-02, 2.26450004e-02, 2.24760007e-02,
          2.23329999e-02, 0., 0., 0., 0., 0., 2.32779998e-02,
          1.09200005e-03 ]
      - [ 2.42950004e-02, 2.19470002e-02, 2.13719998e-02, 2.13660002e-02,
          2.13559996e-02, 0., 0., 0., 0., 0., 2.20669992e-02,
          1.27100002e-03 ]
      - [ 6.68879971e-02, 6.63810000e-02, 5.38409986e-02, 5.29129989e-02,
          5.27420007e-02, 5.22730015e-02, 5.20659983e-02, 5.17029986e-02,
          5.12840003e-02, 5.07780015e-02, 4.12160009e-02, 6.51200023e-03 ]
      - [ 4.82270010e-02, 4.68269996e-02, 4.64040004e-02, 4.50880006e-02,
          4.40040007e-02, 4.33849990e-02, 4.33639996e-02, 4.30929996e-02,
          4.27270010e-02, 4.25530002e-02, 3.45409997e-02, 5.00300014e-03 ]
      - [ 6.08640015e-02, 5.96939996e-02, 5.90989999e-02, 5.64149991e-02,
          5.50930016e-02, 5.49339987e-02, 5.40780015e-02, 5.36729991e-02,
          5.33739999e-02, 5.13439998e-02, 4.10499983e-02, 6.75299997e-03 ]
      - [ 6.08440004e-02, 5.88609986e-02, 5.84629998e-02, 5.74540012e-02,
          5.47930002e-02, 5.41989990e-02, 5.19450009e-02, 5.11210002e-02,
          4.94749993e-02, 4.93169986e-02, 3.58919986e-02, 7.83700030e-03 ]
      - [ 6.01270013e-02, 6.00729994e-02, 5.75350001e-02, 5.53929992e-02,
          5.18149994e-02, 5.10270000e-02, 5.07440008e-02, 5.05819991e-02,
          4.97400016e-02, 4.86340001e-02, 3.87960002e-02, 7.11699994e-03 ]
      - [ 5.59620000e-02, 5.13789989e-02, 5.09480014e-02, 5.04829995e-02,
          5.00180013e-02, 4.79529984e-02, 4.65970002e-02, 4.64989990e-02,
          4.63699996e-02, 4.60419990e-02, 3.67860012e-02, 6.09700009e-03 ]
      - [ 6.05660006e-02, 5.88180013e-02, 5.71289994e-02, 5.51679991e-02,
          5.48290014e-02, 5.29280007e-02, 5.18219993e-02, 4.80719991e-02,
          4.69739996e-02, 4.66989987e-02, 3.58540006e-02, 7.46299978e-03 ]
      - [ 5.88960014e-02, 5.80150001e-02, 5.79040013e-02, 5.76899983e-02,
          5.15610017e-02, 5.05019985e-02, 4.98510003e-02, 4.92909998e-02,
          4.83490005e-02, 4.82139997e-02, 4.02400009e-02, 5.99400001e-03 ]
      - [ 6.31769970e-02, 6.24510013e-02, 5.93959987e-02, 5.74500002e-02,
          5.50770015e-02, 5.41750006e-02, 5.26710004e-02, 5.26610017e-02,
          5.15719987e-02, 5.13140000e-02, 3.82529981e-02, 7.51199992e-03 ]
      - [ 5.63899986e-02, 5.60100004e-02, 5.58799990e-02, 5.56779988e-02,
          5.48919998e-02, 5.47930002e-02, 5.45900017e-02, 5.44769987e-02,
          5.34260012e-02, 5.29300012e-02, 3.89540009e-02, 6.77999994e-03 ]
      - [ 5.72579987e-02, 5.38370013e-02, 5.15360013e-02, 5.10700010e-02,
          4.98830006e-02, 4.97669987e-02, 4.95549999e-02, 4.85120006e-02,
          4.74120006e-02, 4.61409986e-02, 3.58840004e-02, 6.77900016e-03 ]
      - [ 5.89889996e-02, 5.84090017e-02, 5.70189990e-02, 5.67729995e-02,
          5.62530011e-02, 5.59840016e-02, 5.48270009e-02, 5.28619997e-02,
          5.26069999e-02, 5.22539988e-02, 4.06199992e-02, 7.74799986e-03 ]
      - [ 6.40150011e-02, 5.83570004e-02, 5.65820001e-02, 5.65630011e-02,
          5.55809997e-02, 5.49120009e-02, 5.41119985e-02, 5.36190011e-02,
          5.22550009e-02, 4.94819991e-02, 3.85969989e-02, 7.20900018e-03 ]
      - [ 6.00689985e-02, 5.93240000e-02, 5.84979989e-02, 5.82470000e-02,
          5.62359989e-02, 5.17180003e-02, 4.97899987e-02, 4.97180000e-02,
          4.92249988e-02, 4.77249995e-02, 3.47709991e-02, 8.39900039e-03 ]
      - [ 5.23139983e-02, 4.93160002e-02, 4.88590002e-02, 4.88179997e-02,
          4.80990000e-02, 4.80489992e-02, 4.79299985e-02, 4.73470017e-02,
          4.70140018e-02, 4.62579988e-02, 3.36869992e-02, 6.73499983e-03 ]
      - [ 6.62019998e-02, 6.43720031e-02, 5.50399981e-02, 5.47950007e-02,
          5.35140000e-02, 5.26780002e-02, 5.23910001e-02, 5.15410006e-02,
          5.10849990e-02, 5.06649986e-02, 4.02589999e-02, 7.71499984e-03 ]
      - [ 6.11709990e-02, 5.94640002e-02, 5.91339990e-02, 5.65689988e-02,
          5.40699996e-02, 5.34560010e-02, 5.27569987e-02, 5.23080006e-02,
          5.13550006e-02, 5.08570001e-02, 4.04490009e-02, 7.35699991e-03 ]
      - [ 5.76470010e-02, 5.45069985e-02, 5.39130010e-02, 5.38749993e-02,
          5.24879992e-02, 5.19520007e-02, 5.17899990e-02, 5.15570007e-02,
          5.07330000e-02, 5.05400002e-02, 3.85910012e-02, 6.74800016e-03 ]
      - [ 5.12459986e-02, 4.93180007e-02, 4.87350002e-02, 4.72339988e-02,
          4.64599989e-02, 4.63970006e-02, 4.51559983e-02, 4.51290011e-02,
          4.50479984e-02, 4.47629988e-02, 3.30299996e-02, 6.64500007e-03 ]
      - [ 5.49799986e-02, 5.47289997e-02, 5.44909984e-02, 5.31960018e-02,
          5.19610010e-02, 5.17989993e-02, 5.08540012e-02, 4.95949984e-02,
          4.95200008e-02, 4.94530015e-02, 4.05149981e-02, 5.87699981e-03 ]
      - [ 6.38149977e-02, 5.90910017e-02, 5.82709983e-02, 5.50849997e-02,
          5.50229996e-02, 5.32599986e-02, 5.20559996e-02, 5.19630015e-02,
          5.02699986e-02, 4.99650016e-02, 4.05789986e-02, 6.90100016e-03 ]
      - [ 6.49909973e-02, 5.81060015e-02, 5.62050007e-02, 5.29940017e-02,
          5.19820005e-02, 5.16810007e-02, 5.04189990e-02, 4.95399982e-02,
          4.91020009e-02, 4.76219989e-02, 3.84260006e-02, 7.21199997e-03 ]
      - [ 6.46909997e-02, 5.63840009e-02, 5.61069995e-02, 5.36449999e-02,
          5.06489985e-02, 4.73320000e-02, 4.67020012e-02, 4.59359996e-02,
          4.58999984e-02, 4.46630009e-02, 3.64530012e-02, 7.73099996e-03 ]
      - [ 6.76409975e-02, 5.85229993e-02, 5.79539984e-02, 5.56350015e-02,
          5.48469983e-02, 5.34350015e-02, 5.26239984e-02, 5.25810011e-02,
          5.21529987e-02, 5.15150018e-02, 4.00119983e-02, 7.42899999e-03 ]
      - [ 6.09540008e-02, 5.39209992e-02, 5.11320010e-02, 5.11259995e-02,
          5.02469987e-02, 4.97709997e-02, 4.83970009e-02, 4.73139994e-02,
          4.71110009e-02, 4.69820015e-02, 3.59899998e-02, 7.40200002e-03 ]
      - [ 6.20799996e-02, 6.17440008e-02, 6.02389984e-02, 5.80600016e-02,
          5.67510016e-02, 5.65650016e-02, 5.46140000e-02, 5.16790003e-02,
          5.05089983e-02, 5.03179990e-02, 3.98290008e-02, 7.94399995e-03 ]
      - [ 5.86230010e-02, 5.71190007e-02, 5.66270016e-02, 5.52520007e-02,
          5.50040007e-02, 5.26009984e-02, 5.20949997e-02, 5.03709987e-02,
          4.97400016e-02, 4.74179983e-02, 3.84300016e-02, 7.08500016e-03 ]
      - [ 6.71000034e-02, 5.93929999e-02, 5.92960007e-02, 5.74649982e-02,
          5.63649982e-02, 5.42740002e-02, 5.11300005e-02, 5.09090014e-02,
          5.08730002e-02, 5.04800007e-02, 3.85290012e-02, 7.34299980e-03 ]
      - [ 6.04359992e-02, 6.01929985e-02, 5.23670018e-02, 5.06259985e-02,
          5.03909998e-02, 5.03229983e-02, 4.97220010e-02, 4.94120009e-02,
          4.93829995e-02, 4.91520017e-02, 3.78260016e-02, 6.97899982e-03 ]
      - [ 6.09980002e-02, 6.06070012e-02, 5.21569997e-02, 4.89289984e-02,
          4.61700000e-02, 4.49410006e-02, 4.45169993e-02, 4.26880009e-02,
          4.26650010e-02, 4.14349996e-02, 3.58150005e-02, 6.53300015e-03 ]
      - [ 6.06530011e-02, 5.80830015e-02, 5.52409999e-02, 5.50840013e-02,
          5.36280014e-02, 5.30490018e-02, 5.15649989e-02, 5.13579994e-02,
          5.06399982e-02, 5.00239991e-02, 4.16759998e-02, 5.98199992e-03 ]
      - [ 6.34559989e-02, 6.30030036e-02, 5.83369993e-02, 5.39500006e-02,
          5.27470000e-02, 5.19540012e-02, 5.12490012e-02, 5.10290004e-02,
          5.00929989e-02, 4.88240011e-02, 3.82059999e-02, 7.88000040e-03 ]
      - [ 5.76030016e-02, 5.65849990e-02, 5.52259982e-02, 5.25370017e-02,
          5.02859987e-02, 4.98480015e-02, 4.85979989e-02, 4.84919995e-02,
          4.82899994e-02, 4.71439995e-02, 3.83460000e-02, 6.53700018e-03 ]
      - [ 6.03239983e-02, 5.89179993e-02, 5.84650002e-02, 5.71690015e-02,
          5.54430000e-02, 5.41809984e-02, 5.37399985e-02, 5.25459982e-02,
          5.08040003e-02, 4.98580001e-02, 3.88129987e-02, 7.56399985e-03 ]
      - [ 5.99259995e-02, 5.42600006e-02, 5.38420007e-02, 5.07409982e-02,
          5.07250018e-02, 4.88240011e-02, 4.86100018e-02, 4.83839996e-02,
          4.65129986e-02, 4.55310009e-02, 3.34689990e-02, 7.65600009e-03 ]
      - [ 5.70099987e-02, 5.35680018e-02, 5.30660003e-02, 4.95090000e-02,
          4.83760014e-02, 4.82500009e-02, 4.74379994e-02, 4.68569994e-02,
          4.45859991e-02, 4.42249998e-02, 3.47190015e-02, 7.01799989e-03 ]
      - [ 5.97719997e-02, 5.96049987e-02, 5.83159998e-02, 5.80420010e-02,
          5.62600009e-02, 5.61209992e-02, 5.43880016e-02, 5.43590002e-02,
          5.29999994e-02, 5.28410003e-02, 4.17300016e-02, 7.17200013e-03 ]
      - [ 6.55229986e-02, 6.38310015e-02, 5.94119988e-02, 5.75940013e-02,
          5.65729998e-02, 5.65279983e-02, 5.24820015e-02, 4.97209989e-02,
          4.90010008e-02, 4.89969999e-02, 3.93589996e-02, 7.86199979e-03 ]
      - [ 6.26870021e-02, 5.96770011e-02, 5.83470017e-02, 5.68300001e-02,
          5.45799993e-02, 5.27539998e-02, 5.24750017e-02, 5.16560003e-02,
          5.15570007e-02, 5.14549986e-02, 3.98910008e-02, 7.26199988e-03 ]
      - [ 5.50599992e-02, 5.15750013e-02, 5.03030010e-02, 4.98039983e-02,
          4.89830002e-02, 4.86610010e-02, 4.81330007e-02, 4.79479991e-02,
          4.73220013e-02, 4.67969999e-02, 3.63579988e-02, 6.75499998e-03 ]
      - [ 6.02380000e-02, 5.85800000e-02, 5.80050014e-02, 5.70540018e-02,
          5.30820005e-02, 5.21349981e-02, 5.16670011e-02, 4.92889993e-02,
          4.87539992e-02, 4.86770011e-02, 3.86280008e-02, 7.12000020e-03 ]
      - [ 5.81680015e-02, 5.63700013e-02, 5.45010008e-02, 5.27460016e-02,
          5.21820001e-02, 5.09929992e-02, 5.08860014e-02, 5.05600013e-02,
          5.04910015e-02, 4.69649993e-02, 3.79489996e-02, 6.58599986e-03 ]
      - [ 5.46940006e-02, 5.43170013e-02, 5.18260002e-02, 5.17169982e-02,
          5.14689982e-02, 5.10389991e-02, 5.07589988e-02, 4.92059998e-02,
          4.89399992e-02, 4.78370003e-02, 3.90510000e-02, 6.94399979e-03 ]
      - [ 6.13070019e-02, 5.86480014e-02, 5.36010005e-02, 5.24270013e-02,
          5.17320000e-02, 5.12400009e-02, 5.11820018e-02, 5.10439985e-02,
          4.96409982e-02, 4.94350009e-02, 3.88880000e-02, 6.65700017e-03 ]
   decision_functions:
      -
         sv_count: 88
         rho: -1.6667321324348450e-02
         alpha: [ 2.5000000000000000e+00, 2.5000000000000000e+00,
             2.5000000000000000e+00, 2.5000000000000000e+00,
             2.5000000000000000e+00, 2.5000000000000000e+00,
             2.5000000000000000e+00, 2.5000000000000000e+00,
             2.5000000000000000e+00, 2.5000000000000000e+00,
             2.5000000000000000e+00, 2.5000000000000000e+00,
             2.5000000000000000e+00, 2.5000000000000000e+00,
             2.5000000000000000e+00, 2.5000000000000000e+00,
             2.5000000000000000e+00, 2.5000000000000000e+00,
             2.5000000000000000e+00, 2.5000000000000000e+00,
             2.5000000000000000e+00, 2.5000000000000000e+00,
             2.5000000000000000e+00, 2.5000000000000000e+00,
             2.5000000000000000e+00, 2.5000000000000000e+00,
             2.5000000000000000e+00, 2.5000000000000000e+00,
             2.5000000000000000e+00, 2.5000000000000000e+00,
             2.5000000000000000e+00, 2.5000000000000000e+00,
             2.5000000000000000e+00, 2.5000000000000000e+00,
             2.5000000000000000e+00, 2.5000000000000000e+00,
             2.5000000000000000e+00, 2.5000000000000000e+00,
             2.5000000000000000e+00, 2.5000000000000000e+00,
             2.5000000000000000e+00, 2.5000000000000000e+00,
             2.5000000000000000e+00, 9.2508514447270462e-01,
             -2.5000000000000000e+00, -2.5000000000000000e+00,
             -2.5000000000000000e+00, -2.5000000000000000e+00,
             -2.5000000000000000e+00, -2.5000000000000000e+00,
             -2.5000000000000000e+00, -2.5000000000000000e+00,
             -2.5000000000000000e+00, -2.5000000000000000e+00,
             -2.5000000000000000e+00, -2.5000000000000000e+00,
             -2.5000000000000000e+00, -2.5000000000000000e+00,
             -2.5000000000000000e+00, -2.5000000000000000e+00,
             -2.5000000000000000e+00, -2.5000000000000000e+00,
             -2.5000000000000000e+00, -2.5000000000000000e+00,
             -2.5000000000000000e+00, -2.5000000000000000e+00,
             -2.5000000000000000e+00, -2.5000000000000000e+00,
             -2.5000000000000000e+00, -2.5000000000000000e+00,
             -2.5000000000000000e+00, -2.5000000000000000e+00,
             -2.5000000000000000e+00, -2.5000000000000000e+00,
             -2.5000000000000000e+00, -2.5000000000000000e+00,
             -2.5000000000000000e+00, -2.5000000000000000e+00,
             -2.5000000000000000e+00, -2.5000000000000000e+00,
             -9.2508514447270462e-01, -2.5000000000000000e+00,
             -2.5000000000000000e+00, -2.5000000000000000e+00,
             -2.5000000000000000e+00, -2.5000000000000000e+00,
             -2.5000000000000000e+00, -2.5000000000000000e+00 ]
         index: [ 0, 1, 2, 3, 4, 5, 6, 7, 8, 9, 10, 11, 12, 13, 14, 15,
             16, 17, 18, 19, 20, 21, 22, 23, 24, 25, 26, 27, 28, 29, 30,
             31, 32, 33, 34, 35, 36, 37, 38, 39, 40, 41, 42, 43, 44, 45,
             46, 47, 48, 49, 50, 51, 52, 53, 54, 55, 56, 57, 58, 59, 60,
             61, 62, 63, 64, 65, 66, 67, 68, 69, 70, 71, 72, 73, 74, 75,
             76, 77, 78, 79, 80, 81, 82, 83, 84, 85, 86, 87 ]
