%YAML:1.0
my_svm: !!opencv-ml-svm
   svm_type: C_SVC
   kernel: { type:RBF, gamma:5.0625000000000009e-01 }
   C: 3.1250000000000000e+02
   term_criteria: { epsilon:2.2204460492503131e-16, iterations:1000 }
   var_all: 12
   var_count: 12
   class_count: 2
   class_labels: !!opencv-matrix
      rows: 1
      cols: 2
      dt: i
      data: [ 0, 1 ]
   sv_total: 406
   support_vectors:
      - [ 7.04730004e-02, 6.81950003e-02, 6.36309981e-02, 6.32340014e-02,
          6.29900023e-02, 6.26190007e-02, 6.19879998e-02, 6.01189993e-02,
          5.97640015e-02, 5.80889992e-02, 4.08679992e-02, 9.33299959e-03 ]
      - [ 6.65450022e-02, 6.63819984e-02, 6.40100017e-02, 6.12690002e-02,
          6.05110005e-02, 6.02979995e-02, 6.00740016e-02, 5.92780001e-02,
          5.84710017e-02, 5.70669994e-02, 4.42049988e-02, 7.90799968e-03 ]
      - [ 6.03239983e-02, 5.89179993e-02, 5.84650002e-02, 5.71690015e-02,
          5.54430000e-02, 5.41809984e-02, 5.37399985e-02, 5.25459982e-02,
          5.08040003e-02, 4.98580001e-02, 3.88129987e-02, 7.56399985e-03 ]
      - [ 7.21440017e-02, 6.53060004e-02, 6.38979971e-02, 6.24120012e-02,
          6.11330010e-02, 5.80729991e-02, 5.37000000e-02, 5.19479997e-02,
          5.15340008e-02, 5.04049994e-02, 3.93619984e-02, 8.10999982e-03 ]
      - [ 6.82369992e-02, 6.53989986e-02, 6.43979982e-02, 6.39740005e-02,
          6.35420009e-02, 6.31119981e-02, 6.08370006e-02, 5.99820018e-02,
          5.83159998e-02, 5.81130013e-02, 4.57039997e-02, 6.96599996e-03 ]
      - [ 7.76629969e-02, 7.71860033e-02, 7.69570023e-02, 7.68430009e-02,
          7.62659982e-02, 7.61199966e-02, 7.57170022e-02, 7.55660012e-02,
          7.54820034e-02, 7.52540007e-02, 5.47830015e-02, 1.26440004e-02 ]
      - [ 7.17829987e-02, 6.84610009e-02, 6.77910000e-02, 6.47130013e-02,
          6.34180009e-02, 6.22569993e-02, 6.20060004e-02, 5.91569990e-02,
          5.90899996e-02, 5.82300015e-02, 4.32839990e-02, 9.29099973e-03 ]
      - [ 5.41849993e-02, 5.35500012e-02, 5.17549999e-02, 5.16990013e-02,
          4.86150011e-02, 4.74550016e-02, 4.72749993e-02, 4.53570001e-02,
          4.52760011e-02, 4.48990017e-02, 3.66810001e-02, 7.33700022e-03 ]
      - [ 6.35600016e-02, 6.35410026e-02, 6.34140000e-02, 6.08719997e-02,
          6.06330000e-02, 5.88280000e-02, 5.56910001e-02, 5.54139987e-02,
          5.32779992e-02, 5.28270006e-02, 4.14940007e-02, 8.00300017e-03 ]
      - [ 5.79250008e-02, 5.12630008e-02, 5.01220003e-02, 4.78009991e-02,
          4.62599993e-02, 4.60500009e-02, 4.60480005e-02, 4.58119996e-02,
          4.46689986e-02, 4.45000008e-02, 3.63820009e-02, 6.15999987e-03 ]
      - [ 7.25049973e-02, 7.11330026e-02, 7.00419992e-02, 6.81729987e-02,
          6.76999986e-02, 6.41790032e-02, 6.37449995e-02, 6.21690005e-02,
          6.21059984e-02, 6.20279983e-02, 4.55779992e-02, 9.28399991e-03 ]
      - [ 6.49370030e-02, 6.30960017e-02, 6.09060004e-02, 6.04109988e-02,
          5.98599985e-02, 5.97760007e-02, 5.94509989e-02, 5.82600012e-02,
          5.80409989e-02, 5.74549995e-02, 4.46170010e-02, 6.96100015e-03 ]
      - [ 6.76890016e-02, 6.69270009e-02, 6.15959987e-02, 5.89510016e-02,
          5.86320013e-02, 5.81360012e-02, 5.75970002e-02, 5.70929982e-02,
          5.69880009e-02, 5.42300008e-02, 4.27040011e-02, 8.16399977e-03 ]
      - [ 5.81780002e-02, 5.61290011e-02, 5.57160005e-02, 5.27589992e-02,
          5.26550002e-02, 5.13859987e-02, 5.06240018e-02, 4.90599982e-02,
          4.66159992e-02, 4.61260006e-02, 3.80290002e-02, 8.17599986e-03 ]
      - [ 6.61050007e-02, 6.49209991e-02, 6.28070012e-02, 5.97589985e-02,
          5.86140007e-02, 5.83910011e-02, 5.23650013e-02, 5.21310009e-02,
          5.16999997e-02, 5.15380017e-02, 4.00229990e-02, 8.33899993e-03 ]
      - [ 6.71690032e-02, 6.53550029e-02, 6.45110011e-02, 6.18619993e-02,
          6.10149987e-02, 6.07960001e-02, 6.07599989e-02, 6.01879992e-02,
          5.89919984e-02, 5.84499985e-02, 4.38829996e-02, 8.75400007e-03 ]
      - [ 7.15840012e-02, 6.60659969e-02, 6.58079982e-02, 6.50589988e-02,
          6.33379966e-02, 6.27859980e-02, 6.26809970e-02, 5.92380017e-02,
          5.90200014e-02, 5.79369999e-02, 4.36820015e-02, 8.87000002e-03 ]
      - [ 6.38549998e-02, 6.05619997e-02, 5.98450005e-02, 5.95350005e-02,
          5.81419989e-02, 5.71230017e-02, 5.65860011e-02, 5.26620001e-02,
          5.18600009e-02, 5.04840016e-02, 3.96890007e-02, 8.16600025e-03 ]
      - [ 6.76409975e-02, 5.85229993e-02, 5.79539984e-02, 5.56350015e-02,
          5.48469983e-02, 5.34350015e-02, 5.26239984e-02, 5.25810011e-02,
          5.21529987e-02, 5.15150018e-02, 4.00119983e-02, 7.42899999e-03 ]
      - [ 6.93780035e-02, 6.51310012e-02, 6.35100007e-02, 6.26059994e-02,
          6.01119995e-02, 5.71889989e-02, 5.67030013e-02, 5.50310016e-02,
          5.41579984e-02, 5.27230017e-02, 3.81809995e-02, 1.00410003e-02 ]
      - [ 1.05053000e-01, 9.82460007e-02, 9.64249969e-02, 9.05169994e-02,
          8.81910026e-02, 8.68569985e-02, 8.37770030e-02, 8.28040019e-02,
          7.84099996e-02, 7.82039985e-02, 5.15480004e-02, 1.71969999e-02 ]
      - [ 8.70599970e-02, 8.31890032e-02, 8.29010010e-02, 8.00990015e-02,
          7.75519982e-02, 7.69229978e-02, 7.61020035e-02, 7.59639964e-02,
          7.07750022e-02, 7.03559965e-02, 5.21610007e-02, 1.26189999e-02 ]
      - [ 5.60210012e-02, 5.16510010e-02, 4.97750007e-02, 4.66930009e-02,
          4.51509990e-02, 4.41379994e-02, 4.37549986e-02, 4.34300005e-02,
          4.20270003e-02, 4.16879989e-02, 3.59999985e-02, 6.34799991e-03 ]
      - [ 7.03240037e-02, 6.77549988e-02, 6.75999969e-02, 6.59369975e-02,
          6.05870001e-02, 5.79769984e-02, 5.65409996e-02, 5.37980013e-02,
          5.31730019e-02, 5.29600009e-02, 4.03910019e-02, 8.01900029e-03 ]
      - [ 7.34890029e-02, 6.39080033e-02, 6.35199994e-02, 6.26149997e-02,
          6.18139990e-02, 6.13030009e-02, 6.03550002e-02, 5.91249987e-02,
          5.89930005e-02, 5.89429997e-02, 4.39230017e-02, 8.60199984e-03 ]
      - [ 6.38070032e-02, 6.09709993e-02, 6.05099984e-02, 5.96100017e-02,
          5.94800003e-02, 5.80659993e-02, 5.79309985e-02, 5.32109998e-02,
          5.31289987e-02, 5.08100018e-02, 4.03999984e-02, 6.92600012e-03 ]
      - [ 6.48289993e-02, 6.17330000e-02, 6.15530014e-02, 5.63380010e-02,
          5.33009991e-02, 4.99450006e-02, 4.98999991e-02, 4.95750010e-02,
          4.85959984e-02, 4.83700000e-02, 3.99519987e-02, 7.18900003e-03 ]
      - [ 9.85620022e-02, 9.45250019e-02, 8.52520019e-02, 8.46069977e-02,
          8.17200020e-02, 7.90849999e-02, 7.90719986e-02, 7.74810016e-02,
          7.73539990e-02, 7.65120015e-02, 5.08759990e-02, 1.47559997e-02 ]
      - [ 6.08640015e-02, 5.96939996e-02, 5.90989999e-02, 5.64149991e-02,
          5.50930016e-02, 5.49339987e-02, 5.40780015e-02, 5.36729991e-02,
          5.33739999e-02, 5.13439998e-02, 4.10499983e-02, 6.75299997e-03 ]
      - [ 6.73639998e-02, 6.32940009e-02, 6.12620004e-02, 5.92800006e-02,
          5.92450015e-02, 5.80470003e-02, 5.33850007e-02, 5.30549996e-02,
          5.24750017e-02, 5.21739982e-02, 3.92789990e-02, 8.57300032e-03 ]
      - [ 8.74689966e-02, 8.70560035e-02, 7.96110034e-02, 7.88479969e-02,
          7.73380026e-02, 7.63949975e-02, 7.18860030e-02, 6.86519966e-02,
          6.79090023e-02, 6.68189973e-02, 4.59589995e-02, 1.53770000e-02 ]
      - [ 5.63899986e-02, 5.60100004e-02, 5.58799990e-02, 5.56779988e-02,
          5.48919998e-02, 5.47930002e-02, 5.45900017e-02, 5.44769987e-02,
          5.34260012e-02, 5.29300012e-02, 3.89540009e-02, 6.77999994e-03 ]
      - [ 7.00350031e-02, 6.74159974e-02, 5.90890013e-02, 5.88629991e-02,
          5.75640015e-02, 5.67150004e-02, 5.64970002e-02, 5.51889986e-02,
          5.50240017e-02, 5.48459999e-02, 4.22470011e-02, 7.94600043e-03 ]
      - [ 7.41999969e-02, 6.84989989e-02, 6.75809979e-02, 6.66449964e-02,
          6.53460026e-02, 6.51070029e-02, 6.31449968e-02, 6.16980009e-02,
          6.15749992e-02, 5.85869998e-02, 4.32070009e-02, 1.17039997e-02 ]
      - [ 6.56870008e-02, 6.52249977e-02, 6.35069981e-02, 6.30500019e-02,
          6.28200024e-02, 6.12509996e-02, 6.09100014e-02, 6.05899990e-02,
          6.01279996e-02, 5.98269999e-02, 4.51290011e-02, 7.98800029e-03 ]
      - [ 6.37499988e-02, 6.36650026e-02, 6.26389980e-02, 6.15170002e-02,
          5.98700009e-02, 5.82889989e-02, 5.71440011e-02, 5.64740002e-02,
          5.64029999e-02, 5.59469983e-02, 4.11569998e-02, 8.89699999e-03 ]
      - [ 7.67659992e-02, 6.65839985e-02, 6.48040026e-02, 6.35700002e-02,
          6.20049983e-02, 5.97539991e-02, 5.97219989e-02, 5.87910004e-02,
          5.85709997e-02, 5.78959994e-02, 4.54230011e-02, 8.20800010e-03 ]
      - [ 6.83709979e-02, 6.45010024e-02, 6.39400035e-02, 6.17929995e-02,
          6.11060001e-02, 6.09750003e-02, 6.02170005e-02, 5.96209988e-02,
          5.95039986e-02, 5.89380004e-02, 4.54390012e-02, 7.63599994e-03 ]
      - [ 6.71179965e-02, 6.49449974e-02, 6.29800037e-02, 6.13010004e-02,
          5.88059984e-02, 5.75120002e-02, 5.58869988e-02, 5.53769991e-02,
          5.53340018e-02, 5.51230013e-02, 4.04449999e-02, 8.29300005e-03 ]
      - [ 7.81140029e-02, 7.40260035e-02, 6.83310032e-02, 6.37679994e-02,
          6.30590022e-02, 6.17569983e-02, 6.16130009e-02, 5.81620000e-02,
          5.67479990e-02, 5.58260009e-02, 4.24560010e-02, 8.04099999e-03 ]
      - [ 7.89939985e-02, 7.79070035e-02, 7.69369975e-02, 7.43419975e-02,
          6.92119971e-02, 6.84280023e-02, 6.83640018e-02, 6.37200028e-02,
          6.02519996e-02, 5.98529987e-02, 4.27209996e-02, 1.22159999e-02 ]
      - [ 7.19050020e-02, 6.95130005e-02, 6.73649982e-02, 6.61600009e-02,
          6.35079965e-02, 6.30050004e-02, 6.27060011e-02, 6.14079982e-02,
          6.07529990e-02, 6.00159988e-02, 4.47539985e-02, 8.87199957e-03 ]
      - [ 6.59089983e-02, 6.28129989e-02, 5.64710014e-02, 5.61220013e-02,
          5.49860001e-02, 5.41229993e-02, 5.40179983e-02, 5.20839989e-02,
          4.91760001e-02, 4.83499989e-02, 3.86249982e-02, 7.66400015e-03 ]
      - [ 5.87409995e-02, 5.69229983e-02, 5.68710007e-02, 5.49959987e-02,
          5.37180007e-02, 5.36589995e-02, 5.35239987e-02, 5.21650016e-02,
          5.20859994e-02, 5.19820005e-02, 4.06000018e-02, 6.70500007e-03 ]
      - [ 6.10850006e-02, 5.98380007e-02, 5.86999990e-02, 5.86410016e-02,
          5.41890003e-02, 5.21190017e-02, 5.12910001e-02, 5.06299995e-02,
          4.92650010e-02, 4.91449982e-02, 4.00089994e-02, 6.59199990e-03 ]
      - [ 6.86710030e-02, 6.54729977e-02, 6.49529994e-02, 5.81840016e-02,
          5.71519993e-02, 5.68870008e-02, 5.68669997e-02, 5.65479994e-02,
          5.63950017e-02, 5.57969995e-02, 4.31310013e-02, 9.43899993e-03 ]
      - [ 6.44799992e-02, 6.06219992e-02, 6.00269996e-02, 5.93839996e-02,
          5.86960018e-02, 5.68660013e-02, 5.67260012e-02, 5.65610006e-02,
          5.65520003e-02, 5.64469993e-02, 4.58469987e-02, 5.83400019e-03 ]
      - [ 7.12980032e-02, 7.06750005e-02, 6.63409978e-02, 6.51500002e-02,
          6.46229982e-02, 6.24429993e-02, 6.10879995e-02, 6.09840006e-02,
          5.92989996e-02, 5.90500012e-02, 4.48310003e-02, 8.51599965e-03 ]
      - [ 6.46869987e-02, 6.28750026e-02, 6.15799986e-02, 5.94840012e-02,
          5.60319982e-02, 5.39060012e-02, 5.36779985e-02, 5.35360016e-02,
          5.31679988e-02, 5.31280003e-02, 4.21449989e-02, 7.06599979e-03 ]
      - [ 4.93160002e-02, 4.69990000e-02, 4.54109982e-02, 4.51689996e-02,
          4.39019985e-02, 4.27859984e-02, 4.25660014e-02, 4.25070003e-02,
          4.23789993e-02, 4.18439992e-02, 3.41340005e-02, 5.89299994e-03 ]
      - [ 7.75889978e-02, 6.96569979e-02, 6.91000000e-02, 6.87419996e-02,
          6.86430037e-02, 6.86269999e-02, 6.55229986e-02, 6.52759969e-02,
          6.52529970e-02, 6.37990013e-02, 4.61549982e-02, 9.37999971e-03 ]
      - [ 5.20580001e-02, 5.15919998e-02, 5.12299985e-02, 4.66089994e-02,
          4.65129986e-02, 4.60850000e-02, 4.56570014e-02, 4.50860001e-02,
          4.39560004e-02, 4.33810018e-02, 3.60220000e-02, 6.31200010e-03 ]
      - [ 7.99380019e-02, 7.54590034e-02, 7.14209974e-02, 6.99189976e-02,
          6.96410015e-02, 6.36349991e-02, 6.09630011e-02, 6.01809993e-02,
          5.66189997e-02, 5.39399981e-02, 4.29180004e-02, 9.73800011e-03 ]
      - [ 7.20489994e-02, 6.74609989e-02, 6.29869998e-02, 6.26719967e-02,
          5.97580001e-02, 5.79399988e-02, 5.63419983e-02, 5.54919988e-02,
          5.42900003e-02, 5.38920015e-02, 4.26819995e-02, 7.56300008e-03 ]
      - [ 7.74440020e-02, 6.07430004e-02, 5.91589995e-02, 5.71560003e-02,
          5.51839992e-02, 5.51330000e-02, 5.46690002e-02, 5.33900000e-02,
          5.21430001e-02, 5.19840010e-02, 4.12979983e-02, 6.98699988e-03 ]
      - [ 1.00864999e-01, 1.00377999e-01, 9.40309986e-02, 8.87370035e-02,
          8.54479969e-02, 8.50810036e-02, 8.21039975e-02, 7.52409995e-02,
          7.47670010e-02, 7.33150020e-02, 5.57009988e-02, 2.04809997e-02 ]
      - [ 7.02269971e-02, 6.87960014e-02, 6.22069985e-02, 5.82729988e-02,
          5.80729991e-02, 5.77679984e-02, 5.64730018e-02, 5.54010011e-02,
          5.43049984e-02, 5.41389994e-02, 4.14620005e-02, 7.77699985e-03 ]
      - [ 5.88909984e-02, 5.72270006e-02, 5.26029989e-02, 5.20580001e-02,
          5.10709994e-02, 4.69059981e-02, 4.69020009e-02, 4.63469997e-02,
          4.48869988e-02, 4.47570011e-02, 3.66140008e-02, 7.78899994e-03 ]
      - [ 6.19079992e-02, 6.18479997e-02, 5.84819987e-02, 5.84460013e-02,
          5.75390011e-02, 5.74840009e-02, 5.70739992e-02, 5.41879982e-02,
          5.39349988e-02, 5.33020012e-02, 3.90819982e-02, 7.66200013e-03 ]
      - [ 8.39750022e-02, 8.19920003e-02, 7.66910017e-02, 7.27880001e-02,
          6.96490034e-02, 6.68720007e-02, 6.45539984e-02, 6.17079996e-02,
          6.11589998e-02, 5.63439988e-02, 4.23960015e-02, 1.16809998e-02 ]
      - [ 7.35270008e-02, 7.20859990e-02, 6.37610033e-02, 6.22330010e-02,
          6.09630011e-02, 6.04729988e-02, 5.96470013e-02, 5.84880002e-02,
          5.73880002e-02, 5.59919998e-02, 4.14189994e-02, 8.56100023e-03 ]
      - [ 5.94209991e-02, 5.85649982e-02, 5.75970002e-02, 5.62120005e-02,
          5.55559993e-02, 5.37299998e-02, 5.30809984e-02, 5.13079986e-02,
          5.12750000e-02, 5.12440018e-02, 3.77460010e-02, 7.54800020e-03 ]
      - [ 5.86230010e-02, 5.71190007e-02, 5.66270016e-02, 5.52520007e-02,
          5.50040007e-02, 5.26009984e-02, 5.20949997e-02, 5.03709987e-02,
          4.97400016e-02, 4.74179983e-02, 3.84300016e-02, 7.08500016e-03 ]
      - [ 7.21850023e-02, 6.56339973e-02, 6.50189966e-02, 6.45179972e-02,
          6.17569983e-02, 6.16910011e-02, 6.07369989e-02, 5.83750010e-02,
          5.76209985e-02, 5.71230017e-02, 4.26420011e-02, 8.68299976e-03 ]
      - [ 7.71550015e-02, 7.60710016e-02, 6.76729977e-02, 6.70019984e-02,
          6.46559969e-02, 6.40570000e-02, 6.33269995e-02, 6.13639988e-02,
          6.08379990e-02, 5.97510003e-02, 4.42989990e-02, 9.13800020e-03 ]
      - [ 1.02753997e-01, 1.00624003e-01, 9.93729979e-02, 9.54710022e-02,
          9.46390033e-02, 9.14169997e-02, 9.10080001e-02, 8.82150009e-02,
          8.57380033e-02, 8.56970027e-02, 5.17910011e-02, 1.81460008e-02 ]
      - [ 7.38039985e-02, 7.06970021e-02, 6.81290030e-02, 6.76800013e-02,
          6.65400028e-02, 6.55239969e-02, 6.20080009e-02, 5.87179996e-02,
          5.61689995e-02, 5.53730018e-02, 4.35159989e-02, 8.84499960e-03 ]
      - [ 7.42610022e-02, 6.95749968e-02, 6.78630024e-02, 6.58899993e-02,
          6.52209967e-02, 6.34920001e-02, 6.28649965e-02, 6.19949996e-02,
          6.09759986e-02, 6.09310009e-02, 4.24729995e-02, 9.64699965e-03 ]
      - [ 6.93650022e-02, 6.71169981e-02, 6.66159987e-02, 6.06480017e-02,
          6.03840016e-02, 5.64120002e-02, 5.59200011e-02, 5.57680018e-02,
          5.29749990e-02, 5.22629991e-02, 3.98479998e-02, 8.39000009e-03 ]
      - [ 5.46940006e-02, 5.43170013e-02, 5.18260002e-02, 5.17169982e-02,
          5.14689982e-02, 5.10389991e-02, 5.07589988e-02, 4.92059998e-02,
          4.89399992e-02, 4.78370003e-02, 3.90510000e-02, 6.94399979e-03 ]
      - [ 6.35220036e-02, 6.08199984e-02, 6.05910011e-02, 5.89159988e-02,
          5.54989986e-02, 5.53900003e-02, 5.48540018e-02, 5.48099987e-02,
          5.46719991e-02, 5.45400009e-02, 3.92999984e-02, 7.70399999e-03 ]
      - [ 6.56920001e-02, 6.28729984e-02, 6.21110015e-02, 6.19029999e-02,
          6.05229996e-02, 5.94240017e-02, 5.94209991e-02, 5.85240014e-02,
          5.65330014e-02, 5.62370010e-02, 4.44439985e-02, 7.06599979e-03 ]
      - [ 1.11321002e-01, 1.07460000e-01, 1.02828003e-01, 8.85469988e-02,
          8.85189995e-02, 8.56629983e-02, 8.28619972e-02, 8.08710009e-02,
          7.97080025e-02, 7.83919990e-02, 5.62129989e-02, 1.77159999e-02 ]
      - [ 6.55860007e-02, 6.41670004e-02, 6.39469996e-02, 6.31489977e-02,
          6.19870014e-02, 6.12820014e-02, 6.08800016e-02, 6.00889996e-02,
          6.00630008e-02, 5.98479994e-02, 4.42430004e-02, 7.88199995e-03 ]
      - [ 7.18080029e-02, 6.32200018e-02, 6.02689981e-02, 5.65970019e-02,
          5.43209985e-02, 5.37989996e-02, 5.37850000e-02, 5.32249995e-02,
          5.30330017e-02, 5.17949983e-02, 3.95869985e-02, 7.72600016e-03 ]
      - [ 6.99540004e-02, 6.96320012e-02, 6.30619973e-02, 6.25440031e-02,
          6.03960007e-02, 5.98260015e-02, 5.92599995e-02, 5.92349991e-02,
          5.88149987e-02, 5.85369989e-02, 4.34850007e-02, 8.32999963e-03 ]
      - [ 6.64390028e-02, 6.52130023e-02, 6.47090003e-02, 6.37440011e-02,
          6.27380013e-02, 5.97740002e-02, 5.88430017e-02, 5.76459989e-02,
          5.74590005e-02, 5.69210015e-02, 4.31520008e-02, 7.82900024e-03 ]
      - [ 7.45040029e-02, 7.41399974e-02, 7.03829974e-02, 7.00839981e-02,
          6.74920008e-02, 6.54079989e-02, 6.38120025e-02, 6.28369972e-02,
          6.21129982e-02, 6.11599982e-02, 4.56379987e-02, 9.72600002e-03 ]
      - [ 6.33750036e-02, 5.72590008e-02, 5.46859987e-02, 5.40780015e-02,
          5.39509989e-02, 5.32919988e-02, 4.95299995e-02, 4.90810014e-02,
          4.90689985e-02, 4.84899990e-02, 3.63110006e-02, 7.53699988e-03 ]
      - [ 6.70100003e-02, 6.48560002e-02, 6.13900013e-02, 5.87930009e-02,
          5.64550012e-02, 5.63820004e-02, 5.62950000e-02, 5.45409992e-02,
          5.43569997e-02, 5.27070016e-02, 4.17240001e-02, 7.51100015e-03 ]
      - [ 6.78009987e-02, 6.28729984e-02, 6.17589988e-02, 6.10440001e-02,
          6.08800016e-02, 6.03390001e-02, 5.94689995e-02, 5.86800016e-02,
          5.79940006e-02, 5.70259988e-02, 4.37459983e-02, 8.10700003e-03 ]
      - [ 8.02939981e-02, 7.66979977e-02, 7.25390017e-02, 7.11549968e-02,
          6.95559978e-02, 6.56839982e-02, 6.55369982e-02, 6.49179965e-02,
          6.41689971e-02, 6.34780005e-02, 4.53899987e-02, 1.04769999e-02 ]
      - [ 6.82659969e-02, 6.71140030e-02, 6.43120036e-02, 6.32079989e-02,
          6.23980016e-02, 6.14209995e-02, 6.07689992e-02, 6.01489991e-02,
          5.93970008e-02, 5.78790009e-02, 4.24229987e-02, 8.15199967e-03 ]
      - [ 7.02259988e-02, 7.01439977e-02, 5.72849996e-02, 5.72180003e-02,
          5.71440011e-02, 5.63470013e-02, 5.44200018e-02, 5.24480008e-02,
          5.16909994e-02, 5.10400012e-02, 3.98340002e-02, 7.94900022e-03 ]
      - [ 1.08373001e-01, 1.04328997e-01, 1.00817002e-01, 1.00097001e-01,
          9.95109975e-02, 9.94210020e-02, 9.17840004e-02, 8.39949995e-02,
          8.07550028e-02, 7.91509971e-02, 5.35480008e-02, 1.76260006e-02 ]
      - [ 6.26140013e-02, 5.96879981e-02, 5.73530011e-02, 5.70279993e-02,
          5.58089986e-02, 5.48259988e-02, 5.41029982e-02, 5.35680018e-02,
          5.25370017e-02, 5.16850017e-02, 3.94699983e-02, 7.77099980e-03 ]
      - [ 7.30710030e-02, 6.79780021e-02, 5.90189993e-02, 5.82179986e-02,
          5.80630004e-02, 5.79629987e-02, 5.70469983e-02, 5.54139987e-02,
          5.44660017e-02, 5.42609990e-02, 4.04449999e-02, 8.50200001e-03 ]
      - [ 7.71280006e-02, 6.79730028e-02, 6.63750023e-02, 6.51369989e-02,
          6.35609999e-02, 6.33879974e-02, 6.31949976e-02, 6.12669997e-02,
          5.44449985e-02, 5.40309995e-02, 4.32729982e-02, 8.60300008e-03 ]
      - [ 4.82270010e-02, 4.68269996e-02, 4.64040004e-02, 4.50880006e-02,
          4.40040007e-02, 4.33849990e-02, 4.33639996e-02, 4.30929996e-02,
          4.27270010e-02, 4.25530002e-02, 3.45409997e-02, 5.00300014e-03 ]
      - [ 6.37260005e-02, 6.34199977e-02, 6.33819997e-02, 6.17359988e-02,
          6.04889989e-02, 5.90570010e-02, 5.80990016e-02, 5.63170016e-02,
          5.61969988e-02, 5.54849990e-02, 4.18209992e-02, 7.76600000e-03 ]
      - [ 7.49069974e-02, 7.28709996e-02, 7.12340027e-02, 7.02539980e-02,
          6.83609992e-02, 6.82659969e-02, 6.40729964e-02, 6.24170005e-02,
          6.08050004e-02, 5.83890006e-02, 4.38529998e-02, 1.08319996e-02 ]
      - [ 6.27150014e-02, 5.96509986e-02, 5.91760017e-02, 5.91380000e-02,
          5.86960018e-02, 5.34409992e-02, 5.24469987e-02, 5.22510000e-02,
          5.18880002e-02, 5.02200015e-02, 4.03660014e-02, 6.73499983e-03 ]
      - [ 6.27219975e-02, 6.03230000e-02, 5.98330013e-02, 5.96220009e-02,
          5.78310005e-02, 5.76989986e-02, 5.73190004e-02, 5.64659983e-02,
          5.53839989e-02, 5.39960004e-02, 4.24060002e-02, 7.41499988e-03 ]
      - [ 6.12419993e-02, 5.98499998e-02, 5.93089983e-02, 5.75819984e-02,
          5.62359989e-02, 5.60140014e-02, 5.45919985e-02, 5.37000000e-02,
          5.36010005e-02, 5.11020012e-02, 4.10959981e-02, 1.02329999e-02 ]
      - [ 7.68930018e-02, 7.28719980e-02, 6.75640032e-02, 6.38990030e-02,
          6.24569990e-02, 5.92200011e-02, 5.92049994e-02, 5.89089990e-02,
          5.72549999e-02, 5.63330017e-02, 4.37670015e-02, 8.50399956e-03 ]
      - [ 7.67820030e-02, 6.61719963e-02, 6.42810017e-02, 6.42269999e-02,
          6.34000003e-02, 6.19550012e-02, 5.86920008e-02, 5.64810000e-02,
          5.55270016e-02, 5.46550006e-02, 3.96570005e-02, 9.33100004e-03 ]
      - [ 6.93159997e-02, 6.81160018e-02, 6.78500012e-02, 6.23760000e-02,
          5.79980016e-02, 5.75390011e-02, 5.74599989e-02, 5.55929989e-02,
          5.51359989e-02, 5.44519983e-02, 4.11899984e-02, 9.60300025e-03 ]
      - [ 6.13070019e-02, 5.86480014e-02, 5.36010005e-02, 5.24270013e-02,
          5.17320000e-02, 5.12400009e-02, 5.11820018e-02, 5.10439985e-02,
          4.96409982e-02, 4.94350009e-02, 3.88880000e-02, 6.65700017e-03 ]
      - [ 6.13359995e-02, 6.03390001e-02, 6.00350015e-02, 5.70929982e-02,
          5.53920008e-02, 5.52400015e-02, 5.31780012e-02, 4.95290011e-02,
          4.86279987e-02, 4.74190004e-02, 3.70859988e-02, 7.54499994e-03 ]
      - [ 6.43220022e-02, 6.30239993e-02, 6.27259985e-02, 6.26069978e-02,
          6.25979975e-02, 6.20910004e-02, 6.13869987e-02, 6.01230003e-02,
          5.95559999e-02, 5.82929999e-02, 4.15979996e-02, 8.83699954e-03 ]
      - [ 6.28580004e-02, 6.13589995e-02, 5.88009991e-02, 5.66690005e-02,
          5.60280010e-02, 5.57140000e-02, 5.15230000e-02, 5.12199998e-02,
          5.01080006e-02, 4.99330014e-02, 3.97079997e-02, 7.57399993e-03 ]
      - [ 5.50450012e-02, 4.50429991e-02, 4.39319983e-02, 4.32039984e-02,
          4.27489989e-02, 4.24299985e-02, 4.20489982e-02, 4.17389981e-02,
          4.16910015e-02, 4.13549989e-02, 3.51109989e-02, 5.52499993e-03 ]
      - [ 6.92979991e-02, 6.29549995e-02, 6.15039989e-02, 6.11190014e-02,
          6.06140010e-02, 6.00770004e-02, 5.79719990e-02, 5.77180013e-02,
          5.22430018e-02, 5.20370007e-02, 3.98689993e-02, 8.22100043e-03 ]
      - [ 6.61749989e-02, 6.34920001e-02, 6.20919988e-02, 5.85750006e-02,
          5.73690012e-02, 5.72290011e-02, 5.49779981e-02, 5.38219996e-02,
          5.20889983e-02, 5.19890003e-02, 4.09560017e-02, 7.63599994e-03 ]
      - [ 6.18060008e-02, 5.92820011e-02, 5.85019998e-02, 5.79110011e-02,
          5.68590015e-02, 5.67170009e-02, 5.47300018e-02, 5.37090003e-02,
          5.31160012e-02, 5.26929982e-02, 4.22579981e-02, 8.06399994e-03 ]
      - [ 7.29039982e-02, 7.13360012e-02, 7.03179985e-02, 6.44769967e-02,
          6.42179996e-02, 6.33570030e-02, 6.30149990e-02, 6.08879998e-02,
          6.08020015e-02, 6.01870008e-02, 4.56210002e-02, 1.02990000e-02 ]
      - [ 7.38589987e-02, 7.19299987e-02, 6.38369992e-02, 6.21649995e-02,
          6.20770007e-02, 5.68300001e-02, 5.63240014e-02, 5.57530001e-02,
          5.54100014e-02, 5.47409989e-02, 4.23949994e-02, 9.98600014e-03 ]
      - [ 6.82749972e-02, 6.32620007e-02, 6.20860010e-02, 6.14410006e-02,
          6.07229993e-02, 5.99489994e-02, 5.87400012e-02, 5.49560003e-02,
          5.41139990e-02, 5.39450012e-02, 3.89089994e-02, 8.77000019e-03 ]
      - [ 6.89160004e-02, 6.46099970e-02, 6.16290011e-02, 5.99609986e-02,
          5.95160015e-02, 5.85100017e-02, 5.76910004e-02, 5.48360012e-02,
          5.22839986e-02, 5.20920008e-02, 4.28170003e-02, 7.32500013e-03 ]
      - [ 6.20179996e-02, 5.93670011e-02, 5.87479994e-02, 5.78220002e-02,
          5.74459992e-02, 5.71670011e-02, 5.65549992e-02, 5.59220016e-02,
          5.34659997e-02, 5.17240018e-02, 3.81379984e-02, 7.70899979e-03 ]
      - [ 7.59899989e-02, 7.00500011e-02, 6.51310012e-02, 6.37179986e-02,
          5.70459999e-02, 5.46710007e-02, 5.20580001e-02, 5.18650003e-02,
          5.11670001e-02, 4.77750003e-02, 4.09660004e-02, 1.03559997e-02 ]
      - [ 6.84589967e-02, 6.59499988e-02, 6.47760034e-02, 6.38799965e-02,
          6.38749972e-02, 6.32560030e-02, 6.16849996e-02, 6.05500005e-02,
          5.86999990e-02, 5.80819994e-02, 4.13170010e-02, 1.01009998e-02 ]
      - [ 6.44799992e-02, 6.25180006e-02, 5.59520014e-02, 5.36499992e-02,
          5.36260009e-02, 5.31699993e-02, 5.25499992e-02, 5.02309985e-02,
          4.96950001e-02, 4.87559997e-02, 3.64030004e-02, 7.99799990e-03 ]
      - [ 7.63669983e-02, 6.96400031e-02, 6.78350031e-02, 6.67790025e-02,
          6.31159991e-02, 6.04179986e-02, 5.86690009e-02, 5.82620017e-02,
          5.72680011e-02, 5.67720011e-02, 4.17639986e-02, 8.54600035e-03 ]
      - [ 6.78659976e-02, 6.29749969e-02, 6.25619963e-02, 6.08789995e-02,
          5.95830008e-02, 5.91219999e-02, 5.85689992e-02, 5.84880002e-02,
          5.52939996e-02, 5.46230003e-02, 4.04709987e-02, 7.63999997e-03 ]
      - [ 6.60120025e-02, 6.46549985e-02, 6.45060018e-02, 6.24970011e-02,
          6.18019998e-02, 5.88809997e-02, 5.85930012e-02, 5.58530018e-02,
          5.39610013e-02, 5.35009988e-02, 4.11159992e-02, 7.67099997e-03 ]
      - [ 6.50549978e-02, 6.36620000e-02, 6.20989986e-02, 6.20930009e-02,
          6.20319992e-02, 6.15429990e-02, 6.08900003e-02, 5.63750006e-02,
          5.56689985e-02, 5.50319999e-02, 4.36399989e-02, 7.46400002e-03 ]
      - [ 1.20929003e-01, 1.16798997e-01, 1.16337001e-01, 1.12411998e-01,
          1.07152998e-01, 1.04808003e-01, 1.02268003e-01, 9.99550000e-02,
          9.94570032e-02, 9.89409983e-02, 6.14169985e-02, 2.48169992e-02 ]
      - [ 6.33599982e-02, 6.21500015e-02, 6.14829995e-02, 5.87939993e-02,
          5.65759987e-02, 5.60709983e-02, 5.59029989e-02, 5.48139997e-02,
          5.47370017e-02, 5.44890016e-02, 4.06470001e-02, 7.69399991e-03 ]
      - [ 7.93519989e-02, 7.82499984e-02, 7.66519979e-02, 7.57649988e-02,
          7.31989965e-02, 6.95329979e-02, 6.85930029e-02, 6.66870028e-02,
          6.55959994e-02, 6.27660006e-02, 4.44729999e-02, 1.13089997e-02 ]
      - [ 5.40149994e-02, 4.96429987e-02, 4.91219983e-02, 4.73200008e-02,
          4.50530015e-02, 4.41490002e-02, 4.40619998e-02, 4.40240018e-02,
          4.40189987e-02, 4.39179987e-02, 3.52299996e-02, 5.90799982e-03 ]
      - [ 7.54659995e-02, 6.47659972e-02, 6.01450019e-02, 5.96400015e-02,
          5.94860017e-02, 5.90680018e-02, 5.83489984e-02, 5.76040000e-02,
          5.71819991e-02, 5.67659996e-02, 4.12040018e-02, 8.30900017e-03 ]
      - [ 6.54039979e-02, 6.16329983e-02, 5.80129996e-02, 5.64410016e-02,
          5.58639988e-02, 5.46290018e-02, 5.44009991e-02, 5.42499982e-02,
          5.41520007e-02, 5.37820011e-02, 4.01819982e-02, 8.40200018e-03 ]
      - [ 7.50190020e-02, 7.31009990e-02, 7.12400004e-02, 6.98269978e-02,
          6.96289986e-02, 6.94459975e-02, 6.68449998e-02, 6.61749989e-02,
          6.53510019e-02, 6.45790026e-02, 4.50700000e-02, 9.60000046e-03 ]
      - [ 7.14249983e-02, 6.52149990e-02, 6.44270033e-02, 6.37890026e-02,
          6.09889999e-02, 6.05570003e-02, 6.01090007e-02, 5.95729984e-02,
          5.76470010e-02, 5.74500002e-02, 4.32920009e-02, 8.03999975e-03 ]
      - [ 6.19519986e-02, 5.81929982e-02, 5.76630011e-02, 5.71670011e-02,
          5.63419983e-02, 5.53120002e-02, 5.47479987e-02, 5.36959991e-02,
          5.34359999e-02, 5.32799996e-02, 3.87750007e-02, 7.72099989e-03 ]
      - [ 6.57489970e-02, 6.16329983e-02, 6.12279996e-02, 5.94599992e-02,
          5.86629994e-02, 5.86410016e-02, 5.56560010e-02, 5.43619990e-02,
          5.34459986e-02, 5.28949983e-02, 3.96829993e-02, 8.15000013e-03 ]
      - [ 6.84349984e-02, 6.74550012e-02, 6.40320033e-02, 5.89510016e-02,
          5.75699992e-02, 5.32380007e-02, 5.28579988e-02, 4.98190001e-02,
          4.72309999e-02, 4.66240011e-02, 3.92870009e-02, 7.58400001e-03 ]
      - [ 5.79180010e-02, 5.52720018e-02, 5.36380000e-02, 5.06599993e-02,
          4.95789982e-02, 4.81970012e-02, 4.80559990e-02, 4.58699986e-02,
          4.57829982e-02, 4.45589982e-02, 3.60860005e-02, 7.12599978e-03 ]
      - [ 6.78839982e-02, 6.58269972e-02, 6.01870008e-02, 6.00919984e-02,
          5.73679991e-02, 5.64499982e-02, 5.55609986e-02, 5.51839992e-02,
          5.36150001e-02, 5.32240011e-02, 3.95460017e-02, 9.65499971e-03 ]
      - [ 7.19700009e-02, 6.88909963e-02, 6.53730035e-02, 6.46950006e-02,
          6.38210028e-02, 6.17629997e-02, 6.07119985e-02, 5.95679991e-02,
          5.90270013e-02, 5.83610013e-02, 4.55360003e-02, 7.20300013e-03 ]
      - [ 5.50599992e-02, 5.15750013e-02, 5.03030010e-02, 4.98039983e-02,
          4.89830002e-02, 4.86610010e-02, 4.81330007e-02, 4.79479991e-02,
          4.73220013e-02, 4.67969999e-02, 3.63579988e-02, 6.75499998e-03 ]
      - [ 9.89779979e-02, 9.64389965e-02, 9.42059979e-02, 8.46929997e-02,
          8.33019987e-02, 8.30660015e-02, 8.22819993e-02, 7.77710006e-02,
          7.27019981e-02, 7.03139976e-02, 4.93450016e-02, 1.90159995e-02 ]
      - [ 6.33900017e-02, 6.06810004e-02, 6.00249991e-02, 5.74409999e-02,
          5.64379990e-02, 5.63800000e-02, 5.56139983e-02, 5.46760000e-02,
          5.44399992e-02, 5.40019982e-02, 4.09089997e-02, 7.91400019e-03 ]
      - [ 6.62050024e-02, 6.28599972e-02, 6.27280027e-02, 5.49230017e-02,
          5.48719987e-02, 5.28259985e-02, 5.19809984e-02, 5.13390005e-02,
          5.07950000e-02, 5.07379994e-02, 3.95990014e-02, 7.70199997e-03 ]
      - [ 7.00739995e-02, 6.75290003e-02, 6.51480034e-02, 6.34239987e-02,
          6.32039979e-02, 6.18029982e-02, 6.17559999e-02, 6.02310002e-02,
          5.84629998e-02, 5.79750016e-02, 4.23649997e-02, 8.87400005e-03 ]
      - [ 6.31190017e-02, 5.96639998e-02, 5.93769997e-02, 5.91650009e-02,
          5.90000004e-02, 5.81610017e-02, 5.71210012e-02, 5.66379987e-02,
          5.62420003e-02, 5.58630005e-02, 4.02700007e-02, 8.80399998e-03 ]
      - [ 6.92399964e-02, 6.46890029e-02, 6.36309981e-02, 6.33620024e-02,
          6.32010028e-02, 6.31600022e-02, 6.23920001e-02, 6.22060001e-02,
          6.21670000e-02, 6.10169992e-02, 4.36789989e-02, 8.29800032e-03 ]
      - [ 7.65350014e-02, 7.57990032e-02, 6.55580014e-02, 6.29810020e-02,
          6.20360002e-02, 6.16099983e-02, 6.11380003e-02, 5.95749989e-02,
          5.78869991e-02, 5.77460006e-02, 4.32539992e-02, 9.55300033e-03 ]
      - [ 6.02380000e-02, 5.85800000e-02, 5.80050014e-02, 5.70540018e-02,
          5.30820005e-02, 5.21349981e-02, 5.16670011e-02, 4.92889993e-02,
          4.87539992e-02, 4.86770011e-02, 3.86280008e-02, 7.12000020e-03 ]
      - [ 6.57830015e-02, 6.45919964e-02, 6.39130026e-02, 6.34469986e-02,
          5.88129982e-02, 5.85259981e-02, 5.83029985e-02, 5.80129996e-02,
          5.76310009e-02, 5.68140000e-02, 3.98450010e-02, 9.23299976e-03 ]
      - [ 6.34559989e-02, 6.30030036e-02, 5.83369993e-02, 5.39500006e-02,
          5.27470000e-02, 5.19540012e-02, 5.12490012e-02, 5.10290004e-02,
          5.00929989e-02, 4.88240011e-02, 3.82059999e-02, 7.88000040e-03 ]
      - [ 6.97520003e-02, 6.87460005e-02, 6.85729980e-02, 5.90300001e-02,
          5.85619994e-02, 5.78529984e-02, 5.75879999e-02, 5.66519983e-02,
          5.61279990e-02, 5.40370010e-02, 4.17319983e-02, 7.69900018e-03 ]
      - [ 5.45499995e-02, 5.13609983e-02, 4.82480004e-02, 4.81420010e-02,
          4.72589992e-02, 4.71649989e-02, 4.70310003e-02, 4.49850000e-02,
          4.42459993e-02, 4.33170013e-02, 3.54220010e-02, 6.93899998e-03 ]
      - [ 6.47210032e-02, 6.41129985e-02, 6.08359985e-02, 5.76610006e-02,
          5.59859984e-02, 5.49670011e-02, 5.41820005e-02, 5.28570004e-02,
          5.19590005e-02, 5.13140000e-02, 4.17970009e-02, 6.90399995e-03 ]
      - [ 6.64979964e-02, 6.35550022e-02, 6.07360005e-02, 5.92049994e-02,
          5.91560006e-02, 5.84909990e-02, 5.79690002e-02, 5.62629998e-02,
          5.62339984e-02, 5.61450012e-02, 4.36029993e-02, 7.25999987e-03 ]
      - [ 6.34559989e-02, 6.22779988e-02, 6.17480017e-02, 6.03719987e-02,
          5.88309988e-02, 5.82210012e-02, 5.70910014e-02, 5.67689985e-02,
          5.64210005e-02, 5.49950004e-02, 4.19260003e-02, 7.37700006e-03 ]
      - [ 6.55279979e-02, 5.90259992e-02, 5.59859984e-02, 5.21689989e-02,
          5.19720018e-02, 5.16889989e-02, 5.12670018e-02, 4.97110002e-02,
          4.93239984e-02, 4.89489995e-02, 3.76739986e-02, 7.29200011e-03 ]
      - [ 6.50779977e-02, 6.19059987e-02, 5.90800010e-02, 5.85110001e-02,
          5.80109991e-02, 5.75589985e-02, 5.71390018e-02, 5.68590015e-02,
          5.61459996e-02, 5.40359989e-02, 4.11170013e-02, 7.66899996e-03 ]
      - [ 5.80319986e-02, 5.56310005e-02, 5.27709983e-02, 5.26399985e-02,
          5.25050014e-02, 5.09399995e-02, 5.01970015e-02, 4.97349985e-02,
          4.95040007e-02, 4.93629985e-02, 3.72520015e-02, 7.61700002e-03 ]
      - [ 1.25380993e-01, 1.23934999e-01, 1.22721002e-01, 1.19823001e-01,
          1.19119003e-01, 1.09595999e-01, 1.08530998e-01, 1.03944004e-01,
          9.82090011e-02, 9.79340002e-02, 6.57730028e-02, 2.39790007e-02 ]
      - [ 6.54890016e-02, 6.45020008e-02, 6.41399994e-02, 5.97940013e-02,
          5.82019985e-02, 5.76889999e-02, 5.58530018e-02, 5.58249988e-02,
          5.49140014e-02, 5.33629991e-02, 4.17149998e-02, 7.14100013e-03 ]
      - [ 1.34951994e-01, 1.30205005e-01, 1.15562998e-01, 1.10799998e-01,
          1.05719000e-01, 1.02268003e-01, 9.92890000e-02, 9.27970037e-02,
          9.09539983e-02, 8.82750005e-02, 6.22299984e-02, 2.35949997e-02 ]
      - [ 9.14700031e-02, 7.53289983e-02, 7.03089982e-02, 6.40750006e-02,
          6.38950020e-02, 6.34550005e-02, 6.18809983e-02, 6.07739985e-02,
          6.02339990e-02, 5.89720011e-02, 4.44319993e-02, 1.18749999e-02 ]
      - [ 6.26870021e-02, 5.96770011e-02, 5.83470017e-02, 5.68300001e-02,
          5.45799993e-02, 5.27539998e-02, 5.24750017e-02, 5.16560003e-02,
          5.15570007e-02, 5.14549986e-02, 3.98910008e-02, 7.26199988e-03 ]
      - [ 6.06379993e-02, 5.87669984e-02, 5.75300008e-02, 5.69170006e-02,
          5.32569997e-02, 5.05080000e-02, 5.00859991e-02, 4.81359996e-02,
          4.75470014e-02, 4.72639985e-02, 3.85529995e-02, 1.00269997e-02 ]
      - [ 1.18873000e-01, 1.13456003e-01, 1.07417002e-01, 9.51810032e-02,
          8.78499970e-02, 8.47200006e-02, 8.34010020e-02, 8.17290023e-02,
          8.03420022e-02, 8.00720006e-02, 5.08669987e-02, 1.58539992e-02 ]
      - [ 6.31769970e-02, 6.24510013e-02, 5.93959987e-02, 5.74500002e-02,
          5.50770015e-02, 5.41750006e-02, 5.26710004e-02, 5.26610017e-02,
          5.15719987e-02, 5.13140000e-02, 3.82529981e-02, 7.51199992e-03 ]
      - [ 9.95289981e-02, 9.74270031e-02, 9.71139967e-02, 9.44020003e-02,
          9.14800018e-02, 8.65020007e-02, 8.43769982e-02, 8.36170018e-02,
          8.32640007e-02, 8.27049986e-02, 5.97499982e-02, 1.70310009e-02 ]
      - [ 6.30360022e-02, 6.20590001e-02, 6.05439991e-02, 5.98040000e-02,
          5.93799986e-02, 5.77020012e-02, 5.73769994e-02, 5.49519993e-02,
          5.31429984e-02, 5.29149994e-02, 4.32350002e-02, 6.50499994e-03 ]
      - [ 6.09159991e-02, 5.53000011e-02, 5.36229983e-02, 5.21499999e-02,
          5.04439995e-02, 5.01599982e-02, 4.97939996e-02, 4.66689989e-02,
          4.59470004e-02, 4.59019989e-02, 3.66870016e-02, 6.64599985e-03 ]
      - [ 6.66529983e-02, 6.42779991e-02, 6.30230010e-02, 6.25009984e-02,
          5.79579994e-02, 5.79419993e-02, 5.54260015e-02, 5.49109988e-02,
          5.28820008e-02, 5.11419997e-02, 3.91589999e-02, 8.53700005e-03 ]
      - [ 5.95469996e-02, 5.76389991e-02, 5.63549995e-02, 5.53640015e-02,
          5.52430004e-02, 5.33009991e-02, 5.28150015e-02, 5.03959991e-02,
          4.94580008e-02, 4.87050004e-02, 4.04749997e-02, 6.94300001e-03 ]
      - [ 9.01060030e-02, 8.82389992e-02, 7.84450024e-02, 7.73660019e-02,
          7.73139969e-02, 7.72819966e-02, 7.64639974e-02, 7.55319968e-02,
          7.50880018e-02, 7.35870004e-02, 5.06459996e-02, 1.50549999e-02 ]
      - [ 6.94729984e-02, 6.31359965e-02, 5.83130009e-02, 5.82720004e-02,
          5.77059984e-02, 5.58249988e-02, 5.44119999e-02, 5.30500002e-02,
          5.24699986e-02, 5.21019995e-02, 4.15150002e-02, 8.07099976e-03 ]
      - [ 5.86320013e-02, 5.39110005e-02, 5.20830005e-02, 5.16269989e-02,
          5.15599996e-02, 4.96609993e-02, 4.77669984e-02, 4.72609997e-02,
          4.59409989e-02, 4.50920016e-02, 3.69589999e-02, 7.39900023e-03 ]
      - [ 6.75640032e-02, 6.43529966e-02, 5.65569997e-02, 5.46119995e-02,
          5.27979992e-02, 5.20710014e-02, 5.16609997e-02, 5.06930016e-02,
          5.05760014e-02, 4.74940017e-02, 3.82089987e-02, 8.87299981e-03 ]
      - [ 6.41330034e-02, 6.37980029e-02, 6.06050007e-02, 6.05809987e-02,
          5.92459999e-02, 5.87869994e-02, 5.86269982e-02, 5.78089990e-02,
          5.70419990e-02, 5.68550006e-02, 4.05230001e-02, 8.26099981e-03 ]
      - [ 9.60820019e-02, 9.10580009e-02, 8.92769992e-02, 8.50469992e-02,
          8.20740014e-02, 8.16389993e-02, 7.46639967e-02, 7.38599971e-02,
          6.78339973e-02, 6.55980036e-02, 4.80230004e-02, 1.49339996e-02 ]
      - [ 6.76689968e-02, 6.58610016e-02, 6.50589988e-02, 6.42929971e-02,
          6.35489970e-02, 6.31479993e-02, 5.87980002e-02, 5.80319986e-02,
          5.73999994e-02, 5.43179996e-02, 4.28639986e-02, 7.43399980e-03 ]
      - [ 7.07150027e-02, 6.28800020e-02, 6.25199974e-02, 6.23419993e-02,
          5.93269989e-02, 5.83649985e-02, 5.80449998e-02, 5.76980002e-02,
          5.64620011e-02, 5.63150011e-02, 4.29360010e-02, 8.36599991e-03 ]
      - [ 6.81179985e-02, 6.65600002e-02, 6.54029995e-02, 6.24050014e-02,
          6.21050000e-02, 6.07980005e-02, 6.07529990e-02, 6.03820011e-02,
          5.80560006e-02, 5.61980009e-02, 4.11349982e-02, 9.15300008e-03 ]
      - [ 5.90119995e-02, 5.74849993e-02, 5.70029989e-02, 5.53530008e-02,
          5.45849986e-02, 5.32369986e-02, 5.25129996e-02, 5.22460006e-02,
          5.03429994e-02, 5.02309985e-02, 3.65299992e-02, 7.28099979e-03 ]
      - [ 7.11999983e-02, 6.71119988e-02, 6.41290024e-02, 6.06580004e-02,
          5.93269989e-02, 5.76790012e-02, 5.73230013e-02, 5.64949997e-02,
          5.64830005e-02, 5.63049987e-02, 4.18599993e-02, 8.39199964e-03 ]
      - [ 6.60350025e-02, 6.25159964e-02, 6.12710007e-02, 5.96110001e-02,
          5.94579987e-02, 5.94240017e-02, 5.86859994e-02, 5.80140017e-02,
          5.69580011e-02, 5.68629988e-02, 4.24540006e-02, 7.02900020e-03 ]
      - [ 6.14309981e-02, 6.09810017e-02, 5.61299995e-02, 5.17470017e-02,
          5.11289984e-02, 5.08700013e-02, 4.96959984e-02, 4.95480001e-02,
          4.89430018e-02, 4.77030016e-02, 3.63450013e-02, 8.18900019e-03 ]
      - [ 6.84499964e-02, 6.47199973e-02, 5.97920008e-02, 5.85800000e-02,
          5.77359982e-02, 5.74910007e-02, 5.63660003e-02, 5.56229986e-02,
          5.18330000e-02, 5.16799986e-02, 3.81920002e-02, 8.97900015e-03 ]
      - [ 5.75640015e-02, 5.67389987e-02, 5.43369986e-02, 5.39110005e-02,
          5.27880006e-02, 5.21170013e-02, 5.20039983e-02, 5.08529991e-02,
          5.06789982e-02, 5.00660017e-02, 3.83099988e-02, 7.43100001e-03 ]
      - [ 6.82569966e-02, 6.80499971e-02, 6.78299963e-02, 6.16590008e-02,
          5.99180013e-02, 5.92500009e-02, 5.87520003e-02, 5.53289987e-02,
          5.37480004e-02, 5.35009988e-02, 4.07110006e-02, 9.60300025e-03 ]
      - [ 6.07260019e-02, 6.05189987e-02, 5.89380004e-02, 5.75259998e-02,
          5.71300015e-02, 5.71249984e-02, 5.49479984e-02, 5.47479987e-02,
          5.42900003e-02, 5.42029999e-02, 4.38259989e-02, 6.20600022e-03 ]
      - [ 6.76809996e-02, 6.22310005e-02, 6.12130016e-02, 5.97460009e-02,
          5.89860007e-02, 5.67199998e-02, 5.64589985e-02, 5.53180017e-02,
          5.29179983e-02, 5.25580011e-02, 4.11360003e-02, 7.02999998e-03 ]
      - [ 6.55770004e-02, 6.47680014e-02, 6.41909987e-02, 6.15670010e-02,
          6.11459985e-02, 5.89900017e-02, 5.81960008e-02, 5.80930002e-02,
          5.59299998e-02, 5.54089993e-02, 3.83579992e-02, 9.35600046e-03 ]
      - [ 6.18560016e-02, 6.16029985e-02, 5.47010005e-02, 5.40819988e-02,
          5.40679991e-02, 5.37969992e-02, 5.03470004e-02, 4.85409983e-02,
          4.54740003e-02, 4.45769988e-02, 3.82749997e-02, 6.70100003e-03 ]
      - [ 1.44463003e-01, 1.36402994e-01, 1.35528997e-01, 1.25071004e-01,
          1.22128002e-01, 1.20378003e-01, 1.18593998e-01, 1.14776999e-01,
          1.14703000e-01, 1.14160001e-01, 8.24579969e-02, 2.31219996e-02 ]
      - [ 8.96819979e-02, 8.95759985e-02, 8.82890001e-02, 8.66189972e-02,
          8.65769982e-02, 8.43740031e-02, 8.40959996e-02, 8.09049979e-02,
          7.82660022e-02, 7.27749988e-02, 4.89309989e-02, 1.62349995e-02 ]
      - [ 6.30149990e-02, 6.08309992e-02, 5.88189997e-02, 5.83169982e-02,
          5.64769991e-02, 5.53819984e-02, 5.42649999e-02, 5.27230017e-02,
          5.18350005e-02, 5.05330004e-02, 4.01859991e-02, 7.28699984e-03 ]
      - [ 7.29150027e-02, 7.07300007e-02, 6.89890012e-02, 6.84890002e-02,
          6.50589988e-02, 6.29680008e-02, 6.24070019e-02, 6.12480007e-02,
          6.08419999e-02, 6.04799986e-02, 4.44130003e-02, 9.02500004e-03 ]
      - [ 7.73309991e-02, 6.81350008e-02, 6.80710003e-02, 6.09439984e-02,
          5.89610003e-02, 5.74579984e-02, 5.72119989e-02, 5.49120009e-02,
          5.48960008e-02, 5.47909997e-02, 4.15350012e-02, 9.25299991e-03 ]
      - [ 5.89369982e-02, 5.88530004e-02, 5.83020002e-02, 5.78479990e-02,
          5.77200018e-02, 5.61770014e-02, 5.60690016e-02, 5.42399995e-02,
          5.40260002e-02, 5.28010018e-02, 4.16399986e-02, 6.71500014e-03 ]
      - [ 1.04038000e-01, 9.98789966e-02, 9.66169983e-02, 9.40880030e-02,
          9.17539969e-02, 9.11839977e-02, 8.63550007e-02, 8.29119980e-02,
          8.20510015e-02, 8.18009973e-02, 5.42420000e-02, 1.99510008e-02 ]
      - [ 6.63589984e-02, 6.55850023e-02, 6.48489967e-02, 6.21769987e-02,
          6.04510009e-02, 6.03500009e-02, 5.62440008e-02, 5.54639995e-02,
          5.47159985e-02, 5.46070002e-02, 4.10940014e-02, 8.74300022e-03 ]
      - [ 7.50679970e-02, 6.75539970e-02, 6.71510026e-02, 6.61669970e-02,
          6.32139966e-02, 6.29160032e-02, 6.11339994e-02, 5.93690015e-02,
          5.85660003e-02, 5.84740005e-02, 4.32940014e-02, 9.14500002e-03 ]
      - [ 6.72049969e-02, 6.46060035e-02, 6.25080019e-02, 6.21359982e-02,
          6.09299988e-02, 5.94890006e-02, 5.51090017e-02, 5.40289991e-02,
          5.40109985e-02, 5.31719998e-02, 3.91019993e-02, 9.10899974e-03 ]
      - [ 6.60030022e-02, 6.36769980e-02, 6.09619990e-02, 6.05759993e-02,
          5.94719984e-02, 5.80860004e-02, 5.80510013e-02, 5.60979992e-02,
          5.60510010e-02, 5.57189994e-02, 4.31010015e-02, 7.84599967e-03 ]
      - [ 5.72579987e-02, 5.38370013e-02, 5.15360013e-02, 5.10700010e-02,
          4.98830006e-02, 4.97669987e-02, 4.95549999e-02, 4.85120006e-02,
          4.74120006e-02, 4.61409986e-02, 3.58840004e-02, 6.77900016e-03 ]
      - [ 6.56109974e-02, 5.84749989e-02, 5.55679984e-02, 5.41040003e-02,
          5.37829995e-02, 5.35049997e-02, 5.31300008e-02, 5.21910004e-02,
          5.21010011e-02, 5.20250015e-02, 4.18080017e-02, 6.79800007e-03 ]
      - [ 6.71579987e-02, 6.38040006e-02, 6.35380000e-02, 6.19499981e-02,
          6.04549982e-02, 5.90360016e-02, 5.87939993e-02, 5.87689988e-02,
          5.78269996e-02, 5.72570004e-02, 4.14920002e-02, 8.51800013e-03 ]
      - [ 6.59079999e-02, 5.73720001e-02, 5.63919991e-02, 5.41529991e-02,
          5.41209988e-02, 5.28570004e-02, 5.14350012e-02, 5.12799993e-02,
          4.83979993e-02, 4.82230000e-02, 3.78660001e-02, 8.38499982e-03 ]
      - [ 6.66270033e-02, 6.52500018e-02, 6.52090013e-02, 6.37170002e-02,
          6.30619973e-02, 6.15140013e-02, 5.73810004e-02, 5.56799993e-02,
          5.52860014e-02, 5.52360006e-02, 4.26190011e-02, 8.32400005e-03 ]
      - [ 5.74579984e-02, 5.47440015e-02, 5.38740009e-02, 5.36920018e-02,
          5.32240011e-02, 5.19910008e-02, 4.98889983e-02, 4.94979993e-02,
          4.78960015e-02, 4.75509986e-02, 3.68180014e-02, 7.33599998e-03 ]
      - [ 7.42210001e-02, 7.36420006e-02, 7.32949972e-02, 7.22279996e-02,
          7.05389977e-02, 6.98119998e-02, 6.86760023e-02, 6.77409992e-02,
          6.65810034e-02, 6.56279996e-02, 4.60879989e-02, 1.24230003e-02 ]
      - [ 7.27559999e-02, 6.56299964e-02, 6.28649965e-02, 6.14770018e-02,
          6.10609986e-02, 6.04959987e-02, 6.03649989e-02, 5.96240014e-02,
          5.85459992e-02, 5.85220009e-02, 4.57420014e-02, 7.23600015e-03 ]
      - [ 6.56730011e-02, 6.15350008e-02, 6.01629987e-02, 5.97129986e-02,
          5.96849993e-02, 5.61649986e-02, 5.61389998e-02, 5.46290018e-02,
          5.16729988e-02, 4.94679995e-02, 3.89040001e-02, 8.47299956e-03 ]
      - [ 7.07560033e-02, 6.79539964e-02, 6.26590028e-02, 6.10710010e-02,
          6.07100017e-02, 6.02880009e-02, 5.97199984e-02, 5.92279993e-02,
          5.85490018e-02, 5.85080013e-02, 4.56809998e-02, 6.97800005e-03 ]
      - [ 7.42290020e-02, 6.89070001e-02, 6.62110001e-02, 6.22069985e-02,
          6.20010011e-02, 6.16470017e-02, 6.08760007e-02, 6.04190007e-02,
          6.03710003e-02, 5.94879985e-02, 4.67579998e-02, 7.46499980e-03 ]
      - [ 7.45100006e-02, 7.29200020e-02, 7.05450028e-02, 7.04519972e-02,
          6.77059963e-02, 6.73419982e-02, 6.69310018e-02, 6.58140033e-02,
          6.25279993e-02, 6.10570014e-02, 4.91390005e-02, 8.40600021e-03 ]
      - [ 6.71110004e-02, 6.57479987e-02, 6.23060018e-02, 6.12669997e-02,
          6.02519996e-02, 6.01699986e-02, 5.88719994e-02, 5.87380007e-02,
          5.85750006e-02, 5.77990003e-02, 4.35659997e-02, 7.45999999e-03 ]
      - [ 6.73599988e-02, 6.63570017e-02, 6.53610006e-02, 6.50089979e-02,
          6.48579970e-02, 6.39460012e-02, 6.04400001e-02, 5.73370010e-02,
          5.72439991e-02, 5.70590012e-02, 4.59269993e-02, 7.20500015e-03 ]
      - [ 6.17230013e-02, 5.84330000e-02, 5.78900017e-02, 5.74380010e-02,
          5.64329997e-02, 5.45470007e-02, 5.33739999e-02, 5.31600006e-02,
          5.21880016e-02, 5.21700010e-02, 4.07009982e-02, 7.09400000e-03 ]
      - [ 7.37629980e-02, 7.06539974e-02, 6.37279972e-02, 6.30740002e-02,
          6.07860014e-02, 5.77830002e-02, 5.76010011e-02, 5.69300018e-02,
          5.64600006e-02, 5.61939999e-02, 4.81639989e-02, 6.86800014e-03 ]
      - [ 6.52820021e-02, 6.16130009e-02, 6.15650006e-02, 6.08059987e-02,
          5.75429983e-02, 5.73469996e-02, 5.71609996e-02, 5.70820011e-02,
          5.68609983e-02, 5.57029992e-02, 4.40369993e-02, 6.37400011e-03 ]
      - [ 6.03259988e-02, 5.99500015e-02, 5.94829991e-02, 5.75259998e-02,
          5.69190010e-02, 5.68769984e-02, 5.50689995e-02, 5.44920005e-02,
          5.34709990e-02, 5.28809987e-02, 4.24759984e-02, 6.39900006e-03 ]
      - [ 6.17160015e-02, 6.11979999e-02, 6.05739988e-02, 6.05080016e-02,
          5.78740016e-02, 5.67039996e-02, 5.52560017e-02, 5.47470003e-02,
          5.46270013e-02, 5.46149984e-02, 4.14130017e-02, 7.61900004e-03 ]
      - [ 7.55100027e-02, 6.64630011e-02, 6.63010031e-02, 6.59499988e-02,
          6.58060014e-02, 6.49439991e-02, 6.33750036e-02, 6.32790029e-02,
          6.23780005e-02, 6.18439987e-02, 4.70479988e-02, 7.84400012e-03 ]
      - [ 6.66169971e-02, 6.59779981e-02, 6.20200001e-02, 5.91990016e-02,
          5.53839989e-02, 5.35820015e-02, 5.27600013e-02, 5.22270016e-02,
          4.99669984e-02, 4.97790016e-02, 4.00590003e-02, 7.89400004e-03 ]
      - [ 7.71500021e-02, 7.53989965e-02, 6.88449964e-02, 6.64630011e-02,
          6.48759976e-02, 6.38070032e-02, 6.36920035e-02, 6.30730018e-02,
          6.27869964e-02, 6.25450015e-02, 4.81350012e-02, 7.60899996e-03 ]
      - [ 6.86580017e-02, 6.67349994e-02, 6.36700019e-02, 6.33630008e-02,
          6.25490025e-02, 6.06469996e-02, 6.05540015e-02, 6.03000000e-02,
          5.84219992e-02, 5.79250008e-02, 4.62610014e-02, 6.85600005e-03 ]
      - [ 6.12660013e-02, 6.06379993e-02, 6.01300001e-02, 5.85860014e-02,
          5.81850000e-02, 5.65360002e-02, 5.62330000e-02, 5.59649989e-02,
          5.49420007e-02, 5.46180010e-02, 4.14829999e-02, 7.05899997e-03 ]
      - [ 6.96339980e-02, 6.44500032e-02, 6.15149997e-02, 6.12910017e-02,
          6.00700006e-02, 5.94080016e-02, 5.88449985e-02, 5.77189997e-02,
          5.75460009e-02, 5.71379997e-02, 4.57400009e-02, 7.61000020e-03 ]
      - [ 6.14189990e-02, 6.09060004e-02, 5.96770011e-02, 5.75039983e-02,
          5.69900014e-02, 5.62909991e-02, 5.37540019e-02, 5.28649986e-02,
          5.20800017e-02, 5.19989990e-02, 3.86399999e-02, 7.70699978e-03 ]
      - [ 6.58719987e-02, 6.37279972e-02, 6.15780018e-02, 6.00210018e-02,
          5.96570000e-02, 5.95720001e-02, 5.92180006e-02, 5.84650002e-02,
          5.79920001e-02, 5.70430011e-02, 4.51349989e-02, 7.15500023e-03 ]
      - [ 6.73360005e-02, 6.55469969e-02, 6.43439963e-02, 6.41290024e-02,
          6.06289990e-02, 6.03189990e-02, 5.98409995e-02, 5.90710007e-02,
          5.79609983e-02, 5.73460013e-02, 4.70950007e-02, 6.62800018e-03 ]
      - [ 8.08100030e-02, 7.22450018e-02, 6.93930015e-02, 6.48069978e-02,
          5.93839996e-02, 5.76590002e-02, 5.73539995e-02, 5.71010001e-02,
          5.57189994e-02, 5.54450005e-02, 4.61190008e-02, 6.68000011e-03 ]
      - [ 7.86300004e-02, 7.46340007e-02, 6.99020028e-02, 6.85650036e-02,
          6.60120025e-02, 6.59229979e-02, 6.43680021e-02, 6.31510019e-02,
          6.20799996e-02, 5.67639992e-02, 4.56009991e-02, 8.88399966e-03 ]
      - [ 6.28539994e-02, 5.97239994e-02, 5.88119999e-02, 5.56429997e-02,
          5.44600002e-02, 5.31169996e-02, 5.30439988e-02, 5.23280017e-02,
          5.17820008e-02, 5.14720008e-02, 4.03410010e-02, 6.98400009e-03 ]
      - [ 6.53119981e-02, 6.51429966e-02, 6.39929995e-02, 6.31859973e-02,
          6.13350011e-02, 5.87669984e-02, 5.83759993e-02, 5.56150004e-02,
          5.42099997e-02, 5.32119982e-02, 4.37860005e-02, 7.78099988e-03 ]
      - [ 7.59039968e-02, 6.97109997e-02, 6.16400018e-02, 5.90669997e-02,
          5.88329993e-02, 5.85450009e-02, 5.81570007e-02, 5.79329990e-02,
          5.79070002e-02, 5.78520000e-02, 4.64840010e-02, 6.86200010e-03 ]
      - [ 6.79050013e-02, 6.58690035e-02, 6.53859973e-02, 6.45660013e-02,
          6.41409978e-02, 6.16349988e-02, 6.05489984e-02, 5.99749982e-02,
          5.89849986e-02, 5.89319989e-02, 4.34870012e-02, 9.46099963e-03 ]
      - [ 8.53409991e-02, 8.21039975e-02, 8.20159987e-02, 7.09839985e-02,
          6.46630004e-02, 6.23309985e-02, 6.06870018e-02, 6.02280013e-02,
          5.99259995e-02, 5.54520003e-02, 4.76949997e-02, 8.47200025e-03 ]
      - [ 6.95500001e-02, 6.60850033e-02, 6.44130036e-02, 6.34829998e-02,
          6.23550005e-02, 6.22150004e-02, 6.09919988e-02, 6.02359995e-02,
          5.97070009e-02, 5.80440015e-02, 4.39880006e-02, 8.69399961e-03 ]
      - [ 6.31880015e-02, 6.26119971e-02, 5.64489998e-02, 5.51039986e-02,
          5.33379987e-02, 5.28119989e-02, 5.20000011e-02, 5.02820015e-02,
          4.98280004e-02, 4.90429997e-02, 4.01120000e-02, 7.32900016e-03 ]
      - [ 7.51139969e-02, 7.33269975e-02, 6.18910007e-02, 5.96529990e-02,
          5.91670014e-02, 5.86740002e-02, 5.65290004e-02, 5.65139987e-02,
          5.38240001e-02, 5.38210012e-02, 4.32429984e-02, 7.02500017e-03 ]
      - [ 7.72349983e-02, 7.20530003e-02, 6.92920014e-02, 6.86760023e-02,
          6.79579973e-02, 6.55229986e-02, 6.37380034e-02, 6.30059987e-02,
          6.25210032e-02, 6.22680001e-02, 4.82320003e-02, 8.04399978e-03 ]
      - [ 6.99520037e-02, 6.20470010e-02, 6.16080016e-02, 5.88640012e-02,
          5.78580014e-02, 5.71359992e-02, 5.58760017e-02, 5.55090010e-02,
          5.53870015e-02, 5.53190000e-02, 4.17000018e-02, 7.63700018e-03 ]
      - [ 5.75690009e-02, 5.65130003e-02, 5.64749986e-02, 5.58280014e-02,
          5.55690005e-02, 5.54420017e-02, 5.52560017e-02, 5.50319999e-02,
          5.49309999e-02, 5.44160008e-02, 4.19940017e-02, 6.93499995e-03 ]
      - [ 6.58560023e-02, 6.41990006e-02, 6.27759993e-02, 6.21660016e-02,
          6.17950000e-02, 6.06830008e-02, 5.92439994e-02, 5.90629987e-02,
          5.86129986e-02, 5.85910007e-02, 4.45589982e-02, 7.45199993e-03 ]
      - [ 8.07600021e-02, 7.87909999e-02, 7.22120032e-02, 6.73469976e-02,
          6.53380007e-02, 6.26149997e-02, 5.97999990e-02, 5.86570017e-02,
          5.86099997e-02, 5.82690015e-02, 4.38680016e-02, 9.93499998e-03 ]
      - [ 7.47030005e-02, 7.16850013e-02, 7.02610016e-02, 6.97000027e-02,
          6.76729977e-02, 6.59079999e-02, 6.34049997e-02, 6.22069985e-02,
          6.20660000e-02, 6.18890002e-02, 4.73610014e-02, 7.45100016e-03 ]
      - [ 7.12329969e-02, 6.57380000e-02, 6.37110025e-02, 6.20360002e-02,
          6.07919991e-02, 6.05169982e-02, 6.00150004e-02, 5.74960001e-02,
          5.71620017e-02, 5.61489984e-02, 4.45539989e-02, 7.13399984e-03 ]
      - [ 6.44880012e-02, 6.09829985e-02, 6.03680015e-02, 6.02400005e-02,
          6.01399988e-02, 5.86800016e-02, 5.72980009e-02, 5.48340008e-02,
          5.44059984e-02, 5.31999990e-02, 4.60669994e-02, 5.87699981e-03 ]
      - [ 7.71370009e-02, 6.96749985e-02, 6.67089969e-02, 6.55059963e-02,
          6.44140020e-02, 6.40079975e-02, 6.20779991e-02, 5.86879998e-02,
          5.83279990e-02, 5.82370013e-02, 4.89300005e-02, 7.27399997e-03 ]
      - [ 5.96490018e-02, 5.94349988e-02, 5.88620007e-02, 5.61450012e-02,
          5.61069995e-02, 5.57399988e-02, 5.57090007e-02, 5.46809994e-02,
          5.45910001e-02, 5.25190011e-02, 4.15600017e-02, 6.59700017e-03 ]
      - [ 7.37090036e-02, 7.37010017e-02, 6.62949979e-02, 6.40669987e-02,
          6.39180019e-02, 6.33879974e-02, 6.15460016e-02, 6.13889992e-02,
          6.13589995e-02, 5.95370010e-02, 4.83720005e-02, 7.97499996e-03 ]
      - [ 7.26369992e-02, 7.01619983e-02, 6.98570013e-02, 6.97280020e-02,
          6.73519969e-02, 6.54240027e-02, 6.53690025e-02, 6.47879988e-02,
          6.43370003e-02, 6.26029968e-02, 4.45250012e-02, 8.98400042e-03 ]
      - [ 6.81369975e-02, 6.42729998e-02, 6.36579990e-02, 6.27020001e-02,
          6.17399998e-02, 6.10859990e-02, 5.89150004e-02, 5.59399985e-02,
          5.53440005e-02, 5.52739985e-02, 4.27960008e-02, 7.58300023e-03 ]
      - [ 7.54550025e-02, 6.71280026e-02, 6.44360036e-02, 6.40560016e-02,
          6.34640008e-02, 6.30479977e-02, 6.17460012e-02, 5.88289984e-02,
          5.79719990e-02, 5.71100004e-02, 4.81109992e-02, 6.81000017e-03 ]
      - [ 8.17790031e-02, 7.15740025e-02, 7.09050000e-02, 6.98089972e-02,
          6.85340017e-02, 6.81959987e-02, 6.37769997e-02, 6.07200004e-02,
          6.03369996e-02, 5.89010008e-02, 4.50589992e-02, 8.61399993e-03 ]
      - [ 6.15780018e-02, 6.11170009e-02, 6.06160015e-02, 5.61730005e-02,
          5.59660010e-02, 5.58499992e-02, 5.54450005e-02, 5.43729998e-02,
          5.41119985e-02, 5.39689995e-02, 4.21399996e-02, 7.28000002e-03 ]
      - [ 7.71400034e-02, 6.63819984e-02, 6.05310015e-02, 5.89039996e-02,
          5.86390011e-02, 5.77280000e-02, 5.38490005e-02, 5.15960008e-02,
          5.08930013e-02, 5.08220010e-02, 4.24569994e-02, 7.40299979e-03 ]
      - [ 6.33279979e-02, 6.21859990e-02, 6.21110015e-02, 5.93929999e-02,
          5.93330003e-02, 5.86180016e-02, 5.80499992e-02, 5.73390014e-02,
          5.72739989e-02, 5.60909994e-02, 4.39909995e-02, 7.06399977e-03 ]
      - [ 7.41200000e-02, 7.04120025e-02, 6.31410033e-02, 6.19469993e-02,
          6.06589988e-02, 6.05299994e-02, 5.52139990e-02, 5.41619994e-02,
          5.40219992e-02, 5.33739999e-02, 4.13959995e-02, 8.81600007e-03 ]
      - [ 6.98190033e-02, 6.90039992e-02, 6.64680004e-02, 6.47850037e-02,
          6.36890009e-02, 6.25109971e-02, 6.16169982e-02, 5.94700016e-02,
          5.72800003e-02, 5.72579987e-02, 4.26849984e-02, 8.09300039e-03 ]
      - [ 6.34619966e-02, 6.03919998e-02, 5.97340018e-02, 5.90520017e-02,
          5.82670011e-02, 5.80639988e-02, 5.73659986e-02, 5.68480007e-02,
          5.49240001e-02, 5.47229983e-02, 4.23090011e-02, 7.21300021e-03 ]
      - [ 8.12029988e-02, 8.05270001e-02, 7.61419982e-02, 7.50510022e-02,
          7.16530010e-02, 6.97309971e-02, 6.74510002e-02, 6.57560006e-02,
          6.55879974e-02, 6.42670020e-02, 4.88639995e-02, 9.08300001e-03 ]
      - [ 6.52500018e-02, 6.10679984e-02, 6.01309985e-02, 5.95959984e-02,
          5.51740006e-02, 5.40379994e-02, 5.31800017e-02, 5.24649993e-02,
          5.21459989e-02, 5.21420017e-02, 4.43410017e-02, 6.35700021e-03 ]
      - [ 7.00519979e-02, 6.83749989e-02, 6.55110031e-02, 6.12029992e-02,
          6.07720017e-02, 5.98939992e-02, 5.77149987e-02, 5.72529994e-02,
          5.62019981e-02, 5.44320010e-02, 4.38309982e-02, 8.50200001e-03 ]
      - [ 8.16150010e-02, 7.77919963e-02, 7.31130019e-02, 7.28890002e-02,
          7.25070015e-02, 7.05979988e-02, 7.04270005e-02, 7.02480003e-02,
          6.95120022e-02, 6.51639998e-02, 5.03059998e-02, 9.67600010e-03 ]
      - [ 7.90909976e-02, 7.69179985e-02, 7.25589991e-02, 6.89769983e-02,
          6.84610009e-02, 6.79820031e-02, 6.61439970e-02, 6.31589964e-02,
          6.13459982e-02, 5.98959997e-02, 4.83379997e-02, 7.82200042e-03 ]
      - [ 7.50709996e-02, 6.50819987e-02, 6.27499968e-02, 6.24740012e-02,
          6.20869994e-02, 6.10430017e-02, 6.08640015e-02, 6.05870001e-02,
          6.01180010e-02, 6.01169989e-02, 4.64660004e-02, 7.96199962e-03 ]
      - [ 6.41670004e-02, 6.40489981e-02, 6.32440001e-02, 5.91979995e-02,
          5.88820018e-02, 5.79690002e-02, 5.78889996e-02, 5.70919998e-02,
          5.68570010e-02, 5.65799996e-02, 4.46220003e-02, 6.71900017e-03 ]
      - [ 7.48640001e-02, 7.16990009e-02, 7.07800016e-02, 7.00699985e-02,
          6.98560029e-02, 6.91620037e-02, 6.58480003e-02, 6.58069998e-02,
          6.52640015e-02, 6.51609972e-02, 4.81560007e-02, 8.55000038e-03 ]
      - [ 6.28129989e-02, 6.26479983e-02, 6.13939986e-02, 6.05759993e-02,
          5.94029985e-02, 5.91670014e-02, 5.88800013e-02, 5.79000004e-02,
          5.76499999e-02, 5.72860017e-02, 4.21440005e-02, 7.67599978e-03 ]
      - [ 6.71750009e-02, 6.15319982e-02, 6.06699996e-02, 6.02950007e-02,
          5.92160001e-02, 5.78019992e-02, 5.76119982e-02, 5.75830005e-02,
          5.74119985e-02, 5.72989993e-02, 4.61869985e-02, 6.52300008e-03 ]
      - [ 6.58809990e-02, 6.56839982e-02, 6.51009977e-02, 6.36349991e-02,
          6.31200001e-02, 6.29530028e-02, 6.28490001e-02, 5.79629987e-02,
          5.63700013e-02, 5.60050011e-02, 4.48210016e-02, 6.88199978e-03 ]
      - [ 7.89949968e-02, 7.78499991e-02, 7.41410032e-02, 7.23910034e-02,
          6.93639964e-02, 6.86749965e-02, 6.63760006e-02, 6.54570013e-02,
          6.27830029e-02, 6.25099987e-02, 5.04399985e-02, 8.65300000e-03 ]
      - [ 6.72020018e-02, 6.40420020e-02, 6.08510002e-02, 6.01809993e-02,
          5.94380014e-02, 5.93490005e-02, 5.90530001e-02, 5.81189990e-02,
          5.78229986e-02, 5.47990017e-02, 4.14509997e-02, 7.96000008e-03 ]
      - [ 6.08999990e-02, 5.66629991e-02, 5.54739982e-02, 5.02270013e-02,
          5.01650013e-02, 4.98259999e-02, 4.97540012e-02, 4.94929999e-02,
          4.88229990e-02, 4.76269983e-02, 4.13980000e-02, 5.31500019e-03 ]
      - [ 6.54079989e-02, 6.50890023e-02, 5.87389991e-02, 5.78910001e-02,
          5.76420017e-02, 5.75909987e-02, 5.65130003e-02, 5.51420003e-02,
          5.40499985e-02, 5.38210012e-02, 4.52359989e-02, 5.89600019e-03 ]
      - [ 7.33119994e-02, 7.04329982e-02, 6.29879981e-02, 5.86519986e-02,
          5.84390014e-02, 5.76159991e-02, 5.55349998e-02, 5.54240011e-02,
          5.43209985e-02, 5.40300012e-02, 4.17650007e-02, 7.75700016e-03 ]
      - [ 7.00929984e-02, 6.94599971e-02, 6.94039986e-02, 6.72440007e-02,
          6.42839968e-02, 6.03380017e-02, 6.01200014e-02, 5.98040000e-02,
          5.85369989e-02, 5.84710017e-02, 4.59740013e-02, 7.32300011e-03 ]
      - [ 8.70829970e-02, 8.25069994e-02, 7.45519996e-02, 6.87649995e-02,
          6.75270036e-02, 6.71399981e-02, 6.63079992e-02, 6.41710013e-02,
          6.26830012e-02, 6.16020001e-02, 5.11370003e-02, 8.21399968e-03 ]
      - [ 7.29819983e-02, 7.04390034e-02, 6.44320026e-02, 6.41819984e-02,
          6.36710003e-02, 6.18110001e-02, 5.90489991e-02, 5.83879985e-02,
          5.77999987e-02, 5.68130016e-02, 4.65550013e-02, 6.68800017e-03 ]
      - [ 6.71150014e-02, 6.39619976e-02, 6.37610033e-02, 6.25519976e-02,
          6.22499995e-02, 6.04350008e-02, 5.77820018e-02, 5.76069988e-02,
          5.66340014e-02, 5.61090000e-02, 4.72249985e-02, 6.03700010e-03 ]
      - [ 7.45309964e-02, 7.27239996e-02, 6.91860020e-02, 6.22549988e-02,
          6.21289983e-02, 6.11950010e-02, 6.10660017e-02, 6.08079992e-02,
          6.02930002e-02, 6.00319989e-02, 4.81709987e-02, 7.67400023e-03 ]
      - [ 6.63150027e-02, 6.58710003e-02, 6.32010028e-02, 6.31520003e-02,
          6.13240004e-02, 5.98310009e-02, 5.84440008e-02, 5.76619990e-02,
          5.57460003e-02, 5.50470017e-02, 4.22869995e-02, 7.56999990e-03 ]
      - [ 7.62239993e-02, 7.39360005e-02, 6.82419986e-02, 6.72779977e-02,
          6.52690008e-02, 6.36639968e-02, 6.35169968e-02, 6.26790002e-02,
          6.25249967e-02, 6.19740002e-02, 4.80390005e-02, 7.39399996e-03 ]
      - [ 7.03940019e-02, 6.20420016e-02, 6.07840009e-02, 6.00380003e-02,
          5.98459989e-02, 5.95190004e-02, 5.84940016e-02, 5.76069988e-02,
          5.75530007e-02, 5.68020009e-02, 4.39000018e-02, 7.13900011e-03 ]
      - [ 6.98970035e-02, 6.49809986e-02, 6.11310005e-02, 6.06749989e-02,
          6.02019988e-02, 5.92369996e-02, 5.56759983e-02, 5.30619994e-02,
          5.17329983e-02, 5.12330011e-02, 4.24400009e-02, 7.83399958e-03 ]
      - [ 8.16159993e-02, 7.71469995e-02, 7.33890012e-02, 7.21459985e-02,
          7.07869977e-02, 6.99689984e-02, 6.70949966e-02, 6.62110001e-02,
          6.60019964e-02, 6.54660016e-02, 4.98280004e-02, 9.20499954e-03 ]
      - [ 5.86469993e-02, 5.67269996e-02, 5.63069992e-02, 5.54119982e-02,
          5.39680012e-02, 5.39579988e-02, 5.37629984e-02, 5.33679985e-02,
          5.30630015e-02, 4.98129986e-02, 4.10929993e-02, 6.91400003e-03 ]
      - [ 6.80999979e-02, 6.75610006e-02, 6.72409981e-02, 6.52709976e-02,
          6.51749969e-02, 6.24269992e-02, 6.05890006e-02, 5.89369982e-02,
          5.76439984e-02, 5.68209998e-02, 4.27419990e-02, 8.65400024e-03 ]
      - [ 6.30970001e-02, 6.02300018e-02, 5.87790012e-02, 5.85849993e-02,
          5.70680015e-02, 5.56599982e-02, 5.42289987e-02, 5.36449999e-02,
          5.25589995e-02, 5.05819991e-02, 4.00540009e-02, 7.43100001e-03 ]
      - [ 7.58259967e-02, 7.56540000e-02, 7.40099996e-02, 7.31249973e-02,
          7.11119995e-02, 6.84660003e-02, 6.76399991e-02, 6.73710033e-02,
          6.72869980e-02, 6.60990030e-02, 4.61030006e-02, 9.83900018e-03 ]
      - [ 6.27849996e-02, 6.04230016e-02, 6.03969991e-02, 5.94789982e-02,
          5.87759987e-02, 5.85599989e-02, 5.82999997e-02, 5.70829995e-02,
          5.58880009e-02, 5.53620011e-02, 4.52560000e-02, 6.07400015e-03 ]
      - [ 7.49770030e-02, 7.15430006e-02, 7.01059997e-02, 6.99030012e-02,
          6.94010034e-02, 6.36999980e-02, 6.35000020e-02, 6.26299977e-02,
          6.22880012e-02, 6.02229983e-02, 4.90470007e-02, 7.56399985e-03 ]
      - [ 6.56569973e-02, 6.38289973e-02, 6.37860000e-02, 6.32340014e-02,
          6.30329996e-02, 5.91839999e-02, 5.86719997e-02, 5.85360005e-02,
          5.84909990e-02, 5.78290001e-02, 4.55630012e-02, 7.89999962e-03 ]
      - [ 7.84619972e-02, 7.54150003e-02, 7.24989995e-02, 7.17429966e-02,
          6.66550025e-02, 6.31769970e-02, 6.19129986e-02, 6.12209998e-02,
          6.10359982e-02, 6.04319982e-02, 4.82029989e-02, 7.87799992e-03 ]
      - [ 6.13479987e-02, 6.00840002e-02, 5.46049997e-02, 5.17380014e-02,
          4.91500013e-02, 4.86860014e-02, 4.84500006e-02, 4.82000001e-02,
          4.81400006e-02, 4.78719994e-02, 4.01340015e-02, 6.10999996e-03 ]
      - [ 7.44419992e-02, 7.23370016e-02, 6.68869987e-02, 6.58629984e-02,
          6.36319965e-02, 6.23110011e-02, 5.75020015e-02, 5.74770011e-02,
          5.68990000e-02, 5.62379993e-02, 4.62349989e-02, 8.07300024e-03 ]
      - [ 6.65220022e-02, 5.79029992e-02, 5.75460009e-02, 5.69069982e-02,
          5.63809983e-02, 5.63229993e-02, 5.63069992e-02, 5.62109984e-02,
          5.61640002e-02, 5.51140010e-02, 4.52830009e-02, 5.62899979e-03 ]
      - [ 6.34969994e-02, 6.34619966e-02, 6.29250035e-02, 6.25599995e-02,
          6.25099987e-02, 6.22030012e-02, 6.15019985e-02, 5.94960004e-02,
          5.94159998e-02, 5.86699992e-02, 4.37749997e-02, 7.95700029e-03 ]
      - [ 8.06730017e-02, 7.85820037e-02, 7.01979995e-02, 6.64559975e-02,
          6.56170025e-02, 6.47730008e-02, 6.37660027e-02, 6.25369996e-02,
          6.15869984e-02, 6.15280010e-02, 4.89519984e-02, 9.49199963e-03 ]
      - [ 6.25960007e-02, 6.14469983e-02, 6.12329990e-02, 6.11290000e-02,
          5.82959987e-02, 5.76330014e-02, 5.69030009e-02, 5.66920005e-02,
          5.57980016e-02, 5.50949983e-02, 4.04860005e-02, 8.64799973e-03 ]
      - [ 6.72440007e-02, 6.26399964e-02, 6.26190007e-02, 6.19559996e-02,
          6.16849996e-02, 5.99169992e-02, 5.93679994e-02, 5.82929999e-02,
          5.79850003e-02, 5.77309988e-02, 4.38820012e-02, 8.45799968e-03 ]
      - [ 5.92529997e-02, 5.90060018e-02, 5.89919984e-02, 5.68999983e-02,
          5.49720004e-02, 5.47799990e-02, 5.42390011e-02, 5.39579988e-02,
          5.37870005e-02, 5.37610017e-02, 4.05259989e-02, 7.81300012e-03 ]
      - [ 5.84990010e-02, 5.84780015e-02, 5.76350018e-02, 5.60569987e-02,
          5.51019982e-02, 5.44239990e-02, 5.39540015e-02, 5.37529998e-02,
          5.32209985e-02, 5.23380004e-02, 4.20680009e-02, 6.68499991e-03 ]
      - [ 6.01160005e-02, 5.85130006e-02, 5.78709990e-02, 5.76980002e-02,
          5.64559996e-02, 5.56510016e-02, 5.51460013e-02, 5.45889996e-02,
          5.40530011e-02, 5.22800013e-02, 4.43889983e-02, 5.62500022e-03 ]
      - [ 7.21039996e-02, 7.18740001e-02, 6.97029978e-02, 6.52490035e-02,
          6.44830018e-02, 6.12789989e-02, 6.12539984e-02, 6.12279996e-02,
          5.68920001e-02, 5.68800010e-02, 4.46989983e-02, 8.06799997e-03 ]
      - [ 7.05669969e-02, 6.19909987e-02, 6.09580018e-02, 6.08810000e-02,
          6.02120012e-02, 5.94450012e-02, 5.94340004e-02, 5.63639998e-02,
          5.53449988e-02, 5.48469983e-02, 4.10650000e-02, 7.70300021e-03 ]
      - [ 7.46520013e-02, 6.56550005e-02, 6.17839992e-02, 5.98179996e-02,
          5.75120002e-02, 5.69779985e-02, 5.58260009e-02, 5.55340014e-02,
          5.54829985e-02, 5.54209985e-02, 4.48179990e-02, 6.89900015e-03 ]
      - [ 6.64860010e-02, 6.63959980e-02, 6.59009963e-02, 6.54179975e-02,
          6.37779981e-02, 6.18610010e-02, 6.06900007e-02, 5.97780012e-02,
          5.28139994e-02, 5.11979982e-02, 4.54149991e-02, 7.13900011e-03 ]
      - [ 7.49339983e-02, 6.64729998e-02, 6.39310032e-02, 6.28790036e-02,
          6.21739998e-02, 6.13939986e-02, 6.13540001e-02, 6.01160005e-02,
          5.64009994e-02, 5.61989993e-02, 4.71390001e-02, 6.74800016e-03 ]
      - [ 7.69769996e-02, 7.68230036e-02, 7.57500008e-02, 6.42009974e-02,
          6.36579990e-02, 6.25469983e-02, 6.24839999e-02, 6.23079985e-02,
          6.03090003e-02, 5.98930009e-02, 4.90050018e-02, 7.47000007e-03 ]
      - [ 6.59129992e-02, 6.40169978e-02, 6.16989993e-02, 6.16669990e-02,
          6.10419996e-02, 6.02069981e-02, 5.98400012e-02, 5.82059994e-02,
          5.73629998e-02, 5.57300001e-02, 4.49040011e-02, 6.46199984e-03 ]
      - [ 7.27220029e-02, 7.02480003e-02, 6.99160025e-02, 6.86130002e-02,
          6.68160021e-02, 6.59279972e-02, 6.35349974e-02, 6.34540021e-02,
          6.07400015e-02, 6.04749992e-02, 4.86240014e-02, 7.78000010e-03 ]
      - [ 7.09170029e-02, 7.09130019e-02, 6.63459972e-02, 6.55310005e-02,
          6.52230009e-02, 6.30730018e-02, 6.07720017e-02, 5.74040003e-02,
          5.50090000e-02, 5.46920002e-02, 4.35680002e-02, 7.52800005e-03 ]
      - [ 7.19439983e-02, 6.96130022e-02, 5.94369993e-02, 5.91679998e-02,
          5.74669987e-02, 5.73179983e-02, 5.64810000e-02, 5.48480004e-02,
          5.44399992e-02, 5.43420017e-02, 4.23719995e-02, 7.54499994e-03 ]
      - [ 6.65770024e-02, 6.46689981e-02, 5.99280000e-02, 5.97320013e-02,
          5.89819998e-02, 5.84710017e-02, 5.75789995e-02, 5.66629991e-02,
          5.62179983e-02, 5.61250001e-02, 4.56800014e-02, 6.20000018e-03 ]
      - [ 7.16710016e-02, 6.55099973e-02, 6.32359982e-02, 6.17900006e-02,
          5.83090000e-02, 5.82059994e-02, 5.71679994e-02, 5.49179986e-02,
          5.39229997e-02, 5.26870005e-02, 4.20430005e-02, 8.91199987e-03 ]
      - [ 5.85019998e-02, 5.80300018e-02, 5.70380017e-02, 5.58990017e-02,
          5.53710014e-02, 5.52479997e-02, 5.44500016e-02, 5.41019998e-02,
          5.21689989e-02, 5.20699993e-02, 4.39589992e-02, 4.96499985e-03 ]
      - [ 6.67610019e-02, 6.54599965e-02, 6.40700012e-02, 6.06970005e-02,
          5.62480018e-02, 5.46399988e-02, 5.42269982e-02, 5.39570004e-02,
          5.36050014e-02, 5.32350019e-02, 4.50269990e-02, 6.74899993e-03 ]
      - [ 7.16890022e-02, 6.73509985e-02, 6.67219982e-02, 6.57650009e-02,
          6.44949973e-02, 6.25870004e-02, 6.18240014e-02, 5.88690005e-02,
          5.70469983e-02, 5.54910004e-02, 4.75630015e-02, 6.68699993e-03 ]
      - [ 7.37169981e-02, 6.88060001e-02, 6.54970035e-02, 6.20739982e-02,
          6.19239993e-02, 5.92150018e-02, 5.91519997e-02, 5.72220013e-02,
          5.69140017e-02, 5.60950004e-02, 4.41710018e-02, 7.16800010e-03 ]
      - [ 7.91789964e-02, 7.75339976e-02, 6.83860034e-02, 6.81829974e-02,
          6.70460016e-02, 6.68089986e-02, 6.61550015e-02, 6.30050004e-02,
          6.04990013e-02, 6.02370016e-02, 4.64029983e-02, 8.26099981e-03 ]
      - [ 6.23270012e-02, 6.14029989e-02, 6.08440004e-02, 6.02059998e-02,
          5.97300008e-02, 5.77550009e-02, 5.58019988e-02, 5.51679991e-02,
          5.51550016e-02, 5.44929989e-02, 4.12960015e-02, 7.47099984e-03 ]
      - [ 7.22019970e-02, 7.07029998e-02, 6.53679967e-02, 6.52939975e-02,
          6.36579990e-02, 6.25049993e-02, 6.19589984e-02, 5.87159991e-02,
          5.82620017e-02, 5.67459986e-02, 4.61970009e-02, 6.90900022e-03 ]
      - [ 6.21850006e-02, 6.00290000e-02, 5.38970008e-02, 5.21330014e-02,
          5.03950007e-02, 5.00140004e-02, 4.87879999e-02, 4.76670004e-02,
          4.72929999e-02, 4.68790010e-02, 3.90859991e-02, 6.14400022e-03 ]
      - [ 7.21390024e-02, 6.66679963e-02, 6.63340017e-02, 6.38789982e-02,
          6.36940002e-02, 6.20750003e-02, 5.96259981e-02, 5.50240017e-02,
          5.29690012e-02, 5.28849997e-02, 4.46130000e-02, 6.56899996e-03 ]
      - [ 6.11369982e-02, 6.05069995e-02, 5.89210019e-02, 5.88099994e-02,
          5.87400012e-02, 5.72169982e-02, 5.56330010e-02, 5.49569987e-02,
          5.47039993e-02, 5.41549996e-02, 4.60309982e-02, 5.61100012e-03 ]
      - [ 6.47780001e-02, 5.85040003e-02, 5.71709983e-02, 5.71350008e-02,
          5.65930009e-02, 5.65119982e-02, 5.46230003e-02, 5.43680005e-02,
          5.41029982e-02, 5.39369993e-02, 4.05380018e-02, 7.31999986e-03 ]
      - [ 7.27780014e-02, 6.85330033e-02, 6.61640018e-02, 6.36129975e-02,
          6.30630031e-02, 6.15030006e-02, 6.00499995e-02, 5.94400018e-02,
          5.94259985e-02, 5.77949993e-02, 4.61990014e-02, 7.37500004e-03 ]
      - [ 7.11029992e-02, 6.43550009e-02, 6.26000017e-02, 6.04639985e-02,
          5.79349995e-02, 5.64129986e-02, 5.58359995e-02, 5.43330014e-02,
          5.37410006e-02, 5.31020015e-02, 4.32239994e-02, 6.74699992e-03 ]
      - [ 6.66629970e-02, 6.33049980e-02, 6.26439974e-02, 6.23340011e-02,
          6.19909987e-02, 6.11749999e-02, 6.02530017e-02, 5.78310005e-02,
          5.76330014e-02, 5.74380010e-02, 4.53319997e-02, 7.50300009e-03 ]
      - [ 7.71469995e-02, 7.08570033e-02, 6.89740032e-02, 6.59810007e-02,
          6.58639967e-02, 6.51329979e-02, 6.47289976e-02, 6.36980012e-02,
          6.35659993e-02, 6.16590008e-02, 4.88209985e-02, 8.49900022e-03 ]
      - [ 6.70439973e-02, 6.57590032e-02, 6.41650036e-02, 6.14579991e-02,
          6.08180016e-02, 6.02229983e-02, 5.93790002e-02, 5.88489994e-02,
          5.75710014e-02, 5.66900000e-02, 4.43629995e-02, 7.33199995e-03 ]
      - [ 6.87130019e-02, 6.66439980e-02, 6.64279982e-02, 6.61619976e-02,
          6.57299981e-02, 6.49020001e-02, 6.45229965e-02, 6.28319979e-02,
          6.27380013e-02, 6.21280000e-02, 4.61409986e-02, 9.22099967e-03 ]
      - [ 6.42450005e-02, 6.24280013e-02, 6.15889989e-02, 6.13860004e-02,
          6.04639985e-02, 5.97649999e-02, 5.95190004e-02, 5.92480004e-02,
          5.81029989e-02, 5.78060001e-02, 4.31829989e-02, 8.64099991e-03 ]
      - [ 6.84600025e-02, 6.83579966e-02, 6.44930005e-02, 6.42210022e-02,
          5.58569990e-02, 5.57890013e-02, 5.51850013e-02, 5.45779988e-02,
          5.42920008e-02, 5.29789999e-02, 4.41429988e-02, 6.86499989e-03 ]
      - [ 6.64110035e-02, 6.45020008e-02, 6.15490004e-02, 5.97640015e-02,
          5.64429983e-02, 5.56569993e-02, 5.54549992e-02, 5.53850010e-02,
          5.40230013e-02, 5.39299995e-02, 4.24790010e-02, 7.47000007e-03 ]
      - [ 6.43669963e-02, 6.38929978e-02, 6.11179993e-02, 5.85720018e-02,
          5.76610006e-02, 5.73460013e-02, 5.54919988e-02, 5.39169982e-02,
          5.34970015e-02, 5.24660014e-02, 4.18809988e-02, 7.92699959e-03 ]
      - [ 6.12710007e-02, 6.12460002e-02, 6.07310012e-02, 6.00959994e-02,
          5.76109998e-02, 5.64259999e-02, 5.61189987e-02, 5.54420017e-02,
          5.44789992e-02, 5.37969992e-02, 4.46069986e-02, 6.02599978e-03 ]
      - [ 7.49650002e-02, 6.69749975e-02, 6.63120002e-02, 6.29379973e-02,
          6.18980005e-02, 6.05949983e-02, 6.00109994e-02, 5.95059991e-02,
          5.89060001e-02, 5.88900000e-02, 4.67670001e-02, 7.36999977e-03 ]
      - [ 7.28499964e-02, 6.88079968e-02, 6.87630028e-02, 6.87149987e-02,
          6.86739981e-02, 6.56810030e-02, 6.56630024e-02, 6.50319979e-02,
          6.27090037e-02, 6.17409982e-02, 4.40049991e-02, 8.81899986e-03 ]
      - [ 8.12650025e-02, 7.96950012e-02, 7.13969991e-02, 6.84520006e-02,
          6.63020015e-02, 6.62709996e-02, 6.61600009e-02, 6.57130033e-02,
          6.51429966e-02, 6.48790002e-02, 4.72149998e-02, 9.42299981e-03 ]
      - [ 5.90110011e-02, 5.80019988e-02, 5.78240007e-02, 5.77719994e-02,
          5.68250008e-02, 5.67900017e-02, 5.61430007e-02, 5.58459982e-02,
          5.56840003e-02, 5.52290007e-02, 4.22190018e-02, 6.62499992e-03 ]
      - [ 6.40690029e-02, 6.31870031e-02, 6.21410012e-02, 6.18500002e-02,
          6.15429990e-02, 6.14669994e-02, 6.06289990e-02, 6.01839982e-02,
          5.99730015e-02, 5.93530014e-02, 4.47000004e-02, 7.51300016e-03 ]
      - [ 7.37949982e-02, 6.59200028e-02, 6.30749986e-02, 5.94610013e-02,
          5.89450002e-02, 5.74290007e-02, 5.72800003e-02, 5.61849996e-02,
          5.61459996e-02, 5.60420007e-02, 4.45780009e-02, 6.83199987e-03 ]
      - [ 6.58930019e-02, 6.53449968e-02, 6.25689998e-02, 6.10309988e-02,
          6.05229996e-02, 5.95589988e-02, 5.92719987e-02, 5.67400008e-02,
          5.65739982e-02, 5.35990000e-02, 4.47489992e-02, 6.15100004e-03 ]
      - [ 7.63429999e-02, 7.30649978e-02, 7.15409964e-02, 7.06169978e-02,
          6.96550012e-02, 6.62570000e-02, 6.49629980e-02, 6.38519973e-02,
          6.28459975e-02, 6.17320016e-02, 4.33560014e-02, 9.14600026e-03 ]
      - [ 7.14669973e-02, 6.65059984e-02, 6.42239973e-02, 6.41380027e-02,
          6.38210028e-02, 6.27710000e-02, 6.22670017e-02, 6.00599982e-02,
          5.87040000e-02, 5.86550012e-02, 4.35380004e-02, 8.51900037e-03 ]
      - [ 7.61469975e-02, 7.35040009e-02, 7.24529997e-02, 7.20330030e-02,
          6.89399987e-02, 6.81150034e-02, 6.78099990e-02, 6.76859990e-02,
          6.62140027e-02, 6.45140037e-02, 4.77739982e-02, 8.06600042e-03 ]
      - [ 6.87910020e-02, 6.48230016e-02, 5.81550002e-02, 5.67959994e-02,
          5.60510010e-02, 5.54860011e-02, 5.40769994e-02, 5.40210009e-02,
          5.36280014e-02, 5.31340018e-02, 4.51340005e-02, 5.86599996e-03 ]
      - [ 7.69430026e-02, 7.29760006e-02, 7.08149970e-02, 6.59160018e-02,
          6.40819967e-02, 6.37219995e-02, 6.36620000e-02, 6.34339973e-02,
          6.23300001e-02, 6.20799996e-02, 4.75529991e-02, 9.33100004e-03 ]
      - [ 6.34529963e-02, 6.15740009e-02, 6.08800016e-02, 6.04790002e-02,
          6.00709990e-02, 5.97190000e-02, 5.86719997e-02, 5.77890016e-02,
          5.69310002e-02, 5.60889989e-02, 4.38239984e-02, 7.40899984e-03 ]
      - [ 5.91479987e-02, 5.75979985e-02, 5.68780005e-02, 5.67240007e-02,
          5.62120005e-02, 5.59640005e-02, 5.47830015e-02, 5.46910018e-02,
          5.42940013e-02, 5.37130013e-02, 4.13339995e-02, 6.57700002e-03 ]
      - [ 8.04869980e-02, 7.92519972e-02, 7.65409991e-02, 7.51850009e-02,
          7.38020018e-02, 6.99789971e-02, 6.91810027e-02, 6.85639977e-02,
          6.65690005e-02, 6.61529973e-02, 5.01720011e-02, 8.96800030e-03 ]
      - [ 7.07639977e-02, 6.89520016e-02, 6.65429980e-02, 6.62570000e-02,
          6.38530031e-02, 6.34910017e-02, 6.28840029e-02, 6.21500015e-02,
          6.04109988e-02, 5.96419983e-02, 4.78050001e-02, 7.81700015e-03 ]
      - [ 7.49130026e-02, 7.41909966e-02, 7.33560026e-02, 6.82350025e-02,
          6.62709996e-02, 6.37110025e-02, 6.23760000e-02, 5.98820001e-02,
          5.82249984e-02, 5.72590008e-02, 4.77030016e-02, 7.36400019e-03 ]
      - [ 7.37510026e-02, 7.30959997e-02, 6.48310035e-02, 6.27510026e-02,
          6.06959984e-02, 6.04249984e-02, 6.02979995e-02, 5.49650006e-02,
          5.47689982e-02, 5.44329993e-02, 4.38099988e-02, 8.00899975e-03 ]
      - [ 7.44730011e-02, 7.21480027e-02, 7.11399987e-02, 6.97389990e-02,
          6.91609979e-02, 6.55469969e-02, 6.34709969e-02, 6.32919967e-02,
          6.32240027e-02, 6.23910017e-02, 4.83620018e-02, 7.62900012e-03 ]
      - [ 7.10849985e-02, 6.75909966e-02, 6.75489977e-02, 6.30249977e-02,
          6.13170005e-02, 5.66090010e-02, 5.54880016e-02, 5.54770008e-02,
          5.51350005e-02, 5.36970012e-02, 4.07069996e-02, 8.39299988e-03 ]
      - [ 6.90469965e-02, 6.51609972e-02, 6.44840002e-02, 6.27259985e-02,
          5.81879988e-02, 5.77359982e-02, 5.77219985e-02, 5.74890003e-02,
          5.66920005e-02, 5.65310009e-02, 4.28350009e-02, 7.08199991e-03 ]
      - [ 6.47960007e-02, 6.33580014e-02, 6.10259995e-02, 6.07220009e-02,
          5.84670007e-02, 5.58300018e-02, 5.54279983e-02, 5.45319989e-02,
          5.19689992e-02, 5.11160009e-02, 4.08039987e-02, 7.34400004e-03 ]
      - [ 5.89010008e-02, 5.69170006e-02, 5.39949983e-02, 5.01630008e-02,
          4.89270017e-02, 4.86069992e-02, 4.80480008e-02, 4.64249998e-02,
          4.63819988e-02, 4.56859991e-02, 3.91639993e-02, 5.69499983e-03 ]
      - [ 7.87490010e-02, 7.33620003e-02, 7.32510015e-02, 6.31069988e-02,
          6.28649965e-02, 6.04129992e-02, 6.01230003e-02, 5.96400015e-02,
          5.79430014e-02, 5.77079989e-02, 4.43480015e-02, 9.25999973e-03 ]
      - [ 8.53909999e-02, 8.50879997e-02, 7.40270019e-02, 7.34030008e-02,
          7.07010031e-02, 7.05180019e-02, 6.66610003e-02, 6.66259974e-02,
          6.63900003e-02, 6.57109991e-02, 5.13090007e-02, 9.20100044e-03 ]
      - [ 6.96960017e-02, 6.74590021e-02, 6.59900010e-02, 5.87069988e-02,
          5.83340004e-02, 5.79469986e-02, 5.61949983e-02, 5.59480004e-02,
          5.55090010e-02, 5.53580001e-02, 4.25800011e-02, 7.88400043e-03 ]
      - [ 6.95400015e-02, 6.90679997e-02, 6.07879981e-02, 5.80990016e-02,
          5.67260012e-02, 5.46899997e-02, 5.46839982e-02, 5.45790009e-02,
          5.45350015e-02, 5.39229997e-02, 4.51570004e-02, 6.30099978e-03 ]
      - [ 8.45530033e-02, 8.03029984e-02, 7.99359977e-02, 7.73210004e-02,
          7.64880031e-02, 6.66880012e-02, 6.49200007e-02, 6.43590018e-02,
          6.38170019e-02, 6.33910000e-02, 4.73369993e-02, 9.98499990e-03 ]
      - [ 7.59499967e-02, 6.82480037e-02, 6.49529994e-02, 6.44759983e-02,
          6.38870001e-02, 5.90209998e-02, 5.77449985e-02, 5.70579991e-02,
          5.64320013e-02, 5.58939986e-02, 4.29739989e-02, 8.87299981e-03 ]
      - [ 7.71870017e-02, 7.36169964e-02, 7.15050027e-02, 7.14669973e-02,
          7.01299980e-02, 6.94850013e-02, 6.90219998e-02, 6.71209991e-02,
          6.27909973e-02, 6.11759983e-02, 4.72300015e-02, 8.52200016e-03 ]
      - [ 7.69049972e-02, 7.64010027e-02, 7.41999969e-02, 6.77089989e-02,
          6.60670027e-02, 6.42519966e-02, 5.91549985e-02, 5.89100011e-02,
          5.86000010e-02, 5.85619994e-02, 4.52799983e-02, 8.85500014e-03 ]
      - [ 6.40740022e-02, 6.14329986e-02, 6.13429993e-02, 5.87580018e-02,
          5.77990003e-02, 5.64090014e-02, 5.58050014e-02, 5.46509996e-02,
          5.43499999e-02, 5.42839989e-02, 4.28300016e-02, 6.49699988e-03 ]
      - [ 7.67130032e-02, 7.37489983e-02, 7.35829994e-02, 7.15240017e-02,
          6.88600019e-02, 6.34529963e-02, 6.20150007e-02, 6.15000017e-02,
          6.11759983e-02, 5.97059987e-02, 4.30440009e-02, 9.59600043e-03 ]
      - [ 5.93690015e-02, 5.74939996e-02, 5.42920008e-02, 5.16449995e-02,
          4.97739986e-02, 4.95559983e-02, 4.90050018e-02, 4.89739999e-02,
          4.85030003e-02, 4.72830012e-02, 3.93470004e-02, 5.70899993e-03 ]
      - [ 8.11479986e-02, 7.64110014e-02, 7.59159997e-02, 6.72300011e-02,
          6.57550022e-02, 6.42199963e-02, 6.41060024e-02, 6.22330010e-02,
          6.21009991e-02, 6.15720004e-02, 4.56110016e-02, 9.33500007e-03 ]
      - [ 7.61710033e-02, 6.65739998e-02, 6.63900003e-02, 6.59919977e-02,
          6.43590018e-02, 6.22950010e-02, 6.15659989e-02, 6.07599989e-02,
          5.94169982e-02, 5.76030016e-02, 4.63280007e-02, 7.55099999e-03 ]
      - [ 6.63229972e-02, 6.49079978e-02, 5.87689988e-02, 5.71720004e-02,
          5.71720004e-02, 5.54200001e-02, 5.52240014e-02, 5.47770001e-02,
          5.33870012e-02, 5.33539988e-02, 4.31400016e-02, 7.19900010e-03 ]
      - [ 7.64229968e-02, 7.20330030e-02, 6.87590018e-02, 6.65429980e-02,
          6.56670034e-02, 6.48899972e-02, 6.34950027e-02, 6.10820018e-02,
          5.95129989e-02, 5.67599982e-02, 4.54999991e-02, 7.82999955e-03 ]
      - [ 6.38270006e-02, 5.95640019e-02, 5.91330007e-02, 5.80420010e-02,
          5.70279993e-02, 5.63590005e-02, 5.37450016e-02, 5.30089997e-02,
          5.19060008e-02, 5.08139990e-02, 3.88180017e-02, 7.71000003e-03 ]
      - [ 5.33440001e-02, 5.32439984e-02, 5.32330014e-02, 5.29720001e-02,
          5.25490008e-02, 5.21639995e-02, 5.17240018e-02, 5.14310002e-02,
          5.13550006e-02, 5.01010008e-02, 4.01830003e-02, 6.67899987e-03 ]
      - [ 7.05619976e-02, 6.01369999e-02, 5.86659983e-02, 5.84079996e-02,
          5.63400015e-02, 5.63249998e-02, 5.22559993e-02, 5.06279990e-02,
          5.04820012e-02, 5.00399992e-02, 3.93939987e-02, 7.39199994e-03 ]
      - [ 7.34819993e-02, 7.19780028e-02, 7.16060027e-02, 7.12559968e-02,
          6.98790029e-02, 6.57019988e-02, 6.44330010e-02, 6.34540021e-02,
          6.16660006e-02, 5.97180016e-02, 4.90790009e-02, 7.96500035e-03 ]
      - [ 6.57870024e-02, 6.31759986e-02, 6.23070002e-02, 5.90879992e-02,
          5.90570010e-02, 5.88149987e-02, 5.72710000e-02, 5.57710007e-02,
          5.51070012e-02, 5.32019995e-02, 4.37359996e-02, 6.52599987e-03 ]
      - [ 6.41340017e-02, 6.32269979e-02, 6.28300011e-02, 6.17420003e-02,
          6.09010011e-02, 6.01060018e-02, 5.72610013e-02, 5.52790016e-02,
          5.36019988e-02, 5.33510000e-02, 4.35019992e-02, 7.33199995e-03 ]
      - [ 6.90329969e-02, 6.77499995e-02, 6.60300031e-02, 6.20190017e-02,
          6.08960018e-02, 6.02179989e-02, 5.91619983e-02, 5.91409989e-02,
          5.88679984e-02, 5.84559999e-02, 4.24729995e-02, 8.43599997e-03 ]
      - [ 6.35150000e-02, 5.90590015e-02, 5.76790012e-02, 5.68820015e-02,
          5.44620007e-02, 5.41369990e-02, 5.40379994e-02, 5.38630001e-02,
          5.33160008e-02, 5.17960005e-02, 4.09579985e-02, 7.57900020e-03 ]
      - [ 7.50589967e-02, 7.08860010e-02, 7.07719997e-02, 6.40240014e-02,
          6.40119985e-02, 6.22529984e-02, 6.18709996e-02, 6.00429997e-02,
          6.00100011e-02, 5.99079989e-02, 4.84820008e-02, 7.30900001e-03 ]
      - [ 6.74280003e-02, 6.39489964e-02, 6.20899983e-02, 5.99370003e-02,
          5.98540008e-02, 5.96930012e-02, 5.82970008e-02, 5.74809983e-02,
          5.72689995e-02, 5.70820011e-02, 4.33590002e-02, 7.63900019e-03 ]
      - [ 6.33699968e-02, 6.12209998e-02, 6.08710013e-02, 5.94879985e-02,
          5.87159991e-02, 5.82120009e-02, 5.79060018e-02, 5.77399991e-02,
          5.73920012e-02, 5.59960008e-02, 4.60380018e-02, 6.32900000e-03 ]
      - [ 6.76530004e-02, 6.76459968e-02, 6.71600029e-02, 6.68390021e-02,
          6.59850016e-02, 6.50610030e-02, 6.15460016e-02, 6.02749996e-02,
          5.96360005e-02, 5.94969988e-02, 4.59530018e-02, 7.72099989e-03 ]
      - [ 7.78409988e-02, 7.43959993e-02, 6.81789964e-02, 6.71800002e-02,
          6.53420016e-02, 6.38279989e-02, 6.19519986e-02, 6.06250018e-02,
          6.03520013e-02, 6.01940006e-02, 4.82570007e-02, 8.03500041e-03 ]
      - [ 7.28640035e-02, 7.17570037e-02, 6.57109991e-02, 6.52080029e-02,
          6.23730011e-02, 6.15600012e-02, 6.10119998e-02, 5.93089983e-02,
          5.88169992e-02, 5.78919984e-02, 4.63530011e-02, 7.74999987e-03 ]
      - [ 7.30969980e-02, 6.92970008e-02, 6.75809979e-02, 6.71539977e-02,
          6.63919970e-02, 6.25860021e-02, 6.18610010e-02, 6.14439994e-02,
          6.08160011e-02, 5.99029996e-02, 4.44040000e-02, 9.39700007e-03 ]
      - [ 7.57910013e-02, 7.23539963e-02, 6.79220036e-02, 6.69440031e-02,
          6.29879981e-02, 6.17129989e-02, 5.47729991e-02, 5.34680001e-02,
          5.30709997e-02, 5.25819995e-02, 4.23440002e-02, 8.47100001e-03 ]
      - [ 6.99720010e-02, 6.69429973e-02, 6.62939996e-02, 6.30690008e-02,
          6.05150014e-02, 5.96570000e-02, 5.79390004e-02, 5.46419993e-02,
          5.45810014e-02, 5.44999987e-02, 4.63799983e-02, 6.34399988e-03 ]
      - [ 7.86470026e-02, 7.56829977e-02, 7.54050016e-02, 7.09450021e-02,
          6.80769980e-02, 6.39939979e-02, 6.30490035e-02, 6.24939986e-02,
          6.18930012e-02, 6.13269992e-02, 4.84010018e-02, 8.95600021e-03 ]
      - [ 7.15970024e-02, 7.05550015e-02, 6.97150007e-02, 6.44909963e-02,
          6.18759990e-02, 6.00950010e-02, 5.98610006e-02, 5.95720001e-02,
          5.50870001e-02, 5.42580001e-02, 4.22089994e-02, 8.62899981e-03 ]
      - [ 6.93709999e-02, 6.66330010e-02, 6.52000010e-02, 6.51260018e-02,
          6.41509965e-02, 6.15240000e-02, 6.04670011e-02, 5.67190014e-02,
          5.32190017e-02, 5.27490005e-02, 4.31380011e-02, 7.81999994e-03 ]
      - [ 7.12329969e-02, 6.87519982e-02, 6.74989969e-02, 6.34000003e-02,
          6.22959994e-02, 5.94159998e-02, 5.91159984e-02, 5.71120009e-02,
          5.66149987e-02, 5.53629994e-02, 4.56909984e-02, 6.79299980e-03 ]
      - [ 7.26480037e-02, 7.18050003e-02, 5.82059994e-02, 5.78520000e-02,
          5.70710003e-02, 5.66419996e-02, 5.59399985e-02, 5.56209981e-02,
          5.52110001e-02, 5.48989996e-02, 4.26330008e-02, 7.32100010e-03 ]
      - [ 7.50069991e-02, 6.51739985e-02, 6.33250028e-02, 6.11470006e-02,
          5.91749996e-02, 5.86009994e-02, 5.85890003e-02, 5.75600006e-02,
          5.66909984e-02, 5.52790016e-02, 4.63959984e-02, 6.39999984e-03 ]
      - [ 6.46660030e-02, 6.28200024e-02, 6.13519996e-02, 5.89770004e-02,
          5.78569993e-02, 5.75960018e-02, 5.72579987e-02, 5.71530014e-02,
          5.67319989e-02, 5.67100011e-02, 4.33010012e-02, 7.56399985e-03 ]
      - [ 5.24130017e-02, 5.14639989e-02, 5.14050014e-02, 5.11230007e-02,
          5.07909991e-02, 5.07440008e-02, 4.92819995e-02, 4.89370003e-02,
          4.89020012e-02, 4.85230014e-02, 4.25990000e-02, 4.20999993e-03 ]
      - [ 6.98689967e-02, 6.30590022e-02, 6.21710010e-02, 6.13490008e-02,
          6.01719990e-02, 5.85270002e-02, 5.82460016e-02, 5.82019985e-02,
          5.74139990e-02, 5.68789989e-02, 4.48909998e-02, 6.66100020e-03 ]
      - [ 7.65890032e-02, 7.39910007e-02, 7.29229972e-02, 7.12390020e-02,
          6.81409985e-02, 6.65759966e-02, 6.44439980e-02, 6.40290007e-02,
          6.36899993e-02, 6.33839965e-02, 4.91940007e-02, 8.26799963e-03 ]
      - [ 7.93489963e-02, 7.21480027e-02, 6.81710020e-02, 6.50959983e-02,
          6.10460006e-02, 5.95480017e-02, 5.75929992e-02, 5.74189983e-02,
          5.69280013e-02, 5.57879992e-02, 4.30480018e-02, 8.40799976e-03 ]
      - [ 7.72180036e-02, 7.27740005e-02, 7.25999996e-02, 6.59810007e-02,
          6.27809986e-02, 5.93230017e-02, 5.82950003e-02, 5.77890016e-02,
          5.77379987e-02, 5.74029982e-02, 4.56329994e-02, 7.91199971e-03 ]
      - [ 7.21200034e-02, 6.43820018e-02, 6.39109984e-02, 5.96080013e-02,
          5.95909990e-02, 5.60039990e-02, 5.59169985e-02, 5.49850017e-02,
          5.42510003e-02, 5.31359985e-02, 4.15129997e-02, 7.57799996e-03 ]
      - [ 7.31109977e-02, 7.03229979e-02, 6.84769973e-02, 6.45020008e-02,
          6.43900037e-02, 6.41020015e-02, 6.12730011e-02, 6.01599999e-02,
          5.93050011e-02, 5.79870008e-02, 4.61390018e-02, 7.95000046e-03 ]
      - [ 6.36539981e-02, 6.27939999e-02, 6.19589984e-02, 6.01480007e-02,
          5.75749986e-02, 5.59689999e-02, 5.58519997e-02, 5.54229990e-02,
          5.45380004e-02, 5.39879985e-02, 4.35840003e-02, 6.06000004e-03 ]
      - [ 5.90710007e-02, 5.77670000e-02, 5.56670018e-02, 5.45619987e-02,
          5.44960015e-02, 5.44850007e-02, 5.17110005e-02, 5.14359996e-02,
          5.04520014e-02, 5.01910001e-02, 3.78049985e-02, 7.10600009e-03 ]
      - [ 6.72380030e-02, 6.53280020e-02, 6.17720000e-02, 6.04199991e-02,
          5.99020012e-02, 5.97559996e-02, 5.94159998e-02, 5.67569993e-02,
          5.66530004e-02, 5.64149991e-02, 4.30300012e-02, 7.60099990e-03 ]
      - [ 7.66889974e-02, 7.48429969e-02, 7.40510002e-02, 7.22770020e-02,
          7.17049986e-02, 6.92979991e-02, 6.61609992e-02, 6.43739998e-02,
          6.36949986e-02, 6.30130023e-02, 4.71369997e-02, 9.34899971e-03 ]
      - [ 8.32310021e-02, 7.81869963e-02, 7.39599988e-02, 7.31580034e-02,
          7.28140026e-02, 6.65239990e-02, 6.63240030e-02, 6.25680014e-02,
          6.06670007e-02, 6.03770018e-02, 4.84730005e-02, 8.20100028e-03 ]
      - [ 7.51399994e-02, 7.23299980e-02, 6.71299994e-02, 6.43439963e-02,
          6.32819980e-02, 6.31750003e-02, 6.20389991e-02, 6.04390018e-02,
          6.02089986e-02, 5.98899983e-02, 4.92580011e-02, 8.03999975e-03 ]
   decision_functions:
      -
         sv_count: 406
         rho: -3.7166867405176113e+01
         alpha: [ 3.1250000000000000e+02, 3.1250000000000000e+02,
             3.1250000000000000e+02, 3.1250000000000000e+02,
             3.1250000000000000e+02, 3.1250000000000000e+02,
             3.1250000000000000e+02, 3.1250000000000000e+02,
             3.1250000000000000e+02, 3.1250000000000000e+02,
             3.1250000000000000e+02, 3.1250000000000000e+02,
             3.1250000000000000e+02, 3.1250000000000000e+02,
             3.1250000000000000e+02, 3.1250000000000000e+02,
             3.1250000000000000e+02, 3.1250000000000000e+02,
             3.1250000000000000e+02, 3.1250000000000000e+02,
             3.1250000000000000e+02, 3.1250000000000000e+02,
             3.1250000000000000e+02, 3.1250000000000000e+02,
             3.1250000000000000e+02, 3.1250000000000000e+02,
             3.1250000000000000e+02, 3.1250000000000000e+02,
             3.1250000000000000e+02, 3.1250000000000000e+02,
             3.1250000000000000e+02, 3.1250000000000000e+02,
             3.1250000000000000e+02, 3.1250000000000000e+02,
             3.1250000000000000e+02, 3.1250000000000000e+02,
             3.1250000000000000e+02, 3.1250000000000000e+02,
             3.1250000000000000e+02, 3.1250000000000000e+02,
             3.1250000000000000e+02, 3.1250000000000000e+02,
             3.1250000000000000e+02, 3.1250000000000000e+02,
             3.1250000000000000e+02, 3.1250000000000000e+02,
             3.1250000000000000e+02, 3.1250000000000000e+02,
             3.1250000000000000e+02, 3.1250000000000000e+02,
             3.1250000000000000e+02, 3.1250000000000000e+02,
             3.1250000000000000e+02, 3.1250000000000000e+02,
             3.1250000000000000e+02, 3.1250000000000000e+02,
             3.1250000000000000e+02, 3.1250000000000000e+02,
             3.1250000000000000e+02, 3.1250000000000000e+02,
             3.1250000000000000e+02, 3.1250000000000000e+02,
             3.1250000000000000e+02, 3.1250000000000000e+02,
             3.1250000000000000e+02, 3.1250000000000000e+02,
             3.1250000000000000e+02, 3.1250000000000000e+02,
             3.1250000000000000e+02, 3.1250000000000000e+02,
             3.1250000000000000e+02, 3.1250000000000000e+02,
             3.1250000000000000e+02, 3.1250000000000000e+02,
             3.1250000000000000e+02, 3.1250000000000000e+02,
             3.1250000000000000e+02, 3.1250000000000000e+02,
             3.1250000000000000e+02, 3.1250000000000000e+02,
             3.1250000000000000e+02, 3.1250000000000000e+02,
             3.1250000000000000e+02, 3.1250000000000000e+02,
             3.1250000000000000e+02, 3.1250000000000000e+02,
             3.1250000000000000e+02, 3.1250000000000000e+02,
             3.1250000000000000e+02, 3.1250000000000000e+02,
             3.1250000000000000e+02, 3.1250000000000000e+02,
             3.1250000000000000e+02, 3.1250000000000000e+02,
             3.1250000000000000e+02, 3.1250000000000000e+02,
             3.1250000000000000e+02, 3.1250000000000000e+02,
             3.1250000000000000e+02, 3.1250000000000000e+02,
             3.1250000000000000e+02, 3.1250000000000000e+02,
             3.1250000000000000e+02, 3.1250000000000000e+02,
             3.1250000000000000e+02, 3.1250000000000000e+02,
             3.1250000000000000e+02, 3.1250000000000000e+02,
             3.1250000000000000e+02, 3.1250000000000000e+02,
             3.1250000000000000e+02, 3.1250000000000000e+02,
             3.1250000000000000e+02, 3.1250000000000000e+02,
             3.1250000000000000e+02, 3.1250000000000000e+02,
             3.1250000000000000e+02, 3.1250000000000000e+02,
             3.1250000000000000e+02, 3.1250000000000000e+02,
             3.1250000000000000e+02, 3.1250000000000000e+02,
             3.1250000000000000e+02, 3.1250000000000000e+02,
             3.1250000000000000e+02, 3.1250000000000000e+02,
             3.1250000000000000e+02, 3.1250000000000000e+02,
             3.1250000000000000e+02, 3.1250000000000000e+02,
             3.1250000000000000e+02, 3.1250000000000000e+02,
             1.9957963774674349e+02, 3.1250000000000000e+02,
             3.1250000000000000e+02, 3.1250000000000000e+02,
             3.1250000000000000e+02, 3.1250000000000000e+02,
             3.1250000000000000e+02, 3.1250000000000000e+02,
             3.1250000000000000e+02, 3.1250000000000000e+02,
             3.1250000000000000e+02, 3.1250000000000000e+02,
             3.1250000000000000e+02, 3.1250000000000000e+02,
             3.1250000000000000e+02, 3.1250000000000000e+02,
             3.1250000000000000e+02, 3.1250000000000000e+02,
             3.1250000000000000e+02, 3.1250000000000000e+02,
             3.1250000000000000e+02, 3.1250000000000000e+02,
             3.1250000000000000e+02, 3.1250000000000000e+02,
             3.1250000000000000e+02, 3.1250000000000000e+02,
             3.1250000000000000e+02, 3.1250000000000000e+02,
             3.1250000000000000e+02, 3.1250000000000000e+02,
             3.1250000000000000e+02, 3.1250000000000000e+02,
             3.1250000000000000e+02, 3.1250000000000000e+02,
             3.1250000000000000e+02, 3.1250000000000000e+02,
             3.1250000000000000e+02, 3.1250000000000000e+02,
             3.1250000000000000e+02, 3.1250000000000000e+02,
             3.1250000000000000e+02, 3.1250000000000000e+02,
             3.1250000000000000e+02, 3.1250000000000000e+02,
             3.1250000000000000e+02, 3.1250000000000000e+02,
             3.1250000000000000e+02, 3.1250000000000000e+02,
             3.1250000000000000e+02, 3.1250000000000000e+02,
             3.1250000000000000e+02, 3.1250000000000000e+02,
             3.1250000000000000e+02, 3.1250000000000000e+02,
             3.1250000000000000e+02, 3.1250000000000000e+02,
             3.1250000000000000e+02, 3.1250000000000000e+02,
             3.1250000000000000e+02, 3.1250000000000000e+02,
             3.1250000000000000e+02, 3.1250000000000000e+02,
             3.1250000000000000e+02, 3.1250000000000000e+02,
             3.1250000000000000e+02, 3.1250000000000000e+02,
             3.1250000000000000e+02, 3.1250000000000000e+02,
             3.1250000000000000e+02, 3.1250000000000000e+02,
             3.1250000000000000e+02, -3.1250000000000000e+02,
             -3.1250000000000000e+02, -3.1250000000000000e+02,
             -3.1250000000000000e+02, -3.1250000000000000e+02,
             -3.1250000000000000e+02, -3.1250000000000000e+02,
             -3.1250000000000000e+02, -3.1250000000000000e+02,
             -3.1250000000000000e+02, -3.1250000000000000e+02,
             -3.1250000000000000e+02, -3.1250000000000000e+02,
             -3.1250000000000000e+02, -3.1250000000000000e+02,
             -3.1250000000000000e+02, -3.1250000000000000e+02,
             -3.1250000000000000e+02, -3.1250000000000000e+02,
             -3.1250000000000000e+02, -3.1250000000000000e+02,
             -3.1250000000000000e+02, -3.1250000000000000e+02,
             -3.1250000000000000e+02, -3.1250000000000000e+02,
             -3.1250000000000000e+02, -3.1250000000000000e+02,
             -3.1250000000000000e+02, -3.1250000000000000e+02,
             -3.1250000000000000e+02, -3.1250000000000000e+02,
             -3.1250000000000000e+02, -3.1250000000000000e+02,
             -3.1250000000000000e+02, -3.1250000000000000e+02,
             -3.1250000000000000e+02, -3.1250000000000000e+02,
             -3.1250000000000000e+02, -3.1250000000000000e+02,
             -3.1250000000000000e+02, -3.1250000000000000e+02,
             -3.1250000000000000e+02, -3.1250000000000000e+02,
             -3.1250000000000000e+02, -3.1250000000000000e+02,
             -3.1250000000000000e+02, -3.1250000000000000e+02,
             -3.1250000000000000e+02, -3.1250000000000000e+02,
             -3.1250000000000000e+02, -3.1250000000000000e+02,
             -3.1250000000000000e+02, -3.1250000000000000e+02,
             -1.9957963774674334e+02, -3.1250000000000000e+02,
             -3.1250000000000000e+02, -3.1250000000000000e+02,
             -3.1250000000000000e+02, -3.1250000000000000e+02,
             -3.1250000000000000e+02, -3.1250000000000000e+02,
             -3.1250000000000000e+02, -3.1250000000000000e+02,
             -3.1250000000000000e+02, -3.1250000000000000e+02,
             -3.1250000000000000e+02, -3.1250000000000000e+02,
             -3.1250000000000000e+02, -3.1250000000000000e+02,
             -3.1250000000000000e+02, -3.1250000000000000e+02,
             -3.1250000000000000e+02, -3.1250000000000000e+02,
             -3.1250000000000000e+02, -3.1250000000000000e+02,
             -3.1250000000000000e+02, -3.1250000000000000e+02,
             -3.1250000000000000e+02, -3.1250000000000000e+02,
             -3.1250000000000000e+02, -3.1250000000000000e+02,
             -3.1250000000000000e+02, -3.1250000000000000e+02,
             -3.1250000000000000e+02, -3.1250000000000000e+02,
             -3.1250000000000000e+02, -3.1250000000000000e+02,
