%YAML:1.0
my_svm: !!opencv-ml-svm
   svm_type: C_SVC
   kernel: { type:RBF, gamma:5.0625000000000009e-01 }
   C: 3.1250000000000000e+02
   term_criteria: { epsilon:2.2204460492503131e-16, iterations:1000 }
   var_all: 12
   var_count: 12
   class_count: 5
   class_labels: !!opencv-matrix
      rows: 1
      cols: 5
      dt: i
      data: [ 0, 1, 2, 3, 4 ]
   sv_total: 518
   support_vectors:
      - [ 2.57089995e-02, 2.35339999e-02, 2.28630006e-02, 2.27409992e-02,
          2.24339999e-02, 2.24239994e-02, 2.20860001e-02, 2.20650006e-02,
          2.19599996e-02, 0., 2.28690002e-02, 1.17299997e-03 ]
      - [ 2.64069997e-02, 2.35730000e-02, 2.33500004e-02, 2.31330004e-02,
          2.29659993e-02, 2.27380004e-02, 2.24760007e-02, 2.24559996e-02,
          2.21919995e-02, 0., 2.32539997e-02, 1.26399996e-03 ]
      - [ 2.51850002e-02, 2.47389991e-02, 2.43009999e-02, 2.37429999e-02,
          2.37039998e-02, 2.28710007e-02, 2.28000004e-02, 2.21430007e-02,
          2.20160000e-02, 0., 2.34999992e-02, 1.12100004e-03 ]
      - [ 6.66780025e-02, 6.48469999e-02, 6.22490011e-02, 6.01899996e-02,
          5.82019985e-02, 5.80619983e-02, 5.75889982e-02, 5.63720018e-02,
          5.59329987e-02, 5.48989996e-02, 3.98720019e-02, 8.12999997e-03 ]
      - [ 6.49370030e-02, 6.30960017e-02, 6.09060004e-02, 6.04109988e-02,
          5.98599985e-02, 5.97760007e-02, 5.94509989e-02, 5.82600012e-02,
          5.80409989e-02, 5.74549995e-02, 4.46170010e-02, 6.96100015e-03 ]
      - [ 7.64280036e-02, 7.46800005e-02, 6.53460026e-02, 6.43709973e-02,
          6.27460033e-02, 6.24839999e-02, 6.19429983e-02, 6.05939999e-02,
          6.03090003e-02, 5.97609989e-02, 4.58110012e-02, 9.42299981e-03 ]
      - [ 6.55229986e-02, 6.38310015e-02, 5.94119988e-02, 5.75940013e-02,
          5.65729998e-02, 5.65279983e-02, 5.24820015e-02, 4.97209989e-02,
          4.90010008e-02, 4.89969999e-02, 3.93589996e-02, 7.86199979e-03 ]
      - [ 7.50679970e-02, 6.75539970e-02, 6.71510026e-02, 6.61669970e-02,
          6.32139966e-02, 6.29160032e-02, 6.11339994e-02, 5.93690015e-02,
          5.85660003e-02, 5.84740005e-02, 4.32940014e-02, 9.14500002e-03 ]
      - [ 5.45249991e-02, 5.37130013e-02, 5.24000004e-02, 5.15489988e-02,
          5.11949994e-02, 5.02049997e-02, 4.98489998e-02, 4.74440008e-02,
          4.69140001e-02, 4.66610007e-02, 3.83750014e-02, 5.91700012e-03 ]
      - [ 6.56109974e-02, 5.84749989e-02, 5.55679984e-02, 5.41040003e-02,
          5.37829995e-02, 5.35049997e-02, 5.31300008e-02, 5.21910004e-02,
          5.21010011e-02, 5.20250015e-02, 4.18080017e-02, 6.79800007e-03 ]
      - [ 6.84589967e-02, 6.59499988e-02, 6.47760034e-02, 6.38799965e-02,
          6.38749972e-02, 6.32560030e-02, 6.16849996e-02, 6.05500005e-02,
          5.86999990e-02, 5.80819994e-02, 4.13170010e-02, 1.01009998e-02 ]
      - [ 6.68430030e-02, 6.53309971e-02, 6.37409985e-02, 6.17670007e-02,
          6.01879992e-02, 5.86649999e-02, 5.67229986e-02, 5.66850007e-02,
          5.65470010e-02, 5.56380004e-02, 4.22840007e-02, 7.50300009e-03 ]
      - [ 6.86639994e-02, 6.50070012e-02, 6.40750006e-02, 6.27759993e-02,
          6.15880005e-02, 6.03559986e-02, 6.01029992e-02, 5.98499998e-02,
          5.77859990e-02, 5.73219992e-02, 4.28560004e-02, 8.19600001e-03 ]
      - [ 7.54659995e-02, 6.47659972e-02, 6.01450019e-02, 5.96400015e-02,
          5.94860017e-02, 5.90680018e-02, 5.83489984e-02, 5.76040000e-02,
          5.71819991e-02, 5.67659996e-02, 4.12040018e-02, 8.30900017e-03 ]
      - [ 7.78219998e-02, 7.09569976e-02, 6.23980016e-02, 5.95589988e-02,
          5.92259988e-02, 5.86210005e-02, 5.86160012e-02, 5.74119985e-02,
          5.68660013e-02, 5.58760017e-02, 3.69619988e-02, 1.06729995e-02 ]
      - [ 6.84499964e-02, 6.47199973e-02, 5.97920008e-02, 5.85800000e-02,
          5.77359982e-02, 5.74910007e-02, 5.63660003e-02, 5.56229986e-02,
          5.18330000e-02, 5.16799986e-02, 3.81920002e-02, 8.97900015e-03 ]
      - [ 6.47210032e-02, 6.41129985e-02, 6.08359985e-02, 5.76610006e-02,
          5.59859984e-02, 5.49670011e-02, 5.41820005e-02, 5.28570004e-02,
          5.19590005e-02, 5.13140000e-02, 4.17970009e-02, 6.90399995e-03 ]
      - [ 6.50240034e-02, 6.42519966e-02, 6.38139993e-02, 6.07849993e-02,
          6.05640002e-02, 5.82760014e-02, 5.70640005e-02, 5.61110005e-02,
          5.57629988e-02, 5.56389987e-02, 4.06740010e-02, 8.41999985e-03 ]
      - [ 6.09980002e-02, 6.06070012e-02, 5.21569997e-02, 4.89289984e-02,
          4.61700000e-02, 4.49410006e-02, 4.45169993e-02, 4.26880009e-02,
          4.26650010e-02, 4.14349996e-02, 3.58150005e-02, 6.53300015e-03 ]
      - [ 6.19079992e-02, 6.18479997e-02, 5.84819987e-02, 5.84460013e-02,
          5.75390011e-02, 5.74840009e-02, 5.70739992e-02, 5.41879982e-02,
          5.39349988e-02, 5.33020012e-02, 3.90819982e-02, 7.66200013e-03 ]
      - [ 7.13289976e-02, 6.83579966e-02, 6.71090037e-02, 6.50139973e-02,
          6.38040006e-02, 6.34550005e-02, 5.97690009e-02, 5.97160012e-02,
          5.91409989e-02, 5.90989999e-02, 4.27189991e-02, 9.24099982e-03 ]
      - [ 6.06530011e-02, 5.80830015e-02, 5.52409999e-02, 5.50840013e-02,
          5.36280014e-02, 5.30490018e-02, 5.15649989e-02, 5.13579994e-02,
          5.06399982e-02, 5.00239991e-02, 4.16759998e-02, 5.98199992e-03 ]
      - [ 6.78839982e-02, 6.58269972e-02, 6.01870008e-02, 6.00919984e-02,
          5.73679991e-02, 5.64499982e-02, 5.55609986e-02, 5.51839992e-02,
          5.36150001e-02, 5.32240011e-02, 3.95460017e-02, 9.65499971e-03 ]
      - [ 6.13359995e-02, 6.03390001e-02, 6.00350015e-02, 5.70929982e-02,
          5.53920008e-02, 5.52400015e-02, 5.31780012e-02, 4.95290011e-02,
          4.86279987e-02, 4.74190004e-02, 3.70859988e-02, 7.54499994e-03 ]
      - [ 6.55279979e-02, 5.90259992e-02, 5.59859984e-02, 5.21689989e-02,
          5.19720018e-02, 5.16889989e-02, 5.12670018e-02, 4.97110002e-02,
          4.93239984e-02, 4.89489995e-02, 3.76739986e-02, 7.29200011e-03 ]
      - [ 6.11709990e-02, 5.94640002e-02, 5.91339990e-02, 5.65689988e-02,
          5.40699996e-02, 5.34560010e-02, 5.27569987e-02, 5.23080006e-02,
          5.13550006e-02, 5.08570001e-02, 4.04490009e-02, 7.35699991e-03 ]
      - [ 8.08750018e-02, 7.91350007e-02, 7.73219988e-02, 7.54320025e-02,
          6.60730004e-02, 5.97350001e-02, 5.48489988e-02, 5.42469993e-02,
          5.00449985e-02, 4.91859987e-02, 4.04589996e-02, 1.16560003e-02 ]
      - [ 6.15390018e-02, 6.00479990e-02, 5.92099987e-02, 5.75129986e-02,
          5.64940013e-02, 5.49810007e-02, 5.48020005e-02, 5.28169982e-02,
          5.27790003e-02, 5.17540015e-02, 4.37339991e-02, 5.73700015e-03 ]
      - [ 6.71179965e-02, 6.49449974e-02, 6.29800037e-02, 6.13010004e-02,
          5.88059984e-02, 5.75120002e-02, 5.58869988e-02, 5.53769991e-02,
          5.53340018e-02, 5.51230013e-02, 4.04449999e-02, 8.29300005e-03 ]
      - [ 6.78749979e-02, 6.41829967e-02, 6.13240004e-02, 6.05220012e-02,
          5.76380007e-02, 5.66600002e-02, 5.49109988e-02, 5.44320010e-02,
          5.03880009e-02, 4.97840010e-02, 3.95010002e-02, 9.49900039e-03 ]
      - [ 7.65250027e-02, 6.69519976e-02, 6.65460005e-02, 6.26339987e-02,
          6.11880012e-02, 5.90719990e-02, 5.75059988e-02, 5.71709983e-02,
          5.66969998e-02, 5.56810014e-02, 4.63929996e-02, 6.64399983e-03 ]
      - [ 6.61749989e-02, 6.34920001e-02, 6.20919988e-02, 5.85750006e-02,
          5.73690012e-02, 5.72290011e-02, 5.49779981e-02, 5.38219996e-02,
          5.20889983e-02, 5.19890003e-02, 4.09560017e-02, 7.63599994e-03 ]
      - [ 7.04730004e-02, 6.81950003e-02, 6.36309981e-02, 6.32340014e-02,
          6.29900023e-02, 6.26190007e-02, 6.19879998e-02, 6.01189993e-02,
          5.97640015e-02, 5.80889992e-02, 4.08679992e-02, 9.33299959e-03 ]
      - [ 7.46719986e-02, 7.31249973e-02, 6.26809970e-02, 5.84659986e-02,
          5.82609996e-02, 5.77169992e-02, 5.75620010e-02, 5.72410002e-02,
          5.69939986e-02, 5.59579991e-02, 4.31150012e-02, 8.11200030e-03 ]
      - [ 7.45040029e-02, 7.41399974e-02, 7.03829974e-02, 7.00839981e-02,
          6.74920008e-02, 6.54079989e-02, 6.38120025e-02, 6.28369972e-02,
          6.21129982e-02, 6.11599982e-02, 4.56379987e-02, 9.72600002e-03 ]
      - [ 6.37499988e-02, 6.36650026e-02, 6.26389980e-02, 6.15170002e-02,
          5.98700009e-02, 5.82889989e-02, 5.71440011e-02, 5.64740002e-02,
          5.64029999e-02, 5.59469983e-02, 4.11569998e-02, 8.89699999e-03 ]
      - [ 7.27559999e-02, 6.56299964e-02, 6.28649965e-02, 6.14770018e-02,
          6.10609986e-02, 6.04959987e-02, 6.03649989e-02, 5.96240014e-02,
          5.85459992e-02, 5.85220009e-02, 4.57420014e-02, 7.23600015e-03 ]
      - [ 6.81689978e-02, 6.79880008e-02, 6.58169985e-02, 5.84239997e-02,
          5.82810007e-02, 5.80280013e-02, 5.57599999e-02, 5.37009984e-02,
          5.22519983e-02, 5.17430007e-02, 3.92379984e-02, 8.56599957e-03 ]
      - [ 6.60350025e-02, 6.25159964e-02, 6.12710007e-02, 5.96110001e-02,
          5.94579987e-02, 5.94240017e-02, 5.86859994e-02, 5.80140017e-02,
          5.69580011e-02, 5.68629988e-02, 4.24540006e-02, 7.02900020e-03 ]
      - [ 7.18419999e-02, 6.76919967e-02, 6.67899996e-02, 6.54790029e-02,
          6.34799972e-02, 6.24350011e-02, 6.00720011e-02, 5.71219996e-02,
          5.57149984e-02, 5.51129989e-02, 4.15229984e-02, 9.42199957e-03 ]
      - [ 5.12459986e-02, 4.93180007e-02, 4.87350002e-02, 4.72339988e-02,
          4.64599989e-02, 4.63970006e-02, 4.51559983e-02, 4.51290011e-02,
          4.50479984e-02, 4.47629988e-02, 3.30299996e-02, 6.64500007e-03 ]
      - [ 6.33599982e-02, 6.21500015e-02, 6.14829995e-02, 5.87939993e-02,
          5.65759987e-02, 5.60709983e-02, 5.59029989e-02, 5.48139997e-02,
          5.47370017e-02, 5.44890016e-02, 4.06470001e-02, 7.69399991e-03 ]
      - [ 7.14249983e-02, 6.52149990e-02, 6.44270033e-02, 6.37890026e-02,
          6.09889999e-02, 6.05570003e-02, 6.01090007e-02, 5.95729984e-02,
          5.76470010e-02, 5.74500002e-02, 4.32920009e-02, 8.03999975e-03 ]
      - [ 7.03240037e-02, 6.77549988e-02, 6.75999969e-02, 6.59369975e-02,
          6.05870001e-02, 5.79769984e-02, 5.65409996e-02, 5.37980013e-02,
          5.31730019e-02, 5.29600009e-02, 4.03910019e-02, 8.01900029e-03 ]
      - [ 6.33750036e-02, 5.72590008e-02, 5.46859987e-02, 5.40780015e-02,
          5.39509989e-02, 5.32919988e-02, 4.95299995e-02, 4.90810014e-02,
          4.90689985e-02, 4.84899990e-02, 3.63110006e-02, 7.53699988e-03 ]
      - [ 6.09159991e-02, 5.53000011e-02, 5.36229983e-02, 5.21499999e-02,
          5.04439995e-02, 5.01599982e-02, 4.97939996e-02, 4.66689989e-02,
          4.59470004e-02, 4.59019989e-02, 3.66870016e-02, 6.64599985e-03 ]
      - [ 6.46639988e-02, 6.29080012e-02, 6.06449991e-02, 5.98520003e-02,
          5.97149990e-02, 5.96380010e-02, 5.85899986e-02, 5.84530011e-02,
          5.83049990e-02, 5.70840016e-02, 4.27239984e-02, 7.97399972e-03 ]
      - [ 7.00350031e-02, 6.74159974e-02, 5.90890013e-02, 5.88629991e-02,
          5.75640015e-02, 5.67150004e-02, 5.64970002e-02, 5.51889986e-02,
          5.50240017e-02, 5.48459999e-02, 4.22470011e-02, 7.94600043e-03 ]
      - [ 6.49859980e-02, 6.48389980e-02, 6.45470023e-02, 6.36700019e-02,
          6.32409975e-02, 6.24530017e-02, 5.97600006e-02, 5.94439991e-02,
          5.81789985e-02, 5.67799993e-02, 4.42049988e-02, 7.69500015e-03 ]
      - [ 6.54890016e-02, 6.45020008e-02, 6.41399994e-02, 5.97940013e-02,
          5.82019985e-02, 5.76889999e-02, 5.58530018e-02, 5.58249988e-02,
          5.49140014e-02, 5.33629991e-02, 4.17149998e-02, 7.14100013e-03 ]
      - [ 6.35220036e-02, 6.08199984e-02, 6.05910011e-02, 5.89159988e-02,
          5.54989986e-02, 5.53900003e-02, 5.48540018e-02, 5.48099987e-02,
          5.46719991e-02, 5.45400009e-02, 3.92999984e-02, 7.70399999e-03 ]
      - [ 7.55530000e-02, 7.41410032e-02, 7.10280016e-02, 6.83910027e-02,
          6.42170012e-02, 6.40449971e-02, 6.26389980e-02, 6.14559986e-02,
          6.08140007e-02, 5.89210019e-02, 4.40009981e-02, 9.44800023e-03 ]
      - [ 6.50779977e-02, 6.19059987e-02, 5.90800010e-02, 5.85110001e-02,
          5.80109991e-02, 5.75589985e-02, 5.71390018e-02, 5.68590015e-02,
          5.61459996e-02, 5.40359989e-02, 4.11170013e-02, 7.66899996e-03 ]
      - [ 6.83709979e-02, 6.45010024e-02, 6.39400035e-02, 6.17929995e-02,
          6.11060001e-02, 6.09750003e-02, 6.02170005e-02, 5.96209988e-02,
          5.95039986e-02, 5.89380004e-02, 4.54390012e-02, 7.63599994e-03 ]
      - [ 5.91319986e-02, 5.90920001e-02, 5.86300008e-02, 5.58370017e-02,
          5.18300012e-02, 5.14370017e-02, 5.02570011e-02, 4.85199988e-02,
          4.84200008e-02, 4.72010002e-02, 3.90890017e-02, 6.63299998e-03 ]
      - [ 7.23539963e-02, 7.16459975e-02, 7.10140020e-02, 7.01450035e-02,
          6.73860013e-02, 6.66569993e-02, 6.63900003e-02, 6.54430017e-02,
          6.48709983e-02, 6.46860003e-02, 4.79400009e-02, 8.94000009e-03 ]
      - [ 6.28580004e-02, 6.13589995e-02, 5.88009991e-02, 5.66690005e-02,
          5.60280010e-02, 5.57140000e-02, 5.15230000e-02, 5.12199998e-02,
          5.01080006e-02, 4.99330014e-02, 3.97079997e-02, 7.57399993e-03 ]
      - [ 7.25049973e-02, 7.11330026e-02, 7.00419992e-02, 6.81729987e-02,
          6.76999986e-02, 6.41790032e-02, 6.37449995e-02, 6.21690005e-02,
          6.21059984e-02, 6.20279983e-02, 4.55779992e-02, 9.28399991e-03 ]
      - [ 5.85910007e-02, 5.83700016e-02, 5.77629991e-02, 5.74209988e-02,
          5.43150008e-02, 5.23910001e-02, 5.11149988e-02, 5.05659990e-02,
          4.78530005e-02, 4.78059985e-02, 3.76360007e-02, 6.71599992e-03 ]
      - [ 5.87409995e-02, 5.69229983e-02, 5.68710007e-02, 5.49959987e-02,
          5.37180007e-02, 5.36589995e-02, 5.35239987e-02, 5.21650016e-02,
          5.20859994e-02, 5.19820005e-02, 4.06000018e-02, 6.70500007e-03 ]
      - [ 7.44730011e-02, 6.23180009e-02, 6.14750013e-02, 5.86999990e-02,
          5.86210005e-02, 5.73030002e-02, 5.52110001e-02, 5.50849997e-02,
          5.45039997e-02, 5.35850003e-02, 4.24689986e-02, 7.98300002e-03 ]
      - [ 6.05660006e-02, 5.88180013e-02, 5.71289994e-02, 5.51679991e-02,
          5.48290014e-02, 5.29280007e-02, 5.18219993e-02, 4.80719991e-02,
          4.69739996e-02, 4.66989987e-02, 3.58540006e-02, 7.46299978e-03 ]
      - [ 5.46940006e-02, 5.43170013e-02, 5.18260002e-02, 5.17169982e-02,
          5.14689982e-02, 5.10389991e-02, 5.07589988e-02, 4.92059998e-02,
          4.89399992e-02, 4.78370003e-02, 3.90510000e-02, 6.94399979e-03 ]
      - [ 6.19110018e-02, 6.06330000e-02, 5.97059987e-02, 5.91159984e-02,
          5.68609983e-02, 5.65319993e-02, 5.62109984e-02, 5.55539988e-02,
          5.53329997e-02, 5.44640012e-02, 4.15280014e-02, 7.35800015e-03 ]
      - [ 6.08449988e-02, 6.04420006e-02, 5.93699999e-02, 5.86099997e-02,
          5.50649986e-02, 5.16939983e-02, 5.06860018e-02, 5.01039997e-02,
          4.99599986e-02, 4.98609990e-02, 3.99370007e-02, 7.93899968e-03 ]
      - [ 6.00689985e-02, 5.93240000e-02, 5.84979989e-02, 5.82470000e-02,
          5.62359989e-02, 5.17180003e-02, 4.97899987e-02, 4.97180000e-02,
          4.92249988e-02, 4.77249995e-02, 3.47709991e-02, 8.39900039e-03 ]
      - [ 8.11550021e-02, 8.09760019e-02, 6.96159974e-02, 6.89790025e-02,
          6.08419999e-02, 6.08020015e-02, 5.56129999e-02, 5.40999994e-02,
          5.32989986e-02, 5.25400005e-02, 3.95909995e-02, 9.82000027e-03 ]
      - [ 6.85049966e-02, 6.79749995e-02, 6.71999976e-02, 5.84219992e-02,
          5.71199991e-02, 5.65820001e-02, 5.60799986e-02, 5.52910008e-02,
          5.51359989e-02, 5.34829982e-02, 4.04380001e-02, 9.33299959e-03 ]
      - [ 7.02140033e-02, 6.95229992e-02, 6.91469982e-02, 6.08230010e-02,
          5.41319996e-02, 5.24809994e-02, 5.24020009e-02, 5.08089997e-02,
          5.04369996e-02, 4.94519994e-02, 3.99320014e-02, 7.94500019e-03 ]
      - [ 7.43160024e-02, 7.29909986e-02, 6.76539987e-02, 6.55969977e-02,
          5.82929999e-02, 5.70579991e-02, 5.57020009e-02, 5.44609986e-02,
          5.18720001e-02, 5.16609997e-02, 4.11919989e-02, 9.12099984e-03 ]
      - [ 7.03689978e-02, 6.95390031e-02, 6.44040033e-02, 6.43849969e-02,
          6.42329976e-02, 6.30109981e-02, 6.24210015e-02, 6.15219995e-02,
          6.08819984e-02, 6.06079996e-02, 4.54670005e-02, 8.53300001e-03 ]
      - [ 7.00739995e-02, 6.75290003e-02, 6.51480034e-02, 6.34239987e-02,
          6.32039979e-02, 6.18029982e-02, 6.17559999e-02, 6.02310002e-02,
          5.84629998e-02, 5.79750016e-02, 4.23649997e-02, 8.87400005e-03 ]
      - [ 7.21850023e-02, 6.56339973e-02, 6.50189966e-02, 6.45179972e-02,
          6.17569983e-02, 6.16910011e-02, 6.07369989e-02, 5.83750010e-02,
          5.76209985e-02, 5.71230017e-02, 4.26420011e-02, 8.68299976e-03 ]
      - [ 7.73470029e-02, 7.20620006e-02, 6.88060001e-02, 6.45549968e-02,
          6.19760007e-02, 6.10960014e-02, 6.00429997e-02, 5.99679984e-02,
          5.97740002e-02, 5.96500002e-02, 4.68280017e-02, 7.95000046e-03 ]
      - [ 7.02259988e-02, 7.01439977e-02, 5.72849996e-02, 5.72180003e-02,
          5.71440011e-02, 5.63470013e-02, 5.44200018e-02, 5.24480008e-02,
          5.16909994e-02, 5.10400012e-02, 3.98340002e-02, 7.94900022e-03 ]
      - [ 5.98249994e-02, 5.89249991e-02, 5.85570000e-02, 5.77530004e-02,
          5.65159991e-02, 5.64850010e-02, 5.63899986e-02, 5.60100004e-02,
          5.38959987e-02, 5.32889999e-02, 4.17990014e-02, 7.52100023e-03 ]
      - [ 7.12980032e-02, 7.06750005e-02, 6.63409978e-02, 6.51500002e-02,
          6.46229982e-02, 6.24429993e-02, 6.10879995e-02, 6.09840006e-02,
          5.92989996e-02, 5.90500012e-02, 4.48310003e-02, 8.51599965e-03 ]
      - [ 6.07260019e-02, 6.05189987e-02, 5.89380004e-02, 5.75259998e-02,
          5.71300015e-02, 5.71249984e-02, 5.49479984e-02, 5.47479987e-02,
          5.42900003e-02, 5.42029999e-02, 4.38259989e-02, 6.20600022e-03 ]
      - [ 5.76470010e-02, 5.45069985e-02, 5.39130010e-02, 5.38749993e-02,
          5.24879992e-02, 5.19520007e-02, 5.17899990e-02, 5.15570007e-02,
          5.07330000e-02, 5.05400002e-02, 3.85910012e-02, 6.74800016e-03 ]
      - [ 7.26429969e-02, 7.22640008e-02, 6.35420009e-02, 6.04280010e-02,
          6.02499992e-02, 5.90090007e-02, 5.87540008e-02, 5.75920008e-02,
          5.67919984e-02, 5.65260015e-02, 4.06429991e-02, 9.65899974e-03 ]
      - [ 6.26140013e-02, 5.96879981e-02, 5.73530011e-02, 5.70279993e-02,
          5.58089986e-02, 5.48259988e-02, 5.41029982e-02, 5.35680018e-02,
          5.25370017e-02, 5.16850017e-02, 3.94699983e-02, 7.77099980e-03 ]
      - [ 6.92889988e-02, 6.47699982e-02, 6.45219982e-02, 6.13150001e-02,
          6.12539984e-02, 5.97570017e-02, 5.96509986e-02, 5.90940006e-02,
          5.84050007e-02, 5.81689999e-02, 4.28999998e-02, 9.02600028e-03 ]
      - [ 7.71280006e-02, 6.79730028e-02, 6.63750023e-02, 6.51369989e-02,
          6.35609999e-02, 6.33879974e-02, 6.31949976e-02, 6.12669997e-02,
          5.44449985e-02, 5.40309995e-02, 4.32729982e-02, 8.60300008e-03 ]
      - [ 6.56920001e-02, 6.28729984e-02, 6.21110015e-02, 6.19029999e-02,
          6.05229996e-02, 5.94240017e-02, 5.94209991e-02, 5.85240014e-02,
          5.65330014e-02, 5.62370010e-02, 4.44439985e-02, 7.06599979e-03 ]
      - [ 6.18060008e-02, 5.92820011e-02, 5.85019998e-02, 5.79110011e-02,
          5.68590015e-02, 5.67170009e-02, 5.47300018e-02, 5.37090003e-02,
          5.31160012e-02, 5.26929982e-02, 4.22579981e-02, 8.06399994e-03 ]
      - [ 7.68930018e-02, 7.28719980e-02, 6.75640032e-02, 6.38990030e-02,
          6.24569990e-02, 5.92200011e-02, 5.92049994e-02, 5.89089990e-02,
          5.72549999e-02, 5.63330017e-02, 4.37670015e-02, 8.50399956e-03 ]
      - [ 6.46869987e-02, 6.28750026e-02, 6.15799986e-02, 5.94840012e-02,
          5.60319982e-02, 5.39060012e-02, 5.36779985e-02, 5.35360016e-02,
          5.31679988e-02, 5.31280003e-02, 4.21449989e-02, 7.06599979e-03 ]
      - [ 5.90060018e-02, 5.69670014e-02, 5.45889996e-02, 5.40370010e-02,
          5.20300008e-02, 5.10119982e-02, 5.05580008e-02, 5.00600003e-02,
          4.89390008e-02, 4.79759984e-02, 3.78109999e-02, 7.13399984e-03 ]
      - [ 7.17829987e-02, 6.84610009e-02, 6.77910000e-02, 6.47130013e-02,
          6.34180009e-02, 6.22569993e-02, 6.20060004e-02, 5.91569990e-02,
          5.90899996e-02, 5.82300015e-02, 4.32839990e-02, 9.29099973e-03 ]
      - [ 6.66270033e-02, 6.52500018e-02, 6.52090013e-02, 6.37170002e-02,
          6.30619973e-02, 6.15140013e-02, 5.73810004e-02, 5.56799993e-02,
          5.52860014e-02, 5.52360006e-02, 4.26190011e-02, 8.32400005e-03 ]
      - [ 6.49909973e-02, 5.81060015e-02, 5.62050007e-02, 5.29940017e-02,
          5.19820005e-02, 5.16810007e-02, 5.04189990e-02, 4.95399982e-02,
          4.91020009e-02, 4.76219989e-02, 3.84260006e-02, 7.21199997e-03 ]
      - [ 5.04850000e-02, 4.89999987e-02, 4.71189991e-02, 4.57490012e-02,
          4.44130003e-02, 4.42969985e-02, 4.39039990e-02, 4.35429998e-02,
          4.32120003e-02, 4.22989987e-02, 3.59870009e-02, 5.27200010e-03 ]
      - [ 6.34559989e-02, 6.22779988e-02, 6.17480017e-02, 6.03719987e-02,
          5.88309988e-02, 5.82210012e-02, 5.70910014e-02, 5.67689985e-02,
          5.64210005e-02, 5.49950004e-02, 4.19260003e-02, 7.37700006e-03 ]
      - [ 6.71690032e-02, 6.53550029e-02, 6.45110011e-02, 6.18619993e-02,
          6.10149987e-02, 6.07960001e-02, 6.07599989e-02, 6.01879992e-02,
          5.89919984e-02, 5.84499985e-02, 4.38829996e-02, 8.75400007e-03 ]
      - [ 5.80319986e-02, 5.56310005e-02, 5.27709983e-02, 5.26399985e-02,
          5.25050014e-02, 5.09399995e-02, 5.01970015e-02, 4.97349985e-02,
          4.95040007e-02, 4.93629985e-02, 3.72520015e-02, 7.61700002e-03 ]
      - [ 6.55860007e-02, 6.41670004e-02, 6.39469996e-02, 6.31489977e-02,
          6.19870014e-02, 6.12820014e-02, 6.08800016e-02, 6.00889996e-02,
          6.00630008e-02, 5.98479994e-02, 4.42430004e-02, 7.88199995e-03 ]
      - [ 7.34890029e-02, 6.39080033e-02, 6.35199994e-02, 6.26149997e-02,
          6.18139990e-02, 6.13030009e-02, 6.03550002e-02, 5.91249987e-02,
          5.89930005e-02, 5.89429997e-02, 4.39230017e-02, 8.60199984e-03 ]
      - [ 6.46909997e-02, 5.63840009e-02, 5.61069995e-02, 5.36449999e-02,
          5.06489985e-02, 4.73320000e-02, 4.67020012e-02, 4.59359996e-02,
          4.58999984e-02, 4.46630009e-02, 3.64530012e-02, 7.73099996e-03 ]
      - [ 5.99259995e-02, 5.42600006e-02, 5.38420007e-02, 5.07409982e-02,
          5.07250018e-02, 4.88240011e-02, 4.86100018e-02, 4.83839996e-02,
          4.65129986e-02, 4.55310009e-02, 3.34689990e-02, 7.65600009e-03 ]
      - [ 5.75640015e-02, 5.67389987e-02, 5.43369986e-02, 5.39110005e-02,
          5.27880006e-02, 5.21170013e-02, 5.20039983e-02, 5.08529991e-02,
          5.06789982e-02, 5.00660017e-02, 3.83099988e-02, 7.43100001e-03 ]
      - [ 6.52360022e-02, 6.28969967e-02, 5.89139983e-02, 5.76100014e-02,
          5.74820004e-02, 5.66239990e-02, 5.64620011e-02, 5.55289984e-02,
          5.50989993e-02, 5.44850007e-02, 4.05870005e-02, 8.41300003e-03 ]
      - [ 6.59089983e-02, 6.28129989e-02, 5.64710014e-02, 5.61220013e-02,
          5.49860001e-02, 5.41229993e-02, 5.40179983e-02, 5.20839989e-02,
          4.91760001e-02, 4.83499989e-02, 3.86249982e-02, 7.66400015e-03 ]
      - [ 8.02939981e-02, 7.66979977e-02, 7.25390017e-02, 7.11549968e-02,
          6.95559978e-02, 6.56839982e-02, 6.55369982e-02, 6.49179965e-02,
          6.41689971e-02, 6.34780005e-02, 4.53899987e-02, 1.04769999e-02 ]
      - [ 6.64979964e-02, 6.35550022e-02, 6.07360005e-02, 5.92049994e-02,
          5.91560006e-02, 5.84909990e-02, 5.79690002e-02, 5.62629998e-02,
          5.62339984e-02, 5.61450012e-02, 4.36029993e-02, 7.25999987e-03 ]
      - [ 6.65450022e-02, 6.63819984e-02, 6.40100017e-02, 6.12690002e-02,
          6.05110005e-02, 6.02979995e-02, 6.00740016e-02, 5.92780001e-02,
          5.84710017e-02, 5.70669994e-02, 4.42049988e-02, 7.90799968e-03 ]
      - [ 5.40149994e-02, 4.96429987e-02, 4.91219983e-02, 4.73200008e-02,
          4.50530015e-02, 4.41490002e-02, 4.40619998e-02, 4.40240018e-02,
          4.40189987e-02, 4.39179987e-02, 3.52299996e-02, 5.90799982e-03 ]
      - [ 6.39090016e-02, 5.68090007e-02, 5.60549982e-02, 5.52220009e-02,
          5.41939996e-02, 5.22219986e-02, 4.90799993e-02, 4.88590002e-02,
          4.88170013e-02, 4.81229983e-02, 3.77690010e-02, 7.77800009e-03 ]
      - [ 6.92790002e-02, 6.62309974e-02, 6.21969998e-02, 6.15519993e-02,
          5.89269996e-02, 5.77890016e-02, 5.75009994e-02, 5.71210012e-02,
          5.67499995e-02, 5.50680012e-02, 4.21530008e-02, 8.19099974e-03 ]
      - [ 6.61050007e-02, 6.49209991e-02, 6.28070012e-02, 5.97589985e-02,
          5.86140007e-02, 5.83910011e-02, 5.23650013e-02, 5.21310009e-02,
          5.16999997e-02, 5.15380017e-02, 4.00229990e-02, 8.33899993e-03 ]
      - [ 7.99029991e-02, 7.49510005e-02, 6.50769994e-02, 6.15600012e-02,
          5.63759990e-02, 5.61930016e-02, 5.46929985e-02, 5.38240001e-02,
          5.24110012e-02, 5.22969998e-02, 4.04909998e-02, 9.16900020e-03 ]
      - [ 5.91569990e-02, 5.52919991e-02, 4.80669998e-02, 4.80300002e-02,
          4.66430001e-02, 4.64240015e-02, 4.61140014e-02, 4.44030017e-02,
          4.35549989e-02, 4.32160012e-02, 3.34729999e-02, 7.07599986e-03 ]
      - [ 6.31109998e-02, 6.16610013e-02, 6.04050010e-02, 5.82830012e-02,
          5.78930005e-02, 5.72209992e-02, 5.52630015e-02, 5.29780015e-02,
          5.27990013e-02, 5.27429990e-02, 3.97490002e-02, 8.55999999e-03 ]
      - [ 5.38379997e-02, 5.35879992e-02, 5.25530018e-02, 4.66669984e-02,
          4.63999994e-02, 4.61309999e-02, 4.55520004e-02, 4.54009995e-02,
          4.48129997e-02, 4.47320007e-02, 3.38330008e-02, 6.98899990e-03 ]
      - [ 5.72579987e-02, 5.38370013e-02, 5.15360013e-02, 5.10700010e-02,
          4.98830006e-02, 4.97669987e-02, 4.95549999e-02, 4.85120006e-02,
          4.74120006e-02, 4.61409986e-02, 3.58840004e-02, 6.77900016e-03 ]
      - [ 6.73910007e-02, 6.35079965e-02, 6.26420006e-02, 6.18750006e-02,
          6.11100011e-02, 5.79929985e-02, 5.69659993e-02, 5.59220016e-02,
          5.27709983e-02, 5.27159981e-02, 4.11089994e-02, 7.77000003e-03 ]
      - [ 5.49799986e-02, 5.47289997e-02, 5.44909984e-02, 5.31960018e-02,
          5.19610010e-02, 5.17989993e-02, 5.08540012e-02, 4.95949984e-02,
          4.95200008e-02, 4.94530015e-02, 4.05149981e-02, 5.87699981e-03 ]
      - [ 5.76030016e-02, 5.65849990e-02, 5.52259982e-02, 5.25370017e-02,
          5.02859987e-02, 4.98480015e-02, 4.85979989e-02, 4.84919995e-02,
          4.82899994e-02, 4.71439995e-02, 3.83460000e-02, 6.53700018e-03 ]
      - [ 6.97520003e-02, 6.87460005e-02, 6.85729980e-02, 5.90300001e-02,
          5.85619994e-02, 5.78529984e-02, 5.75879999e-02, 5.66519983e-02,
          5.61279990e-02, 5.40370010e-02, 4.17319983e-02, 7.69900018e-03 ]
      - [ 6.44799992e-02, 6.06219992e-02, 6.00269996e-02, 5.93839996e-02,
          5.86960018e-02, 5.68660013e-02, 5.67260012e-02, 5.65610006e-02,
          5.65520003e-02, 5.64469993e-02, 4.58469987e-02, 5.83400019e-03 ]
      - [ 6.35539964e-02, 6.19250014e-02, 5.89170009e-02, 5.81559986e-02,
          5.79489991e-02, 5.47650009e-02, 5.45100011e-02, 5.42370006e-02,
          5.31929992e-02, 5.31679988e-02, 4.33100015e-02, 6.41300017e-03 ]
      - [ 6.81179985e-02, 6.65600002e-02, 6.54029995e-02, 6.24050014e-02,
          6.21050000e-02, 6.07980005e-02, 6.07529990e-02, 6.03820011e-02,
          5.80560006e-02, 5.61980009e-02, 4.11349982e-02, 9.15300008e-03 ]
      - [ 5.23139983e-02, 4.93160002e-02, 4.88590002e-02, 4.88179997e-02,
          4.80990000e-02, 4.80489992e-02, 4.79299985e-02, 4.73470017e-02,
          4.70140018e-02, 4.62579988e-02, 3.36869992e-02, 6.73499983e-03 ]
      - [ 6.08440004e-02, 5.88609986e-02, 5.84629998e-02, 5.74540012e-02,
          5.47930002e-02, 5.41989990e-02, 5.19450009e-02, 5.11210002e-02,
          4.94749993e-02, 4.93169986e-02, 3.58919986e-02, 7.83700030e-03 ]
      - [ 6.82369992e-02, 6.53989986e-02, 6.43979982e-02, 6.39740005e-02,
          6.35420009e-02, 6.31119981e-02, 6.08370006e-02, 5.99820018e-02,
          5.83159998e-02, 5.81130013e-02, 4.57039997e-02, 6.96599996e-03 ]
      - [ 7.08530024e-02, 7.03400001e-02, 6.96770027e-02, 6.90760016e-02,
          6.90020025e-02, 6.66109994e-02, 6.63829967e-02, 6.59729987e-02,
          6.44830018e-02, 6.31259978e-02, 4.79740016e-02, 8.90600029e-03 ]
      - [ 6.10850006e-02, 5.98380007e-02, 5.86999990e-02, 5.86410016e-02,
          5.41890003e-02, 5.21190017e-02, 5.12910001e-02, 5.06299995e-02,
          4.92650010e-02, 4.91449982e-02, 4.00089994e-02, 6.59199990e-03 ]
      - [ 7.21440017e-02, 6.53060004e-02, 6.38979971e-02, 6.24120012e-02,
          6.11330010e-02, 5.80729991e-02, 5.37000000e-02, 5.19479997e-02,
          5.15340008e-02, 5.04049994e-02, 3.93619984e-02, 8.10999982e-03 ]
      - [ 6.62019998e-02, 6.43720031e-02, 5.50399981e-02, 5.47950007e-02,
          5.35140000e-02, 5.26780002e-02, 5.23910001e-02, 5.15410006e-02,
          5.10849990e-02, 5.06649986e-02, 4.02589999e-02, 7.71499984e-03 ]
      - [ 5.94209991e-02, 5.85649982e-02, 5.75970002e-02, 5.62120005e-02,
          5.55559993e-02, 5.37299998e-02, 5.30809984e-02, 5.13079986e-02,
          5.12750000e-02, 5.12440018e-02, 3.77460010e-02, 7.54800020e-03 ]
      - [ 6.76689968e-02, 6.58610016e-02, 6.50589988e-02, 6.42929971e-02,
          6.35489970e-02, 6.31479993e-02, 5.87980002e-02, 5.80319986e-02,
          5.73999994e-02, 5.43179996e-02, 4.28639986e-02, 7.43399980e-03 ]
      - [ 6.61190003e-02, 6.53410032e-02, 6.24339990e-02, 5.97800016e-02,
          5.88349998e-02, 5.36909997e-02, 5.24379984e-02, 5.19549996e-02,
          5.18889986e-02, 5.17640002e-02, 3.95769998e-02, 7.82299973e-03 ]
      - [ 7.93339983e-02, 7.62770027e-02, 6.95590004e-02, 5.58689982e-02,
          5.32910004e-02, 5.19299991e-02, 5.17099984e-02, 5.12740016e-02,
          5.06949984e-02, 5.05620018e-02, 4.02150005e-02, 9.49000008e-03 ]
      - [ 6.68879971e-02, 6.63810000e-02, 5.38409986e-02, 5.29129989e-02,
          5.27420007e-02, 5.22730015e-02, 5.20659983e-02, 5.17029986e-02,
          5.12840003e-02, 5.07780015e-02, 4.12160009e-02, 6.51200023e-03 ]
      - [ 6.89160004e-02, 6.46099970e-02, 6.16290011e-02, 5.99609986e-02,
          5.95160015e-02, 5.85100017e-02, 5.76910004e-02, 5.48360012e-02,
          5.22839986e-02, 5.20920008e-02, 4.28170003e-02, 7.32500013e-03 ]
      - [ 6.41330034e-02, 6.37980029e-02, 6.06050007e-02, 6.05809987e-02,
          5.92459999e-02, 5.87869994e-02, 5.86269982e-02, 5.78089990e-02,
          5.70419990e-02, 5.68550006e-02, 4.05230001e-02, 8.26099981e-03 ]
      - [ 6.60870001e-02, 6.49660006e-02, 6.30360022e-02, 6.17120005e-02,
          6.14500009e-02, 6.14150017e-02, 6.11109994e-02, 6.09439984e-02,
          5.59270009e-02, 5.56389987e-02, 4.14890014e-02, 8.90600029e-03 ]
      - [ 6.57830015e-02, 6.45919964e-02, 6.39130026e-02, 6.34469986e-02,
          5.88129982e-02, 5.85259981e-02, 5.83029985e-02, 5.80129996e-02,
          5.76310009e-02, 5.68140000e-02, 3.98450010e-02, 9.23299976e-03 ]
      - [ 6.20179996e-02, 5.93670011e-02, 5.87479994e-02, 5.78220002e-02,
          5.74459992e-02, 5.71670011e-02, 5.65549992e-02, 5.59220016e-02,
          5.34659997e-02, 5.17240018e-02, 3.81379984e-02, 7.70899979e-03 ]
      - [ 7.11999983e-02, 6.71119988e-02, 6.41290024e-02, 6.06580004e-02,
          5.93269989e-02, 5.76790012e-02, 5.73230013e-02, 5.64949997e-02,
          5.64830005e-02, 5.63049987e-02, 4.18599993e-02, 8.39199964e-03 ]
      - [ 6.92399964e-02, 6.46890029e-02, 6.36309981e-02, 6.33620024e-02,
          6.32010028e-02, 6.31600022e-02, 6.23920001e-02, 6.22060001e-02,
          6.21670000e-02, 6.10169992e-02, 4.36789989e-02, 8.29800032e-03 ]
      - [ 6.83080032e-02, 6.47620037e-02, 6.32890016e-02, 6.22499995e-02,
          5.65580018e-02, 5.38749993e-02, 5.31340018e-02, 5.31329997e-02,
          5.29979989e-02, 5.24980016e-02, 4.17170003e-02, 7.69999996e-03 ]
      - [ 6.35600016e-02, 6.35410026e-02, 6.34140000e-02, 6.08719997e-02,
          6.06330000e-02, 5.88280000e-02, 5.56910001e-02, 5.54139987e-02,
          5.32779992e-02, 5.28270006e-02, 4.14940007e-02, 8.00300017e-03 ]
      - [ 6.93650022e-02, 6.71169981e-02, 6.66159987e-02, 6.06480017e-02,
          6.03840016e-02, 5.64120002e-02, 5.59200011e-02, 5.57680018e-02,
          5.29749990e-02, 5.22629991e-02, 3.98479998e-02, 8.39000009e-03 ]
      - [ 6.38549998e-02, 6.05619997e-02, 5.98450005e-02, 5.95350005e-02,
          5.81419989e-02, 5.71230017e-02, 5.65860011e-02, 5.26620001e-02,
          5.18600009e-02, 5.04840016e-02, 3.96890007e-02, 8.16600025e-03 ]
      - [ 7.18080029e-02, 6.32200018e-02, 6.02689981e-02, 5.65970019e-02,
          5.43209985e-02, 5.37989996e-02, 5.37850000e-02, 5.32249995e-02,
          5.30330017e-02, 5.17949983e-02, 3.95869985e-02, 7.72600016e-03 ]
      - [ 6.99540004e-02, 6.96320012e-02, 6.30619973e-02, 6.25440031e-02,
          6.03960007e-02, 5.98260015e-02, 5.92599995e-02, 5.92349991e-02,
          5.88149987e-02, 5.85369989e-02, 4.34850007e-02, 8.32999963e-03 ]
      - [ 6.50020018e-02, 6.30170032e-02, 6.14660010e-02, 5.99739999e-02,
          5.98220006e-02, 5.90530001e-02, 5.86929992e-02, 5.84350005e-02,
          5.79809994e-02, 5.76299988e-02, 4.02829982e-02, 9.86499991e-03 ]
      - [ 7.19050020e-02, 6.95130005e-02, 6.73649982e-02, 6.61600009e-02,
          6.35079965e-02, 6.30050004e-02, 6.27060011e-02, 6.14079982e-02,
          6.07529990e-02, 6.00159988e-02, 4.47539985e-02, 8.87199957e-03 ]
      - [ 6.59219995e-02, 6.34159967e-02, 6.07170016e-02, 6.03669994e-02,
          6.03169985e-02, 6.00400008e-02, 5.66390008e-02, 5.62149994e-02,
          5.53410016e-02, 5.38950004e-02, 4.02520001e-02, 8.73600040e-03 ]
      - [ 6.72049969e-02, 6.46060035e-02, 6.25080019e-02, 6.21359982e-02,
          6.09299988e-02, 5.94890006e-02, 5.51090017e-02, 5.40289991e-02,
          5.40109985e-02, 5.31719998e-02, 3.91019993e-02, 9.10899974e-03 ]
      - [ 7.32799992e-02, 6.94859996e-02, 6.75849989e-02, 6.56130016e-02,
          6.48650005e-02, 6.34849966e-02, 6.34680018e-02, 6.31859973e-02,
          6.27949983e-02, 6.25070035e-02, 4.86669987e-02, 7.63999997e-03 ]
      - [ 6.94350004e-02, 6.81990013e-02, 6.45989999e-02, 6.41539991e-02,
          6.20520003e-02, 6.14780001e-02, 6.10230006e-02, 5.82140014e-02,
          5.78380004e-02, 5.77050000e-02, 4.60480005e-02, 7.77099980e-03 ]
      - [ 6.67610019e-02, 6.54599965e-02, 6.40700012e-02, 6.06970005e-02,
          5.62480018e-02, 5.46399988e-02, 5.42269982e-02, 5.39570004e-02,
          5.36050014e-02, 5.32350019e-02, 4.50269990e-02, 6.74899993e-03 ]
      - [ 7.03990012e-02, 6.90929964e-02, 6.67359978e-02, 6.55800030e-02,
          6.55720010e-02, 6.55260012e-02, 6.44100010e-02, 6.38799965e-02,
          6.38649985e-02, 6.31899983e-02, 5.03650010e-02, 7.57399993e-03 ]
      - [ 6.43759966e-02, 6.37779981e-02, 6.34730011e-02, 6.30649999e-02,
          6.18820004e-02, 6.09739982e-02, 6.04889989e-02, 6.04010001e-02,
          6.00039996e-02, 5.91470003e-02, 4.88520004e-02, 5.55399992e-03 ]
      - [ 6.52500018e-02, 6.10679984e-02, 6.01309985e-02, 5.95959984e-02,
          5.51740006e-02, 5.40379994e-02, 5.31800017e-02, 5.24649993e-02,
          5.21459989e-02, 5.21420017e-02, 4.43410017e-02, 6.35700021e-03 ]
      - [ 6.65770024e-02, 6.46689981e-02, 5.99280000e-02, 5.97320013e-02,
          5.89819998e-02, 5.84710017e-02, 5.75789995e-02, 5.66629991e-02,
          5.62179983e-02, 5.61250001e-02, 4.56800014e-02, 6.20000018e-03 ]
      - [ 7.69430026e-02, 7.29760006e-02, 7.08149970e-02, 6.59160018e-02,
          6.40819967e-02, 6.37219995e-02, 6.36620000e-02, 6.34339973e-02,
          6.23300001e-02, 6.20799996e-02, 4.75529991e-02, 9.33100004e-03 ]
      - [ 7.16750026e-02, 7.00289980e-02, 7.00030029e-02, 6.64459988e-02,
          6.55099973e-02, 6.50670007e-02, 6.49869964e-02, 6.44619986e-02,
          6.43979982e-02, 6.21600002e-02, 4.82200012e-02, 7.50300009e-03 ]
      - [ 7.53099993e-02, 6.71499968e-02, 6.67480007e-02, 6.39789999e-02,
          6.29189983e-02, 6.03759997e-02, 5.99009991e-02, 5.97580001e-02,
          5.88660017e-02, 5.77379987e-02, 4.61370014e-02, 6.94199977e-03 ]
      - [ 8.10910016e-02, 8.01850036e-02, 7.84009993e-02, 7.68719986e-02,
          7.48049989e-02, 7.28660002e-02, 7.00230002e-02, 6.75669983e-02,
          6.70780018e-02, 6.66349977e-02, 4.96670008e-02, 9.00099985e-03 ]
      - [ 7.29869977e-02, 7.28690028e-02, 6.85160011e-02, 6.80920035e-02,
          6.55649975e-02, 6.51839972e-02, 6.30709976e-02, 6.15679994e-02,
          6.10440001e-02, 5.96969984e-02, 4.87960018e-02, 6.96100015e-03 ]
      - [ 7.25279972e-02, 7.11570010e-02, 7.01880008e-02, 6.99660033e-02,
          6.50610030e-02, 6.42030016e-02, 6.36719987e-02, 6.31399974e-02,
          6.17309995e-02, 6.09130003e-02, 5.30939996e-02, 5.72799984e-03 ]
      - [ 6.82630017e-02, 6.55279979e-02, 6.25590011e-02, 6.19679987e-02,
          6.08210005e-02, 5.98119982e-02, 5.97519986e-02, 5.92599995e-02,
          5.75399995e-02, 5.72890006e-02, 4.67539988e-02, 6.25200011e-03 ]
      - [ 7.91789964e-02, 7.75339976e-02, 6.83860034e-02, 6.81829974e-02,
          6.70460016e-02, 6.68089986e-02, 6.61550015e-02, 6.30050004e-02,
          6.04990013e-02, 6.02370016e-02, 4.64029983e-02, 8.26099981e-03 ]
      - [ 6.88790008e-02, 6.81200027e-02, 6.77250028e-02, 6.66880012e-02,
          6.52600005e-02, 6.41890019e-02, 6.37279972e-02, 6.26569986e-02,
          6.20069988e-02, 6.09499998e-02, 4.84150015e-02, 7.84699991e-03 ]
      - [ 7.67859966e-02, 7.24060014e-02, 7.00069964e-02, 6.98290020e-02,
          6.86319992e-02, 6.63810000e-02, 6.37840033e-02, 6.19090013e-02,
          6.17760010e-02, 6.16270006e-02, 5.06270006e-02, 7.62700010e-03 ]
      - [ 7.71579966e-02, 7.32270032e-02, 7.28920028e-02, 7.03760013e-02,
          6.52190000e-02, 6.28160015e-02, 6.16520010e-02, 5.91280013e-02,
          5.91010004e-02, 5.87709993e-02, 5.02520017e-02, 7.13300006e-03 ]
      - [ 6.36959970e-02, 6.14629984e-02, 6.01699986e-02, 6.01020008e-02,
          5.94640002e-02, 5.83870001e-02, 5.79609983e-02, 5.78569993e-02,
          5.71869984e-02, 5.66239990e-02, 4.86520007e-02, 5.16799977e-03 ]
      - [ 8.06730017e-02, 7.85820037e-02, 7.01979995e-02, 6.64559975e-02,
          6.56170025e-02, 6.47730008e-02, 6.37660027e-02, 6.25369996e-02,
          6.15869984e-02, 6.15280010e-02, 4.89519984e-02, 9.49199963e-03 ]
      - [ 6.84309974e-02, 6.72030002e-02, 6.68480024e-02, 6.67439997e-02,
          6.54909983e-02, 6.42789975e-02, 6.36460036e-02, 6.32629991e-02,
          6.25619963e-02, 6.09040000e-02, 4.86649983e-02, 7.17299990e-03 ]
      - [ 8.53909999e-02, 8.50879997e-02, 7.40270019e-02, 7.34030008e-02,
          7.07010031e-02, 7.05180019e-02, 6.66610003e-02, 6.66259974e-02,
          6.63900003e-02, 6.57109991e-02, 5.13090007e-02, 9.20100044e-03 ]
      - [ 7.61710033e-02, 6.65739998e-02, 6.63900003e-02, 6.59919977e-02,
          6.43590018e-02, 6.22950010e-02, 6.15659989e-02, 6.07599989e-02,
          5.94169982e-02, 5.76030016e-02, 4.63280007e-02, 7.55099999e-03 ]
      - [ 6.65220022e-02, 5.79029992e-02, 5.75460009e-02, 5.69069982e-02,
          5.63809983e-02, 5.63229993e-02, 5.63069992e-02, 5.62109984e-02,
          5.61640002e-02, 5.51140010e-02, 4.52830009e-02, 5.62899979e-03 ]
      - [ 6.72959983e-02, 6.51580021e-02, 6.42940030e-02, 6.42549992e-02,
          6.31569996e-02, 6.30360022e-02, 6.29800037e-02, 6.22680001e-02,
          6.01320006e-02, 5.94579987e-02, 4.72319983e-02, 6.87699998e-03 ]
      - [ 6.37329966e-02, 6.19029999e-02, 6.10890016e-02, 5.89900017e-02,
          5.82350008e-02, 5.80760017e-02, 5.80170006e-02, 5.78080006e-02,
          5.76619990e-02, 5.72099984e-02, 4.76879999e-02, 5.70299989e-03 ]
      - [ 7.52220005e-02, 7.51900002e-02, 7.31799975e-02, 6.66069984e-02,
          6.61939979e-02, 6.51739985e-02, 6.51120022e-02, 6.47429973e-02,
          6.38730004e-02, 6.15679994e-02, 4.68490012e-02, 8.43000039e-03 ]
      - [ 6.80420026e-02, 6.73250034e-02, 6.70420006e-02, 6.51189983e-02,
          6.41760007e-02, 6.35069981e-02, 6.31430000e-02, 6.27989992e-02,
          6.21620007e-02, 6.04440011e-02, 4.92490008e-02, 7.11600017e-03 ]
      - [ 7.49130026e-02, 7.41909966e-02, 7.33560026e-02, 6.82350025e-02,
          6.62709996e-02, 6.37110025e-02, 6.23760000e-02, 5.98820001e-02,
          5.82249984e-02, 5.72590008e-02, 4.77030016e-02, 7.36400019e-03 ]
      - [ 7.48640001e-02, 7.16990009e-02, 7.07800016e-02, 7.00699985e-02,
          6.98560029e-02, 6.91620037e-02, 6.58480003e-02, 6.58069998e-02,
          6.52640015e-02, 6.51609972e-02, 4.81560007e-02, 8.55000038e-03 ]
      - [ 7.49339983e-02, 6.64729998e-02, 6.39310032e-02, 6.28790036e-02,
          6.21739998e-02, 6.13939986e-02, 6.13540001e-02, 6.01160005e-02,
          5.64009994e-02, 5.61989993e-02, 4.71390001e-02, 6.74800016e-03 ]
      - [ 6.51440024e-02, 6.43350035e-02, 6.36280030e-02, 6.30249977e-02,
          6.14390001e-02, 6.11010008e-02, 6.07220009e-02, 6.01980016e-02,
          5.93549982e-02, 5.87479994e-02, 4.77479994e-02, 6.70799986e-03 ]
      - [ 7.30770007e-02, 7.06169978e-02, 6.81179985e-02, 6.78000003e-02,
          6.62489980e-02, 6.59950003e-02, 6.54549971e-02, 6.47080019e-02,
          6.35150000e-02, 6.34990036e-02, 5.04489988e-02, 6.93600019e-03 ]
      - [ 6.66629970e-02, 6.33049980e-02, 6.26439974e-02, 6.23340011e-02,
          6.19909987e-02, 6.11749999e-02, 6.02530017e-02, 5.78310005e-02,
          5.76330014e-02, 5.74380010e-02, 4.53319997e-02, 7.50300009e-03 ]
      - [ 6.70439973e-02, 6.57590032e-02, 6.41650036e-02, 6.14579991e-02,
          6.08180016e-02, 6.02229983e-02, 5.93790002e-02, 5.88489994e-02,
          5.75710014e-02, 5.66900000e-02, 4.43629995e-02, 7.33199995e-03 ]
      - [ 7.52630010e-02, 6.80510029e-02, 6.58970028e-02, 6.37309998e-02,
          6.23999983e-02, 6.13689981e-02, 6.03620000e-02, 5.93339987e-02,
          5.91240004e-02, 5.90629987e-02, 5.02719991e-02, 6.09799987e-03 ]
      - [ 7.28640035e-02, 7.17570037e-02, 6.57109991e-02, 6.52080029e-02,
          6.23730011e-02, 6.15600012e-02, 6.10119998e-02, 5.93089983e-02,
          5.88169992e-02, 5.78919984e-02, 4.63530011e-02, 7.74999987e-03 ]
      - [ 6.70920014e-02, 6.48360029e-02, 6.45430014e-02, 6.43699989e-02,
          6.41859993e-02, 6.40359968e-02, 6.26109987e-02, 6.23410009e-02,
          6.17399998e-02, 6.17199987e-02, 5.33539988e-02, 5.71200019e-03 ]
      - [ 7.66979977e-02, 7.57810026e-02, 7.23500028e-02, 7.21959993e-02,
          7.18479976e-02, 6.66930005e-02, 6.51739985e-02, 6.33860007e-02,
          6.29760027e-02, 6.28399998e-02, 4.95789982e-02, 8.54799990e-03 ]
      - [ 7.45309964e-02, 7.27239996e-02, 6.91860020e-02, 6.22549988e-02,
          6.21289983e-02, 6.11950010e-02, 6.10660017e-02, 6.08079992e-02,
          6.02930002e-02, 6.00319989e-02, 4.81709987e-02, 7.67400023e-03 ]
      - [ 7.16890022e-02, 6.73509985e-02, 6.67219982e-02, 6.57650009e-02,
          6.44949973e-02, 6.25870004e-02, 6.18240014e-02, 5.88690005e-02,
          5.70469983e-02, 5.54910004e-02, 4.75630015e-02, 6.68699993e-03 ]
      - [ 6.87910020e-02, 6.48230016e-02, 5.81550002e-02, 5.67959994e-02,
          5.60510010e-02, 5.54860011e-02, 5.40769994e-02, 5.40210009e-02,
          5.36280014e-02, 5.31340018e-02, 4.51340005e-02, 5.86599996e-03 ]
      - [ 7.71500021e-02, 7.53989965e-02, 6.88449964e-02, 6.64630011e-02,
          6.48759976e-02, 6.38070032e-02, 6.36920035e-02, 6.30730018e-02,
          6.27869964e-02, 6.25450015e-02, 4.81350012e-02, 7.60899996e-03 ]
      - [ 6.36539981e-02, 6.27939999e-02, 6.19589984e-02, 6.01480007e-02,
          5.75749986e-02, 5.59689999e-02, 5.58519997e-02, 5.54229990e-02,
          5.45380004e-02, 5.39879985e-02, 4.35840003e-02, 6.06000004e-03 ]
      - [ 7.07639977e-02, 6.89520016e-02, 6.65429980e-02, 6.62570000e-02,
          6.38530031e-02, 6.34910017e-02, 6.28840029e-02, 6.21500015e-02,
          6.04109988e-02, 5.96419983e-02, 4.78050001e-02, 7.81700015e-03 ]
      - [ 6.40550032e-02, 6.16500005e-02, 6.09190017e-02, 6.07450008e-02,
          6.04140013e-02, 6.03459999e-02, 5.99929988e-02, 5.94060011e-02,
          5.81079982e-02, 5.74930012e-02, 4.85580005e-02, 6.05899980e-03 ]
      - [ 7.89519995e-02, 7.34639987e-02, 6.95839971e-02, 6.90039992e-02,
          6.72819987e-02, 6.71370029e-02, 6.30239993e-02, 6.28570020e-02,
          6.22280017e-02, 6.17699996e-02, 4.85480018e-02, 7.78499991e-03 ]
      - [ 7.98690021e-02, 7.77050033e-02, 7.12639987e-02, 6.97090030e-02,
          6.96649998e-02, 6.67209998e-02, 6.38090000e-02, 6.13589995e-02,
          6.12390004e-02, 5.93219995e-02, 4.86800000e-02, 7.72899995e-03 ]
      - [ 7.66889974e-02, 7.48429969e-02, 7.40510002e-02, 7.22770020e-02,
          7.17049986e-02, 6.92979991e-02, 6.61609992e-02, 6.43739998e-02,
          6.36949986e-02, 6.30130023e-02, 4.71369997e-02, 9.34899971e-03 ]
      - [ 7.39139989e-02, 7.09130019e-02, 7.00049996e-02, 6.88949972e-02,
          6.67800009e-02, 6.57360032e-02, 6.42739981e-02, 6.41409978e-02,
          6.36710003e-02, 6.21000007e-02, 5.09239994e-02, 7.75900017e-03 ]
      - [ 6.58259988e-02, 6.50139973e-02, 6.42099977e-02, 6.26010001e-02,
          6.12960011e-02, 6.05520010e-02, 6.04979992e-02, 6.04260005e-02,
          5.97140007e-02, 5.96560016e-02, 4.82529998e-02, 6.82100002e-03 ]
      - [ 6.96130022e-02, 6.54029995e-02, 6.31320029e-02, 6.10119998e-02,
          6.09220006e-02, 5.90629987e-02, 5.74349985e-02, 5.69869988e-02,
          5.53659983e-02, 5.40859997e-02, 4.65990007e-02, 5.97599987e-03 ]
      - [ 7.66530037e-02, 7.32650012e-02, 6.97439983e-02, 6.76150024e-02,
          6.71100020e-02, 6.57199994e-02, 6.57040030e-02, 6.45420030e-02,
          6.43759966e-02, 6.38860017e-02, 5.10750003e-02, 8.80200043e-03 ]
      - [ 7.73819983e-02, 7.19960034e-02, 6.99080005e-02, 6.98510036e-02,
          6.71700016e-02, 6.53010011e-02, 6.45850003e-02, 6.45169988e-02,
          6.41319975e-02, 6.39860034e-02, 5.27120009e-02, 6.60699978e-03 ]
      - [ 7.78779984e-02, 7.57369995e-02, 7.50870034e-02, 6.73659965e-02,
          6.62320033e-02, 6.57979995e-02, 6.42540008e-02, 6.26519993e-02,
          6.21300004e-02, 6.19620010e-02, 4.99899983e-02, 7.50599988e-03 ]
      - [ 7.50769973e-02, 7.49349967e-02, 6.57360032e-02, 6.43050000e-02,
          6.42699972e-02, 6.42319992e-02, 6.39650002e-02, 6.29149973e-02,
          6.14910014e-02, 6.08350001e-02, 5.11749983e-02, 6.48600003e-03 ]
      - [ 6.86580017e-02, 6.67349994e-02, 6.36700019e-02, 6.33630008e-02,
          6.25490025e-02, 6.06469996e-02, 6.05540015e-02, 6.03000000e-02,
          5.84219992e-02, 5.79250008e-02, 4.62610014e-02, 6.85600005e-03 ]
      - [ 6.76530004e-02, 6.76459968e-02, 6.71600029e-02, 6.68390021e-02,
          6.59850016e-02, 6.50610030e-02, 6.15460016e-02, 6.02749996e-02,
          5.96360005e-02, 5.94969988e-02, 4.59530018e-02, 7.72099989e-03 ]
      - [ 8.08700025e-02, 7.61900023e-02, 7.59610012e-02, 7.29390010e-02,
          7.24650025e-02, 6.86890036e-02, 6.84359968e-02, 6.65559992e-02,
          6.49079978e-02, 6.42689988e-02, 5.10770008e-02, 8.42299964e-03 ]
      - [ 7.44419992e-02, 7.23370016e-02, 6.68869987e-02, 6.58629984e-02,
          6.36319965e-02, 6.23110011e-02, 5.75020015e-02, 5.74770011e-02,
          5.68990000e-02, 5.62379993e-02, 4.62349989e-02, 8.07300024e-03 ]
      - [ 6.33699968e-02, 6.12209998e-02, 6.08710013e-02, 5.94879985e-02,
          5.87159991e-02, 5.82120009e-02, 5.79060018e-02, 5.77399991e-02,
          5.73920012e-02, 5.59960008e-02, 4.60380018e-02, 6.32900000e-03 ]
      - [ 7.69769996e-02, 7.68230036e-02, 7.57500008e-02, 6.42009974e-02,
          6.36579990e-02, 6.25469983e-02, 6.24839999e-02, 6.23079985e-02,
          6.03090003e-02, 5.98930009e-02, 4.90050018e-02, 7.47000007e-03 ]
      - [ 6.24070019e-02, 6.09339997e-02, 6.05730005e-02, 5.84190004e-02,
          5.79029992e-02, 5.48000000e-02, 5.36959991e-02, 5.36159985e-02,
          5.31859994e-02, 5.26360013e-02, 4.52889986e-02, 5.43500017e-03 ]
      - [ 6.59539998e-02, 6.45729974e-02, 5.88070005e-02, 5.80050014e-02,
          5.77099994e-02, 5.75940013e-02, 5.64259999e-02, 5.64219989e-02,
          5.55600002e-02, 5.52750006e-02, 4.61920016e-02, 6.42299978e-03 ]
      - [ 6.61009997e-02, 6.51829988e-02, 6.47440031e-02, 6.42860010e-02,
          6.42800033e-02, 6.34810030e-02, 6.34090006e-02, 6.24359995e-02,
          6.23399988e-02, 6.07919991e-02, 4.71169986e-02, 7.06099998e-03 ]
      - [ 7.20520020e-02, 6.77810013e-02, 6.66079968e-02, 6.57079965e-02,
          6.49150014e-02, 6.34699985e-02, 6.23629987e-02, 6.18249997e-02,
          6.08359985e-02, 6.08050004e-02, 4.92909998e-02, 7.75900017e-03 ]
      - [ 7.53080025e-02, 6.29950017e-02, 6.27480000e-02, 6.24819994e-02,
          6.22589998e-02, 6.20319992e-02, 6.20139986e-02, 6.05400018e-02,
          5.94220012e-02, 5.88410012e-02, 4.95910011e-02, 5.61799994e-03 ]
      - [ 7.05370009e-02, 6.73030019e-02, 6.60969988e-02, 6.54190034e-02,
          6.51699975e-02, 6.46750033e-02, 6.42800033e-02, 6.36560023e-02,
          6.30030036e-02, 6.30009994e-02, 4.88630012e-02, 8.17499962e-03 ]
      - [ 6.57019988e-02, 6.36989996e-02, 6.35159984e-02, 6.30270019e-02,
          6.26130030e-02, 6.18170016e-02, 6.08340017e-02, 6.08039983e-02,
          5.88780008e-02, 5.87770008e-02, 4.76090014e-02, 6.18699985e-03 ]
      - [ 8.12029988e-02, 8.05270001e-02, 7.61419982e-02, 7.50510022e-02,
          7.16530010e-02, 6.97309971e-02, 6.74510002e-02, 6.57560006e-02,
          6.55879974e-02, 6.42670020e-02, 4.88639995e-02, 9.08300001e-03 ]
      - [ 6.59739971e-02, 6.49179965e-02, 6.30349964e-02, 6.25220016e-02,
          6.13219999e-02, 6.08079992e-02, 5.93240000e-02, 5.79110011e-02,
          5.77969998e-02, 5.70209995e-02, 4.58699986e-02, 6.97100023e-03 ]
      - [ 7.00929984e-02, 6.94599971e-02, 6.94039986e-02, 6.72440007e-02,
          6.42839968e-02, 6.03380017e-02, 6.01200014e-02, 5.98040000e-02,
          5.85369989e-02, 5.84710017e-02, 4.59740013e-02, 7.32300011e-03 ]
      - [ 7.33940005e-02, 7.11190030e-02, 6.52069971e-02, 6.43830001e-02,
          6.42710030e-02, 6.36259988e-02, 6.34730011e-02, 6.23200014e-02,
          6.18369989e-02, 6.00010008e-02, 4.64369990e-02, 7.99299963e-03 ]
      - [ 7.43469968e-02, 7.30749965e-02, 6.86300024e-02, 6.83830008e-02,
          6.64300025e-02, 6.52609989e-02, 6.44370019e-02, 6.35529980e-02,
          6.25969991e-02, 6.24679998e-02, 4.86820005e-02, 7.22000003e-03 ]
      - [ 7.45230019e-02, 7.25459978e-02, 6.79519996e-02, 6.45439997e-02,
          6.43590018e-02, 6.34339973e-02, 6.08629994e-02, 6.08110018e-02,
          6.05470017e-02, 6.03949986e-02, 4.88109998e-02, 6.95900014e-03 ]
      - [ 6.86300024e-02, 6.46160021e-02, 6.45029992e-02, 6.33839965e-02,
          6.31219968e-02, 6.20880015e-02, 6.19280003e-02, 6.17480017e-02,
          6.12710007e-02, 6.01989999e-02, 4.79130000e-02, 6.61200006e-03 ]
      - [ 7.12329969e-02, 6.87519982e-02, 6.74989969e-02, 6.34000003e-02,
          6.22959994e-02, 5.94159998e-02, 5.91159984e-02, 5.71120009e-02,
          5.66149987e-02, 5.53629994e-02, 4.56909984e-02, 6.79299980e-03 ]
      - [ 6.60249963e-02, 6.49660006e-02, 6.34849966e-02, 6.19850010e-02,
          6.19670004e-02, 6.00779988e-02, 5.87209985e-02, 5.84889986e-02,
          5.78670017e-02, 5.76240011e-02, 4.78370003e-02, 5.77200018e-03 ]
      - [ 7.31130019e-02, 7.24359974e-02, 7.01619983e-02, 6.60030022e-02,
          6.56000003e-02, 6.39600009e-02, 6.28999993e-02, 6.09319992e-02,
          6.04659989e-02, 6.04390018e-02, 4.90970016e-02, 7.65699986e-03 ]
      - [ 6.42429963e-02, 6.36809990e-02, 6.35010004e-02, 6.30510002e-02,
          6.20580018e-02, 6.15269989e-02, 6.07779995e-02, 6.06429987e-02,
          5.84940016e-02, 5.82420006e-02, 4.66349982e-02, 7.13900011e-03 ]
      - [ 7.98169971e-02, 7.24840015e-02, 6.77400008e-02, 6.73570037e-02,
          6.70529976e-02, 6.53460026e-02, 6.39759973e-02, 6.32760003e-02,
          6.22240007e-02, 6.21140003e-02, 5.20889983e-02, 6.78100018e-03 ]
      - [ 7.64229968e-02, 7.20330030e-02, 6.87590018e-02, 6.65429980e-02,
          6.56670034e-02, 6.48899972e-02, 6.34950027e-02, 6.10820018e-02,
          5.95129989e-02, 5.67599982e-02, 4.54999991e-02, 7.82999955e-03 ]
      - [ 6.42269999e-02, 6.14390001e-02, 6.12029992e-02, 6.06219992e-02,
          6.00910001e-02, 6.00520000e-02, 5.93280010e-02, 5.88149987e-02,
          5.70680015e-02, 5.52649982e-02, 4.60259989e-02, 6.11500023e-03 ]
      - [ 7.37090036e-02, 7.37010017e-02, 6.62949979e-02, 6.40669987e-02,
          6.39180019e-02, 6.33879974e-02, 6.15460016e-02, 6.13889992e-02,
          6.13589995e-02, 5.95370010e-02, 4.83720005e-02, 7.97499996e-03 ]
      - [ 7.22109973e-02, 7.02880025e-02, 6.71629980e-02, 6.69730008e-02,
          6.63229972e-02, 6.59509972e-02, 6.43540025e-02, 6.33770004e-02,
          6.24630004e-02, 6.19979985e-02, 4.77190018e-02, 7.94699974e-03 ]
      - [ 8.16159993e-02, 7.71469995e-02, 7.33890012e-02, 7.21459985e-02,
          7.07869977e-02, 6.99689984e-02, 6.70949966e-02, 6.62110001e-02,
          6.60019964e-02, 6.54660016e-02, 4.98280004e-02, 9.20499954e-03 ]
      - [ 7.18149990e-02, 7.07079992e-02, 6.66830018e-02, 6.55469969e-02,
          6.54369965e-02, 6.52320012e-02, 6.47569969e-02, 6.47130013e-02,
          6.45880029e-02, 6.38040006e-02, 4.94920015e-02, 7.91199971e-03 ]
      - [ 6.99720010e-02, 6.69429973e-02, 6.62939996e-02, 6.30690008e-02,
          6.05150014e-02, 5.96570000e-02, 5.79390004e-02, 5.46419993e-02,
          5.45810014e-02, 5.44999987e-02, 4.63799983e-02, 6.34399988e-03 ]
      - [ 6.72859997e-02, 6.47149980e-02, 6.30170032e-02, 6.27759993e-02,
          6.16719984e-02, 6.13540001e-02, 6.07299991e-02, 5.95659986e-02,
          5.81139997e-02, 5.72619997e-02, 4.74519990e-02, 6.08200021e-03 ]
      - [ 7.79159963e-02, 6.81340024e-02, 6.56799972e-02, 6.54440001e-02,
          6.41819984e-02, 6.30989969e-02, 6.30260035e-02, 6.30040020e-02,
          6.27060011e-02, 6.26360029e-02, 4.78189997e-02, 8.30799993e-03 ]
      - [ 7.20560029e-02, 7.08749965e-02, 6.63570017e-02, 6.58499971e-02,
          6.57069981e-02, 6.52810037e-02, 6.50969967e-02, 6.41810000e-02,
          6.33009970e-02, 6.31629974e-02, 4.95240018e-02, 8.29899963e-03 ]
      - [ 6.27849996e-02, 6.04230016e-02, 6.03969991e-02, 5.94789982e-02,
          5.87759987e-02, 5.85599989e-02, 5.82999997e-02, 5.70829995e-02,
          5.58880009e-02, 5.53620011e-02, 4.52560000e-02, 6.07400015e-03 ]
      - [ 8.18450004e-02, 7.80600011e-02, 6.95829988e-02, 6.79519996e-02,
          6.69320002e-02, 6.67489991e-02, 6.52199984e-02, 6.48680031e-02,
          6.43900037e-02, 6.27840012e-02, 4.86560017e-02, 8.47799983e-03 ]
      - [ 6.66399971e-02, 6.64770007e-02, 6.56270012e-02, 6.49970025e-02,
          6.44429997e-02, 6.37219995e-02, 6.32049963e-02, 6.01219982e-02,
          5.91479987e-02, 5.91219999e-02, 5.04430011e-02, 6.62200013e-03 ]
      - [ 6.61489964e-02, 6.07669987e-02, 5.82120009e-02, 5.55180013e-02,
          5.49950004e-02, 5.46829998e-02, 5.44320010e-02, 5.44270016e-02,
          5.42830005e-02, 5.29300012e-02, 4.37679999e-02, 5.83200017e-03 ]
      - [ 7.73049966e-02, 6.97819963e-02, 6.84859976e-02, 6.60120025e-02,
          6.23149984e-02, 6.22880012e-02, 6.22729994e-02, 6.08340017e-02,
          6.04420006e-02, 5.96849993e-02, 4.72260006e-02, 8.25599954e-03 ]
      - [ 6.71219975e-02, 6.55089989e-02, 6.49750009e-02, 6.45079985e-02,
          6.42009974e-02, 6.29440024e-02, 6.25400022e-02, 6.23999983e-02,
          6.21830001e-02, 6.16049990e-02, 5.32150008e-02, 5.29500004e-03 ]
      - [ 6.62840009e-02, 6.42540008e-02, 6.39950037e-02, 6.35579973e-02,
          6.31659999e-02, 6.31330013e-02, 6.28570020e-02, 6.28089979e-02,
          6.21909983e-02, 6.21600002e-02, 4.85659987e-02, 6.86000008e-03 ]
      - [ 7.47340024e-02, 7.07880035e-02, 6.52870014e-02, 6.51910007e-02,
          6.46779984e-02, 6.27389997e-02, 6.20549992e-02, 6.17339984e-02,
          6.09610006e-02, 6.08999990e-02, 4.90369983e-02, 7.02799996e-03 ]
      - [ 8.32310021e-02, 7.81869963e-02, 7.39599988e-02, 7.31580034e-02,
          7.28140026e-02, 6.65239990e-02, 6.63240030e-02, 6.25680014e-02,
          6.06670007e-02, 6.03770018e-02, 4.84730005e-02, 8.20100028e-03 ]
      - [ 7.06569999e-02, 6.91799968e-02, 6.65180013e-02, 6.40790015e-02,
          6.39500022e-02, 6.33549988e-02, 6.23890013e-02, 6.20639995e-02,
          6.11779988e-02, 6.10760003e-02, 4.99770008e-02, 6.45399978e-03 ]
      - [ 6.52820021e-02, 6.16130009e-02, 6.15650006e-02, 6.08059987e-02,
          5.75429983e-02, 5.73469996e-02, 5.71609996e-02, 5.70820011e-02,
          5.68609983e-02, 5.57029992e-02, 4.40369993e-02, 6.37400011e-03 ]
      - [ 7.32709989e-02, 6.83489963e-02, 6.54610023e-02, 6.53690025e-02,
          6.52209967e-02, 6.46610036e-02, 6.35470003e-02, 6.33969977e-02,
          6.29609972e-02, 6.28139973e-02, 5.32299988e-02, 6.36099977e-03 ]
      - [ 6.98679984e-02, 6.60839975e-02, 6.47590011e-02, 6.43400028e-02,
          6.42630011e-02, 6.29699975e-02, 6.29559979e-02, 6.22610003e-02,
          6.06210008e-02, 6.03230000e-02, 4.73439991e-02, 7.10000005e-03 ]
      - [ 7.49770030e-02, 7.15430006e-02, 7.01059997e-02, 6.99030012e-02,
          6.94010034e-02, 6.36999980e-02, 6.35000020e-02, 6.26299977e-02,
          6.22880012e-02, 6.02229983e-02, 4.90470007e-02, 7.56399985e-03 ]
      - [ 7.25039989e-02, 7.24700019e-02, 6.35249987e-02, 6.27280027e-02,
          6.25550002e-02, 6.21760003e-02, 6.21379986e-02, 6.18100017e-02,
          6.17999993e-02, 6.14599995e-02, 4.99010012e-02, 7.36499997e-03 ]
      - [ 6.51049986e-02, 6.47279993e-02, 6.33080006e-02, 6.30209967e-02,
          6.27460033e-02, 6.19350001e-02, 6.02150001e-02, 5.99390008e-02,
          5.92139997e-02, 5.89580014e-02, 4.83580008e-02, 6.24099979e-03 ]
      - [ 8.15199986e-02, 7.16260001e-02, 6.72900006e-02, 6.70889989e-02,
          6.67949989e-02, 6.63489997e-02, 6.62729964e-02, 6.57989979e-02,
          6.51779994e-02, 6.50599971e-02, 5.02469987e-02, 8.65400024e-03 ]
      - [ 7.51279965e-02, 7.05730021e-02, 6.87069967e-02, 6.73360005e-02,
          6.60040006e-02, 6.54930025e-02, 6.54829964e-02, 6.49230033e-02,
          6.38289973e-02, 6.33829981e-02, 4.84180003e-02, 8.50499980e-03 ]
      - [ 7.16340020e-02, 6.87059984e-02, 6.44529983e-02, 6.28969967e-02,
          6.21820018e-02, 6.13140017e-02, 6.06149994e-02, 6.00030012e-02,
          5.91310002e-02, 5.87619990e-02, 4.64180000e-02, 7.12500000e-03 ]
      - [ 8.04930031e-02, 7.68219978e-02, 7.37510026e-02, 6.82249963e-02,
          6.60540015e-02, 6.50570020e-02, 6.46390021e-02, 6.41890019e-02,
          6.37290031e-02, 6.22520000e-02, 4.76850010e-02, 9.47200041e-03 ]
      - [ 5.85019998e-02, 5.80300018e-02, 5.70380017e-02, 5.58990017e-02,
          5.53710014e-02, 5.52479997e-02, 5.44500016e-02, 5.41019998e-02,
          5.21689989e-02, 5.20699993e-02, 4.39589992e-02, 4.96499985e-03 ]
      - [ 7.71469995e-02, 7.08570033e-02, 6.89740032e-02, 6.59810007e-02,
          6.58639967e-02, 6.51329979e-02, 6.47289976e-02, 6.36980012e-02,
          6.35659993e-02, 6.16590008e-02, 4.88209985e-02, 8.49900022e-03 ]
      - [ 7.15550035e-02, 6.17199987e-02, 6.16730005e-02, 6.13100007e-02,
          5.98249994e-02, 5.97670004e-02, 5.90000004e-02, 5.87380007e-02,
          5.87100014e-02, 5.85110001e-02, 4.64270003e-02, 6.57799980e-03 ]
      - [ 7.16900006e-02, 6.88010007e-02, 6.56239986e-02, 6.55869991e-02,
          6.43389970e-02, 6.34770021e-02, 6.32440001e-02, 5.99990003e-02,
          5.96969984e-02, 5.95979989e-02, 4.97180000e-02, 7.06999982e-03 ]
      - [ 7.06660002e-02, 6.74419999e-02, 6.70109987e-02, 6.60339966e-02,
          6.54530004e-02, 6.54079989e-02, 6.50670007e-02, 6.48320019e-02,
          6.37359992e-02, 6.17720000e-02, 4.91070002e-02, 7.54200015e-03 ]
      - [ 7.05889985e-02, 6.42710030e-02, 6.21410012e-02, 6.11389987e-02,
          5.97190000e-02, 5.88140003e-02, 5.85630015e-02, 5.81049994e-02,
          5.73539995e-02, 5.64810000e-02, 4.70470004e-02, 5.73199987e-03 ]
      - [ 6.90189973e-02, 6.62819967e-02, 6.18639998e-02, 5.96520007e-02,
          5.90009987e-02, 5.82959987e-02, 5.81680015e-02, 5.75970002e-02,
          5.71659990e-02, 5.64800017e-02, 4.66919988e-02, 6.32099994e-03 ]
      - [ 6.35650009e-02, 6.35439977e-02, 6.29250035e-02, 6.25519976e-02,
          6.09580018e-02, 5.86440004e-02, 5.81349991e-02, 5.74110001e-02,
          5.73050007e-02, 5.72540015e-02, 4.29220013e-02, 7.49399979e-03 ]
      - [ 7.50589967e-02, 7.08860010e-02, 7.07719997e-02, 6.40240014e-02,
          6.40119985e-02, 6.22529984e-02, 6.18709996e-02, 6.00429997e-02,
          6.00100011e-02, 5.99079989e-02, 4.84820008e-02, 7.30900001e-03 ]
      - [ 6.82400018e-02, 6.65050000e-02, 5.76630011e-02, 5.72319999e-02,
          5.66309988e-02, 5.46520017e-02, 5.31359985e-02, 5.12249991e-02,
          5.07830009e-02, 4.89410013e-02, 3.85250002e-02, 7.95000046e-03 ]
      - [ 7.13879988e-02, 6.82270005e-02, 6.42869994e-02, 6.19149990e-02,
          6.17219992e-02, 5.92989996e-02, 5.81949987e-02, 5.78979999e-02,
          5.74369989e-02, 5.72520010e-02, 4.56379987e-02, 6.81999978e-03 ]
      - [ 7.35260025e-02, 7.28510022e-02, 7.03359991e-02, 6.96349964e-02,
          6.88460022e-02, 6.80319965e-02, 6.61920011e-02, 6.59210011e-02,
          6.56289980e-02, 6.47300035e-02, 4.88150008e-02, 9.01299994e-03 ]
      - [ 6.54079989e-02, 6.50890023e-02, 5.87389991e-02, 5.78910001e-02,
          5.76420017e-02, 5.75909987e-02, 5.65130003e-02, 5.51420003e-02,
          5.40499985e-02, 5.38210012e-02, 4.52359989e-02, 5.89600019e-03 ]
      - [ 5.33440001e-02, 5.32439984e-02, 5.32330014e-02, 5.29720001e-02,
          5.25490008e-02, 5.21639995e-02, 5.17240018e-02, 5.14310002e-02,
          5.13550006e-02, 5.01010008e-02, 4.01830003e-02, 6.67899987e-03 ]
      - [ 6.63229972e-02, 6.49079978e-02, 5.87689988e-02, 5.71720004e-02,
          5.71720004e-02, 5.54200001e-02, 5.52240014e-02, 5.47770001e-02,
          5.33870012e-02, 5.33539988e-02, 4.31400016e-02, 7.19900010e-03 ]
      - [ 7.28499964e-02, 6.88079968e-02, 6.87630028e-02, 6.87149987e-02,
          6.86739981e-02, 6.56810030e-02, 6.56630024e-02, 6.50319979e-02,
          6.27090037e-02, 6.17409982e-02, 4.40049991e-02, 8.81899986e-03 ]
      - [ 6.64110035e-02, 6.45020008e-02, 6.15490004e-02, 5.97640015e-02,
          5.64429983e-02, 5.56569993e-02, 5.54549992e-02, 5.53850010e-02,
          5.40230013e-02, 5.39299995e-02, 4.24790010e-02, 7.47000007e-03 ]
      - [ 6.73360005e-02, 6.55469969e-02, 6.43439963e-02, 6.41290024e-02,
          6.06289990e-02, 6.03189990e-02, 5.98409995e-02, 5.90710007e-02,
          5.79609983e-02, 5.73460013e-02, 4.70950007e-02, 6.62800018e-03 ]
      - [ 7.41200000e-02, 7.04120025e-02, 6.31410033e-02, 6.19469993e-02,
          6.06589988e-02, 6.05299994e-02, 5.52139990e-02, 5.41619994e-02,
          5.40219992e-02, 5.33739999e-02, 4.13959995e-02, 8.81600007e-03 ]
      - [ 6.53119981e-02, 6.51429966e-02, 6.39929995e-02, 6.31859973e-02,
          6.13350011e-02, 5.87669984e-02, 5.83759993e-02, 5.56150004e-02,
          5.42099997e-02, 5.32119982e-02, 4.37860005e-02, 7.78099988e-03 ]
      - [ 6.75370023e-02, 6.62219971e-02, 6.25109971e-02, 6.21699989e-02,
          6.15819991e-02, 5.93269989e-02, 5.74910007e-02, 5.73639981e-02,
          5.71339987e-02, 5.61910011e-02, 4.83000018e-02, 5.58099989e-03 ]
      - [ 7.78620020e-02, 6.94390014e-02, 6.56379983e-02, 6.29139990e-02,
          6.19559996e-02, 6.00290000e-02, 5.94789982e-02, 5.85720018e-02,
          5.79890013e-02, 5.71089983e-02, 4.54679988e-02, 8.26499984e-03 ]
      - [ 7.42290020e-02, 6.89070001e-02, 6.62110001e-02, 6.22069985e-02,
          6.20010011e-02, 6.16470017e-02, 6.08760007e-02, 6.04190007e-02,
          6.03710003e-02, 5.94879985e-02, 4.67579998e-02, 7.46499980e-03 ]
      - [ 5.86469993e-02, 5.67269996e-02, 5.63069992e-02, 5.54119982e-02,
          5.39680012e-02, 5.39579988e-02, 5.37629984e-02, 5.33679985e-02,
          5.30630015e-02, 4.98129986e-02, 4.10929993e-02, 6.91400003e-03 ]
      - [ 7.26369992e-02, 7.20570013e-02, 6.55530021e-02, 6.30349964e-02,
          6.17000014e-02, 5.74529991e-02, 5.67019992e-02, 5.49330004e-02,
          5.48299998e-02, 5.47650009e-02, 4.41019982e-02, 7.97499996e-03 ]
      - [ 7.55909979e-02, 7.43810013e-02, 7.30319992e-02, 7.07530007e-02,
          6.78069964e-02, 6.67079985e-02, 6.66299984e-02, 6.65979981e-02,
          6.61009997e-02, 6.30349964e-02, 5.34030013e-02, 8.26200005e-03 ]
      - [ 6.93709999e-02, 6.66330010e-02, 6.52000010e-02, 6.51260018e-02,
          6.41509965e-02, 6.15240000e-02, 6.04670011e-02, 5.67190014e-02,
          5.32190017e-02, 5.27490005e-02, 4.31380011e-02, 7.81999994e-03 ]
      - [ 7.26369992e-02, 7.01619983e-02, 6.98570013e-02, 6.97280020e-02,
          6.73519969e-02, 6.54240027e-02, 6.53690025e-02, 6.47879988e-02,
          6.43370003e-02, 6.26029968e-02, 4.45250012e-02, 8.98400042e-03 ]
      - [ 7.86300004e-02, 7.46340007e-02, 6.99020028e-02, 6.85650036e-02,
          6.60120025e-02, 6.59229979e-02, 6.43680021e-02, 6.31510019e-02,
          6.20799996e-02, 5.67639992e-02, 4.56009991e-02, 8.88399966e-03 ]
      - [ 7.49650002e-02, 6.69749975e-02, 6.63120002e-02, 6.29379973e-02,
          6.18980005e-02, 6.05949983e-02, 6.00109994e-02, 5.95059991e-02,
          5.89060001e-02, 5.88900000e-02, 4.67670001e-02, 7.36999977e-03 ]
      - [ 8.11479986e-02, 7.64110014e-02, 7.59159997e-02, 6.72300011e-02,
          6.57550022e-02, 6.42199963e-02, 6.41060024e-02, 6.22330010e-02,
          6.21009991e-02, 6.15720004e-02, 4.56110016e-02, 9.33500007e-03 ]
      - [ 5.96739985e-02, 5.73019981e-02, 5.63159995e-02, 5.56330010e-02,
          5.30159995e-02, 5.23050018e-02, 5.05900010e-02, 5.03059998e-02,
          4.99080010e-02, 4.94720004e-02, 4.12309989e-02, 6.28799992e-03 ]
      - [ 7.60819986e-02, 7.42729977e-02, 7.17250034e-02, 6.99030012e-02,
          6.93060011e-02, 6.68959990e-02, 6.64990023e-02, 6.53790012e-02,
          6.12309985e-02, 6.06859997e-02, 4.53069992e-02, 8.79899971e-03 ]
      - [ 5.90239987e-02, 5.77640012e-02, 5.72919995e-02, 5.72579987e-02,
          5.58729991e-02, 5.37139997e-02, 5.36630005e-02, 5.30349985e-02,
          5.21130003e-02, 5.12819998e-02, 4.15380001e-02, 6.54699979e-03 ]
      - [ 7.09929988e-02, 6.96579963e-02, 6.78230003e-02, 6.48010001e-02,
          6.44880012e-02, 6.39109984e-02, 6.37470037e-02, 6.34990036e-02,
          5.96060008e-02, 5.92559986e-02, 4.81869988e-02, 6.70399982e-03 ]
      - [ 6.71150014e-02, 6.39619976e-02, 6.37610033e-02, 6.25519976e-02,
          6.22499995e-02, 6.04350008e-02, 5.77820018e-02, 5.76069988e-02,
          5.66340014e-02, 5.61090000e-02, 4.72249985e-02, 6.03700010e-03 ]
      - [ 6.78839982e-02, 6.62840009e-02, 6.60239980e-02, 6.52619973e-02,
          6.47139996e-02, 6.46950006e-02, 6.46219999e-02, 6.32200018e-02,
          6.30389974e-02, 6.27449974e-02, 4.79700007e-02, 7.74599984e-03 ]
      - [ 7.48919994e-02, 7.00159967e-02, 6.89390004e-02, 6.14780001e-02,
          6.10890016e-02, 5.37340008e-02, 5.32380007e-02, 5.32209985e-02,
          5.20800017e-02, 5.11949994e-02, 4.15470004e-02, 7.90300034e-03 ]
      - [ 6.71110004e-02, 6.57479987e-02, 6.23060018e-02, 6.12669997e-02,
          6.02519996e-02, 6.01699986e-02, 5.88719994e-02, 5.87380007e-02,
          5.85750006e-02, 5.77990003e-02, 4.35659997e-02, 7.45999999e-03 ]
      - [ 6.10029995e-02, 6.10000007e-02, 5.97039983e-02, 5.95030002e-02,
          5.84399998e-02, 5.74829988e-02, 5.73789999e-02, 5.68960011e-02,
          5.64810000e-02, 5.60569987e-02, 4.60009985e-02, 6.12600008e-03 ]
      - [ 6.95199966e-02, 6.86540008e-02, 6.50419965e-02, 6.50330037e-02,
          6.22280017e-02, 6.14329986e-02, 5.97180016e-02, 5.95650002e-02,
          5.94180003e-02, 5.81259988e-02, 4.72499989e-02, 7.64100021e-03 ]
      - [ 6.84600025e-02, 6.83579966e-02, 6.44930005e-02, 6.42210022e-02,
          5.58569990e-02, 5.57890013e-02, 5.51850013e-02, 5.45779988e-02,
          5.42920008e-02, 5.29789999e-02, 4.41429988e-02, 6.86499989e-03 ]
      - [ 6.96960017e-02, 6.74590021e-02, 6.59900010e-02, 5.87069988e-02,
          5.83340004e-02, 5.79469986e-02, 5.61949983e-02, 5.59480004e-02,
          5.55090010e-02, 5.53580001e-02, 4.25800011e-02, 7.88400043e-03 ]
      - [ 6.03259988e-02, 5.99500015e-02, 5.94829991e-02, 5.75259998e-02,
          5.69190010e-02, 5.68769984e-02, 5.50689995e-02, 5.44920005e-02,
          5.34709990e-02, 5.28809987e-02, 4.24759984e-02, 6.39900006e-03 ]
      - [ 7.18130022e-02, 6.83929995e-02, 6.56199977e-02, 6.25130013e-02,
          6.15039989e-02, 6.12929985e-02, 6.01290017e-02, 5.98339997e-02,
          5.90449981e-02, 5.87899983e-02, 4.31759991e-02, 9.70099960e-03 ]
      - [ 6.59930035e-02, 6.56460002e-02, 6.45650029e-02, 6.29030019e-02,
          6.24690019e-02, 6.03910014e-02, 5.97699992e-02, 5.82440011e-02,
          5.81439994e-02, 5.80610000e-02, 4.71049994e-02, 6.57900004e-03 ]
      - [ 6.17160015e-02, 6.11979999e-02, 6.05739988e-02, 6.05080016e-02,
          5.78740016e-02, 5.67039996e-02, 5.52560017e-02, 5.47470003e-02,
          5.46270013e-02, 5.46149984e-02, 4.14130017e-02, 7.61900004e-03 ]
      - [ 8.45530033e-02, 8.03029984e-02, 7.99359977e-02, 7.73210004e-02,
          7.64880031e-02, 6.66880012e-02, 6.49200007e-02, 6.43590018e-02,
          6.38170019e-02, 6.33910000e-02, 4.73369993e-02, 9.98499990e-03 ]
      - [ 7.37629980e-02, 7.06539974e-02, 6.37279972e-02, 6.30740002e-02,
          6.07860014e-02, 5.77830002e-02, 5.76010011e-02, 5.69300018e-02,
          5.64600006e-02, 5.61939999e-02, 4.81639989e-02, 6.86800014e-03 ]
      - [ 7.36680031e-02, 6.43389970e-02, 6.27539977e-02, 6.17670007e-02,
          5.96980006e-02, 5.85100017e-02, 5.83450012e-02, 5.65350018e-02,
          5.60479984e-02, 5.56840003e-02, 4.68740016e-02, 6.32299995e-03 ]
      - [ 7.26419985e-02, 7.04350024e-02, 6.45890012e-02, 6.38279989e-02,
          6.37009963e-02, 6.24869987e-02, 6.17620014e-02, 6.11680001e-02,
          6.03270009e-02, 6.02440014e-02, 5.07699996e-02, 6.83999993e-03 ]
      - [ 7.03940019e-02, 6.20420016e-02, 6.07840009e-02, 6.00380003e-02,
          5.98459989e-02, 5.95190004e-02, 5.84940016e-02, 5.76069988e-02,
          5.75530007e-02, 5.68020009e-02, 4.39000018e-02, 7.13900011e-03 ]
      - [ 7.00519979e-02, 6.83749989e-02, 6.55110031e-02, 6.12029992e-02,
          6.07720017e-02, 5.98939992e-02, 5.77149987e-02, 5.72529994e-02,
          5.62019981e-02, 5.44320010e-02, 4.38309982e-02, 8.50200001e-03 ]
      - [ 6.58809990e-02, 6.56839982e-02, 6.51009977e-02, 6.36349991e-02,
          6.31200001e-02, 6.29530028e-02, 6.28490001e-02, 5.79629987e-02,
          5.63700013e-02, 5.60050011e-02, 4.48210016e-02, 6.88199978e-03 ]
      - [ 7.15970024e-02, 7.05550015e-02, 6.97150007e-02, 6.44909963e-02,
          6.18759990e-02, 6.00950010e-02, 5.98610006e-02, 5.95720001e-02,
          5.50870001e-02, 5.42580001e-02, 4.22089994e-02, 8.62899981e-03 ]
      - [ 8.04169998e-02, 7.12620020e-02, 7.11150020e-02, 7.07150027e-02,
          6.95540011e-02, 6.76259995e-02, 6.75019994e-02, 6.74460009e-02,
          6.72909990e-02, 6.70690015e-02, 5.32959998e-02, 7.82100018e-03 ]
      - [ 6.63150027e-02, 6.58710003e-02, 6.32010028e-02, 6.31520003e-02,
          6.13240004e-02, 5.98310009e-02, 5.84440008e-02, 5.76619990e-02,
          5.57460003e-02, 5.50470017e-02, 4.22869995e-02, 7.56999990e-03 ]
      - [ 6.90329969e-02, 6.77499995e-02, 6.60300031e-02, 6.20190017e-02,
          6.08960018e-02, 6.02179989e-02, 5.91619983e-02, 5.91409989e-02,
          5.88679984e-02, 5.84559999e-02, 4.24729995e-02, 8.43599997e-03 ]
      - [ 7.48120025e-02, 6.60699978e-02, 6.33200034e-02, 6.10000007e-02,
          6.05380014e-02, 5.82769997e-02, 5.80100007e-02, 5.74319996e-02,
          5.66219985e-02, 5.48649989e-02, 4.30239998e-02, 7.11499993e-03 ]
      - [ 7.51139969e-02, 7.33269975e-02, 6.18910007e-02, 5.96529990e-02,
          5.91670014e-02, 5.86740002e-02, 5.65290004e-02, 5.65139987e-02,
          5.38240001e-02, 5.38210012e-02, 4.32429984e-02, 7.02500017e-03 ]
      - [ 6.12879992e-02, 6.08280003e-02, 5.86600006e-02, 5.83870001e-02,
          5.72520010e-02, 5.59820011e-02, 5.50549999e-02, 5.46960011e-02,
          5.42309992e-02, 5.23540005e-02, 4.05789986e-02, 7.38399988e-03 ]
      - [ 6.17230013e-02, 5.84330000e-02, 5.78900017e-02, 5.74380010e-02,
          5.64329997e-02, 5.45470007e-02, 5.33739999e-02, 5.31600006e-02,
          5.21880016e-02, 5.21700010e-02, 4.07009982e-02, 7.09400000e-03 ]
      - [ 6.28539994e-02, 5.97239994e-02, 5.88119999e-02, 5.56429997e-02,
          5.44600002e-02, 5.31169996e-02, 5.30439988e-02, 5.23280017e-02,
          5.17820008e-02, 5.14720008e-02, 4.03410010e-02, 6.98400009e-03 ]
      - [ 7.80500025e-02, 7.38480017e-02, 7.28750005e-02, 7.19949976e-02,
          7.13239983e-02, 7.08810017e-02, 6.52289987e-02, 6.41629994e-02,
          6.20779991e-02, 6.13600016e-02, 4.80669998e-02, 8.53199977e-03 ]
      - [ 6.73080012e-02, 6.38770014e-02, 6.05559982e-02, 5.89790009e-02,
          5.85669987e-02, 5.82560003e-02, 5.76049984e-02, 5.75659983e-02,
          5.61619997e-02, 5.42609990e-02, 4.24220003e-02, 7.48099992e-03 ]
      - [ 6.81720003e-02, 6.50990009e-02, 6.22790009e-02, 6.21900000e-02,
          5.93140014e-02, 5.90530001e-02, 5.89970015e-02, 5.75219989e-02,
          5.55699989e-02, 5.55449985e-02, 4.49390002e-02, 7.01799989e-03 ]
      - [ 8.07019994e-02, 7.52969980e-02, 7.33349994e-02, 7.31730014e-02,
          7.30039999e-02, 7.25470036e-02, 7.21660033e-02, 7.19060004e-02,
          7.07969964e-02, 7.07930028e-02, 5.00140004e-02, 1.04059996e-02 ]
      - [ 7.31109977e-02, 7.03229979e-02, 6.84769973e-02, 6.45020008e-02,
          6.43900037e-02, 6.41020015e-02, 6.12730011e-02, 6.01599999e-02,
          5.93050011e-02, 5.79870008e-02, 4.61390018e-02, 7.95000046e-03 ]
      - [ 7.65260011e-02, 7.42449984e-02, 6.86350018e-02, 6.80819973e-02,
          6.60789981e-02, 6.52469993e-02, 6.52260035e-02, 6.45489991e-02,
          6.45209998e-02, 6.36430010e-02, 5.14650010e-02, 7.99500011e-03 ]
      - [ 7.59499967e-02, 6.82480037e-02, 6.49529994e-02, 6.44759983e-02,
          6.38870001e-02, 5.90209998e-02, 5.77449985e-02, 5.70579991e-02,
          5.64320013e-02, 5.58939986e-02, 4.29739989e-02, 8.87299981e-03 ]
      - [ 7.02160001e-02, 6.43080026e-02, 6.21900000e-02, 6.03209995e-02,
          5.82190007e-02, 5.75609989e-02, 5.66890016e-02, 5.52049987e-02,
          5.49539998e-02, 5.38199991e-02, 4.21640016e-02, 7.32700014e-03 ]
      - [ 6.12760000e-02, 5.92340007e-02, 5.23919985e-02, 5.08470014e-02,
          5.08430004e-02, 4.99899983e-02, 4.95949984e-02, 4.77849990e-02,
          4.77590002e-02, 4.72100005e-02, 3.94870006e-02, 6.31899992e-03 ]
      - [ 6.69080019e-02, 6.60860017e-02, 6.58050030e-02, 6.54409975e-02,
          6.52720034e-02, 5.92890009e-02, 5.80930002e-02, 5.71269989e-02,
          5.39809987e-02, 5.27499989e-02, 4.14520018e-02, 8.19000043e-03 ]
      - [ 6.98689967e-02, 6.30590022e-02, 6.21710010e-02, 6.13490008e-02,
          6.01719990e-02, 5.85270002e-02, 5.82460016e-02, 5.82019985e-02,
          5.74139990e-02, 5.68789989e-02, 4.48909998e-02, 6.66100020e-03 ]
      - [ 6.30970001e-02, 6.02300018e-02, 5.87790012e-02, 5.85849993e-02,
          5.70680015e-02, 5.56599982e-02, 5.42289987e-02, 5.36449999e-02,
          5.25589995e-02, 5.05819991e-02, 4.00540009e-02, 7.43100001e-03 ]
      - [ 6.91009983e-02, 6.82319999e-02, 6.51310012e-02, 6.38710037e-02,
          6.34559989e-02, 6.29490018e-02, 6.27169982e-02, 6.26659989e-02,
          6.19879998e-02, 6.11299984e-02, 4.82669994e-02, 7.13300006e-03 ]
      - [ 7.68610016e-02, 7.29010031e-02, 7.07129985e-02, 7.01629966e-02,
          6.77319989e-02, 6.64020032e-02, 6.53750002e-02, 6.51549995e-02,
          6.45679981e-02, 6.36639968e-02, 5.28520010e-02, 7.57100014e-03 ]
      - [ 7.85029978e-02, 7.69110024e-02, 7.03470036e-02, 6.81139976e-02,
          6.73459992e-02, 6.66150004e-02, 6.42549992e-02, 6.35920018e-02,
          6.34900033e-02, 6.32850006e-02, 5.05900010e-02, 7.55700003e-03 ]
      - [ 6.06640019e-02, 5.64460009e-02, 5.58689982e-02, 5.38690016e-02,
          5.33739999e-02, 5.25679998e-02, 5.23510017e-02, 5.18239997e-02,
          5.06919995e-02, 4.99989986e-02, 4.08510007e-02, 5.94899990e-03 ]
      - [ 6.35399967e-02, 6.11639991e-02, 5.89549989e-02, 5.82440011e-02,
          5.79780005e-02, 5.79509996e-02, 5.69359995e-02, 5.54939993e-02,
          5.53250015e-02, 5.45249991e-02, 4.16669995e-02, 7.40400003e-03 ]
      - [ 8.00530016e-02, 7.55999982e-02, 7.42449984e-02, 7.04120025e-02,
          6.74170032e-02, 6.73360005e-02, 6.35799989e-02, 6.21590018e-02,
          6.18019998e-02, 6.03750013e-02, 4.44729999e-02, 9.08700004e-03 ]
      - [ 7.29269981e-02, 6.80299997e-02, 6.71179965e-02, 6.16159998e-02,
          5.98529987e-02, 5.94649985e-02, 5.91889992e-02, 5.65639995e-02,
          5.64920008e-02, 5.36490008e-02, 4.40619998e-02, 7.37700006e-03 ]
      - [ 7.21039996e-02, 7.18740001e-02, 6.97029978e-02, 6.52490035e-02,
          6.44830018e-02, 6.12789989e-02, 6.12539984e-02, 6.12279996e-02,
          5.68920001e-02, 5.68800010e-02, 4.46989983e-02, 8.06799997e-03 ]
      - [ 7.14199990e-02, 7.08910003e-02, 7.02560022e-02, 6.82080016e-02,
          6.78189993e-02, 6.66790009e-02, 6.63980022e-02, 6.61439970e-02,
          6.56450018e-02, 6.43789992e-02, 5.07880002e-02, 7.61599978e-03 ]
      - [ 7.78409988e-02, 7.43959993e-02, 6.81789964e-02, 6.71800002e-02,
          6.53420016e-02, 6.38279989e-02, 6.19519986e-02, 6.06250018e-02,
          6.03520013e-02, 6.01940006e-02, 4.82570007e-02, 8.03500041e-03 ]
      - [ 6.36740029e-02, 6.32330030e-02, 6.17239997e-02, 6.10960014e-02,
          6.04790002e-02, 5.77239990e-02, 5.59380017e-02, 5.58709987e-02,
          5.54910004e-02, 5.51979989e-02, 4.37519997e-02, 6.69900002e-03 ]
      - [ 7.12329969e-02, 6.57380000e-02, 6.37110025e-02, 6.20360002e-02,
          6.07919991e-02, 6.05169982e-02, 6.00150004e-02, 5.74960001e-02,
          5.71620017e-02, 5.61489984e-02, 4.45539989e-02, 7.13399984e-03 ]
      - [ 6.60879984e-02, 6.55800030e-02, 6.49370030e-02, 6.37369975e-02,
          6.33959994e-02, 6.32269979e-02, 6.10690005e-02, 6.03220016e-02,
          5.95000014e-02, 5.88690005e-02, 4.71520014e-02, 6.91000000e-03 ]
      - [ 5.95620014e-02, 5.81910014e-02, 5.79130016e-02, 5.73789999e-02,
          5.67249991e-02, 5.55340014e-02, 5.54159991e-02, 5.53499982e-02,
          5.43639995e-02, 5.37009984e-02, 4.05689999e-02, 7.12700002e-03 ]
      - [ 6.67869970e-02, 6.09490015e-02, 5.96520007e-02, 5.78199998e-02,
          5.52739985e-02, 5.47440015e-02, 5.43380007e-02, 5.37230000e-02,
          5.34659997e-02, 5.24460003e-02, 4.08880003e-02, 7.22000003e-03 ]
      - [ 7.14669973e-02, 6.65059984e-02, 6.42239973e-02, 6.41380027e-02,
          6.38210028e-02, 6.27710000e-02, 6.22670017e-02, 6.00599982e-02,
          5.87040000e-02, 5.86550012e-02, 4.35380004e-02, 8.51900037e-03 ]
      - [ 7.16710016e-02, 6.55099973e-02, 6.32359982e-02, 6.17900006e-02,
          5.83090000e-02, 5.82059994e-02, 5.71679994e-02, 5.49179986e-02,
          5.39229997e-02, 5.26870005e-02, 4.20430005e-02, 8.91199987e-03 ]
      - [ 6.79050013e-02, 6.58690035e-02, 6.53859973e-02, 6.45660013e-02,
          6.41409978e-02, 6.16349988e-02, 6.05489984e-02, 5.99749982e-02,
          5.89849986e-02, 5.89319989e-02, 4.34870012e-02, 9.46099963e-03 ]
      - [ 7.25679994e-02, 7.07779974e-02, 6.84849992e-02, 6.82620034e-02,
          6.44899979e-02, 6.42009974e-02, 6.30929992e-02, 6.10340014e-02,
          6.05779998e-02, 6.02240004e-02, 4.40080017e-02, 8.56599957e-03 ]
      - [ 7.90150017e-02, 6.83239996e-02, 6.69739991e-02, 6.59459978e-02,
          6.39140010e-02, 6.22319989e-02, 6.06559999e-02, 5.78869991e-02,
          5.67120016e-02, 5.62639982e-02, 4.48499992e-02, 7.93400034e-03 ]
      - [ 6.50030002e-02, 6.08859994e-02, 5.72389998e-02, 5.71929999e-02,
          5.67269996e-02, 5.43820001e-02, 5.39450012e-02, 5.38019985e-02,
          5.37029989e-02, 5.25159985e-02, 4.18060012e-02, 7.87699968e-03 ]
      - [ 8.08100030e-02, 7.22450018e-02, 6.93930015e-02, 6.48069978e-02,
          5.93839996e-02, 5.76590002e-02, 5.73539995e-02, 5.71010001e-02,
          5.57189994e-02, 5.54450005e-02, 4.61190008e-02, 6.68000011e-03 ]
      - [ 8.01979974e-02, 7.15359971e-02, 7.13120028e-02, 7.10939988e-02,
          6.34580031e-02, 6.25199974e-02, 6.15839995e-02, 6.13990016e-02,
          5.97659983e-02, 5.94689995e-02, 4.22520004e-02, 9.50200018e-03 ]
      - [ 7.64840022e-02, 7.64240026e-02, 7.05159977e-02, 6.76679984e-02,
          6.71729967e-02, 6.36880025e-02, 6.17999993e-02, 6.15600012e-02,
          6.09220006e-02, 6.05890006e-02, 4.94100004e-02, 7.47099984e-03 ]
      - [ 7.86470026e-02, 7.56829977e-02, 7.54050016e-02, 7.09450021e-02,
          6.80769980e-02, 6.39939979e-02, 6.30490035e-02, 6.24939986e-02,
          6.18930012e-02, 6.13269992e-02, 4.84010018e-02, 8.95600021e-03 ]
      - [ 6.44880012e-02, 6.09829985e-02, 6.03680015e-02, 6.02400005e-02,
          6.01399988e-02, 5.86800016e-02, 5.72980009e-02, 5.48340008e-02,
          5.44059984e-02, 5.31999990e-02, 4.60669994e-02, 5.87699981e-03 ]
      - [ 6.99910000e-02, 6.90900013e-02, 6.72359988e-02, 6.64800033e-02,
          6.62819967e-02, 6.56379983e-02, 6.42340034e-02, 6.37239963e-02,
          6.31730035e-02, 6.29350021e-02, 4.83740009e-02, 8.42799991e-03 ]
      - [ 7.65549988e-02, 7.40600005e-02, 6.57949969e-02, 6.46520033e-02,
          6.45949990e-02, 6.35040030e-02, 6.26600012e-02, 6.00120015e-02,
          5.99679984e-02, 5.88480011e-02, 4.81950007e-02, 7.48699997e-03 ]
      - [ 5.93690015e-02, 5.74939996e-02, 5.42920008e-02, 5.16449995e-02,
          4.97739986e-02, 4.95559983e-02, 4.90050018e-02, 4.89739999e-02,
          4.85030003e-02, 4.72830012e-02, 3.93470004e-02, 5.70899993e-03 ]
      - [ 7.33119994e-02, 7.04329982e-02, 6.29879981e-02, 5.86519986e-02,
          5.84390014e-02, 5.76159991e-02, 5.55349998e-02, 5.54240011e-02,
          5.43209985e-02, 5.40300012e-02, 4.17650007e-02, 7.75700016e-03 ]
      - [ 7.73819983e-02, 7.72759989e-02, 7.66469985e-02, 7.13670030e-02,
          6.60270005e-02, 6.48659989e-02, 6.33469969e-02, 6.24499992e-02,
          6.13740012e-02, 6.09770007e-02, 4.86730002e-02, 8.56900029e-03 ]
      - [ 6.95910007e-02, 6.70770034e-02, 6.59539998e-02, 6.56419992e-02,
          6.48830011e-02, 6.48330003e-02, 6.32210001e-02, 6.29490018e-02,
          6.23590015e-02, 6.04470000e-02, 4.77759987e-02, 6.61600009e-03 ]
      - [ 6.38270006e-02, 5.95640019e-02, 5.91330007e-02, 5.80420010e-02,
          5.70279993e-02, 5.63590005e-02, 5.37450016e-02, 5.30089997e-02,
          5.19060008e-02, 5.08139990e-02, 3.88180017e-02, 7.71000003e-03 ]
      - [ 6.55020028e-02, 6.26109987e-02, 6.25670031e-02, 6.22369982e-02,
          6.15659989e-02, 6.14380017e-02, 6.09790012e-02, 6.06979989e-02,
          6.03489988e-02, 5.96069992e-02, 4.69469987e-02, 7.22600007e-03 ]
      - [ 7.10150003e-02, 7.06010014e-02, 6.53180033e-02, 6.52180016e-02,
          6.42820001e-02, 6.41969964e-02, 6.41440004e-02, 6.23870008e-02,
          6.22280017e-02, 6.18459992e-02, 4.51730005e-02, 9.30199958e-03 ]
      - [ 6.62999973e-02, 6.29229993e-02, 6.10730015e-02, 6.02459982e-02,
          5.90879992e-02, 5.46980016e-02, 5.37540019e-02, 5.32389991e-02,
          5.26559986e-02, 5.26079983e-02, 4.28190008e-02, 6.34399988e-03 ]
      - [ 8.04869980e-02, 7.92519972e-02, 7.65409991e-02, 7.51850009e-02,
          7.38020018e-02, 6.99789971e-02, 6.91810027e-02, 6.85639977e-02,
          6.65690005e-02, 6.61529973e-02, 5.01720011e-02, 8.96800030e-03 ]
      - [ 7.37510026e-02, 7.30959997e-02, 6.48310035e-02, 6.27510026e-02,
          6.06959984e-02, 6.04249984e-02, 6.02979995e-02, 5.49650006e-02,
          5.47689982e-02, 5.44329993e-02, 4.38099988e-02, 8.00899975e-03 ]
      - [ 6.34619966e-02, 6.03919998e-02, 5.97340018e-02, 5.90520017e-02,
          5.82670011e-02, 5.80639988e-02, 5.73659986e-02, 5.68480007e-02,
          5.49240001e-02, 5.47229983e-02, 4.23090011e-02, 7.21300021e-03 ]
      - [ 6.46660030e-02, 6.28200024e-02, 6.13519996e-02, 5.89770004e-02,
          5.78569993e-02, 5.75960018e-02, 5.72579987e-02, 5.71530014e-02,
          5.67319989e-02, 5.67100011e-02, 4.33010012e-02, 7.56399985e-03 ]
      - [ 7.50709996e-02, 6.50819987e-02, 6.27499968e-02, 6.24740012e-02,
          6.20869994e-02, 6.10430017e-02, 6.08640015e-02, 6.05870001e-02,
          6.01180010e-02, 6.01169989e-02, 4.64660004e-02, 7.96199962e-03 ]
      - [ 7.97310024e-02, 7.93820024e-02, 7.35749975e-02, 7.34419972e-02,
          7.02989995e-02, 6.96370006e-02, 6.96170032e-02, 6.95609972e-02,
          6.82810023e-02, 6.82070032e-02, 5.40589988e-02, 8.92800000e-03 ]
      - [ 7.34819993e-02, 7.19780028e-02, 7.16060027e-02, 7.12559968e-02,
          6.98790029e-02, 6.57019988e-02, 6.44330010e-02, 6.34540021e-02,
          6.16660006e-02, 5.97180016e-02, 4.90790009e-02, 7.96500035e-03 ]
      - [ 6.81750029e-02, 6.73540011e-02, 6.57289997e-02, 6.51549995e-02,
          6.42929971e-02, 6.18470013e-02, 6.11190014e-02, 6.05809987e-02,
          6.04990013e-02, 5.97029999e-02, 4.58859988e-02, 7.78600015e-03 ]
      - [ 7.21430033e-02, 6.90670013e-02, 6.35439977e-02, 6.24880008e-02,
          5.96040003e-02, 5.80679998e-02, 5.32229990e-02, 5.26270010e-02,
          5.24879992e-02, 5.10310009e-02, 4.18590009e-02, 7.25799985e-03 ]
      - [ 6.58719987e-02, 6.37279972e-02, 6.15780018e-02, 6.00210018e-02,
          5.96570000e-02, 5.95720001e-02, 5.92180006e-02, 5.84650002e-02,
          5.79920001e-02, 5.70430011e-02, 4.51349989e-02, 7.15500023e-03 ]
      - [ 6.92650005e-02, 6.56860024e-02, 6.16489984e-02, 6.07709996e-02,
          6.02210015e-02, 5.96259981e-02, 5.85720018e-02, 5.78869991e-02,
          5.77769987e-02, 5.71850017e-02, 4.56059985e-02, 7.26300012e-03 ]
      - [ 7.62389973e-02, 7.40299970e-02, 7.34950006e-02, 7.04410002e-02,
          6.94840029e-02, 6.80250004e-02, 6.77670017e-02, 6.73620030e-02,
          6.71140030e-02, 6.69919997e-02, 5.12549989e-02, 7.86999986e-03 ]
      - [ 6.25960007e-02, 6.14469983e-02, 6.12329990e-02, 6.11290000e-02,
          5.82959987e-02, 5.76330014e-02, 5.69030009e-02, 5.66920005e-02,
          5.57980016e-02, 5.50949983e-02, 4.04860005e-02, 8.64799973e-03 ]
      - [ 7.24790022e-02, 5.90140000e-02, 5.83829992e-02, 5.80549985e-02,
          5.79070002e-02, 5.64800017e-02, 5.55679984e-02, 5.55609986e-02,
          5.54540008e-02, 5.53269982e-02, 4.61990014e-02, 6.08500000e-03 ]
      - [ 6.34529963e-02, 6.15740009e-02, 6.08800016e-02, 6.04790002e-02,
          6.00709990e-02, 5.97190000e-02, 5.86719997e-02, 5.77890016e-02,
          5.69310002e-02, 5.60889989e-02, 4.38239984e-02, 7.40899984e-03 ]
      - [ 6.51950017e-02, 6.42220005e-02, 6.18089996e-02, 5.96619993e-02,
          5.83849996e-02, 5.82199991e-02, 5.71600012e-02, 5.64559996e-02,
          5.57430014e-02, 5.46399988e-02, 4.59540002e-02, 6.25299988e-03 ]
      - [ 6.72440007e-02, 6.26399964e-02, 6.26190007e-02, 6.19559996e-02,
          6.16849996e-02, 5.99169992e-02, 5.93679994e-02, 5.82929999e-02,
          5.79850003e-02, 5.77309988e-02, 4.38820012e-02, 8.45799968e-03 ]
      - [ 7.16030002e-02, 7.01519996e-02, 6.56849965e-02, 6.50430024e-02,
          6.42310008e-02, 6.40420020e-02, 6.19519986e-02, 6.13630004e-02,
          6.12839982e-02, 6.09299988e-02, 4.96339984e-02, 6.82599982e-03 ]
      - [ 6.72380030e-02, 6.53280020e-02, 6.17720000e-02, 6.04199991e-02,
          5.99020012e-02, 5.97559996e-02, 5.94159998e-02, 5.67569993e-02,
          5.66530004e-02, 5.64149991e-02, 4.30300012e-02, 7.60099990e-03 ]
      - [ 5.75050004e-02, 5.68660013e-02, 5.66149987e-02, 5.57449982e-02,
          5.50489984e-02, 5.50380014e-02, 5.49260005e-02, 5.30980006e-02,
          5.27039990e-02, 5.26640005e-02, 4.15900014e-02, 7.19300006e-03 ]
      - [ 6.64860010e-02, 6.63959980e-02, 6.59009963e-02, 6.54179975e-02,
          6.37779981e-02, 6.18610010e-02, 6.06900007e-02, 5.97780012e-02,
          5.28139994e-02, 5.11979982e-02, 4.54149991e-02, 7.13900011e-03 ]
      - [ 7.50980005e-02, 7.28259981e-02, 7.06700012e-02, 7.02859983e-02,
          6.76949993e-02, 6.66700006e-02, 6.60799965e-02, 6.56509995e-02,
          6.55459985e-02, 6.54930025e-02, 4.90689985e-02, 8.26099981e-03 ]
      - [ 6.45209998e-02, 6.18590005e-02, 6.17469996e-02, 5.94099984e-02,
          5.87759987e-02, 5.75800017e-02, 5.73819987e-02, 5.54290004e-02,
          5.48250005e-02, 5.42640015e-02, 4.73689996e-02, 4.98099998e-03 ]
      - [ 7.21390024e-02, 6.66679963e-02, 6.63340017e-02, 6.38789982e-02,
          6.36940002e-02, 6.20750003e-02, 5.96259981e-02, 5.50240017e-02,
          5.29690012e-02, 5.28849997e-02, 4.46130000e-02, 6.56899996e-03 ]
      - [ 5.90710007e-02, 5.77670000e-02, 5.56670018e-02, 5.45619987e-02,
          5.44960015e-02, 5.44850007e-02, 5.17110005e-02, 5.14359996e-02,
          5.04520014e-02, 5.01910001e-02, 3.78049985e-02, 7.10600009e-03 ]
      - [ 6.41340017e-02, 6.32269979e-02, 6.28300011e-02, 6.17420003e-02,
          6.09010011e-02, 6.01060018e-02, 5.72610013e-02, 5.52790016e-02,
          5.36019988e-02, 5.33510000e-02, 4.35019992e-02, 7.33199995e-03 ]
      - [ 7.46520013e-02, 6.56550005e-02, 6.17839992e-02, 5.98179996e-02,
          5.75120002e-02, 5.69779985e-02, 5.58260009e-02, 5.55340014e-02,
          5.54829985e-02, 5.54209985e-02, 4.48179990e-02, 6.89900015e-03 ]
      - [ 6.96339980e-02, 6.44500032e-02, 6.15149997e-02, 6.12910017e-02,
          6.00700006e-02, 5.94080016e-02, 5.88449985e-02, 5.77189997e-02,
          5.75460009e-02, 5.71379997e-02, 4.57400009e-02, 7.61000020e-03 ]
      - [ 7.14799985e-02, 7.09500015e-02, 7.00529963e-02, 6.58349991e-02,
          6.37720004e-02, 6.37620017e-02, 6.18319996e-02, 6.07610010e-02,
          5.98980002e-02, 5.94360009e-02, 4.92409989e-02, 6.55099982e-03 ]
      - [ 5.91970012e-02, 5.83029985e-02, 5.79079986e-02, 5.61020002e-02,
          5.54709993e-02, 5.39700016e-02, 5.35230003e-02, 5.28500006e-02,
          5.26559986e-02, 5.24890013e-02, 4.05769981e-02, 7.32900016e-03 ]
      - [ 6.12710007e-02, 6.12460002e-02, 6.07310012e-02, 6.00959994e-02,
          5.76109998e-02, 5.64259999e-02, 5.61189987e-02, 5.54420017e-02,
          5.44789992e-02, 5.37969992e-02, 4.46069986e-02, 6.02599978e-03 ]
      - [ 6.40740022e-02, 6.14329986e-02, 6.13429993e-02, 5.87580018e-02,
          5.77990003e-02, 5.64090014e-02, 5.58050014e-02, 5.46509996e-02,
          5.43499999e-02, 5.42839989e-02, 4.28300016e-02, 6.49699988e-03 ]
      - [ 6.92510009e-02, 6.41599968e-02, 6.33580014e-02, 6.23999983e-02,
          6.20849989e-02, 6.16630018e-02, 5.86960018e-02, 5.77550009e-02,
          5.64499982e-02, 5.59209995e-02, 4.83089983e-02, 6.10399991e-03 ]
      - [ 6.42450005e-02, 6.24280013e-02, 6.15889989e-02, 6.13860004e-02,
          6.04639985e-02, 5.97649999e-02, 5.95190004e-02, 5.92480004e-02,
          5.81029989e-02, 5.78060001e-02, 4.31829989e-02, 8.64099991e-03 ]
      - [ 6.95500001e-02, 6.60850033e-02, 6.44130036e-02, 6.34829998e-02,
          6.23550005e-02, 6.22150004e-02, 6.09919988e-02, 6.02359995e-02,
          5.97070009e-02, 5.80440015e-02, 4.39880006e-02, 8.69399961e-03 ]
      - [ 8.70829970e-02, 8.25069994e-02, 7.45519996e-02, 6.87649995e-02,
          6.75270036e-02, 6.71399981e-02, 6.63079992e-02, 6.41710013e-02,
          6.26830012e-02, 6.16020001e-02, 5.11370003e-02, 8.21399968e-03 ]
      - [ 6.40690029e-02, 6.31870031e-02, 6.21410012e-02, 6.18500002e-02,
          6.15429990e-02, 6.14669994e-02, 6.06289990e-02, 6.01839982e-02,
          5.99730015e-02, 5.93530014e-02, 4.47000004e-02, 7.51300016e-03 ]
      - [ 6.42409995e-02, 6.11860007e-02, 6.07249998e-02, 6.01750016e-02,
          5.83200008e-02, 5.82499988e-02, 5.82109988e-02, 5.81559986e-02,
          5.81540018e-02, 5.76179996e-02, 4.42119986e-02, 6.35399995e-03 ]
      - [ 7.07859993e-02, 7.03250021e-02, 7.00000003e-02, 6.61320016e-02,
          6.46610036e-02, 6.42130002e-02, 6.26669973e-02, 6.12949990e-02,
          6.11569993e-02, 5.81209995e-02, 4.91040014e-02, 6.74299989e-03 ]
      - [ 5.92529997e-02, 5.90060018e-02, 5.89919984e-02, 5.68999983e-02,
          5.49720004e-02, 5.47799990e-02, 5.42390011e-02, 5.39579988e-02,
          5.37870005e-02, 5.37610017e-02, 4.05259989e-02, 7.81300012e-03 ]
      - [ 7.45680034e-02, 7.42240027e-02, 7.03039989e-02, 6.97309971e-02,
          6.96069971e-02, 6.93840012e-02, 6.84719980e-02, 6.79640025e-02,
          6.77950010e-02, 6.68639988e-02, 5.19259982e-02, 8.08800012e-03 ]
      - [ 7.66950026e-02, 7.57249966e-02, 7.00239986e-02, 6.97240010e-02,
          6.88769966e-02, 6.82940036e-02, 6.76269978e-02, 6.74260035e-02,
          6.62719980e-02, 6.54399991e-02, 5.15949987e-02, 8.54799990e-03 ]
      - [ 7.11029992e-02, 6.43550009e-02, 6.26000017e-02, 6.04639985e-02,
          5.79349995e-02, 5.64129986e-02, 5.58359995e-02, 5.43330014e-02,
          5.37410006e-02, 5.31020015e-02, 4.32239994e-02, 6.74699992e-03 ]
      - [ 5.95720001e-02, 5.90520017e-02, 5.89060001e-02, 5.81299998e-02,
          5.69249988e-02, 5.61240017e-02, 5.43049984e-02, 5.38990013e-02,
          5.14159985e-02, 5.08610010e-02, 4.34129983e-02, 5.47399977e-03 ]
      - [ 5.96490018e-02, 5.94349988e-02, 5.88620007e-02, 5.61450012e-02,
          5.61069995e-02, 5.57399988e-02, 5.57090007e-02, 5.46809994e-02,
          5.45910001e-02, 5.25190011e-02, 4.15600017e-02, 6.59700017e-03 ]
      - [ 6.14189990e-02, 6.09060004e-02, 5.96770011e-02, 5.75039983e-02,
          5.69900014e-02, 5.62909991e-02, 5.37540019e-02, 5.28649986e-02,
          5.20800017e-02, 5.19989990e-02, 3.86399999e-02, 7.70699978e-03 ]
      - [ 6.58560023e-02, 6.41990006e-02, 6.27759993e-02, 6.21660016e-02,
          6.17950000e-02, 6.06830008e-02, 5.92439994e-02, 5.90629987e-02,
          5.86129986e-02, 5.85910007e-02, 4.45589982e-02, 7.45199993e-03 ]
      - [ 7.61829987e-02, 7.51279965e-02, 6.92019984e-02, 6.91739991e-02,
          6.82530031e-02, 6.73409998e-02, 6.59850016e-02, 6.55319989e-02,
          6.37459978e-02, 6.25090003e-02, 5.00469990e-02, 8.18799995e-03 ]
      - [ 1.02753997e-01, 1.00624003e-01, 9.93729979e-02, 9.54710022e-02,
          9.46390033e-02, 9.14169997e-02, 9.10080001e-02, 8.82150009e-02,
          8.57380033e-02, 8.56970027e-02, 5.17910011e-02, 1.81460008e-02 ]
      - [ 7.76629969e-02, 7.71860033e-02, 7.69570023e-02, 7.68430009e-02,
          7.62659982e-02, 7.61199966e-02, 7.57170022e-02, 7.55660012e-02,
          7.54820034e-02, 7.52540007e-02, 5.47830015e-02, 1.26440004e-02 ]
      - [ 8.70919973e-02, 8.29949975e-02, 7.28150010e-02, 6.66749999e-02,
          6.11150004e-02, 6.07229993e-02, 5.79149984e-02, 5.54350019e-02,
          5.54310009e-02, 5.26660010e-02, 4.09400016e-02, 1.33680003e-02 ]
      - [ 3.82540002e-02, 3.77090015e-02, 3.51600014e-02, 3.51470001e-02,
          3.37430015e-02, 3.16860005e-02, 2.94560008e-02, 2.88720001e-02,
          2.88009997e-02, 2.86630001e-02, 2.81530004e-02, 4.08100011e-03 ]
      - [ 5.71569987e-02, 5.50640002e-02, 4.89559993e-02, 4.85670008e-02,
          4.58180010e-02, 4.53649983e-02, 4.37440015e-02, 4.22680005e-02,
          4.18240018e-02, 4.14239988e-02, 3.39680016e-02, 7.82399997e-03 ]
      - [ 5.79180010e-02, 5.52720018e-02, 5.36380000e-02, 5.06599993e-02,
          4.95789982e-02, 4.81970012e-02, 4.80559990e-02, 4.58699986e-02,
          4.57829982e-02, 4.45589982e-02, 3.60860005e-02, 7.12599978e-03 ]
      - [ 4.06219997e-02, 4.06129993e-02, 3.96680012e-02, 3.71140018e-02,
          3.70730013e-02, 3.49459983e-02, 3.39009985e-02, 3.29819992e-02,
          3.18389982e-02, 3.17480005e-02, 3.06770001e-02, 4.97699995e-03 ]
      - [ 7.89939985e-02, 7.79070035e-02, 7.69369975e-02, 7.43419975e-02,
          6.92119971e-02, 6.84280023e-02, 6.83640018e-02, 6.37200028e-02,
          6.02519996e-02, 5.98529987e-02, 4.27209996e-02, 1.22159999e-02 ]
      - [ 1.11321002e-01, 1.07460000e-01, 1.02828003e-01, 8.85469988e-02,
          8.85189995e-02, 8.56629983e-02, 8.28619972e-02, 8.08710009e-02,
          7.97080025e-02, 7.83919990e-02, 5.62129989e-02, 1.77159999e-02 ]
      - [ 6.14309981e-02, 6.09810017e-02, 5.61299995e-02, 5.17470017e-02,
          5.11289984e-02, 5.08700013e-02, 4.96959984e-02, 4.95480001e-02,
          4.89430018e-02, 4.77030016e-02, 3.63450013e-02, 8.18900019e-03 ]
      - [ 4.26019989e-02, 4.23920006e-02, 4.13139984e-02, 4.11959998e-02,
          4.02240008e-02, 3.78610007e-02, 3.52870002e-02, 3.46149988e-02,
          3.40970010e-02, 3.40650007e-02, 3.11190002e-02, 6.02799980e-03 ]
      - [ 7.46219978e-02, 6.05010018e-02, 5.72890006e-02, 5.62169999e-02,
          5.48730008e-02, 5.48270009e-02, 5.35730012e-02, 5.28689995e-02,
          5.06369993e-02, 4.99360003e-02, 3.81550007e-02, 9.92999971e-03 ]
      - [ 1.20929003e-01, 1.16798997e-01, 1.16337001e-01, 1.12411998e-01,
          1.07152998e-01, 1.04808003e-01, 1.02268003e-01, 9.99550000e-02,
          9.94570032e-02, 9.89409983e-02, 6.14169985e-02, 2.48169992e-02 ]
      - [ 6.12160005e-02, 5.39829992e-02, 4.32449989e-02, 4.17510010e-02,
          4.01710011e-02, 3.97670008e-02, 3.86699997e-02, 3.85439992e-02,
          3.82499993e-02, 3.77070010e-02, 3.33999991e-02, 6.44800020e-03 ]
      - [ 8.86140019e-02, 8.79499987e-02, 8.61240029e-02, 8.22390020e-02,
          7.44490027e-02, 7.43080005e-02, 7.20219985e-02, 5.83200008e-02,
          5.52130006e-02, 5.50209992e-02, 4.32230011e-02, 1.46209998e-02 ]
      - [ 6.60929978e-02, 6.42900020e-02, 6.28890023e-02, 5.72930016e-02,
          5.24839982e-02, 5.19930013e-02, 4.80410010e-02, 4.68499996e-02,
          4.64680009e-02, 4.56920005e-02, 3.66570018e-02, 8.69700033e-03 ]
      - [ 4.33240011e-02, 4.30740006e-02, 4.26950008e-02, 4.17210013e-02,
          4.13589999e-02, 4.01629992e-02, 3.80569994e-02, 3.76619995e-02,
          3.64009999e-02, 3.60030010e-02, 3.21969986e-02, 4.93100006e-03 ]
      - [ 1.46803007e-01, 1.45921007e-01, 1.34014994e-01, 1.32337004e-01,
          1.26618996e-01, 1.22403003e-01, 1.21166997e-01, 1.20878004e-01,
          1.20472997e-01, 1.18352003e-01, 7.88889974e-02, 2.56800000e-02 ]
      - [ 1.15672998e-01, 1.13557003e-01, 1.12907998e-01, 1.08994000e-01,
          1.07031003e-01, 1.01939000e-01, 9.29969996e-02, 8.98419991e-02,
          8.97229984e-02, 8.81720036e-02, 6.06469996e-02, 1.81220006e-02 ]
      - [ 5.20580001e-02, 5.15919998e-02, 5.12299985e-02, 4.66089994e-02,
          4.65129986e-02, 4.60850000e-02, 4.56570014e-02, 4.50860001e-02,
          4.39560004e-02, 4.33810018e-02, 3.60220000e-02, 6.31200010e-03 ]
      - [ 4.14250009e-02, 4.07060012e-02, 4.02330011e-02, 3.99749987e-02,
          3.84530015e-02, 3.82560007e-02, 3.80229987e-02, 3.71470004e-02,
          3.68169993e-02, 3.62630002e-02, 3.06659993e-02, 5.29700005e-03 ]
      - [ 4.88420017e-02, 4.73669991e-02, 4.40150015e-02, 4.38660011e-02,
          4.20840010e-02, 4.04440016e-02, 4.00139987e-02, 3.96619998e-02,
          3.75769995e-02, 3.58970016e-02, 3.22959982e-02, 5.51099982e-03 ]
      - [ 5.17640002e-02, 5.06090000e-02, 4.36279997e-02, 4.19569984e-02,
          3.89509983e-02, 3.65669988e-02, 3.46620008e-02, 3.43159996e-02,
          3.39399986e-02, 3.36950012e-02, 3.07899993e-02, 6.31400011e-03 ]
      - [ 7.35159963e-02, 6.95030019e-02, 6.84790015e-02, 5.70250005e-02,
          5.52809983e-02, 5.36159985e-02, 5.33789992e-02, 5.19540012e-02,
          4.94230017e-02, 4.91599999e-02, 3.82889993e-02, 9.90600046e-03 ]
      - [ 5.98989986e-02, 5.96459992e-02, 5.30630015e-02, 5.05639985e-02,
          4.87839989e-02, 4.51779999e-02, 4.44599986e-02, 4.27750014e-02,
          4.13429998e-02, 3.69439982e-02, 3.61870006e-02, 1.12530002e-02 ]
      - [ 7.45849982e-02, 7.06819966e-02, 6.91429973e-02, 5.95740005e-02,
          5.68209998e-02, 5.21349981e-02, 4.95840013e-02, 4.90080006e-02,
          4.90050018e-02, 4.88040000e-02, 3.82210016e-02, 1.08820004e-02 ]
      - [ 5.33180013e-02, 5.30319996e-02, 5.22270016e-02, 5.21880016e-02,
          4.94409986e-02, 4.78629991e-02, 4.16139998e-02, 4.00339998e-02,
