%YAML:1.0
my_svm: !!opencv-ml-svm
   svm_type: C_SVC
   kernel: { type:RBF, gamma:5.0625000000000009e-01 }
   C: 3.1250000000000000e+02
   term_criteria: { epsilon:2.2204460492503131e-16, iterations:1000 }
   var_all: 12
   var_count: 12
   class_count: 2
   class_labels: !!opencv-matrix
      rows: 1
      cols: 2
      dt: i
      data: [ 0, 1 ]
   sv_total: 213
   support_vectors:
      - [ 5.90060018e-02, 5.69670014e-02, 5.45889996e-02, 5.40370010e-02,
          5.20300008e-02, 5.10119982e-02, 5.05580008e-02, 5.00600003e-02,
          4.89390008e-02, 4.79759984e-02, 3.78109999e-02, 7.13399984e-03 ]
      - [ 7.67659992e-02, 6.65839985e-02, 6.48040026e-02, 6.35700002e-02,
          6.20049983e-02, 5.97539991e-02, 5.97219989e-02, 5.87910004e-02,
          5.85709997e-02, 5.78959994e-02, 4.54230011e-02, 8.20800010e-03 ]
      - [ 7.07150027e-02, 6.28800020e-02, 6.25199974e-02, 6.23419993e-02,
          5.93269989e-02, 5.83649985e-02, 5.80449998e-02, 5.76980002e-02,
          5.64620011e-02, 5.63150011e-02, 4.29360010e-02, 8.36599991e-03 ]
      - [ 7.81140029e-02, 7.40260035e-02, 6.83310032e-02, 6.37679994e-02,
          6.30590022e-02, 6.17569983e-02, 6.16130009e-02, 5.81620000e-02,
          5.67479990e-02, 5.58260009e-02, 4.24560010e-02, 8.04099999e-03 ]
      - [ 6.94919974e-02, 6.37959987e-02, 6.16419986e-02, 6.07249998e-02,
          5.95120005e-02, 5.52450009e-02, 5.52130006e-02, 5.49909994e-02,
          5.43509983e-02, 5.34459986e-02, 3.71019989e-02, 9.05099977e-03 ]
      - [ 5.46940006e-02, 5.43170013e-02, 5.18260002e-02, 5.17169982e-02,
          5.14689982e-02, 5.10389991e-02, 5.07589988e-02, 4.92059998e-02,
          4.89399992e-02, 4.78370003e-02, 3.90510000e-02, 6.94399979e-03 ]
      - [ 5.72809987e-02, 5.69799989e-02, 5.47819994e-02, 5.34959994e-02,
          5.05319983e-02, 4.93879989e-02, 4.72539999e-02, 4.71640006e-02,
          4.48440015e-02, 4.26150002e-02, 3.27519998e-02, 7.95399956e-03 ]
      - [ 7.68930018e-02, 7.28719980e-02, 6.75640032e-02, 6.38990030e-02,
          6.24569990e-02, 5.92200011e-02, 5.92049994e-02, 5.89089990e-02,
          5.72549999e-02, 5.63330017e-02, 4.37670015e-02, 8.50399956e-03 ]
      - [ 7.45920017e-02, 6.74370006e-02, 6.49690032e-02, 6.48199990e-02,
          6.38310015e-02, 6.35880008e-02, 5.97900003e-02, 5.97690009e-02,
          5.94739988e-02, 5.78849986e-02, 4.16500010e-02, 9.68299992e-03 ]
      - [ 6.13359995e-02, 6.03390001e-02, 6.00350015e-02, 5.70929982e-02,
          5.53920008e-02, 5.52400015e-02, 5.31780012e-02, 4.95290011e-02,
          4.86279987e-02, 4.74190004e-02, 3.70859988e-02, 7.54499994e-03 ]
      - [ 5.84580004e-02, 5.80900013e-02, 5.63790016e-02, 5.60889989e-02,
          5.37329987e-02, 5.30110002e-02, 5.17700016e-02, 5.05620018e-02,
          5.04710004e-02, 5.02960011e-02, 4.02709991e-02, 6.39100000e-03 ]
      - [ 6.00689985e-02, 5.93240000e-02, 5.84979989e-02, 5.82470000e-02,
          5.62359989e-02, 5.17180003e-02, 4.97899987e-02, 4.97180000e-02,
          4.92249988e-02, 4.77249995e-02, 3.47709991e-02, 8.39900039e-03 ]
      - [ 6.47210032e-02, 6.41129985e-02, 6.08359985e-02, 5.76610006e-02,
          5.59859984e-02, 5.49670011e-02, 5.41820005e-02, 5.28570004e-02,
          5.19590005e-02, 5.13140000e-02, 4.17970009e-02, 6.90399995e-03 ]
      - [ 7.35810027e-02, 6.61550015e-02, 6.21649995e-02, 5.97070009e-02,
          5.79620004e-02, 5.53830005e-02, 5.40900007e-02, 5.33609986e-02,
          5.22370003e-02, 5.16190007e-02, 3.83870006e-02, 8.81600007e-03 ]
      - [ 6.38549998e-02, 6.05619997e-02, 5.98450005e-02, 5.95350005e-02,
          5.81419989e-02, 5.71230017e-02, 5.65860011e-02, 5.26620001e-02,
          5.18600009e-02, 5.04840016e-02, 3.96890007e-02, 8.16600025e-03 ]
      - [ 8.28019977e-02, 7.33620003e-02, 6.99589998e-02, 6.85769990e-02,
          6.64310008e-02, 6.21850006e-02, 6.04959987e-02, 6.03669994e-02,
          6.03069998e-02, 6.02140017e-02, 4.20549996e-02, 9.53599997e-03 ]
      - [ 6.35539964e-02, 6.19250014e-02, 5.89170009e-02, 5.81559986e-02,
          5.79489991e-02, 5.47650009e-02, 5.45100011e-02, 5.42370006e-02,
          5.31929992e-02, 5.31679988e-02, 4.33100015e-02, 6.41300017e-03 ]
      - [ 6.97520003e-02, 6.87460005e-02, 6.85729980e-02, 5.90300001e-02,
          5.85619994e-02, 5.78529984e-02, 5.75879999e-02, 5.66519983e-02,
          5.61279990e-02, 5.40370010e-02, 4.17319983e-02, 7.69900018e-03 ]
      - [ 5.90119995e-02, 5.74849993e-02, 5.70029989e-02, 5.53530008e-02,
          5.45849986e-02, 5.32369986e-02, 5.25129996e-02, 5.22460006e-02,
          5.03429994e-02, 5.02309985e-02, 3.65299992e-02, 7.28099979e-03 ]
      - [ 7.11999983e-02, 6.71119988e-02, 6.41290024e-02, 6.06580004e-02,
          5.93269989e-02, 5.76790012e-02, 5.73230013e-02, 5.64949997e-02,
          5.64830005e-02, 5.63049987e-02, 4.18599993e-02, 8.39199964e-03 ]
      - [ 6.20799996e-02, 6.17440008e-02, 6.02389984e-02, 5.80600016e-02,
          5.67510016e-02, 5.65650016e-02, 5.46140000e-02, 5.16790003e-02,
          5.05089983e-02, 5.03179990e-02, 3.98290008e-02, 7.94399995e-03 ]
      - [ 5.75640015e-02, 5.67389987e-02, 5.43369986e-02, 5.39110005e-02,
          5.27880006e-02, 5.21170013e-02, 5.20039983e-02, 5.08529991e-02,
          5.06789982e-02, 5.00660017e-02, 3.83099988e-02, 7.43100001e-03 ]
      - [ 6.06530011e-02, 5.80830015e-02, 5.52409999e-02, 5.50840013e-02,
          5.36280014e-02, 5.30490018e-02, 5.15649989e-02, 5.13579994e-02,
          5.06399982e-02, 5.00239991e-02, 4.16759998e-02, 5.98199992e-03 ]
      - [ 7.76610002e-02, 6.99269995e-02, 5.87499999e-02, 5.66469990e-02,
          5.64070009e-02, 5.58030009e-02, 5.42519987e-02, 5.34910001e-02,
          5.31620011e-02, 5.24699986e-02, 3.79879996e-02, 9.49999969e-03 ]
      - [ 7.43160024e-02, 7.29909986e-02, 6.76539987e-02, 6.55969977e-02,
          5.82929999e-02, 5.70579991e-02, 5.57020009e-02, 5.44609986e-02,
          5.18720001e-02, 5.16609997e-02, 4.11919989e-02, 9.12099984e-03 ]
      - [ 7.64280036e-02, 7.46800005e-02, 6.53460026e-02, 6.43709973e-02,
          6.27460033e-02, 6.24839999e-02, 6.19429983e-02, 6.05939999e-02,
          6.03090003e-02, 5.97609989e-02, 4.58110012e-02, 9.42299981e-03 ]
      - [ 6.66529983e-02, 6.42779991e-02, 6.30230010e-02, 6.25009984e-02,
          5.79579994e-02, 5.79419993e-02, 5.54260015e-02, 5.49109988e-02,
          5.28820008e-02, 5.11419997e-02, 3.91589999e-02, 8.53700005e-03 ]
      - [ 6.34559989e-02, 6.30030036e-02, 5.83369993e-02, 5.39500006e-02,
          5.27470000e-02, 5.19540012e-02, 5.12490012e-02, 5.10290004e-02,
          5.00929989e-02, 4.88240011e-02, 3.82059999e-02, 7.88000040e-03 ]
      - [ 6.05660006e-02, 5.88180013e-02, 5.71289994e-02, 5.51679991e-02,
          5.48290014e-02, 5.29280007e-02, 5.18219993e-02, 4.80719991e-02,
          4.69739996e-02, 4.66989987e-02, 3.58540006e-02, 7.46299978e-03 ]
      - [ 6.92790002e-02, 6.62309974e-02, 6.21969998e-02, 6.15519993e-02,
          5.89269996e-02, 5.77890016e-02, 5.75009994e-02, 5.71210012e-02,
          5.67499995e-02, 5.50680012e-02, 4.21530008e-02, 8.19099974e-03 ]
      - [ 6.61190003e-02, 6.53410032e-02, 6.24339990e-02, 5.97800016e-02,
          5.88349998e-02, 5.36909997e-02, 5.24379984e-02, 5.19549996e-02,
          5.18889986e-02, 5.17640002e-02, 3.95769998e-02, 7.82299973e-03 ]
      - [ 6.30149990e-02, 6.08309992e-02, 5.88189997e-02, 5.83169982e-02,
          5.64769991e-02, 5.53819984e-02, 5.42649999e-02, 5.27230017e-02,
          5.18350005e-02, 5.05330004e-02, 4.01859991e-02, 7.28699984e-03 ]
      - [ 8.08750018e-02, 7.91350007e-02, 7.73219988e-02, 7.54320025e-02,
          6.60730004e-02, 5.97350001e-02, 5.48489988e-02, 5.42469993e-02,
          5.00449985e-02, 4.91859987e-02, 4.04589996e-02, 1.16560003e-02 ]
      - [ 7.73560032e-02, 7.12260008e-02, 7.09739998e-02, 6.81179985e-02,
          6.30899966e-02, 5.78709990e-02, 5.35910018e-02, 5.22789992e-02,
          5.10619991e-02, 5.05440012e-02, 3.88550013e-02, 9.42900032e-03 ]
      - [ 4.82270010e-02, 4.68269996e-02, 4.64040004e-02, 4.50880006e-02,
          4.40040007e-02, 4.33849990e-02, 4.33639996e-02, 4.30929996e-02,
          4.27270010e-02, 4.25530002e-02, 3.45409997e-02, 5.00300014e-03 ]
      - [ 5.48060015e-02, 5.13489991e-02, 5.11250012e-02, 5.06890006e-02,
          5.03760017e-02, 4.99880016e-02, 4.97209989e-02, 4.88069989e-02,
          4.79479991e-02, 4.77430001e-02, 3.93240005e-02, 5.45600010e-03 ]
      - [ 6.38390034e-02, 6.29469976e-02, 6.24569990e-02, 5.90780005e-02,
          5.60079999e-02, 5.59000000e-02, 5.56269996e-02, 5.40620014e-02,
          5.39770015e-02, 5.37960008e-02, 3.93779986e-02, 8.71699955e-03 ]
      - [ 6.33750036e-02, 5.72590008e-02, 5.46859987e-02, 5.40780015e-02,
          5.39509989e-02, 5.32919988e-02, 4.95299995e-02, 4.90810014e-02,
          4.90689985e-02, 4.84899990e-02, 3.63110006e-02, 7.53699988e-03 ]
      - [ 6.26140013e-02, 5.96879981e-02, 5.73530011e-02, 5.70279993e-02,
          5.58089986e-02, 5.48259988e-02, 5.41029982e-02, 5.35680018e-02,
          5.25370017e-02, 5.16850017e-02, 3.94699983e-02, 7.77099980e-03 ]
      - [ 6.78839982e-02, 6.58269972e-02, 6.01870008e-02, 6.00919984e-02,
          5.73679991e-02, 5.64499982e-02, 5.55609986e-02, 5.51839992e-02,
          5.36150001e-02, 5.32240011e-02, 3.95460017e-02, 9.65499971e-03 ]
      - [ 6.95490018e-02, 6.85829967e-02, 6.51559979e-02, 6.18700013e-02,
          6.04019985e-02, 5.85409999e-02, 5.70649989e-02, 5.68710007e-02,
          5.60440011e-02, 5.60199991e-02, 4.05239984e-02, 8.61399993e-03 ]
      - [ 7.30710030e-02, 6.79780021e-02, 5.90189993e-02, 5.82179986e-02,
          5.80630004e-02, 5.79629987e-02, 5.70469983e-02, 5.54139987e-02,
          5.44660017e-02, 5.42609990e-02, 4.04449999e-02, 8.50200001e-03 ]
      - [ 5.50599992e-02, 5.15750013e-02, 5.03030010e-02, 4.98039983e-02,
          4.89830002e-02, 4.86610010e-02, 4.81330007e-02, 4.79479991e-02,
          4.73220013e-02, 4.67969999e-02, 3.63579988e-02, 6.75499998e-03 ]
      - [ 6.73639998e-02, 6.32940009e-02, 6.12620004e-02, 5.92800006e-02,
          5.92450015e-02, 5.80470003e-02, 5.33850007e-02, 5.30549996e-02,
          5.24750017e-02, 5.21739982e-02, 3.92789990e-02, 8.57300032e-03 ]
      - [ 6.20179996e-02, 5.93670011e-02, 5.87479994e-02, 5.78220002e-02,
          5.74459992e-02, 5.71670011e-02, 5.65549992e-02, 5.59220016e-02,
          5.34659997e-02, 5.17240018e-02, 3.81379984e-02, 7.70899979e-03 ]
      - [ 5.45249991e-02, 5.37130013e-02, 5.24000004e-02, 5.15489988e-02,
          5.11949994e-02, 5.02049997e-02, 4.98489998e-02, 4.74440008e-02,
          4.69140001e-02, 4.66610007e-02, 3.83750014e-02, 5.91700012e-03 ]
      - [ 6.28580004e-02, 6.13589995e-02, 5.88009991e-02, 5.66690005e-02,
          5.60280010e-02, 5.57140000e-02, 5.15230000e-02, 5.12199998e-02,
          5.01080006e-02, 4.99330014e-02, 3.97079997e-02, 7.57399993e-03 ]
      - [ 7.35270008e-02, 7.20859990e-02, 6.37610033e-02, 6.22330010e-02,
          6.09630011e-02, 6.04729988e-02, 5.96470013e-02, 5.84880002e-02,
          5.73880002e-02, 5.59919998e-02, 4.14189994e-02, 8.56100023e-03 ]
      - [ 7.83340037e-02, 6.50309995e-02, 6.30140007e-02, 6.18470013e-02,
          6.09930009e-02, 6.06070012e-02, 6.05430007e-02, 5.86800016e-02,
          5.82539998e-02, 5.77399991e-02, 4.58279997e-02, 7.39599997e-03 ]
      - [ 6.92979991e-02, 6.29549995e-02, 6.15039989e-02, 6.11190014e-02,
          6.06140010e-02, 6.00770004e-02, 5.79719990e-02, 5.77180013e-02,
          5.22430018e-02, 5.20370007e-02, 3.98689993e-02, 8.22100043e-03 ]
      - [ 6.08440004e-02, 5.88609986e-02, 5.84629998e-02, 5.74540012e-02,
          5.47930002e-02, 5.41989990e-02, 5.19450009e-02, 5.11210002e-02,
          4.94749993e-02, 4.93169986e-02, 3.58919986e-02, 7.83700030e-03 ]
      - [ 7.67820030e-02, 6.61719963e-02, 6.42810017e-02, 6.42269999e-02,
          6.34000003e-02, 6.19550012e-02, 5.86920008e-02, 5.64810000e-02,
          5.55270016e-02, 5.46550006e-02, 3.96570005e-02, 9.33100004e-03 ]
      - [ 6.77450001e-02, 6.21379986e-02, 6.04699999e-02, 5.95330000e-02,
          5.64199984e-02, 5.62810004e-02, 5.51030003e-02, 4.80169989e-02,
          4.72269990e-02, 4.63330001e-02, 3.80179994e-02, 9.61500034e-03 ]
      - [ 7.33639970e-02, 7.01169968e-02, 6.07809983e-02, 5.37719987e-02,
          5.32729998e-02, 5.28209992e-02, 5.21840006e-02, 5.17599992e-02,
          5.16300015e-02, 5.15329987e-02, 4.16739993e-02, 7.14799995e-03 ]
      - [ 5.94209991e-02, 5.85649982e-02, 5.75970002e-02, 5.62120005e-02,
          5.55559993e-02, 5.37299998e-02, 5.30809984e-02, 5.13079986e-02,
          5.12750000e-02, 5.12440018e-02, 3.77460010e-02, 7.54800020e-03 ]
      - [ 7.73309991e-02, 6.81350008e-02, 6.80710003e-02, 6.09439984e-02,
          5.89610003e-02, 5.74579984e-02, 5.72119989e-02, 5.49120009e-02,
          5.48960008e-02, 5.47909997e-02, 4.15350012e-02, 9.25299991e-03 ]
      - [ 5.12459986e-02, 4.93180007e-02, 4.87350002e-02, 4.72339988e-02,
          4.64599989e-02, 4.63970006e-02, 4.51559983e-02, 4.51290011e-02,
          4.50479984e-02, 4.47629988e-02, 3.30299996e-02, 6.64500007e-03 ]
      - [ 7.65350014e-02, 7.57990032e-02, 6.55580014e-02, 6.29810020e-02,
          6.20360002e-02, 6.16099983e-02, 6.11380003e-02, 5.95749989e-02,
          5.78869991e-02, 5.77460006e-02, 4.32539992e-02, 9.55300033e-03 ]
      - [ 7.45040029e-02, 7.41399974e-02, 7.03829974e-02, 7.00839981e-02,
          6.74920008e-02, 6.54079989e-02, 6.38120025e-02, 6.28369972e-02,
          6.21129982e-02, 6.11599982e-02, 4.56379987e-02, 9.72600002e-03 ]
      - [ 6.35600016e-02, 6.35410026e-02, 6.34140000e-02, 6.08719997e-02,
          6.06330000e-02, 5.88280000e-02, 5.56910001e-02, 5.54139987e-02,
          5.32779992e-02, 5.28270006e-02, 4.14940007e-02, 8.00300017e-03 ]
      - [ 6.18720017e-02, 6.06269985e-02, 6.01579994e-02, 6.01230003e-02,
          5.81629984e-02, 5.77070005e-02, 5.67549989e-02, 5.59069999e-02,
          5.06540015e-02, 5.03429994e-02, 4.00360003e-02, 6.84700022e-03 ]
      - [ 6.04359992e-02, 6.01929985e-02, 5.23670018e-02, 5.06259985e-02,
          5.03909998e-02, 5.03229983e-02, 4.97220010e-02, 4.94120009e-02,
          4.93829995e-02, 4.91520017e-02, 3.78260016e-02, 6.97899982e-03 ]
      - [ 7.02830032e-02, 6.91709965e-02, 6.39799982e-02, 6.29339963e-02,
          6.22440018e-02, 6.13240004e-02, 6.06100000e-02, 6.01300001e-02,
          5.76170012e-02, 5.63110001e-02, 4.21879999e-02, 7.95700029e-03 ]
      - [ 7.36169964e-02, 6.38879985e-02, 6.26149997e-02, 6.23040013e-02,
          5.66660017e-02, 5.22940010e-02, 5.17399982e-02, 5.13599999e-02,
          4.93899994e-02, 4.75680009e-02, 3.67980003e-02, 8.84499960e-03 ]
      - [ 7.93519989e-02, 7.82499984e-02, 7.66519979e-02, 7.57649988e-02,
          7.31989965e-02, 6.95329979e-02, 6.85930029e-02, 6.66870028e-02,
          6.55959994e-02, 6.27660006e-02, 4.44729999e-02, 1.13089997e-02 ]
      - [ 7.54659995e-02, 6.47659972e-02, 6.01450019e-02, 5.96400015e-02,
          5.94860017e-02, 5.90680018e-02, 5.83489984e-02, 5.76040000e-02,
          5.71819991e-02, 5.67659996e-02, 4.12040018e-02, 8.30900017e-03 ]
      - [ 6.78749979e-02, 6.41829967e-02, 6.13240004e-02, 6.05220012e-02,
          5.76380007e-02, 5.66600002e-02, 5.49109988e-02, 5.44320010e-02,
          5.03880009e-02, 4.97840010e-02, 3.95010002e-02, 9.49900039e-03 ]
      - [ 7.21440017e-02, 6.53060004e-02, 6.38979971e-02, 6.24120012e-02,
          6.11330010e-02, 5.80729991e-02, 5.37000000e-02, 5.19479997e-02,
          5.15340008e-02, 5.04049994e-02, 3.93619984e-02, 8.10999982e-03 ]
      - [ 7.02259988e-02, 7.01439977e-02, 5.72849996e-02, 5.72180003e-02,
          5.71440011e-02, 5.63470013e-02, 5.44200018e-02, 5.24480008e-02,
          5.16909994e-02, 5.10400012e-02, 3.98340002e-02, 7.94900022e-03 ]
      - [ 7.13289976e-02, 6.83579966e-02, 6.71090037e-02, 6.50139973e-02,
          6.38040006e-02, 6.34550005e-02, 5.97690009e-02, 5.97160012e-02,
          5.91409989e-02, 5.90989999e-02, 4.27189991e-02, 9.24099982e-03 ]
      - [ 8.01929981e-02, 7.96879977e-02, 7.48979971e-02, 6.79109991e-02,
          6.74810037e-02, 6.60109967e-02, 6.44859970e-02, 6.42379969e-02,
          6.40290007e-02, 5.98030016e-02, 4.51419987e-02, 9.26699955e-03 ]
      - [ 6.38099983e-02, 6.14150017e-02, 6.10519983e-02, 5.90000004e-02,
          5.89470007e-02, 5.81599995e-02, 5.53550012e-02, 5.38429990e-02,
          5.32139987e-02, 5.31149991e-02, 4.06260006e-02, 7.28499983e-03 ]
      - [ 6.77570030e-02, 6.72470033e-02, 6.45729974e-02, 6.13359995e-02,
          6.10699989e-02, 5.72559983e-02, 5.60959987e-02, 5.44500016e-02,
          5.39430007e-02, 5.20929992e-02, 4.03430015e-02, 8.95399973e-03 ]
      - [ 7.20489994e-02, 6.74609989e-02, 6.29869998e-02, 6.26719967e-02,
          5.97580001e-02, 5.79399988e-02, 5.63419983e-02, 5.54919988e-02,
          5.42900003e-02, 5.38920015e-02, 4.26819995e-02, 7.56300008e-03 ]
      - [ 6.35609999e-02, 6.26460016e-02, 5.65299988e-02, 5.48069999e-02,
          5.31070009e-02, 5.14510013e-02, 4.87039983e-02, 4.73500006e-02,
          4.70799990e-02, 4.69899997e-02, 3.76950018e-02, 6.82100002e-03 ]
      - [ 6.72459975e-02, 6.49710000e-02, 6.45999983e-02, 6.32029995e-02,
          5.90839982e-02, 5.81820011e-02, 5.71429990e-02, 5.69409989e-02,
          5.63419983e-02, 5.62769994e-02, 4.05119993e-02, 9.13900044e-03 ]
      - [ 6.83080032e-02, 6.47620037e-02, 6.32890016e-02, 6.22499995e-02,
          5.65580018e-02, 5.38749993e-02, 5.31340018e-02, 5.31329997e-02,
          5.29979989e-02, 5.24980016e-02, 4.17170003e-02, 7.69999996e-03 ]
      - [ 7.71550015e-02, 7.60710016e-02, 6.76729977e-02, 6.70019984e-02,
          6.46559969e-02, 6.40570000e-02, 6.33269995e-02, 6.13639988e-02,
          6.08379990e-02, 5.97510003e-02, 4.42989990e-02, 9.13800020e-03 ]
      - [ 6.54039979e-02, 6.16329983e-02, 5.80129996e-02, 5.64410016e-02,
          5.58639988e-02, 5.46290018e-02, 5.44009991e-02, 5.42499982e-02,
          5.41520007e-02, 5.37820011e-02, 4.01819982e-02, 8.40200018e-03 ]
      - [ 6.72049969e-02, 6.46060035e-02, 6.25080019e-02, 6.21359982e-02,
          6.09299988e-02, 5.94890006e-02, 5.51090017e-02, 5.40289991e-02,
          5.40109985e-02, 5.31719998e-02, 3.91019993e-02, 9.10899974e-03 ]
      - [ 7.18419999e-02, 6.76919967e-02, 6.67899996e-02, 6.54790029e-02,
          6.34799972e-02, 6.24350011e-02, 6.00720011e-02, 5.71219996e-02,
          5.57149984e-02, 5.51129989e-02, 4.15229984e-02, 9.42199957e-03 ]
      - [ 6.61749989e-02, 6.34920001e-02, 6.20919988e-02, 5.85750006e-02,
          5.73690012e-02, 5.72290011e-02, 5.49779981e-02, 5.38219996e-02,
          5.20889983e-02, 5.19890003e-02, 4.09560017e-02, 7.63599994e-03 ]
      - [ 6.31109998e-02, 6.16610013e-02, 6.04050010e-02, 5.82830012e-02,
          5.78930005e-02, 5.72209992e-02, 5.52630015e-02, 5.29780015e-02,
          5.27990013e-02, 5.27429990e-02, 3.97490002e-02, 8.55999999e-03 ]
      - [ 7.63669983e-02, 6.96400031e-02, 6.78350031e-02, 6.67790025e-02,
          6.31159991e-02, 6.04179986e-02, 5.86690009e-02, 5.82620017e-02,
          5.72680011e-02, 5.67720011e-02, 4.17639986e-02, 8.54600035e-03 ]
      - [ 7.21850023e-02, 6.56339973e-02, 6.50189966e-02, 6.45179972e-02,
          6.17569983e-02, 6.16910011e-02, 6.07369989e-02, 5.83750010e-02,
          5.76209985e-02, 5.71230017e-02, 4.26420011e-02, 8.68299976e-03 ]
      - [ 6.44799992e-02, 6.25180006e-02, 5.59520014e-02, 5.36499992e-02,
          5.36260009e-02, 5.31699993e-02, 5.25499992e-02, 5.02309985e-02,
          4.96950001e-02, 4.87559997e-02, 3.64030004e-02, 7.99799990e-03 ]
      - [ 6.76689968e-02, 6.58610016e-02, 6.50589988e-02, 6.42929971e-02,
          6.35489970e-02, 6.31479993e-02, 5.87980002e-02, 5.80319986e-02,
          5.73999994e-02, 5.43179996e-02, 4.28639986e-02, 7.43399980e-03 ]
      - [ 6.57489970e-02, 6.16329983e-02, 6.12279996e-02, 5.94599992e-02,
          5.86629994e-02, 5.86410016e-02, 5.56560010e-02, 5.43619990e-02,
          5.34459986e-02, 5.28949983e-02, 3.96829993e-02, 8.15000013e-03 ]
      - [ 6.89160004e-02, 6.46099970e-02, 6.16290011e-02, 5.99609986e-02,
          5.95160015e-02, 5.85100017e-02, 5.76910004e-02, 5.48360012e-02,
          5.22839986e-02, 5.20920008e-02, 4.28170003e-02, 7.32500013e-03 ]
      - [ 5.76030016e-02, 5.65849990e-02, 5.52259982e-02, 5.25370017e-02,
          5.02859987e-02, 4.98480015e-02, 4.85979989e-02, 4.84919995e-02,
          4.82899994e-02, 4.71439995e-02, 3.83460000e-02, 6.53700018e-03 ]
      - [ 6.76409975e-02, 5.85229993e-02, 5.79539984e-02, 5.56350015e-02,
          5.48469983e-02, 5.34350015e-02, 5.26239984e-02, 5.25810011e-02,
          5.21529987e-02, 5.15150018e-02, 4.00119983e-02, 7.42899999e-03 ]
      - [ 6.08640015e-02, 5.96939996e-02, 5.90989999e-02, 5.64149991e-02,
          5.50930016e-02, 5.49339987e-02, 5.40780015e-02, 5.36729991e-02,
          5.33739999e-02, 5.13439998e-02, 4.10499983e-02, 6.75299997e-03 ]
      - [ 7.65250027e-02, 6.69519976e-02, 6.65460005e-02, 6.26339987e-02,
          6.11880012e-02, 5.90719990e-02, 5.75059988e-02, 5.71709983e-02,
          5.66969998e-02, 5.56810014e-02, 4.63929996e-02, 6.64399983e-03 ]
      - [ 5.50369993e-02, 4.93460000e-02, 4.84960005e-02, 4.81129996e-02,
          4.61519994e-02, 4.60060015e-02, 4.59799990e-02, 4.59560007e-02,
          4.52580005e-02, 4.50709984e-02, 3.62030007e-02, 6.19600015e-03 ]
      - [ 8.00359994e-02, 6.88989982e-02, 6.65950030e-02, 6.38440028e-02,
          6.07080013e-02, 5.86730018e-02, 5.14630005e-02, 5.13060018e-02,
          5.12659997e-02, 5.07140011e-02, 3.70130017e-02, 8.82199965e-03 ]
      - [ 6.38149977e-02, 5.90910017e-02, 5.82709983e-02, 5.50849997e-02,
          5.50229996e-02, 5.32599986e-02, 5.20559996e-02, 5.19630015e-02,
          5.02699986e-02, 4.99650016e-02, 4.05789986e-02, 6.90100016e-03 ]
      - [ 7.03240037e-02, 6.77549988e-02, 6.75999969e-02, 6.59369975e-02,
          6.05870001e-02, 5.79769984e-02, 5.65409996e-02, 5.37980013e-02,
          5.31730019e-02, 5.29600009e-02, 4.03910019e-02, 8.01900029e-03 ]
      - [ 5.85910007e-02, 5.83700016e-02, 5.77629991e-02, 5.74209988e-02,
          5.43150008e-02, 5.23910001e-02, 5.11149988e-02, 5.05659990e-02,
          4.78530005e-02, 4.78059985e-02, 3.76360007e-02, 6.71599992e-03 ]
      - [ 5.50119989e-02, 5.16929999e-02, 5.11960015e-02, 5.09550013e-02,
          5.04029989e-02, 5.00390008e-02, 4.97560017e-02, 4.86029983e-02,
          4.81900014e-02, 4.79959995e-02, 3.87779996e-02, 6.18400006e-03 ]
      - [ 7.10330009e-02, 6.25860021e-02, 6.09019995e-02, 5.96520007e-02,
          5.58449998e-02, 5.52130006e-02, 5.24000004e-02, 5.17250001e-02,
          5.14059998e-02, 5.11419997e-02, 3.63809988e-02, 9.19200014e-03 ]
      - [ 7.44730011e-02, 6.23180009e-02, 6.14750013e-02, 5.86999990e-02,
          5.86210005e-02, 5.73030002e-02, 5.52110001e-02, 5.50849997e-02,
          5.45039997e-02, 5.35850003e-02, 4.24689986e-02, 7.98300002e-03 ]
      - [ 6.82749972e-02, 6.32620007e-02, 6.20860010e-02, 6.14410006e-02,
          6.07229993e-02, 5.99489994e-02, 5.87400012e-02, 5.49560003e-02,
          5.41139990e-02, 5.39450012e-02, 3.89089994e-02, 8.77000019e-03 ]
      - [ 7.02140033e-02, 6.95229992e-02, 6.91469982e-02, 6.08230010e-02,
          5.41319996e-02, 5.24809994e-02, 5.24020009e-02, 5.08089997e-02,
          5.04369996e-02, 4.94519994e-02, 3.99320014e-02, 7.94500019e-03 ]
      - [ 6.46909997e-02, 5.63840009e-02, 5.61069995e-02, 5.36449999e-02,
          5.06489985e-02, 4.73320000e-02, 4.67020012e-02, 4.59359996e-02,
          4.58999984e-02, 4.46630009e-02, 3.64530012e-02, 7.73099996e-03 ]
      - [ 6.90229982e-02, 6.73649982e-02, 5.79699986e-02, 5.69059998e-02,
          5.49350008e-02, 5.44789992e-02, 5.38280010e-02, 5.05709983e-02,
          5.02200015e-02, 4.79580015e-02, 3.89109999e-02, 8.12300015e-03 ]
      - [ 6.05779998e-02, 5.83870001e-02, 5.71880005e-02, 5.28800003e-02,
          5.20879999e-02, 5.13349995e-02, 5.05760014e-02, 5.01080006e-02,
          4.95719984e-02, 4.93539982e-02, 4.01609987e-02, 6.22300012e-03 ]
      - [ 5.24949990e-02, 4.94860001e-02, 4.85499986e-02, 4.85230014e-02,
          4.72479984e-02, 4.61779982e-02, 4.46860008e-02, 4.42730002e-02,
          4.38500009e-02, 4.33200002e-02, 3.49459983e-02, 6.78899977e-03 ]
      - [ 1.22968003e-01, 1.20172001e-01, 1.17986999e-01, 1.16608001e-01,
          1.13361001e-01, 1.10044003e-01, 1.09711997e-01, 9.46739987e-02,
          9.39349979e-02, 9.37500000e-02, 5.99189997e-02, 2.30540000e-02 ]
      - [ 1.04914002e-01, 1.01731002e-01, 9.55189988e-02, 9.34080034e-02,
          9.15990025e-02, 8.36400017e-02, 7.73279965e-02, 7.67650008e-02,
          7.46390000e-02, 7.31289983e-02, 5.11940010e-02, 1.77129991e-02 ]
      - [ 9.35959965e-02, 9.19620022e-02, 8.46299976e-02, 8.31039995e-02,
          8.01760033e-02, 7.86890015e-02, 7.40260035e-02, 7.36180022e-02,
          7.15309978e-02, 7.02230036e-02, 4.98719998e-02, 1.32130003e-02 ]
      - [ 7.42210001e-02, 7.36420006e-02, 7.32949972e-02, 7.22279996e-02,
          7.05389977e-02, 6.98119998e-02, 6.86760023e-02, 6.77409992e-02,
          6.65810034e-02, 6.56279996e-02, 4.60879989e-02, 1.24230003e-02 ]
      - [ 5.45499995e-02, 5.13609983e-02, 4.82480004e-02, 4.81420010e-02,
          4.72589992e-02, 4.71649989e-02, 4.70310003e-02, 4.49850000e-02,
          4.42459993e-02, 4.33170013e-02, 3.54220010e-02, 6.93899998e-03 ]
      - [ 5.47819994e-02, 4.91769984e-02, 4.45349999e-02, 4.37729992e-02,
          4.34359983e-02, 4.34210002e-02, 4.25870009e-02, 4.19019982e-02,
          4.05739993e-02, 3.97869982e-02, 3.39730009e-02, 7.80799985e-03 ]
      - [ 6.31560013e-02, 5.88780008e-02, 5.82850017e-02, 5.69709986e-02,
          5.51370010e-02, 5.47470003e-02, 5.32060005e-02, 5.11559993e-02,
          5.03229983e-02, 4.92819995e-02, 3.87209989e-02, 8.42900015e-03 ]
      - [ 7.35159963e-02, 6.95030019e-02, 6.84790015e-02, 5.70250005e-02,
          5.52809983e-02, 5.36159985e-02, 5.33789992e-02, 5.19540012e-02,
          4.94230017e-02, 4.91599999e-02, 3.82889993e-02, 9.90600046e-03 ]
      - [ 7.75709972e-02, 7.65419975e-02, 7.29869977e-02, 7.04469979e-02,
          6.87659979e-02, 6.84690028e-02, 6.57079965e-02, 6.35539964e-02,
          5.69030009e-02, 5.59150018e-02, 4.33450006e-02, 1.12260003e-02 ]
      - [ 8.39750022e-02, 8.19920003e-02, 7.66910017e-02, 7.27880001e-02,
          6.96490034e-02, 6.68720007e-02, 6.45539984e-02, 6.17079996e-02,
          6.11589998e-02, 5.63439988e-02, 4.23960015e-02, 1.16809998e-02 ]
      - [ 9.01060030e-02, 8.82389992e-02, 7.84450024e-02, 7.73660019e-02,
          7.73139969e-02, 7.72819966e-02, 7.64639974e-02, 7.55319968e-02,
          7.50880018e-02, 7.35870004e-02, 5.06459996e-02, 1.50549999e-02 ]
      - [ 1.02753997e-01, 1.00624003e-01, 9.93729979e-02, 9.54710022e-02,
          9.46390033e-02, 9.14169997e-02, 9.10080001e-02, 8.82150009e-02,
          8.57380033e-02, 8.56970027e-02, 5.17910011e-02, 1.81460008e-02 ]
      - [ 7.67420009e-02, 7.18550012e-02, 6.87030032e-02, 6.66909963e-02,
          6.39510006e-02, 6.12989999e-02, 6.00420013e-02, 5.89290000e-02,
          5.61489984e-02, 5.54200001e-02, 4.22270000e-02, 1.08629996e-02 ]
      - [ 4.50470001e-02, 4.43769991e-02, 4.28860001e-02, 4.17630002e-02,
          4.08950001e-02, 3.87430005e-02, 3.85189988e-02, 3.84600013e-02,
          3.84019986e-02, 3.73310000e-02, 3.17390002e-02, 5.89499995e-03 ]
      - [ 7.41999969e-02, 6.84989989e-02, 6.75809979e-02, 6.66449964e-02,
          6.53460026e-02, 6.51070029e-02, 6.31449968e-02, 6.16980009e-02,
          6.15749992e-02, 5.85869998e-02, 4.32070009e-02, 1.17039997e-02 ]
      - [ 4.55349982e-02, 3.91330011e-02, 3.75769995e-02, 3.67179997e-02,
          3.66269983e-02, 3.64780016e-02, 3.55169997e-02, 3.43040004e-02,
          3.42000015e-02, 3.38900015e-02, 2.92329993e-02, 5.59099996e-03 ]
      - [ 5.86320013e-02, 5.39110005e-02, 5.20830005e-02, 5.16269989e-02,
          5.15599996e-02, 4.96609993e-02, 4.77669984e-02, 4.72609997e-02,
          4.59409989e-02, 4.50920016e-02, 3.69589999e-02, 7.39900023e-03 ]
      - [ 6.51800036e-02, 5.97659983e-02, 5.85400015e-02, 5.68809994e-02,
          5.46780005e-02, 5.17540015e-02, 5.17180003e-02, 4.92219999e-02,
          4.88529988e-02, 4.87640016e-02, 3.84050012e-02, 9.15700011e-03 ]
      - [ 5.02480008e-02, 4.56410013e-02, 4.44080010e-02, 4.41950001e-02,
          4.38780002e-02, 4.33159992e-02, 4.25200015e-02, 4.12879996e-02,
          4.10030000e-02, 4.05769981e-02, 3.36549990e-02, 5.72399981e-03 ]
      - [ 5.33059984e-02, 4.63249981e-02, 4.15429994e-02, 4.13959995e-02,
          4.11720015e-02, 4.03990000e-02, 3.91829982e-02, 3.75230014e-02,
          3.72529998e-02, 3.72380018e-02, 3.27339992e-02, 6.48200000e-03 ]
      - [ 6.14309981e-02, 6.09810017e-02, 5.61299995e-02, 5.17470017e-02,
          5.11289984e-02, 5.08700013e-02, 4.96959984e-02, 4.95480001e-02,
          4.89430018e-02, 4.77030016e-02, 3.63450013e-02, 8.18900019e-03 ]
      - [ 1.17435999e-01, 1.17179997e-01, 1.15682997e-01, 1.14964001e-01,
          1.14963003e-01, 1.10946998e-01, 1.07773997e-01, 1.02612004e-01,
          1.00599997e-01, 9.96870026e-02, 5.82129993e-02, 2.66260002e-02 ]
      - [ 6.75640032e-02, 6.43529966e-02, 5.65569997e-02, 5.46119995e-02,
          5.27979992e-02, 5.20710014e-02, 5.16609997e-02, 5.06930016e-02,
          5.05760014e-02, 4.74940017e-02, 3.82089987e-02, 8.87299981e-03 ]
      - [ 8.96819979e-02, 8.95759985e-02, 8.82890001e-02, 8.66189972e-02,
          8.65769982e-02, 8.43740031e-02, 8.40959996e-02, 8.09049979e-02,
          7.82660022e-02, 7.27749988e-02, 4.89309989e-02, 1.62349995e-02 ]
      - [ 7.31299967e-02, 6.30119964e-02, 5.66370003e-02, 5.55679984e-02,
          5.45560010e-02, 5.43829985e-02, 5.42580001e-02, 5.30520007e-02,
          5.18289991e-02, 5.15049994e-02, 3.83669995e-02, 8.86199996e-03 ]
      - [ 5.81780002e-02, 5.61290011e-02, 5.57160005e-02, 5.27589992e-02,
          5.26550002e-02, 5.13859987e-02, 5.06240018e-02, 4.90599982e-02,
          4.66159992e-02, 4.61260006e-02, 3.80290002e-02, 8.17599986e-03 ]
      - [ 5.43119982e-02, 4.34480011e-02, 4.26059999e-02, 4.08629999e-02,
          3.97379994e-02, 3.97019982e-02, 3.70929986e-02, 3.69120017e-02,
          3.52360010e-02, 3.33169997e-02, 3.24410014e-02, 6.85000001e-03 ]
      - [ 4.28970009e-02, 4.06219997e-02, 3.98849994e-02, 3.96200009e-02,
          3.84219997e-02, 3.79539989e-02, 3.70929986e-02, 3.63809988e-02,
          3.63380015e-02, 3.58109996e-02, 3.21279988e-02, 4.47600009e-03 ]
      - [ 5.96630014e-02, 5.84990010e-02, 5.24460003e-02, 5.11359982e-02,
          4.90240008e-02, 4.90080006e-02, 4.87670004e-02, 4.68380004e-02,
          4.62860018e-02, 4.57120016e-02, 3.64030004e-02, 8.11900012e-03 ]
      - [ 4.40680012e-02, 4.34640013e-02, 4.31360006e-02, 4.14419994e-02,
          3.87529992e-02, 3.87010016e-02, 3.86620015e-02, 3.86409983e-02,
          3.81929986e-02, 3.74410003e-02, 3.33489999e-02, 5.25700022e-03 ]
      - [ 4.77400012e-02, 4.69719991e-02, 4.66209985e-02, 4.56670001e-02,
          4.36839983e-02, 4.26210016e-02, 4.16520014e-02, 4.12309989e-02,
          4.10749987e-02, 4.03099991e-02, 3.48949991e-02, 5.74700022e-03 ]
      - [ 5.71900010e-02, 5.69089986e-02, 4.59370017e-02, 4.51250002e-02,
          4.27989997e-02, 4.27500010e-02, 4.14239988e-02, 4.05599996e-02,
          4.01199982e-02, 3.78380008e-02, 3.29589993e-02, 7.32799992e-03 ]
      - [ 5.66180013e-02, 5.57480007e-02, 5.43119982e-02, 4.57240008e-02,
          4.44660001e-02, 4.16220017e-02, 4.15560007e-02, 4.08909991e-02,
          4.05259989e-02, 4.05189991e-02, 3.53780016e-02, 8.01400002e-03 ]
      - [ 6.12160005e-02, 5.39829992e-02, 4.32449989e-02, 4.17510010e-02,
          4.01710011e-02, 3.97670008e-02, 3.86699997e-02, 3.85439992e-02,
          3.82499993e-02, 3.77070010e-02, 3.33999991e-02, 6.44800020e-03 ]
      - [ 1.05053000e-01, 9.82460007e-02, 9.64249969e-02, 9.05169994e-02,
          8.81910026e-02, 8.68569985e-02, 8.37770030e-02, 8.28040019e-02,
          7.84099996e-02, 7.82039985e-02, 5.15480004e-02, 1.71969999e-02 ]
      - [ 5.83110005e-02, 5.69869988e-02, 5.40309995e-02, 5.01179993e-02,
          4.78430018e-02, 4.48900014e-02, 4.02589999e-02, 3.89049985e-02,
          3.81430015e-02, 3.77670005e-02, 3.47039998e-02, 8.75900034e-03 ]
      - [ 5.29880002e-02, 4.94230017e-02, 4.88529988e-02, 4.61589992e-02,
          4.23189998e-02, 4.21800017e-02, 3.96660008e-02, 3.86740007e-02,
          3.78599986e-02, 3.69470008e-02, 3.22399996e-02, 7.00500002e-03 ]
      - [ 8.70919973e-02, 8.29949975e-02, 7.28150010e-02, 6.66749999e-02,
          6.11150004e-02, 6.07229993e-02, 5.79149984e-02, 5.54350019e-02,
          5.54310009e-02, 5.26660010e-02, 4.09400016e-02, 1.33680003e-02 ]
      - [ 6.06379993e-02, 5.87669984e-02, 5.75300008e-02, 5.69170006e-02,
          5.32569997e-02, 5.05080000e-02, 5.00859991e-02, 4.81359996e-02,
          4.75470014e-02, 4.72639985e-02, 3.85529995e-02, 1.00269997e-02 ]
      - [ 5.72090000e-02, 5.52680008e-02, 4.79860008e-02, 4.61539999e-02,
          4.53509986e-02, 4.39409986e-02, 4.36020009e-02, 3.89330015e-02,
          3.77160013e-02, 3.69650014e-02, 3.49810012e-02, 8.39800015e-03 ]
      - [ 4.93160002e-02, 4.69990000e-02, 4.54109982e-02, 4.51689996e-02,
          4.39019985e-02, 4.27859984e-02, 4.25660014e-02, 4.25070003e-02,
          4.23789993e-02, 4.18439992e-02, 3.41340005e-02, 5.89299994e-03 ]
      - [ 7.89939985e-02, 7.79070035e-02, 7.69369975e-02, 7.43419975e-02,
          6.92119971e-02, 6.84280023e-02, 6.83640018e-02, 6.37200028e-02,
          6.02519996e-02, 5.98529987e-02, 4.27209996e-02, 1.22159999e-02 ]
      - [ 5.20580001e-02, 5.15919998e-02, 5.12299985e-02, 4.66089994e-02,
          4.65129986e-02, 4.60850000e-02, 4.56570014e-02, 4.50860001e-02,
          4.39560004e-02, 4.33810018e-02, 3.60220000e-02, 6.31200010e-03 ]
      - [ 5.71569987e-02, 5.50640002e-02, 4.89559993e-02, 4.85670008e-02,
          4.58180010e-02, 4.53649983e-02, 4.37440015e-02, 4.22680005e-02,
          4.18240018e-02, 4.14239988e-02, 3.39680016e-02, 7.82399997e-03 ]
      - [ 9.60820019e-02, 9.10580009e-02, 8.92769992e-02, 8.50469992e-02,
          8.20740014e-02, 8.16389993e-02, 7.46639967e-02, 7.38599971e-02,
          6.78339973e-02, 6.55980036e-02, 4.80230004e-02, 1.49339996e-02 ]
      - [ 5.76770008e-02, 5.21310009e-02, 5.11969998e-02, 5.07539995e-02,
          4.89469990e-02, 4.62150015e-02, 4.43230011e-02, 4.32289988e-02,
          4.28720005e-02, 4.04380001e-02, 3.40470001e-02, 7.99299963e-03 ]
      - [ 5.98989986e-02, 5.96459992e-02, 5.30630015e-02, 5.05639985e-02,
          4.87839989e-02, 4.51779999e-02, 4.44599986e-02, 4.27750014e-02,
          4.13429998e-02, 3.69439982e-02, 3.61870006e-02, 1.12530002e-02 ]
      - [ 5.93929999e-02, 5.46570010e-02, 5.40950000e-02, 5.39470017e-02,
          5.38569987e-02, 5.13029993e-02, 4.67660017e-02, 4.64560017e-02,
          4.43789996e-02, 4.42590006e-02, 3.61789986e-02, 7.87900016e-03 ]
      - [ 1.00864999e-01, 1.00377999e-01, 9.40309986e-02, 8.87370035e-02,
          8.54479969e-02, 8.50810036e-02, 8.21039975e-02, 7.52409995e-02,
          7.47670010e-02, 7.33150020e-02, 5.57009988e-02, 2.04809997e-02 ]
      - [ 5.31449988e-02, 5.06139994e-02, 4.96140011e-02, 4.26100008e-02,
          4.20150012e-02, 4.05660011e-02, 3.98389995e-02, 3.95030007e-02,
          3.93260010e-02, 3.89709994e-02, 3.26399989e-02, 6.55099982e-03 ]
      - [ 5.77909984e-02, 5.67420013e-02, 5.07469997e-02, 4.93110009e-02,
          4.66520004e-02, 4.55459990e-02, 4.46429998e-02, 4.24490012e-02,
          4.23399992e-02, 4.18870002e-02, 3.44230011e-02, 7.08599994e-03 ]
      - [ 1.11901000e-01, 9.70119983e-02, 9.63990018e-02, 9.10610035e-02,
          9.05639976e-02, 9.05350000e-02, 8.94649997e-02, 8.63690004e-02,
          8.56219977e-02, 8.24740008e-02, 5.53099997e-02, 1.95710007e-02 ]
      - [ 5.53110018e-02, 4.67749983e-02, 4.66680005e-02, 4.56769988e-02,
          4.53410000e-02, 4.48280014e-02, 4.45649996e-02, 4.40949984e-02,
          4.37849984e-02, 4.25960012e-02, 3.53399999e-02, 6.33100001e-03 ]
      - [ 4.64419983e-02, 4.54280004e-02, 4.39499989e-02, 4.05049995e-02,
          4.01140004e-02, 3.97230014e-02, 3.94119993e-02, 3.93359996e-02,
          3.88280004e-02, 3.86190005e-02, 3.18930000e-02, 6.37600012e-03 ]
      - [ 5.23520000e-02, 5.18169999e-02, 4.59679998e-02, 4.57689986e-02,
          4.41580005e-02, 4.41359989e-02, 4.30929996e-02, 4.25929986e-02,
          4.07779999e-02, 4.05000001e-02, 3.42109986e-02, 6.67600008e-03 ]
      - [ 4.96379994e-02, 4.61709984e-02, 4.61249985e-02, 4.59679998e-02,
          4.47870009e-02, 4.46190014e-02, 4.43429984e-02, 4.38049994e-02,
          4.36789989e-02, 4.18270007e-02, 3.49689983e-02, 6.12299982e-03 ]
      - [ 5.47860004e-02, 4.93660010e-02, 4.51860018e-02, 4.31730002e-02,
          4.29520011e-02, 3.93630005e-02, 3.88410017e-02, 3.81679982e-02,
          3.61660011e-02, 3.50879990e-02, 3.26539986e-02, 7.95399956e-03 ]
      - [ 5.79180010e-02, 5.52720018e-02, 5.36380000e-02, 5.06599993e-02,
          4.95789982e-02, 4.81970012e-02, 4.80559990e-02, 4.58699986e-02,
          4.57829982e-02, 4.45589982e-02, 3.60860005e-02, 7.12599978e-03 ]
      - [ 4.88420017e-02, 4.73669991e-02, 4.40150015e-02, 4.38660011e-02,
          4.20840010e-02, 4.04440016e-02, 4.00139987e-02, 3.96619998e-02,
          3.75769995e-02, 3.58970016e-02, 3.22959982e-02, 5.51099982e-03 ]
      - [ 5.50450012e-02, 4.50429991e-02, 4.39319983e-02, 4.32039984e-02,
          4.27489989e-02, 4.24299985e-02, 4.20489982e-02, 4.17389981e-02,
          4.16910015e-02, 4.13549989e-02, 3.51109989e-02, 5.52499993e-03 ]
      - [ 8.74689966e-02, 8.70560035e-02, 7.96110034e-02, 7.88479969e-02,
          7.73380026e-02, 7.63949975e-02, 7.18860030e-02, 6.86519966e-02,
          6.79090023e-02, 6.68189973e-02, 4.59589995e-02, 1.53770000e-02 ]
      - [ 6.48289993e-02, 6.17330000e-02, 6.15530014e-02, 5.63380010e-02,
          5.33009991e-02, 4.99450006e-02, 4.98999991e-02, 4.95750010e-02,
          4.85959984e-02, 4.83700000e-02, 3.99519987e-02, 7.18900003e-03 ]
      - [ 5.83389997e-02, 5.46969995e-02, 5.38429990e-02, 5.01880012e-02,
          4.89200018e-02, 4.86139990e-02, 4.54570018e-02, 4.47920002e-02,
          4.14949991e-02, 4.08690013e-02, 3.61690000e-02, 9.96899977e-03 ]
      - [ 4.02199998e-02, 3.82380001e-02, 3.79800014e-02, 3.71450000e-02,
          3.63759995e-02, 3.62779982e-02, 3.62589993e-02, 3.58840004e-02,
          3.49299982e-02, 3.47930007e-02, 3.11999992e-02, 3.96700017e-03 ]
      - [ 5.41849993e-02, 5.35500012e-02, 5.17549999e-02, 5.16990013e-02,
          4.86150011e-02, 4.74550016e-02, 4.72749993e-02, 4.53570001e-02,
          4.52760011e-02, 4.48990017e-02, 3.66810001e-02, 7.33700022e-03 ]
      - [ 1.11321002e-01, 1.07460000e-01, 1.02828003e-01, 8.85469988e-02,
          8.85189995e-02, 8.56629983e-02, 8.28619972e-02, 8.08710009e-02,
          7.97080025e-02, 7.83919990e-02, 5.62129989e-02, 1.77159999e-02 ]
      - [ 5.91659993e-02, 5.37940003e-02, 5.23490012e-02, 5.13539985e-02,
          5.09990007e-02, 5.06259985e-02, 5.01659997e-02, 4.53520007e-02,
          4.39080000e-02, 4.33639996e-02, 3.56229991e-02, 8.07799958e-03 ]
      - [ 3.82540002e-02, 3.77090015e-02, 3.51600014e-02, 3.51470001e-02,
          3.37430015e-02, 3.16860005e-02, 2.94560008e-02, 2.88720001e-02,
          2.88009997e-02, 2.86630001e-02, 2.81530004e-02, 4.08100011e-03 ]
      - [ 5.35219982e-02, 5.11739999e-02, 4.85679992e-02, 4.83779982e-02,
          4.37519997e-02, 3.99830006e-02, 3.88880000e-02, 3.83850001e-02,
          3.80720012e-02, 3.68009992e-02, 3.27610001e-02, 7.13300006e-03 ]
      - [ 8.70599970e-02, 8.31890032e-02, 8.29010010e-02, 8.00990015e-02,
          7.75519982e-02, 7.69229978e-02, 7.61020035e-02, 7.59639964e-02,
          7.07750022e-02, 7.03559965e-02, 5.21610007e-02, 1.26189999e-02 ]
      - [ 4.97040004e-02, 4.58379984e-02, 4.33860011e-02, 4.20820005e-02,
          4.06950004e-02, 4.02819999e-02, 3.83450016e-02, 3.77489999e-02,
          3.67630012e-02, 3.62659991e-02, 3.28680016e-02, 5.70600014e-03 ]
      - [ 4.26429994e-02, 4.16060016e-02, 3.93889993e-02, 3.83130014e-02,
          3.66429985e-02, 3.53490002e-02, 3.30940001e-02, 3.23619992e-02,
          3.09800003e-02, 3.06470003e-02, 2.98829991e-02, 5.72300004e-03 ]
      - [ 7.12049976e-02, 6.35690019e-02, 5.83529994e-02, 5.76520003e-02,
          5.65790012e-02, 5.58530018e-02, 5.55859990e-02, 5.48099987e-02,
          5.37910014e-02, 5.35130017e-02, 3.74090001e-02, 1.18310004e-02 ]
      - [ 4.96000014e-02, 4.94929999e-02, 4.66499999e-02, 4.56839986e-02,
          4.56239991e-02, 4.55249995e-02, 4.27570008e-02, 4.24310006e-02,
          4.23090011e-02, 4.17409986e-02, 3.41730006e-02, 5.70299989e-03 ]
      - [ 1.08373001e-01, 1.04328997e-01, 1.00817002e-01, 1.00097001e-01,
          9.95109975e-02, 9.94210020e-02, 9.17840004e-02, 8.39949995e-02,
          8.07550028e-02, 7.91509971e-02, 5.35480008e-02, 1.76260006e-02 ]
      - [ 5.74579984e-02, 5.47440015e-02, 5.38740009e-02, 5.36920018e-02,
          5.32240011e-02, 5.19910008e-02, 4.98889983e-02, 4.94979993e-02,
          4.78960015e-02, 4.75509986e-02, 3.68180014e-02, 7.33599998e-03 ]
      - [ 5.17640002e-02, 5.06090000e-02, 4.36279997e-02, 4.19569984e-02,
          3.89509983e-02, 3.65669988e-02, 3.46620008e-02, 3.43159996e-02,
          3.39399986e-02, 3.36950012e-02, 3.07899993e-02, 6.31400011e-03 ]
      - [ 1.25380993e-01, 1.23934999e-01, 1.22721002e-01, 1.19823001e-01,
          1.19119003e-01, 1.09595999e-01, 1.08530998e-01, 1.03944004e-01,
          9.82090011e-02, 9.79340002e-02, 6.57730028e-02, 2.39790007e-02 ]
      - [ 6.59079999e-02, 5.73720001e-02, 5.63919991e-02, 5.41529991e-02,
          5.41209988e-02, 5.28570004e-02, 5.14350012e-02, 5.12799993e-02,
          4.83979993e-02, 4.82230000e-02, 3.78660001e-02, 8.38499982e-03 ]
      - [ 1.28080994e-01, 1.25723004e-01, 1.20471999e-01, 1.16190001e-01,
          1.13045998e-01, 1.07368000e-01, 1.06787004e-01, 1.04878999e-01,
          1.04198001e-01, 1.02274999e-01, 7.12099969e-02, 2.02799998e-02 ]
      - [ 7.18329996e-02, 6.11540005e-02, 5.90929985e-02, 5.70520014e-02,
          5.52110001e-02, 5.23260012e-02, 4.78259996e-02, 4.77430001e-02,
          4.62989993e-02, 4.60539982e-02, 3.77889983e-02, 8.38499982e-03 ]
      - [ 9.37749967e-02, 9.31989998e-02, 7.99959973e-02, 7.84550011e-02,
          7.82419965e-02, 7.53630027e-02, 7.38300011e-02, 7.04599991e-02,
          6.82530031e-02, 6.74249977e-02, 4.59210016e-02, 1.42409997e-02 ]
      - [ 5.90200014e-02, 5.81380017e-02, 5.64929992e-02, 5.19110002e-02,
          5.14350012e-02, 4.87729982e-02, 4.69370000e-02, 4.66549993e-02,
          4.47160006e-02, 4.41760011e-02, 3.49440016e-02, 8.88200011e-03 ]
      - [ 7.59899989e-02, 7.00500011e-02, 6.51310012e-02, 6.37179986e-02,
          5.70459999e-02, 5.46710007e-02, 5.20580001e-02, 5.18650003e-02,
          5.11670001e-02, 4.77750003e-02, 4.09660004e-02, 1.03559997e-02 ]
      - [ 5.58740012e-02, 5.24990000e-02, 5.17980009e-02, 4.78489995e-02,
          4.43420000e-02, 4.40549999e-02, 4.18719985e-02, 4.13740017e-02,
          4.04650010e-02, 4.02209982e-02, 3.28239985e-02, 7.27300020e-03 ]
      - [ 9.39219967e-02, 7.60869980e-02, 7.53830001e-02, 7.52729997e-02,
          7.05659986e-02, 5.71449995e-02, 5.69039993e-02, 5.46160005e-02,
          5.42259999e-02, 5.26150018e-02, 4.36110012e-02, 1.35319997e-02 ]
      - [ 5.51129989e-02, 5.39200008e-02, 5.01260012e-02, 4.71299998e-02,
          4.60509993e-02, 4.55190018e-02, 4.42939997e-02, 4.18899991e-02,
          4.17249985e-02, 4.15970013e-02, 3.56599987e-02, 6.72899978e-03 ]
      - [ 9.65199992e-02, 9.44800004e-02, 8.04340020e-02, 8.01559985e-02,
          7.95959979e-02, 7.63090029e-02, 7.23799989e-02, 6.27240017e-02,
          6.26880005e-02, 5.88440001e-02, 4.50199991e-02, 1.56529993e-02 ]
      - [ 6.46390021e-02, 6.36200011e-02, 5.99780008e-02, 5.70620000e-02,
          5.60510010e-02, 5.31960018e-02, 4.95989993e-02, 4.93349992e-02,
          4.61979993e-02, 4.52699997e-02, 3.81360017e-02, 1.06969997e-02 ]
      - [ 6.76890016e-02, 6.69270009e-02, 6.15959987e-02, 5.89510016e-02,
          5.86320013e-02, 5.81360012e-02, 5.75970002e-02, 5.70929982e-02,
          5.69880009e-02, 5.42300008e-02, 4.27040011e-02, 8.16399977e-03 ]
      - [ 1.06242999e-01, 1.03316002e-01, 9.87349972e-02, 9.63990018e-02,
          9.60059986e-02, 9.29870009e-02, 8.77880007e-02, 8.55970010e-02,
          8.42859969e-02, 8.29600021e-02, 5.31800017e-02, 1.73610002e-02 ]
      - [ 5.11830002e-02, 4.85560000e-02, 4.80509996e-02, 4.54420000e-02,
          4.50709984e-02, 4.17679995e-02, 4.17429991e-02, 4.03559990e-02,
          3.98680009e-02, 3.87189984e-02, 3.31729986e-02, 6.88999984e-03 ]
      - [ 5.88909984e-02, 5.72270006e-02, 5.26029989e-02, 5.20580001e-02,
          5.10709994e-02, 4.69059981e-02, 4.69020009e-02, 4.63469997e-02,
          4.48869988e-02, 4.47570011e-02, 3.66140008e-02, 7.78899994e-03 ]
      - [ 9.95289981e-02, 9.74270031e-02, 9.71139967e-02, 9.44020003e-02,
          9.14800018e-02, 8.65020007e-02, 8.43769982e-02, 8.36170018e-02,
          8.32640007e-02, 8.27049986e-02, 5.97499982e-02, 1.70310009e-02 ]
      - [ 6.82569966e-02, 6.80499971e-02, 6.78299963e-02, 6.16590008e-02,
          5.99180013e-02, 5.92500009e-02, 5.87520003e-02, 5.53289987e-02,
          5.37480004e-02, 5.35009988e-02, 4.07110006e-02, 9.60300025e-03 ]
      - [ 7.33020008e-02, 6.48609996e-02, 5.91830015e-02, 5.35119995e-02,
          5.31949997e-02, 5.28949983e-02, 5.12039997e-02, 5.02800010e-02,
          4.98710014e-02, 4.84180003e-02, 3.74619998e-02, 1.04040001e-02 ]
      - [ 4.14250009e-02, 4.07060012e-02, 4.02330011e-02, 3.99749987e-02,
          3.84530015e-02, 3.82560007e-02, 3.80229987e-02, 3.71470004e-02,
          3.68169993e-02, 3.62630002e-02, 3.06659993e-02, 5.29700005e-03 ]
      - [ 5.67109995e-02, 5.47549985e-02, 5.33449985e-02, 5.29429987e-02,
          5.22110015e-02, 5.09359986e-02, 4.98390011e-02, 4.74950001e-02,
          4.48990017e-02, 4.44869995e-02, 3.68129984e-02, 7.20799994e-03 ]
      - [ 8.77349973e-02, 8.20130035e-02, 8.04980025e-02, 7.72010013e-02,
          7.13590011e-02, 6.86839968e-02, 6.41750023e-02, 6.30260035e-02,
          6.28399998e-02, 6.23960011e-02, 4.63129990e-02, 1.11959996e-02 ]
      - [ 6.98599964e-02, 5.65339997e-02, 5.58869988e-02, 5.44719994e-02,
          5.01869991e-02, 5.01720011e-02, 4.96539995e-02, 4.94390018e-02,
          4.89250012e-02, 4.77319993e-02, 3.59800011e-02, 8.72999988e-03 ]
      - [ 6.20899983e-02, 5.00250012e-02, 4.88899983e-02, 4.88779992e-02,
          4.62399982e-02, 4.56969999e-02, 4.40480001e-02, 4.39280011e-02,
          4.18640003e-02, 4.06470001e-02, 3.37769985e-02, 7.80599983e-03 ]
      - [ 1.06891997e-01, 1.01947002e-01, 9.93430018e-02, 9.48510021e-02,
          8.54239985e-02, 8.51389989e-02, 8.41830000e-02, 7.95599967e-02,
          7.44339973e-02, 7.39929974e-02, 5.08060008e-02, 1.76999997e-02 ]
      - [ 7.46219978e-02, 6.05010018e-02, 5.72890006e-02, 5.62169999e-02,
          5.48730008e-02, 5.48270009e-02, 5.35730012e-02, 5.28689995e-02,
          5.06369993e-02, 4.99360003e-02, 3.81550007e-02, 9.92999971e-03 ]
      - [ 6.95239976e-02, 6.90549985e-02, 6.48069978e-02, 6.12329990e-02,
          6.11580014e-02, 5.82709983e-02, 5.74299991e-02, 5.59390001e-02,
          5.28049991e-02, 4.81709987e-02, 3.78450006e-02, 1.01770004e-02 ]
      - [ 5.25300018e-02, 5.17559983e-02, 4.98719998e-02, 4.65690009e-02,
          4.52889986e-02, 4.39740010e-02, 4.38239984e-02, 4.34219986e-02,
          4.31010015e-02, 4.13280018e-02, 3.52719985e-02, 6.05899980e-03 ]
      - [ 9.14700031e-02, 7.53289983e-02, 7.03089982e-02, 6.40750006e-02,
          6.38950020e-02, 6.34550005e-02, 6.18809983e-02, 6.07739985e-02,
          6.02339990e-02, 5.89720011e-02, 4.44319993e-02, 1.18749999e-02 ]
   decision_functions:
      -
         sv_count: 213
         rho: 5.2764166150677084e+01
         alpha: [ 3.1250000000000000e+02, 3.1250000000000000e+02,
             3.1250000000000000e+02, 3.1250000000000000e+02,
             3.1250000000000000e+02, 3.1250000000000000e+02,
             3.1250000000000000e+02, 3.1250000000000000e+02,
             3.1250000000000000e+02, 3.1250000000000000e+02,
             3.1250000000000000e+02, 3.1250000000000000e+02,
             3.1250000000000000e+02, 3.1250000000000000e+02,
             3.1250000000000000e+02, 3.1250000000000000e+02,
             5.9232476835983270e+01, 3.1250000000000000e+02,
             3.1250000000000000e+02, 3.1250000000000000e+02,
             3.1250000000000000e+02, 3.1250000000000000e+02,
             3.1250000000000000e+02, 3.1250000000000000e+02,
             3.1250000000000000e+02, 3.1250000000000000e+02,
             3.1250000000000000e+02, 3.1250000000000000e+02,
             3.1250000000000000e+02, 3.1250000000000000e+02,
             3.1250000000000000e+02, 3.1250000000000000e+02,
             3.1250000000000000e+02, 3.1250000000000000e+02,
             3.1250000000000000e+02, 3.1250000000000000e+02,
             3.1250000000000000e+02, 3.1250000000000000e+02,
             3.1250000000000000e+02, 3.1250000000000000e+02,
             3.1250000000000000e+02, 3.1250000000000000e+02,
             3.1250000000000000e+02, 3.1250000000000000e+02,
             3.1250000000000000e+02, 3.1250000000000000e+02,
             3.1250000000000000e+02, 3.1250000000000000e+02,
             3.1250000000000000e+02, 3.1250000000000000e+02,
             3.1250000000000000e+02, 3.1250000000000000e+02,
             3.1250000000000000e+02, 3.1250000000000000e+02,
             3.1250000000000000e+02, 3.1250000000000000e+02,
             3.1250000000000000e+02, 3.1250000000000000e+02,
             3.1250000000000000e+02, 3.1250000000000000e+02,
             3.1250000000000000e+02, 3.1250000000000000e+02,
             3.1250000000000000e+02, 3.1250000000000000e+02,
             3.1250000000000000e+02, 3.1250000000000000e+02,
             3.1250000000000000e+02, 3.1250000000000000e+02,
             3.1250000000000000e+02, 3.1250000000000000e+02,
             3.1250000000000000e+02, 3.1250000000000000e+02,
             3.1250000000000000e+02, 3.1250000000000000e+02,
             3.1250000000000000e+02, 3.1250000000000000e+02,
             3.1250000000000000e+02, 3.1250000000000000e+02,
             3.1250000000000000e+02, 3.1250000000000000e+02,
             3.1250000000000000e+02, 3.1250000000000000e+02,
             3.1250000000000000e+02, 3.1250000000000000e+02,
             3.1250000000000000e+02, 3.1250000000000000e+02,
             3.1250000000000000e+02, 3.1250000000000000e+02,
             3.1250000000000000e+02, 3.1250000000000000e+02,
             3.1250000000000000e+02, 3.1250000000000000e+02,
             3.1250000000000000e+02, 3.1250000000000000e+02,
             3.1250000000000000e+02, 3.1250000000000000e+02,
             3.1250000000000000e+02, 3.1250000000000000e+02,
             3.1250000000000000e+02, 3.1250000000000000e+02,
             3.1250000000000000e+02, 3.1250000000000000e+02,
             3.1250000000000000e+02, 3.1250000000000000e+02,
             3.1250000000000000e+02, 3.1250000000000000e+02,
             -3.1250000000000000e+02, -2.0656898538769500e+01,
             -3.1250000000000000e+02, -3.1250000000000000e+02,
             -3.1250000000000000e+02, -3.1250000000000000e+02,
             -3.1250000000000000e+02, -3.1250000000000000e+02,
             -3.1250000000000000e+02, -3.1250000000000000e+02,
             -3.1250000000000000e+02, -3.1250000000000000e+02,
             -3.1250000000000000e+02, -3.1250000000000000e+02,
             -3.1250000000000000e+02, -3.1250000000000000e+02,
             -3.1250000000000000e+02, -3.1250000000000000e+02,
             -3.1250000000000000e+02, -3.1250000000000000e+02,
             -3.1250000000000000e+02, -3.1250000000000000e+02,
             -3.1250000000000000e+02, -3.1250000000000000e+02,
             -3.1250000000000000e+02, -3.1250000000000000e+02,
             -3.1250000000000000e+02, -3.1250000000000000e+02,
             -3.1250000000000000e+02, -3.1250000000000000e+02,
             -3.1250000000000000e+02, -3.1250000000000000e+02,
             -3.1250000000000000e+02, -3.1250000000000000e+02,
             -3.1250000000000000e+02, -3.1250000000000000e+02,
             -3.1250000000000000e+02, -3.1250000000000000e+02,
             -3.1250000000000000e+02, -3.1250000000000000e+02,
             -3.1250000000000000e+02, -3.1250000000000000e+02,
             -3.1250000000000000e+02, -3.1250000000000000e+02,
             -3.1250000000000000e+02, -3.1250000000000000e+02,
             -3.1250000000000000e+02, -3.1250000000000000e+02,
             -3.1250000000000000e+02, -3.1250000000000000e+02,
             -3.1250000000000000e+02, -3.1250000000000000e+02,
             -3.1250000000000000e+02, -3.1250000000000000e+02,
             -3.1250000000000000e+02, -3.1250000000000000e+02,
             -3.1250000000000000e+02, -3.1250000000000000e+02,
             -3.1250000000000000e+02, -3.1250000000000000e+02,
             -3.1250000000000000e+02, -3.1250000000000000e+02,
             -3.1250000000000000e+02, -3.1250000000000000e+02,
             -3.1250000000000000e+02, -3.1250000000000000e+02,
             -3.1250000000000000e+02, -3.1250000000000000e+02,
             -3.1250000000000000e+02, -3.1250000000000000e+02,
             -3.1250000000000000e+02, -3.1250000000000000e+02,
             -3.1250000000000000e+02, -3.1250000000000000e+02,
             -3.1250000000000000e+02, -3.1250000000000000e+02,
             -3.1250000000000000e+02, -3.1250000000000000e+02,
             -3.1250000000000000e+02, -3.1250000000000000e+02,
             -3.1250000000000000e+02, -3.1250000000000000e+02,
             -3.1250000000000000e+02, -3.1250000000000000e+02,
             -3.1250000000000000e+02, -3.1250000000000000e+02,
             -3.8575578297213148e+01, -3.1250000000000000e+02,
             -3.1250000000000000e+02, -3.1250000000000000e+02,
             -3.1250000000000000e+02, -3.1250000000000000e+02,
             -3.1250000000000000e+02, -3.1250000000000000e+02,
             -3.1250000000000000e+02, -3.1250000000000000e+02,
             -3.1250000000000000e+02, -3.1250000000000000e+02,
             -3.1250000000000000e+02, -3.1250000000000000e+02,
             -3.1250000000000000e+02, -3.1250000000000000e+02,
             -3.1250000000000000e+02, -3.1250000000000000e+02,
             -3.1250000000000000e+02, -3.1250000000000000e+02,
             -3.1250000000000000e+02 ]
         index: [ 0, 1, 2, 3, 4, 5, 6, 7, 8, 9, 10, 11, 12, 13, 14, 15,
             16, 17, 18, 19, 20, 21, 22, 23, 24, 25, 26, 27, 28, 29, 30,
             31, 32, 33, 34, 35, 36, 37, 38, 39, 40, 41, 42, 43, 44, 45,
             46, 47, 48, 49, 50, 51, 52, 53, 54, 55, 56, 57, 58, 59, 60,
             61, 62, 63, 64, 65, 66, 67, 68, 69, 70, 71, 72, 73, 74, 75,
             76, 77, 78, 79, 80, 81, 82, 83, 84, 85, 86, 87, 88, 89, 90,
             91, 92, 93, 94, 95, 96, 97, 98, 99, 100, 101, 102, 103, 104,
             105, 106, 107, 108, 109, 110, 111, 112, 113, 114, 115, 116,
             117, 118, 119, 120, 121, 122, 123, 124, 125, 126, 127, 128,
             129, 130, 131, 132, 133, 134, 135, 136, 137, 138, 139, 140,
             141, 142, 143, 144, 145, 146, 147, 148, 149, 150, 151, 152,
             153, 154, 155, 156, 157, 158, 159, 160, 161, 162, 163, 164,
             165, 166, 167, 168, 169, 170, 171, 172, 173, 174, 175, 176,
             177, 178, 179, 180, 181, 182, 183, 184, 185, 186, 187, 188,
             189, 190, 191, 192, 193, 194, 195, 196, 197, 198, 199, 200,
             201, 202, 203, 204, 205, 206, 207, 208, 209, 210, 211, 212 ]
