%YAML:1.0
my_svm: !!opencv-ml-svm
   svm_type: C_SVC
   kernel: { type:RBF, gamma:5.0625000000000009e-01 }
   C: 3.1250000000000000e+02
   term_criteria: { epsilon:2.2204460492503131e-16, iterations:1000 }
   var_all: 12
   var_count: 12
   class_count: 2
   class_labels: !!opencv-matrix
      rows: 1
      cols: 2
      dt: i
      data: [ 0, 1 ]
   sv_total: 259
   support_vectors:
      - [ 6.61009997e-02, 6.51829988e-02, 6.47440031e-02, 6.42860010e-02,
          6.42800033e-02, 6.34810030e-02, 6.34090006e-02, 6.24359995e-02,
          6.23399988e-02, 6.07919991e-02, 4.71169986e-02, 7.06099998e-03 ]
      - [ 6.72959983e-02, 6.51580021e-02, 6.42940030e-02, 6.42549992e-02,
          6.31569996e-02, 6.30360022e-02, 6.29800037e-02, 6.22680001e-02,
          6.01320006e-02, 5.94579987e-02, 4.72319983e-02, 6.87699998e-03 ]
      - [ 7.45100006e-02, 7.29200020e-02, 7.05450028e-02, 7.04519972e-02,
          6.77059963e-02, 6.73419982e-02, 6.69310018e-02, 6.58140033e-02,
          6.25279993e-02, 6.10570014e-02, 4.91390005e-02, 8.40600021e-03 ]
      - [ 6.60339966e-02, 6.51040003e-02, 6.45160004e-02, 6.37160018e-02,
          6.22860007e-02, 6.15140013e-02, 6.13849983e-02, 5.94220012e-02,
          5.77960014e-02, 5.64960018e-02, 4.65109982e-02, 7.01500010e-03 ]
      - [ 7.06660002e-02, 6.74419999e-02, 6.70109987e-02, 6.60339966e-02,
          6.54530004e-02, 6.54079989e-02, 6.50670007e-02, 6.48320019e-02,
          6.37359992e-02, 6.17720000e-02, 4.91070002e-02, 7.54200015e-03 ]
      - [ 7.16750026e-02, 7.00289980e-02, 7.00030029e-02, 6.64459988e-02,
          6.55099973e-02, 6.50670007e-02, 6.49869964e-02, 6.44619986e-02,
          6.43979982e-02, 6.21600002e-02, 4.82200012e-02, 7.50300009e-03 ]
      - [ 7.51399994e-02, 7.23299980e-02, 6.71299994e-02, 6.43439963e-02,
          6.32819980e-02, 6.31750003e-02, 6.20389991e-02, 6.04390018e-02,
          6.02089986e-02, 5.98899983e-02, 4.92580011e-02, 8.03999975e-03 ]
      - [ 6.35650009e-02, 6.35439977e-02, 6.29250035e-02, 6.25519976e-02,
          6.09580018e-02, 5.86440004e-02, 5.81349991e-02, 5.74110001e-02,
          5.73050007e-02, 5.72540015e-02, 4.29220013e-02, 7.49399979e-03 ]
      - [ 7.71469995e-02, 7.08570033e-02, 6.89740032e-02, 6.59810007e-02,
          6.58639967e-02, 6.51329979e-02, 6.47289976e-02, 6.36980012e-02,
          6.35659993e-02, 6.16590008e-02, 4.88209985e-02, 8.49900022e-03 ]
      - [ 6.51049986e-02, 6.47279993e-02, 6.33080006e-02, 6.30209967e-02,
          6.27460033e-02, 6.19350001e-02, 6.02150001e-02, 5.99390008e-02,
          5.92139997e-02, 5.89580014e-02, 4.83580008e-02, 6.24099979e-03 ]
      - [ 7.48640001e-02, 7.16990009e-02, 7.07800016e-02, 7.00699985e-02,
          6.98560029e-02, 6.91620037e-02, 6.58480003e-02, 6.58069998e-02,
          6.52640015e-02, 6.51609972e-02, 4.81560007e-02, 8.55000038e-03 ]
      - [ 8.10910016e-02, 8.01850036e-02, 7.84009993e-02, 7.68719986e-02,
          7.48049989e-02, 7.28660002e-02, 7.00230002e-02, 6.75669983e-02,
          6.70780018e-02, 6.66349977e-02, 4.96670008e-02, 9.00099985e-03 ]
      - [ 6.65770024e-02, 6.46689981e-02, 5.99280000e-02, 5.97320013e-02,
          5.89819998e-02, 5.84710017e-02, 5.75789995e-02, 5.66629991e-02,
          5.62179983e-02, 5.61250001e-02, 4.56800014e-02, 6.20000018e-03 ]
      - [ 7.46719986e-02, 7.18759969e-02, 6.82680011e-02, 6.65900037e-02,
          6.59250021e-02, 6.57130033e-02, 6.51590005e-02, 6.50800020e-02,
          6.44159988e-02, 6.34799972e-02, 5.35469986e-02, 6.20200019e-03 ]
      - [ 7.89420009e-02, 7.39490017e-02, 7.29319975e-02, 7.27730021e-02,
          6.99520037e-02, 6.95030019e-02, 6.79780021e-02, 6.76050037e-02,
          6.62259981e-02, 6.34069964e-02, 5.04590012e-02, 7.61700002e-03 ]
      - [ 6.82630017e-02, 6.55279979e-02, 6.25590011e-02, 6.19679987e-02,
          6.08210005e-02, 5.98119982e-02, 5.97519986e-02, 5.92599995e-02,
          5.75399995e-02, 5.72890006e-02, 4.67539988e-02, 6.25200011e-03 ]
      - [ 6.60249963e-02, 6.49660006e-02, 6.34849966e-02, 6.19850010e-02,
          6.19670004e-02, 6.00779988e-02, 5.87209985e-02, 5.84889986e-02,
          5.78670017e-02, 5.76240011e-02, 4.78370003e-02, 5.77200018e-03 ]
      - [ 6.51440024e-02, 6.43350035e-02, 6.36280030e-02, 6.30249977e-02,
          6.14390001e-02, 6.11010008e-02, 6.07220009e-02, 6.01980016e-02,
          5.93549982e-02, 5.87479994e-02, 4.77479994e-02, 6.70799986e-03 ]
      - [ 7.18500018e-02, 6.80409968e-02, 6.77220002e-02, 6.65329993e-02,
          6.59599975e-02, 6.49560019e-02, 6.48650005e-02, 6.39680028e-02,
          6.38400018e-02, 6.17920011e-02, 4.87819985e-02, 7.39599997e-03 ]
      - [ 7.89519995e-02, 7.34639987e-02, 6.95839971e-02, 6.90039992e-02,
          6.72819987e-02, 6.71370029e-02, 6.30239993e-02, 6.28570020e-02,
          6.22280017e-02, 6.17699996e-02, 4.85480018e-02, 7.78499991e-03 ]
      - [ 6.49480000e-02, 6.27780035e-02, 6.19949996e-02, 6.19819984e-02,
          6.15170002e-02, 6.14459999e-02, 6.11650012e-02, 5.98360002e-02,
          5.94820008e-02, 5.93939982e-02, 4.69090007e-02, 7.45999999e-03 ]
      - [ 6.96130022e-02, 6.54029995e-02, 6.31320029e-02, 6.10119998e-02,
          6.09220006e-02, 5.90629987e-02, 5.74349985e-02, 5.69869988e-02,
          5.53659983e-02, 5.40859997e-02, 4.65990007e-02, 5.97599987e-03 ]
      - [ 6.42429963e-02, 6.36809990e-02, 6.35010004e-02, 6.30510002e-02,
          6.20580018e-02, 6.15269989e-02, 6.07779995e-02, 6.06429987e-02,
          5.84940016e-02, 5.82420006e-02, 4.66349982e-02, 7.13900011e-03 ]
      - [ 6.73950016e-02, 6.55660033e-02, 6.52649999e-02, 6.50720000e-02,
          6.50660023e-02, 6.27129972e-02, 6.18299991e-02, 6.06589988e-02,
          6.00339994e-02, 6.00050017e-02, 5.08450009e-02, 5.85700013e-03 ]
      - [ 7.16340020e-02, 6.87059984e-02, 6.44529983e-02, 6.28969967e-02,
          6.21820018e-02, 6.13140017e-02, 6.06149994e-02, 6.00030012e-02,
          5.91310002e-02, 5.87619990e-02, 4.64180000e-02, 7.12500000e-03 ]
      - [ 7.05889985e-02, 6.42710030e-02, 6.21410012e-02, 6.11389987e-02,
          5.97190000e-02, 5.88140003e-02, 5.85630015e-02, 5.81049994e-02,
          5.73539995e-02, 5.64810000e-02, 4.70470004e-02, 5.73199987e-03 ]
      - [ 7.30609968e-02, 7.12549984e-02, 6.98390007e-02, 6.80750012e-02,
          6.66470006e-02, 6.62209988e-02, 6.54959977e-02, 6.54409975e-02,
          6.54319972e-02, 6.52970001e-02, 4.68030013e-02, 8.88099987e-03 ]
      - [ 6.66960031e-02, 6.64990023e-02, 6.61439970e-02, 6.51839972e-02,
          6.45449981e-02, 6.36600032e-02, 6.25210032e-02, 6.21909983e-02,
          6.15799986e-02, 6.08350001e-02, 5.09480014e-02, 6.27199979e-03 ]
      - [ 7.73049966e-02, 6.97819963e-02, 6.84859976e-02, 6.60120025e-02,
          6.23149984e-02, 6.22880012e-02, 6.22729994e-02, 6.08340017e-02,
          6.04420006e-02, 5.96849993e-02, 4.72260006e-02, 8.25599954e-03 ]
      - [ 6.61489964e-02, 6.07669987e-02, 5.82120009e-02, 5.55180013e-02,
          5.49950004e-02, 5.46829998e-02, 5.44320010e-02, 5.44270016e-02,
          5.42830005e-02, 5.29300012e-02, 4.37679999e-02, 5.83200017e-03 ]
      - [ 7.66889974e-02, 7.48429969e-02, 7.40510002e-02, 7.22770020e-02,
          7.17049986e-02, 6.92979991e-02, 6.61609992e-02, 6.43739998e-02,
          6.36949986e-02, 6.30130023e-02, 4.71369997e-02, 9.34899971e-03 ]
      - [ 7.55100027e-02, 6.64630011e-02, 6.63010031e-02, 6.59499988e-02,
          6.58060014e-02, 6.49439991e-02, 6.33750036e-02, 6.32790029e-02,
          6.23780005e-02, 6.18439987e-02, 4.70479988e-02, 7.84400012e-03 ]
      - [ 7.25279972e-02, 7.11570010e-02, 7.01880008e-02, 6.99660033e-02,
          6.50610030e-02, 6.42030016e-02, 6.36719987e-02, 6.31399974e-02,
          6.17309995e-02, 6.09130003e-02, 5.30939996e-02, 5.72799984e-03 ]
      - [ 5.85019998e-02, 5.80300018e-02, 5.70380017e-02, 5.58990017e-02,
          5.53710014e-02, 5.52479997e-02, 5.44500016e-02, 5.41019998e-02,
          5.21689989e-02, 5.20699993e-02, 4.39589992e-02, 4.96499985e-03 ]
      - [ 7.66530037e-02, 7.32650012e-02, 6.97439983e-02, 6.76150024e-02,
          6.71100020e-02, 6.57199994e-02, 6.57040030e-02, 6.45420030e-02,
          6.43759966e-02, 6.38860017e-02, 5.10750003e-02, 8.80200043e-03 ]
      - [ 7.29869977e-02, 7.28690028e-02, 6.85160011e-02, 6.80920035e-02,
          6.55649975e-02, 6.51839972e-02, 6.30709976e-02, 6.15679994e-02,
          6.10440001e-02, 5.96969984e-02, 4.87960018e-02, 6.96100015e-03 ]
      - [ 7.71500021e-02, 7.53989965e-02, 6.88449964e-02, 6.64630011e-02,
          6.48759976e-02, 6.38070032e-02, 6.36920035e-02, 6.30730018e-02,
          6.27869964e-02, 6.25450015e-02, 4.81350012e-02, 7.60899996e-03 ]
      - [ 7.37090036e-02, 7.37010017e-02, 6.62949979e-02, 6.40669987e-02,
          6.39180019e-02, 6.33879974e-02, 6.15460016e-02, 6.13889992e-02,
          6.13589995e-02, 5.95370010e-02, 4.83720005e-02, 7.97499996e-03 ]
      - [ 7.45230019e-02, 7.25459978e-02, 6.79519996e-02, 6.45439997e-02,
          6.43590018e-02, 6.34339973e-02, 6.08629994e-02, 6.08110018e-02,
          6.05470017e-02, 6.03949986e-02, 4.88109998e-02, 6.95900014e-03 ]
      - [ 6.70439973e-02, 6.57590032e-02, 6.41650036e-02, 6.14579991e-02,
          6.08180016e-02, 6.02229983e-02, 5.93790002e-02, 5.88489994e-02,
          5.75710014e-02, 5.66900000e-02, 4.43629995e-02, 7.33199995e-03 ]
      - [ 7.30770007e-02, 7.06169978e-02, 6.81179985e-02, 6.78000003e-02,
          6.62489980e-02, 6.59950003e-02, 6.54549971e-02, 6.47080019e-02,
          6.35150000e-02, 6.34990036e-02, 5.04489988e-02, 6.93600019e-03 ]
      - [ 7.66109973e-02, 7.52220005e-02, 7.41209984e-02, 6.75899982e-02,
          6.70180023e-02, 6.63129985e-02, 6.48149997e-02, 6.44960031e-02,
          6.39709979e-02, 6.34720027e-02, 5.01959994e-02, 7.79700000e-03 ]
      - [ 7.71579966e-02, 7.32270032e-02, 7.28920028e-02, 7.03760013e-02,
          6.52190000e-02, 6.28160015e-02, 6.16520010e-02, 5.91280013e-02,
          5.91010004e-02, 5.87709993e-02, 5.02520017e-02, 7.13300006e-03 ]
      - [ 7.98169971e-02, 7.24840015e-02, 6.77400008e-02, 6.73570037e-02,
          6.70529976e-02, 6.53460026e-02, 6.39759973e-02, 6.32760003e-02,
          6.22240007e-02, 6.21140003e-02, 5.20889983e-02, 6.78100018e-03 ]
      - [ 6.33699968e-02, 6.12209998e-02, 6.08710013e-02, 5.94879985e-02,
          5.87159991e-02, 5.82120009e-02, 5.79060018e-02, 5.77399991e-02,
          5.73920012e-02, 5.59960008e-02, 4.60380018e-02, 6.32900000e-03 ]
      - [ 7.61710033e-02, 6.65739998e-02, 6.63900003e-02, 6.59919977e-02,
          6.43590018e-02, 6.22950010e-02, 6.15659989e-02, 6.07599989e-02,
          5.94169982e-02, 5.76030016e-02, 4.63280007e-02, 7.55099999e-03 ]
      - [ 7.20560029e-02, 7.08749965e-02, 6.63570017e-02, 6.58499971e-02,
          6.57069981e-02, 6.52810037e-02, 6.50969967e-02, 6.41810000e-02,
          6.33009970e-02, 6.31629974e-02, 4.95240018e-02, 8.29899963e-03 ]
      - [ 6.58930019e-02, 6.53449968e-02, 6.25689998e-02, 6.10309988e-02,
          6.05229996e-02, 5.95589988e-02, 5.92719987e-02, 5.67400008e-02,
          5.65739982e-02, 5.35990000e-02, 4.47489992e-02, 6.15100004e-03 ]
      - [ 7.27040023e-02, 6.75740018e-02, 5.93609996e-02, 5.72369993e-02,
          5.71979992e-02, 5.67560010e-02, 5.62230013e-02, 5.53460009e-02,
          5.50549999e-02, 5.37649989e-02, 4.54550013e-02, 6.20299997e-03 ]
      - [ 7.44730011e-02, 7.21480027e-02, 7.11399987e-02, 6.97389990e-02,
          6.91609979e-02, 6.55469969e-02, 6.34709969e-02, 6.32919967e-02,
          6.32240027e-02, 6.23910017e-02, 4.83620018e-02, 7.62900012e-03 ]
      - [ 7.69769996e-02, 7.68230036e-02, 7.57500008e-02, 6.42009974e-02,
          6.36579990e-02, 6.25469983e-02, 6.24839999e-02, 6.23079985e-02,
          6.03090003e-02, 5.98930009e-02, 4.90050018e-02, 7.47000007e-03 ]
      - [ 6.62840009e-02, 6.42540008e-02, 6.39950037e-02, 6.35579973e-02,
          6.31659999e-02, 6.31330013e-02, 6.28570020e-02, 6.28089979e-02,
          6.21909983e-02, 6.21600002e-02, 4.85659987e-02, 6.86000008e-03 ]
      - [ 6.87910020e-02, 6.48230016e-02, 5.81550002e-02, 5.67959994e-02,
          5.60510010e-02, 5.54860011e-02, 5.40769994e-02, 5.40210009e-02,
          5.36280014e-02, 5.31340018e-02, 4.51340005e-02, 5.86599996e-03 ]
      - [ 7.16890022e-02, 6.73509985e-02, 6.67219982e-02, 6.57650009e-02,
          6.44949973e-02, 6.25870004e-02, 6.18240014e-02, 5.88690005e-02,
          5.70469983e-02, 5.54910004e-02, 4.75630015e-02, 6.68699993e-03 ]
      - [ 7.82470033e-02, 7.56789967e-02, 7.34319985e-02, 6.98489994e-02,
          6.93010017e-02, 6.84259981e-02, 6.77300021e-02, 6.54070005e-02,
          6.42710030e-02, 6.41369969e-02, 5.12409993e-02, 7.79200019e-03 ]
      - [ 7.42489994e-02, 6.85219988e-02, 6.77170008e-02, 6.37999997e-02,
          6.30669966e-02, 6.17030002e-02, 6.04999997e-02, 5.98529987e-02,
          5.94750009e-02, 5.93959987e-02, 4.83729988e-02, 6.75299997e-03 ]
      - [ 7.05370009e-02, 6.73030019e-02, 6.60969988e-02, 6.54190034e-02,
          6.51699975e-02, 6.46750033e-02, 6.42800033e-02, 6.36560023e-02,
          6.30030036e-02, 6.30009994e-02, 4.88630012e-02, 8.17499962e-03 ]
      - [ 7.57120028e-02, 7.49400035e-02, 7.20560029e-02, 7.08160028e-02,
          7.05429986e-02, 6.85779974e-02, 6.69649988e-02, 6.60749972e-02,
          6.47860020e-02, 6.37900010e-02, 5.02070002e-02, 8.12499970e-03 ]
      - [ 8.15199986e-02, 7.16260001e-02, 6.72900006e-02, 6.70889989e-02,
          6.67949989e-02, 6.63489997e-02, 6.62729964e-02, 6.57989979e-02,
          6.51779994e-02, 6.50599971e-02, 5.02469987e-02, 8.65400024e-03 ]
      - [ 7.99100026e-02, 7.10399970e-02, 6.83320016e-02, 6.67480007e-02,
          6.44240007e-02, 6.01290017e-02, 5.67589998e-02, 5.64449988e-02,
          5.31609990e-02, 5.27580008e-02, 4.57819998e-02, 6.64900010e-03 ]
      - [ 7.25039989e-02, 7.24700019e-02, 6.35249987e-02, 6.27280027e-02,
          6.25550002e-02, 6.21760003e-02, 6.21379986e-02, 6.18100017e-02,
          6.17999993e-02, 6.14599995e-02, 4.99010012e-02, 7.36499997e-03 ]
      - [ 7.12329969e-02, 6.87519982e-02, 6.74989969e-02, 6.34000003e-02,
          6.22959994e-02, 5.94159998e-02, 5.91159984e-02, 5.71120009e-02,
          5.66149987e-02, 5.53629994e-02, 4.56909984e-02, 6.79299980e-03 ]
      - [ 6.36539981e-02, 6.27939999e-02, 6.19589984e-02, 6.01480007e-02,
          5.75749986e-02, 5.59689999e-02, 5.58519997e-02, 5.54229990e-02,
          5.45380004e-02, 5.39879985e-02, 4.35840003e-02, 6.06000004e-03 ]
      - [ 6.40550032e-02, 6.16500005e-02, 6.09190017e-02, 6.07450008e-02,
          6.04140013e-02, 6.03459999e-02, 5.99929988e-02, 5.94060011e-02,
          5.81079982e-02, 5.74930012e-02, 4.85580005e-02, 6.05899980e-03 ]
      - [ 8.08700025e-02, 7.61900023e-02, 7.59610012e-02, 7.29390010e-02,
          7.24650025e-02, 6.86890036e-02, 6.84359968e-02, 6.65559992e-02,
          6.49079978e-02, 6.42689988e-02, 5.10770008e-02, 8.42299964e-03 ]
      - [ 6.95400015e-02, 6.90679997e-02, 6.07879981e-02, 5.80990016e-02,
          5.67260012e-02, 5.46899997e-02, 5.46839982e-02, 5.45790009e-02,
          5.45350015e-02, 5.39229997e-02, 4.51570004e-02, 6.30099978e-03 ]
      - [ 7.47340024e-02, 7.07880035e-02, 6.52870014e-02, 6.51910007e-02,
          6.46779984e-02, 6.27389997e-02, 6.20549992e-02, 6.17339984e-02,
          6.09610006e-02, 6.08999990e-02, 4.90369983e-02, 7.02799996e-03 ]
      - [ 6.68639988e-02, 6.59319982e-02, 6.56059980e-02, 6.54269978e-02,
          6.44090027e-02, 6.28930032e-02, 6.27299994e-02, 6.12570010e-02,
          6.11650012e-02, 6.07910007e-02, 5.05159982e-02, 6.04700018e-03 ]
      - [ 8.04930031e-02, 7.68219978e-02, 7.37510026e-02, 6.82249963e-02,
          6.60540015e-02, 6.50570020e-02, 6.46390021e-02, 6.41890019e-02,
          6.37290031e-02, 6.22520000e-02, 4.76850010e-02, 9.47200041e-03 ]
      - [ 7.53080025e-02, 6.29950017e-02, 6.27480000e-02, 6.24819994e-02,
          6.22589998e-02, 6.20319992e-02, 6.20139986e-02, 6.05400018e-02,
          5.94220012e-02, 5.88410012e-02, 4.95910011e-02, 5.61799994e-03 ]
      - [ 7.44419992e-02, 7.23370016e-02, 6.68869987e-02, 6.58629984e-02,
          6.36319965e-02, 6.23110011e-02, 5.75020015e-02, 5.74770011e-02,
          5.68990000e-02, 5.62379993e-02, 4.62349989e-02, 8.07300024e-03 ]
      - [ 6.52500018e-02, 6.10679984e-02, 6.01309985e-02, 5.95959984e-02,
          5.51740006e-02, 5.40379994e-02, 5.31800017e-02, 5.24649993e-02,
          5.21459989e-02, 5.21420017e-02, 4.43410017e-02, 6.35700021e-03 ]
      - [ 5.69770001e-02, 5.68309985e-02, 5.60670011e-02, 5.52259982e-02,
          5.49609996e-02, 5.43860011e-02, 5.39340004e-02, 5.37049994e-02,
          5.34330010e-02, 5.33710010e-02, 4.32690009e-02, 5.69200004e-03 ]
      - [ 7.16900006e-02, 6.88010007e-02, 6.56239986e-02, 6.55869991e-02,
          6.43389970e-02, 6.34770021e-02, 6.32440001e-02, 5.99990003e-02,
          5.96969984e-02, 5.95979989e-02, 4.97180000e-02, 7.06999982e-03 ]
      - [ 7.33530000e-02, 7.15399981e-02, 7.05889985e-02, 6.96479976e-02,
          6.88590035e-02, 6.78829998e-02, 6.73440024e-02, 6.54660016e-02,
          6.53249994e-02, 6.50840029e-02, 4.77660000e-02, 8.94100033e-03 ]
      - [ 7.29819983e-02, 7.04390034e-02, 6.44320026e-02, 6.41819984e-02,
          6.36710003e-02, 6.18110001e-02, 5.90489991e-02, 5.83879985e-02,
          5.77999987e-02, 5.68130016e-02, 4.65550013e-02, 6.68800017e-03 ]
      - [ 7.49130026e-02, 7.41909966e-02, 7.33560026e-02, 6.82350025e-02,
          6.62709996e-02, 6.37110025e-02, 6.23760000e-02, 5.98820001e-02,
          5.82249984e-02, 5.72590008e-02, 4.77030016e-02, 7.36400019e-03 ]
      - [ 6.76530004e-02, 6.76459968e-02, 6.71600029e-02, 6.68390021e-02,
          6.59850016e-02, 6.50610030e-02, 6.15460016e-02, 6.02749996e-02,
          5.96360005e-02, 5.94969988e-02, 4.59530018e-02, 7.72099989e-03 ]
      - [ 6.36959970e-02, 6.14629984e-02, 6.01699986e-02, 6.01020008e-02,
          5.94640002e-02, 5.83870001e-02, 5.79609983e-02, 5.78569993e-02,
          5.71869984e-02, 5.66239990e-02, 4.86520007e-02, 5.16799977e-03 ]
      - [ 6.42269999e-02, 6.14390001e-02, 6.12029992e-02, 6.06219992e-02,
          6.00910001e-02, 6.00520000e-02, 5.93280010e-02, 5.88149987e-02,
          5.70680015e-02, 5.52649982e-02, 4.60259989e-02, 6.11500023e-03 ]
      - [ 7.45309964e-02, 7.27239996e-02, 6.91860020e-02, 6.22549988e-02,
          6.21289983e-02, 6.11950010e-02, 6.10660017e-02, 6.08079992e-02,
          6.02930002e-02, 6.00319989e-02, 4.81709987e-02, 7.67400023e-03 ]
      - [ 6.81369975e-02, 6.42729998e-02, 6.36579990e-02, 6.27020001e-02,
          6.17399998e-02, 6.10859990e-02, 5.89150004e-02, 5.59399985e-02,
          5.53440005e-02, 5.52739985e-02, 4.27960008e-02, 7.58300023e-03 ]
      - [ 7.73819983e-02, 7.19960034e-02, 6.99080005e-02, 6.98510036e-02,
          6.71700016e-02, 6.53010011e-02, 6.45850003e-02, 6.45169988e-02,
          6.41319975e-02, 6.39860034e-02, 5.27120009e-02, 6.60699978e-03 ]
      - [ 6.67610019e-02, 6.54599965e-02, 6.40700012e-02, 6.06970005e-02,
          5.62480018e-02, 5.46399988e-02, 5.42269982e-02, 5.39570004e-02,
          5.36050014e-02, 5.32350019e-02, 4.50269990e-02, 6.74899993e-03 ]
      - [ 7.76730031e-02, 7.71029964e-02, 7.43379965e-02, 7.22389966e-02,
          7.07790032e-02, 7.00299963e-02, 6.92000017e-02, 6.65540025e-02,
          6.62240013e-02, 6.60369992e-02, 5.14729992e-02, 9.09299962e-03 ]
      - [ 7.98690021e-02, 7.77050033e-02, 7.12639987e-02, 6.97090030e-02,
          6.96649998e-02, 6.67209998e-02, 6.38090000e-02, 6.13589995e-02,
          6.12390004e-02, 5.93219995e-02, 4.86800000e-02, 7.72899995e-03 ]
      - [ 7.14249983e-02, 6.56239986e-02, 6.52810037e-02, 6.47659972e-02,
          6.44050017e-02, 6.34789988e-02, 6.33980036e-02, 6.23300001e-02,
          6.17109984e-02, 6.16820008e-02, 5.34819998e-02, 5.88299986e-03 ]
      - [ 6.70920014e-02, 6.48360029e-02, 6.45430014e-02, 6.43699989e-02,
          6.41859993e-02, 6.40359968e-02, 6.26109987e-02, 6.23410009e-02,
          6.17399998e-02, 6.17199987e-02, 5.33539988e-02, 5.71200019e-03 ]
      - [ 6.90189973e-02, 6.62819967e-02, 6.18639998e-02, 5.96520007e-02,
          5.90009987e-02, 5.82959987e-02, 5.81680015e-02, 5.75970002e-02,
          5.71659990e-02, 5.64800017e-02, 4.66919988e-02, 6.32099994e-03 ]
      - [ 6.59739971e-02, 6.49179965e-02, 6.30349964e-02, 6.25220016e-02,
          6.13219999e-02, 6.08079992e-02, 5.93240000e-02, 5.79110011e-02,
          5.77969998e-02, 5.70209995e-02, 4.58699986e-02, 6.97100023e-03 ]
      - [ 6.52299970e-02, 6.48949966e-02, 6.35579973e-02, 6.00199997e-02,
          5.99129982e-02, 5.73720001e-02, 5.68640009e-02, 5.63189983e-02,
          5.56869991e-02, 5.54290004e-02, 4.73940000e-02, 5.75400004e-03 ]
      - [ 7.40360022e-02, 7.08660036e-02, 7.06299990e-02, 6.72399998e-02,
          6.69799969e-02, 6.65130019e-02, 6.59210011e-02, 6.40380010e-02,
          6.39469996e-02, 6.23460002e-02, 5.36779985e-02, 6.45999983e-03 ]
      - [ 5.24130017e-02, 5.14639989e-02, 5.14050014e-02, 5.11230007e-02,
          5.07909991e-02, 5.07440008e-02, 4.92819995e-02, 4.89370003e-02,
          4.89020012e-02, 4.85230014e-02, 4.25990000e-02, 4.20999993e-03 ]
      - [ 6.75769970e-02, 6.74450025e-02, 6.69130012e-02, 6.64310008e-02,
          6.40880018e-02, 6.34440035e-02, 6.31980002e-02, 6.14579991e-02,
          6.12149984e-02, 6.04900010e-02, 4.65749986e-02, 7.56399985e-03 ]
      - [ 6.40290007e-02, 6.37459978e-02, 6.27830029e-02, 5.98089993e-02,
          5.93939982e-02, 5.91499992e-02, 5.88940009e-02, 5.83220012e-02,
          5.79000004e-02, 5.73620014e-02, 4.61070016e-02, 6.00099983e-03 ]
      - [ 6.37329966e-02, 6.19029999e-02, 6.10890016e-02, 5.89900017e-02,
          5.82350008e-02, 5.80760017e-02, 5.80170006e-02, 5.78080006e-02,
          5.76619990e-02, 5.72099984e-02, 4.76879999e-02, 5.70299989e-03 ]
      - [ 7.59639964e-02, 7.32960030e-02, 7.31030032e-02, 6.97769970e-02,
          6.84799999e-02, 6.81900010e-02, 6.74450025e-02, 6.66420013e-02,
          6.64890036e-02, 6.41190037e-02, 4.95270006e-02, 8.60700011e-03 ]
      - [ 7.59039968e-02, 6.97109997e-02, 6.16400018e-02, 5.90669997e-02,
          5.88329993e-02, 5.85450009e-02, 5.81570007e-02, 5.79329990e-02,
          5.79070002e-02, 5.78520000e-02, 4.64840010e-02, 6.86200010e-03 ]
      - [ 7.31879994e-02, 6.93290010e-02, 6.82180002e-02, 6.50300011e-02,
          6.09350018e-02, 6.08169995e-02, 5.92000000e-02, 5.82510009e-02,
          5.60749993e-02, 5.58050014e-02, 4.66890000e-02, 6.76700007e-03 ]
      - [ 8.53409991e-02, 8.21039975e-02, 8.20159987e-02, 7.09839985e-02,
          6.46630004e-02, 6.23309985e-02, 6.06870018e-02, 6.02280013e-02,
          5.99259995e-02, 5.54520003e-02, 4.76949997e-02, 8.47200025e-03 ]
      - [ 7.15550035e-02, 6.17199987e-02, 6.16730005e-02, 6.13100007e-02,
          5.98249994e-02, 5.97670004e-02, 5.90000004e-02, 5.87380007e-02,
          5.87100014e-02, 5.85110001e-02, 4.64270003e-02, 6.57799980e-03 ]
      - [ 6.94350004e-02, 6.81990013e-02, 6.45989999e-02, 6.41539991e-02,
          6.20520003e-02, 6.14780001e-02, 6.10230006e-02, 5.82140014e-02,
          5.78380004e-02, 5.77050000e-02, 4.60480005e-02, 7.77099980e-03 ]
      - [ 7.78779984e-02, 7.57369995e-02, 7.50870034e-02, 6.73659965e-02,
          6.62320033e-02, 6.57979995e-02, 6.42540008e-02, 6.26519993e-02,
          6.21300004e-02, 6.19620010e-02, 4.99899983e-02, 7.50599988e-03 ]
      - [ 7.03990012e-02, 6.90929964e-02, 6.67359978e-02, 6.55800030e-02,
          6.55720010e-02, 6.55260012e-02, 6.44100010e-02, 6.38799965e-02,
          6.38649985e-02, 6.31899983e-02, 5.03650010e-02, 7.57399993e-03 ]
      - [ 7.33940005e-02, 7.11190030e-02, 6.52069971e-02, 6.43830001e-02,
          6.42710030e-02, 6.36259988e-02, 6.34730011e-02, 6.23200014e-02,
          6.18369989e-02, 6.00010008e-02, 4.64369990e-02, 7.99299963e-03 ]
      - [ 6.44539967e-02, 6.03079982e-02, 6.00280017e-02, 5.97359985e-02,
          5.74779995e-02, 5.59509993e-02, 5.49679995e-02, 5.48669994e-02,
          5.44210002e-02, 5.41080013e-02, 4.59499992e-02, 5.82099985e-03 ]
      - [ 7.40040019e-02, 6.86229989e-02, 6.82289973e-02, 6.61230013e-02,
          6.54020011e-02, 6.52870014e-02, 6.51800036e-02, 6.51210025e-02,
          6.45039976e-02, 6.43500015e-02, 5.04119992e-02, 8.29999987e-03 ]
      - [ 6.84309974e-02, 6.72030002e-02, 6.68480024e-02, 6.67439997e-02,
          6.54909983e-02, 6.42789975e-02, 6.36460036e-02, 6.32629991e-02,
          6.25619963e-02, 6.09040000e-02, 4.86649983e-02, 7.17299990e-03 ]
      - [ 6.86590001e-02, 6.72039986e-02, 6.66399971e-02, 6.56649992e-02,
          6.40560016e-02, 6.38040006e-02, 6.33810014e-02, 6.29739985e-02,
          6.28309995e-02, 6.08730018e-02, 4.95110005e-02, 6.24400005e-03 ]
      - [ 7.64229968e-02, 7.20330030e-02, 6.87590018e-02, 6.65429980e-02,
          6.56670034e-02, 6.48899972e-02, 6.34950027e-02, 6.10820018e-02,
          5.95129989e-02, 5.67599982e-02, 4.54999991e-02, 7.82999955e-03 ]
      - [ 7.18149990e-02, 7.07079992e-02, 6.66830018e-02, 6.55469969e-02,
          6.54369965e-02, 6.52320012e-02, 6.47569969e-02, 6.47130013e-02,
          6.45880029e-02, 6.38040006e-02, 4.94920015e-02, 7.91199971e-03 ]
      - [ 8.28730017e-02, 7.87440017e-02, 7.03869984e-02, 6.94139972e-02,
          6.71579987e-02, 6.70809969e-02, 6.58859983e-02, 6.57370016e-02,
          6.45689964e-02, 6.21900000e-02, 5.60639985e-02, 6.91200001e-03 ]
      - [ 6.60419986e-02, 6.16599992e-02, 6.06600009e-02, 5.89970015e-02,
          5.87069988e-02, 5.81960008e-02, 5.78860007e-02, 5.75259998e-02,
          5.70309982e-02, 5.56510016e-02, 4.77590002e-02, 5.37399994e-03 ]
      - [ 7.49339983e-02, 6.64729998e-02, 6.39310032e-02, 6.28790036e-02,
          6.21739998e-02, 6.13939986e-02, 6.13540001e-02, 6.01160005e-02,
          5.64009994e-02, 5.61989993e-02, 4.71390001e-02, 6.74800016e-03 ]
      - [ 7.69219995e-02, 7.37499967e-02, 6.79640025e-02, 6.56400025e-02,
          6.38680011e-02, 6.36259988e-02, 6.35150000e-02, 6.27359971e-02,
          6.23570010e-02, 6.14349991e-02, 4.89739999e-02, 7.50599988e-03 ]
      - [ 7.50589967e-02, 7.08860010e-02, 7.07719997e-02, 6.40240014e-02,
          6.40119985e-02, 6.22529984e-02, 6.18709996e-02, 6.00429997e-02,
          6.00100011e-02, 5.99079989e-02, 4.84820008e-02, 7.30900001e-03 ]
      - [ 6.52820021e-02, 6.16130009e-02, 6.15650006e-02, 6.08059987e-02,
          5.75429983e-02, 5.73469996e-02, 5.71609996e-02, 5.70820011e-02,
          5.68609983e-02, 5.57029992e-02, 4.40369993e-02, 6.37400011e-03 ]
      - [ 8.07399973e-02, 7.50970021e-02, 6.88299984e-02, 6.79870024e-02,
          6.45850003e-02, 6.44019991e-02, 6.40809983e-02, 6.34739995e-02,
          6.34709969e-02, 6.24589995e-02, 5.18799983e-02, 7.25100003e-03 ]
      - [ 7.90340006e-02, 7.77229965e-02, 7.41190016e-02, 7.21049979e-02,
          6.92399964e-02, 6.69670030e-02, 6.61559999e-02, 6.46720007e-02,
          6.38270006e-02, 6.33459985e-02, 4.80279997e-02, 9.25800018e-03 ]
      - [ 7.19230026e-02, 7.11219981e-02, 6.94689974e-02, 6.54610023e-02,
          5.92419989e-02, 5.90879992e-02, 5.85720018e-02, 5.75999990e-02,
          5.75889982e-02, 5.64180017e-02, 4.63109985e-02, 6.83700014e-03 ]
      - [ 7.24209994e-02, 6.78350031e-02, 6.62209988e-02, 6.47839978e-02,
          6.44150004e-02, 6.42910004e-02, 6.37499988e-02, 6.24860004e-02,
          6.23239987e-02, 6.17280006e-02, 5.14330007e-02, 6.68499991e-03 ]
      - [ 7.46579990e-02, 7.28980005e-02, 7.00649992e-02, 6.98050037e-02,
          6.88339993e-02, 6.86940029e-02, 6.69810027e-02, 6.46570027e-02,
          6.33329973e-02, 6.32670000e-02, 5.18199988e-02, 7.19700009e-03 ]
      - [ 6.66629970e-02, 6.33049980e-02, 6.26439974e-02, 6.23340011e-02,
          6.19909987e-02, 6.11749999e-02, 6.02530017e-02, 5.78310005e-02,
          5.76330014e-02, 5.74380010e-02, 4.53319997e-02, 7.50300009e-03 ]
      - [ 7.77869970e-02, 7.75270015e-02, 7.54830018e-02, 7.28200004e-02,
          7.27489963e-02, 7.19819963e-02, 6.60900027e-02, 6.43879995e-02,
          6.43630028e-02, 6.37729988e-02, 4.85519990e-02, 9.46700014e-03 ]
      - [ 6.71219975e-02, 6.55089989e-02, 6.49750009e-02, 6.45079985e-02,
          6.42009974e-02, 6.29440024e-02, 6.25400022e-02, 6.23999983e-02,
          6.21830001e-02, 6.16049990e-02, 5.32150008e-02, 5.29500004e-03 ]
      - [ 6.99720010e-02, 6.69429973e-02, 6.62939996e-02, 6.30690008e-02,
          6.05150014e-02, 5.96570000e-02, 5.79390004e-02, 5.46419993e-02,
          5.45810014e-02, 5.44999987e-02, 4.63799983e-02, 6.34399988e-03 ]
      - [ 6.24070019e-02, 6.09339997e-02, 6.05730005e-02, 5.84190004e-02,
          5.79029992e-02, 5.48000000e-02, 5.36959991e-02, 5.36159985e-02,
          5.31859994e-02, 5.26360013e-02, 4.52889986e-02, 5.43500017e-03 ]
      - [ 7.07639977e-02, 6.89520016e-02, 6.65429980e-02, 6.62570000e-02,
          6.38530031e-02, 6.34910017e-02, 6.28840029e-02, 6.21500015e-02,
          6.04109988e-02, 5.96419983e-02, 4.78050001e-02, 7.81700015e-03 ]
      - [ 8.53909999e-02, 8.50879997e-02, 7.40270019e-02, 7.34030008e-02,
          7.07010031e-02, 7.05180019e-02, 6.66610003e-02, 6.66259974e-02,
          6.63900003e-02, 6.57109991e-02, 5.13090007e-02, 9.20100044e-03 ]
      - [ 6.72859997e-02, 6.47149980e-02, 6.30170032e-02, 6.27759993e-02,
          6.16719984e-02, 6.13540001e-02, 6.07299991e-02, 5.95659986e-02,
          5.81139997e-02, 5.72619997e-02, 4.74519990e-02, 6.08200021e-03 ]
      - [ 7.30969980e-02, 6.92970008e-02, 6.75809979e-02, 6.71539977e-02,
          6.63919970e-02, 6.25860021e-02, 6.18610010e-02, 6.14439994e-02,
          6.08160011e-02, 5.99029996e-02, 4.44040000e-02, 9.39700007e-03 ]
      - [ 7.32259974e-02, 7.21220002e-02, 6.99660033e-02, 6.90129995e-02,
          6.89110011e-02, 6.74640015e-02, 6.57140017e-02, 6.54679984e-02,
          6.52289987e-02, 6.33310005e-02, 5.23889996e-02, 7.65299983e-03 ]
      - [ 6.92650005e-02, 6.56860024e-02, 6.16489984e-02, 6.07709996e-02,
          6.02210015e-02, 5.96259981e-02, 5.85720018e-02, 5.78869991e-02,
          5.77769987e-02, 5.71850017e-02, 4.56059985e-02, 7.26300012e-03 ]
      - [ 7.29850009e-02, 7.17509985e-02, 7.07800016e-02, 6.96680024e-02,
          6.71159998e-02, 6.50219992e-02, 6.38640001e-02, 6.27610013e-02,
          6.18330017e-02, 6.16649985e-02, 4.74230014e-02, 9.98300035e-03 ]
      - [ 6.69080019e-02, 6.60860017e-02, 6.58050030e-02, 6.54409975e-02,
          6.52720034e-02, 5.92890009e-02, 5.80930002e-02, 5.71269989e-02,
          5.39809987e-02, 5.27499989e-02, 4.14520018e-02, 8.19000043e-03 ]
      - [ 6.33279979e-02, 6.21859990e-02, 6.21110015e-02, 5.93929999e-02,
          5.93330003e-02, 5.86180016e-02, 5.80499992e-02, 5.73390014e-02,
          5.72739989e-02, 5.60909994e-02, 4.39909995e-02, 7.06399977e-03 ]
      - [ 6.99910000e-02, 6.90900013e-02, 6.72359988e-02, 6.64800033e-02,
          6.62819967e-02, 6.56379983e-02, 6.42340034e-02, 6.37239963e-02,
          6.31730035e-02, 6.29350021e-02, 4.83740009e-02, 8.42799991e-03 ]
      - [ 6.92510009e-02, 6.41599968e-02, 6.33580014e-02, 6.23999983e-02,
          6.20849989e-02, 6.16630018e-02, 5.86960018e-02, 5.77550009e-02,
          5.64499982e-02, 5.59209995e-02, 4.83089983e-02, 6.10399991e-03 ]
      - [ 6.57870024e-02, 6.31759986e-02, 6.23070002e-02, 5.90879992e-02,
          5.90570010e-02, 5.88149987e-02, 5.72710000e-02, 5.57710007e-02,
          5.51070012e-02, 5.32019995e-02, 4.37359996e-02, 6.52599987e-03 ]
      - [ 8.11479986e-02, 7.64110014e-02, 7.59159997e-02, 6.72300011e-02,
          6.57550022e-02, 6.42199963e-02, 6.41060024e-02, 6.22330010e-02,
          6.21009991e-02, 6.15720004e-02, 4.56110016e-02, 9.33500007e-03 ]
      - [ 7.72180036e-02, 7.27740005e-02, 7.25999996e-02, 6.59810007e-02,
          6.27809986e-02, 5.93230017e-02, 5.82950003e-02, 5.77890016e-02,
          5.77379987e-02, 5.74029982e-02, 4.56329994e-02, 7.91199971e-03 ]
      - [ 6.58560023e-02, 6.41990006e-02, 6.27759993e-02, 6.21660016e-02,
          6.17950000e-02, 6.06830008e-02, 5.92439994e-02, 5.90629987e-02,
          5.86129986e-02, 5.85910007e-02, 4.45589982e-02, 7.45199993e-03 ]
      - [ 6.52879998e-02, 6.32620007e-02, 6.29459992e-02, 6.20229989e-02,
          6.15839995e-02, 6.15429990e-02, 6.11749999e-02, 6.06670007e-02,
          6.01200014e-02, 5.98229989e-02, 4.86930013e-02, 6.14000019e-03 ]
      - [ 6.71150014e-02, 6.39619976e-02, 6.37610033e-02, 6.25519976e-02,
          6.22499995e-02, 6.04350008e-02, 5.77820018e-02, 5.76069988e-02,
          5.66340014e-02, 5.61090000e-02, 4.72249985e-02, 6.03700010e-03 ]
      - [ 8.07019994e-02, 7.52969980e-02, 7.33349994e-02, 7.31730014e-02,
          7.30039999e-02, 7.25470036e-02, 7.21660033e-02, 7.19060004e-02,
          7.07969964e-02, 7.07930028e-02, 5.00140004e-02, 1.04059996e-02 ]
      - [ 7.47030005e-02, 7.16850013e-02, 7.02610016e-02, 6.97000027e-02,
          6.76729977e-02, 6.59079999e-02, 6.34049997e-02, 6.22069985e-02,
          6.20660000e-02, 6.18890002e-02, 4.73610014e-02, 7.45100016e-03 ]
      - [ 7.24790022e-02, 5.90140000e-02, 5.83829992e-02, 5.80549985e-02,
          5.79070002e-02, 5.64800017e-02, 5.55679984e-02, 5.55609986e-02,
          5.54540008e-02, 5.53269982e-02, 4.61990014e-02, 6.08500000e-03 ]
      - [ 6.46660030e-02, 6.28200024e-02, 6.13519996e-02, 5.89770004e-02,
          5.78569993e-02, 5.75960018e-02, 5.72579987e-02, 5.71530014e-02,
          5.67319989e-02, 5.67100011e-02, 4.33010012e-02, 7.56399985e-03 ]
      - [ 6.95910007e-02, 6.70770034e-02, 6.59539998e-02, 6.56419992e-02,
          6.48830011e-02, 6.48330003e-02, 6.32210001e-02, 6.29490018e-02,
          6.23590015e-02, 6.04470000e-02, 4.77759987e-02, 6.61600009e-03 ]
      - [ 8.45530033e-02, 8.03029984e-02, 7.99359977e-02, 7.73210004e-02,
          7.64880031e-02, 6.66880012e-02, 6.49200007e-02, 6.43590018e-02,
          6.38170019e-02, 6.33910000e-02, 4.73369993e-02, 9.98499990e-03 ]
      - [ 7.22019970e-02, 7.07029998e-02, 6.53679967e-02, 6.52939975e-02,
          6.36579990e-02, 6.25049993e-02, 6.19589984e-02, 5.87159991e-02,
          5.82620017e-02, 5.67459986e-02, 4.61970009e-02, 6.90900022e-03 ]
      - [ 7.34819993e-02, 7.19780028e-02, 7.16060027e-02, 7.12559968e-02,
          6.98790029e-02, 6.57019988e-02, 6.44330010e-02, 6.34540021e-02,
          6.16660006e-02, 5.97180016e-02, 4.90790009e-02, 7.96500035e-03 ]
      - [ 6.64110035e-02, 6.45020008e-02, 6.15490004e-02, 5.97640015e-02,
          5.64429983e-02, 5.56569993e-02, 5.54549992e-02, 5.53850010e-02,
          5.40230013e-02, 5.39299995e-02, 4.24790010e-02, 7.47000007e-03 ]
      - [ 7.88879991e-02, 7.71680027e-02, 7.53879994e-02, 7.31249973e-02,
          7.07570016e-02, 6.98119998e-02, 6.74849972e-02, 6.65120035e-02,
          6.44870028e-02, 6.27880022e-02, 4.70459983e-02, 9.07399971e-03 ]
      - [ 7.35260025e-02, 7.28510022e-02, 7.03359991e-02, 6.96349964e-02,
          6.88460022e-02, 6.80319965e-02, 6.61920011e-02, 6.59210011e-02,
          6.56289980e-02, 6.47300035e-02, 4.88150008e-02, 9.01299994e-03 ]
      - [ 7.45740011e-02, 7.41079971e-02, 7.17850029e-02, 6.65600002e-02,
          6.63409978e-02, 6.31690025e-02, 6.23419993e-02, 6.23239987e-02,
          5.81239983e-02, 5.77480011e-02, 4.71450016e-02, 7.13100005e-03 ]
      - [ 7.72349983e-02, 7.20530003e-02, 6.92920014e-02, 6.86760023e-02,
          6.79579973e-02, 6.55229986e-02, 6.37380034e-02, 6.30059987e-02,
          6.25210032e-02, 6.22680001e-02, 4.82320003e-02, 8.04399978e-03 ]
      - [ 7.53910020e-02, 7.28909969e-02, 7.20719993e-02, 6.99170008e-02,
          6.85850009e-02, 6.65040016e-02, 6.65040016e-02, 6.39820024e-02,
          6.32880032e-02, 6.21739998e-02, 4.60309982e-02, 9.68299992e-03 ]
      - [ 7.80500025e-02, 7.38480017e-02, 7.28750005e-02, 7.19949976e-02,
          7.13239983e-02, 7.08810017e-02, 6.52289987e-02, 6.41629994e-02,
          6.20779991e-02, 6.13600016e-02, 4.80669998e-02, 8.53199977e-03 ]
      - [ 6.44880012e-02, 6.09829985e-02, 6.03680015e-02, 6.02400005e-02,
          6.01399988e-02, 5.86800016e-02, 5.72980009e-02, 5.48340008e-02,
          5.44059984e-02, 5.31999990e-02, 4.60669994e-02, 5.87699981e-03 ]
      - [ 7.66950026e-02, 7.57249966e-02, 7.00239986e-02, 6.97240010e-02,
          6.88769966e-02, 6.82940036e-02, 6.76269978e-02, 6.74260035e-02,
          6.62719980e-02, 6.54399991e-02, 5.15949987e-02, 8.54799990e-03 ]
      - [ 6.15780018e-02, 6.11170009e-02, 6.06160015e-02, 5.61730005e-02,
          5.59660010e-02, 5.58499992e-02, 5.54450005e-02, 5.43729998e-02,
          5.41119985e-02, 5.39689995e-02, 4.21399996e-02, 7.28000002e-03 ]
      - [ 7.44109973e-02, 7.28209987e-02, 6.95009977e-02, 6.56400025e-02,
          6.28850013e-02, 6.26050010e-02, 6.24709986e-02, 6.20430000e-02,
          6.19530007e-02, 6.06309995e-02, 4.77150008e-02, 7.86199979e-03 ]
      - [ 7.07859993e-02, 7.03250021e-02, 7.00000003e-02, 6.61320016e-02,
          6.46610036e-02, 6.42130002e-02, 6.26669973e-02, 6.12949990e-02,
          6.11569993e-02, 5.81209995e-02, 4.91040014e-02, 6.74299989e-03 ]
      - [ 7.46520013e-02, 6.56550005e-02, 6.17839992e-02, 5.98179996e-02,
          5.75120002e-02, 5.69779985e-02, 5.58260009e-02, 5.55340014e-02,
          5.54829985e-02, 5.54209985e-02, 4.48179990e-02, 6.89900015e-03 ]
      - [ 6.72440007e-02, 6.26399964e-02, 6.26190007e-02, 6.19559996e-02,
          6.16849996e-02, 5.99169992e-02, 5.93679994e-02, 5.82929999e-02,
          5.79850003e-02, 5.77309988e-02, 4.38820012e-02, 8.45799968e-03 ]
      - [ 6.36740029e-02, 6.32330030e-02, 6.17239997e-02, 6.10960014e-02,
          6.04790002e-02, 5.77239990e-02, 5.59380017e-02, 5.58709987e-02,
          5.54910004e-02, 5.51979989e-02, 4.37519997e-02, 6.69900002e-03 ]
      - [ 6.46210015e-02, 6.12189993e-02, 6.11900017e-02, 6.06050007e-02,
          5.92380017e-02, 5.67499995e-02, 5.61329983e-02, 5.53670004e-02,
          5.49190007e-02, 5.47909997e-02, 4.68440019e-02, 5.14600007e-03 ]
      - [ 5.94229996e-02, 5.86090013e-02, 5.77670000e-02, 5.71140014e-02,
          5.63139990e-02, 5.48340008e-02, 5.40749989e-02, 5.36100008e-02,
          5.31120002e-02, 5.30349985e-02, 4.59440015e-02, 4.94100014e-03 ]
      - [ 6.93709999e-02, 6.66330010e-02, 6.52000010e-02, 6.51260018e-02,
          6.41509965e-02, 6.15240000e-02, 6.04670011e-02, 5.67190014e-02,
          5.32190017e-02, 5.27490005e-02, 4.31380011e-02, 7.81999994e-03 ]
      - [ 5.84990010e-02, 5.84780015e-02, 5.76350018e-02, 5.60569987e-02,
          5.51019982e-02, 5.44239990e-02, 5.39540015e-02, 5.37529998e-02,
          5.32209985e-02, 5.23380004e-02, 4.20680009e-02, 6.68499991e-03 ]
      - [ 7.09170029e-02, 7.09130019e-02, 6.63459972e-02, 6.55310005e-02,
          6.52230009e-02, 6.30730018e-02, 6.07720017e-02, 5.74040003e-02,
          5.50090000e-02, 5.46920002e-02, 4.35680002e-02, 7.52800005e-03 ]
      - [ 7.63429999e-02, 7.30649978e-02, 7.15409964e-02, 7.06169978e-02,
          6.96550012e-02, 6.62570000e-02, 6.49629980e-02, 6.38519973e-02,
          6.28459975e-02, 6.17320016e-02, 4.33560014e-02, 9.14600026e-03 ]
      - [ 6.98689967e-02, 6.30590022e-02, 6.21710010e-02, 6.13490008e-02,
          6.01719990e-02, 5.85270002e-02, 5.82460016e-02, 5.82019985e-02,
          5.74139990e-02, 5.68789989e-02, 4.48909998e-02, 6.66100020e-03 ]
      - [ 5.96490018e-02, 5.94349988e-02, 5.88620007e-02, 5.61450012e-02,
          5.61069995e-02, 5.57399988e-02, 5.57090007e-02, 5.46809994e-02,
          5.45910001e-02, 5.25190011e-02, 4.15600017e-02, 6.59700017e-03 ]
      - [ 6.01910017e-02, 5.90279996e-02, 5.74930012e-02, 5.73420003e-02,
          5.72419986e-02, 5.64570017e-02, 5.60909994e-02, 5.53949997e-02,
          5.44940010e-02, 5.43130003e-02, 4.32480015e-02, 6.09599985e-03 ]
      - [ 7.14669973e-02, 6.65059984e-02, 6.42239973e-02, 6.41380027e-02,
          6.38210028e-02, 6.27710000e-02, 6.22670017e-02, 6.00599982e-02,
          5.87040000e-02, 5.86550012e-02, 4.35380004e-02, 8.51900037e-03 ]
      - [ 7.55909979e-02, 7.43810013e-02, 7.30319992e-02, 7.07530007e-02,
          6.78069964e-02, 6.67079985e-02, 6.66299984e-02, 6.65979981e-02,
          6.61009997e-02, 6.30349964e-02, 5.34030013e-02, 8.26200005e-03 ]
      - [ 6.28129989e-02, 6.26479983e-02, 6.13939986e-02, 6.05759993e-02,
          5.94029985e-02, 5.91670014e-02, 5.88800013e-02, 5.79000004e-02,
          5.76499999e-02, 5.72860017e-02, 4.21440005e-02, 7.67599978e-03 ]
      - [ 7.86470026e-02, 7.56829977e-02, 7.54050016e-02, 7.09450021e-02,
          6.80769980e-02, 6.39939979e-02, 6.30490035e-02, 6.24939986e-02,
          6.18930012e-02, 6.13269992e-02, 4.84010018e-02, 8.95600021e-03 ]
      - [ 7.11029992e-02, 6.43550009e-02, 6.26000017e-02, 6.04639985e-02,
          5.79349995e-02, 5.64129986e-02, 5.58359995e-02, 5.43330014e-02,
          5.37410006e-02, 5.31020015e-02, 4.32239994e-02, 6.74699992e-03 ]
      - [ 6.41959980e-02, 5.92270009e-02, 5.91639988e-02, 5.86819984e-02,
          5.66419996e-02, 5.64370006e-02, 5.55820018e-02, 5.44169992e-02,
          5.38920015e-02, 5.15599996e-02, 4.15220000e-02, 6.62200013e-03 ]
      - [ 7.37949982e-02, 6.59200028e-02, 6.30749986e-02, 5.94610013e-02,
          5.89450002e-02, 5.74290007e-02, 5.72800003e-02, 5.61849996e-02,
          5.61459996e-02, 5.60420007e-02, 4.45780009e-02, 6.83199987e-03 ]
      - [ 7.11129978e-02, 6.36639968e-02, 6.23309985e-02, 6.14349991e-02,
          6.02799989e-02, 5.95219992e-02, 5.94349988e-02, 5.93959987e-02,
          5.92380017e-02, 5.80359995e-02, 4.15909998e-02, 8.71500000e-03 ]
      - [ 6.84600025e-02, 6.83579966e-02, 6.44930005e-02, 6.42210022e-02,
          5.58569990e-02, 5.57890013e-02, 5.51850013e-02, 5.45779988e-02,
          5.42920008e-02, 5.29789999e-02, 4.41429988e-02, 6.86499989e-03 ]
      - [ 7.69049972e-02, 7.64010027e-02, 7.41999969e-02, 6.77089989e-02,
          6.60670027e-02, 6.42519966e-02, 5.91549985e-02, 5.89100011e-02,
          5.86000010e-02, 5.85619994e-02, 4.52799983e-02, 8.85500014e-03 ]
      - [ 8.75599980e-02, 8.00909996e-02, 7.85399973e-02, 7.67799988e-02,
          7.54339993e-02, 7.34210014e-02, 7.05559999e-02, 7.02759996e-02,
          6.93449974e-02, 6.77520037e-02, 5.38990013e-02, 9.63899959e-03 ]
      - [ 7.62239993e-02, 7.39360005e-02, 6.82419986e-02, 6.72779977e-02,
          6.52690008e-02, 6.36639968e-02, 6.35169968e-02, 6.26790002e-02,
          6.25249967e-02, 6.19740002e-02, 4.80390005e-02, 7.39399996e-03 ]
      - [ 7.26480037e-02, 7.18050003e-02, 5.82059994e-02, 5.78520000e-02,
          5.70710003e-02, 5.66419996e-02, 5.59399985e-02, 5.56209981e-02,
          5.52110001e-02, 5.48989996e-02, 4.26330008e-02, 7.32100010e-03 ]
      - [ 7.58259967e-02, 7.56540000e-02, 7.40099996e-02, 7.31249973e-02,
          7.11119995e-02, 6.84660003e-02, 6.76399991e-02, 6.73710033e-02,
          6.72869980e-02, 6.60990030e-02, 4.61030006e-02, 9.83900018e-03 ]
      - [ 6.72250018e-02, 6.43960014e-02, 6.22199997e-02, 6.01829998e-02,
          5.83730005e-02, 5.74200004e-02, 5.65580018e-02, 5.63520007e-02,
          5.58210015e-02, 5.54080009e-02, 4.58480008e-02, 6.07499992e-03 ]
      - [ 6.75880015e-02, 6.75550029e-02, 6.45600036e-02, 6.38630018e-02,
          6.25149980e-02, 6.23099990e-02, 5.77979982e-02, 5.76420017e-02,
          5.75219989e-02, 5.66789992e-02, 4.64630015e-02, 6.13400014e-03 ]
      - [ 7.33179972e-02, 6.24830015e-02, 6.18820004e-02, 5.93650006e-02,
          5.89540005e-02, 5.88070005e-02, 5.82699999e-02, 5.76829985e-02,
          5.73780015e-02, 5.61259985e-02, 4.31820005e-02, 8.90100002e-03 ]
      - [ 7.86300004e-02, 7.46340007e-02, 6.99020028e-02, 6.85650036e-02,
          6.60120025e-02, 6.59229979e-02, 6.43680021e-02, 6.31510019e-02,
          6.20799996e-02, 5.67639992e-02, 4.56009991e-02, 8.88399966e-03 ]
      - [ 6.68770000e-02, 6.64189979e-02, 6.58020005e-02, 6.47760034e-02,
          6.37129992e-02, 6.35799989e-02, 6.32930025e-02, 6.23049997e-02,
          6.21300004e-02, 6.01320006e-02, 4.78160009e-02, 7.65800010e-03 ]
      - [ 7.41989985e-02, 7.18490034e-02, 7.08070025e-02, 6.92159981e-02,
          6.89100027e-02, 6.86310008e-02, 6.71290010e-02, 6.54819980e-02,
          6.48100004e-02, 6.45639971e-02, 4.81530018e-02, 8.84999987e-03 ]
      - [ 6.95199966e-02, 6.86540008e-02, 6.50419965e-02, 6.50330037e-02,
          6.22280017e-02, 6.14329986e-02, 5.97180016e-02, 5.95650002e-02,
          5.94180003e-02, 5.81259988e-02, 4.72499989e-02, 7.64100021e-03 ]
      - [ 7.21039996e-02, 7.18740001e-02, 6.97029978e-02, 6.52490035e-02,
          6.44830018e-02, 6.12789989e-02, 6.12539984e-02, 6.12279996e-02,
          5.68920001e-02, 5.68800010e-02, 4.46989983e-02, 8.06799997e-03 ]
      - [ 7.07560033e-02, 6.79539964e-02, 6.26590028e-02, 6.10710010e-02,
          6.07100017e-02, 6.02880009e-02, 5.97199984e-02, 5.92279993e-02,
          5.85490018e-02, 5.85080013e-02, 4.56809998e-02, 6.97800005e-03 ]
      - [ 8.06059986e-02, 7.86269978e-02, 6.88529983e-02, 6.69770017e-02,
          6.50790036e-02, 6.49029985e-02, 6.16439991e-02, 6.11030012e-02,
          6.08219989e-02, 6.07340001e-02, 4.41909991e-02, 1.01340003e-02 ]
      - [ 8.70829970e-02, 8.25069994e-02, 7.45519996e-02, 6.87649995e-02,
          6.75270036e-02, 6.71399981e-02, 6.63079992e-02, 6.41710013e-02,
          6.26830012e-02, 6.16020001e-02, 5.11370003e-02, 8.21399968e-03 ]
      - [ 6.63150027e-02, 6.58710003e-02, 6.32010028e-02, 6.31520003e-02,
          6.13240004e-02, 5.98310009e-02, 5.84440008e-02, 5.76619990e-02,
          5.57460003e-02, 5.50470017e-02, 4.22869995e-02, 7.56999990e-03 ]
      - [ 6.87130019e-02, 6.66439980e-02, 6.64279982e-02, 6.61619976e-02,
          6.57299981e-02, 6.49020001e-02, 6.45229965e-02, 6.28319979e-02,
          6.27380013e-02, 6.21280000e-02, 4.61409986e-02, 9.22099967e-03 ]
      - [ 6.86869994e-02, 6.84589967e-02, 6.49409965e-02, 6.08609989e-02,
          5.94829991e-02, 5.92859983e-02, 5.70820011e-02, 5.70130013e-02,
          5.68169989e-02, 5.58350012e-02, 4.46759984e-02, 6.58799987e-03 ]
      - [ 7.90150017e-02, 6.83239996e-02, 6.69739991e-02, 6.59459978e-02,
          6.39140010e-02, 6.22319989e-02, 6.06559999e-02, 5.78869991e-02,
          5.67120016e-02, 5.62639982e-02, 4.48499992e-02, 7.93400034e-03 ]
      - [ 7.16030002e-02, 7.01519996e-02, 6.56849965e-02, 6.50430024e-02,
          6.42310008e-02, 6.40420020e-02, 6.19519986e-02, 6.13630004e-02,
          6.12839982e-02, 6.09299988e-02, 4.96339984e-02, 6.82599982e-03 ]
      - [ 7.74250031e-02, 7.05860034e-02, 6.92310035e-02, 6.76819980e-02,
          6.43799976e-02, 6.39979988e-02, 6.37300014e-02, 6.35090023e-02,
          6.12469986e-02, 6.07080013e-02, 4.80730012e-02, 7.95200001e-03 ]
      - [ 7.55290017e-02, 7.13479966e-02, 7.11610019e-02, 7.08250031e-02,
          7.01820031e-02, 6.96920007e-02, 6.79640025e-02, 6.54330030e-02,
          6.47829995e-02, 6.26289994e-02, 4.68249992e-02, 8.70800018e-03 ]
      - [ 6.25960007e-02, 6.14469983e-02, 6.12329990e-02, 6.11290000e-02,
          5.82959987e-02, 5.76330014e-02, 5.69030009e-02, 5.66920005e-02,
          5.57980016e-02, 5.50949983e-02, 4.04860005e-02, 8.64799973e-03 ]
      - [ 7.18130022e-02, 6.83929995e-02, 6.56199977e-02, 6.25130013e-02,
          6.15039989e-02, 6.12929985e-02, 6.01290017e-02, 5.98339997e-02,
          5.90449981e-02, 5.87899983e-02, 4.31759991e-02, 9.70099960e-03 ]
      - [ 6.95500001e-02, 6.60850033e-02, 6.44130036e-02, 6.34829998e-02,
          6.23550005e-02, 6.22150004e-02, 6.09919988e-02, 6.02359995e-02,
          5.97070009e-02, 5.80440015e-02, 4.39880006e-02, 8.69399961e-03 ]
      - [ 7.89949968e-02, 7.78499991e-02, 7.41410032e-02, 7.23910034e-02,
          6.93639964e-02, 6.86749965e-02, 6.63760006e-02, 6.54570013e-02,
          6.27830029e-02, 6.25099987e-02, 5.04399985e-02, 8.65300000e-03 ]
      - [ 8.07600021e-02, 7.87909999e-02, 7.22120032e-02, 6.73469976e-02,
          6.53380007e-02, 6.26149997e-02, 5.97999990e-02, 5.86570017e-02,
          5.86099997e-02, 5.82690015e-02, 4.38680016e-02, 9.93499998e-03 ]
      - [ 6.73080012e-02, 6.38770014e-02, 6.05559982e-02, 5.89790009e-02,
          5.85669987e-02, 5.82560003e-02, 5.76049984e-02, 5.75659983e-02,
          5.61619997e-02, 5.42609990e-02, 4.24220003e-02, 7.48099992e-03 ]
      - [ 8.01979974e-02, 7.15359971e-02, 7.13120028e-02, 7.10939988e-02,
          6.34580031e-02, 6.25199974e-02, 6.15839995e-02, 6.13990016e-02,
          5.97659983e-02, 5.94689995e-02, 4.22520004e-02, 9.50200018e-03 ]
      - [ 7.02160001e-02, 6.43080026e-02, 6.21900000e-02, 6.03209995e-02,
          5.82190007e-02, 5.75609989e-02, 5.66890016e-02, 5.52049987e-02,
          5.49539998e-02, 5.38199991e-02, 4.21640016e-02, 7.32700014e-03 ]
      - [ 6.19129986e-02, 6.04129992e-02, 5.90279996e-02, 5.88879995e-02,
          5.68309985e-02, 5.62260002e-02, 5.54630011e-02, 5.52829988e-02,
          5.38280010e-02, 5.35859987e-02, 4.24549989e-02, 6.75200019e-03 ]
      - [ 6.96960017e-02, 6.74590021e-02, 6.59900010e-02, 5.87069988e-02,
          5.83340004e-02, 5.79469986e-02, 5.61949983e-02, 5.59480004e-02,
          5.55090010e-02, 5.53580001e-02, 4.25800011e-02, 7.88400043e-03 ]
      - [ 7.50069991e-02, 6.51739985e-02, 6.33250028e-02, 6.11470006e-02,
          5.91749996e-02, 5.86009994e-02, 5.85890003e-02, 5.75600006e-02,
          5.66909984e-02, 5.52790016e-02, 4.63959984e-02, 6.39999984e-03 ]
      - [ 6.89150020e-02, 6.79759979e-02, 6.76909983e-02, 6.72649965e-02,
          6.71129972e-02, 6.54840022e-02, 6.49110004e-02, 6.24019988e-02,
          6.22479990e-02, 6.02889992e-02, 4.91209999e-02, 7.22000003e-03 ]
      - [ 8.01739991e-02, 7.55370036e-02, 7.51150027e-02, 6.79460019e-02,
          6.69260025e-02, 6.67830035e-02, 6.63790032e-02, 6.63739964e-02,
          6.57539964e-02, 6.54620007e-02, 5.20050004e-02, 7.69900018e-03 ]
      - [ 7.42290020e-02, 6.89070001e-02, 6.62110001e-02, 6.22069985e-02,
          6.20010011e-02, 6.16470017e-02, 6.08760007e-02, 6.04190007e-02,
          6.03710003e-02, 5.94879985e-02, 4.67579998e-02, 7.46499980e-03 ]
      - [ 6.59129992e-02, 6.40169978e-02, 6.16989993e-02, 6.16669990e-02,
          6.10419996e-02, 6.02069981e-02, 5.98400012e-02, 5.82059994e-02,
          5.73629998e-02, 5.57300001e-02, 4.49040011e-02, 6.46199984e-03 ]
      - [ 5.90110011e-02, 5.80019988e-02, 5.78240007e-02, 5.77719994e-02,
          5.68250008e-02, 5.67900017e-02, 5.61430007e-02, 5.58459982e-02,
          5.56840003e-02, 5.52290007e-02, 4.22190018e-02, 6.62499992e-03 ]
      - [ 7.97310024e-02, 7.93820024e-02, 7.35749975e-02, 7.34419972e-02,
          7.02989995e-02, 6.96370006e-02, 6.96170032e-02, 6.95609972e-02,
          6.82810023e-02, 6.82070032e-02, 5.40589988e-02, 8.92800000e-03 ]
      - [ 7.64840022e-02, 7.64240026e-02, 7.05159977e-02, 6.76679984e-02,
          6.71729967e-02, 6.36880025e-02, 6.17999993e-02, 6.15600012e-02,
          6.09220006e-02, 6.05890006e-02, 4.94100004e-02, 7.47099984e-03 ]
      - [ 6.58719987e-02, 6.37279972e-02, 6.15780018e-02, 6.00210018e-02,
          5.96570000e-02, 5.95720001e-02, 5.92180006e-02, 5.84650002e-02,
          5.79920001e-02, 5.70430011e-02, 4.51349989e-02, 7.15500023e-03 ]
      - [ 6.41340017e-02, 6.32269979e-02, 6.28300011e-02, 6.17420003e-02,
          6.09010011e-02, 6.01060018e-02, 5.72610013e-02, 5.52790016e-02,
          5.36019988e-02, 5.33510000e-02, 4.35019992e-02, 7.33199995e-03 ]
      - [ 6.64860010e-02, 6.63959980e-02, 6.59009963e-02, 6.54179975e-02,
          6.37779981e-02, 6.18610010e-02, 6.06900007e-02, 5.97780012e-02,
          5.28139994e-02, 5.11979982e-02, 4.54149991e-02, 7.13900011e-03 ]
      - [ 7.90269971e-02, 7.73290023e-02, 7.69279972e-02, 7.22559988e-02,
          7.14389980e-02, 6.79600015e-02, 6.56799972e-02, 6.54079989e-02,
          6.53270036e-02, 6.46009967e-02, 5.06750010e-02, 8.66699964e-03 ]
      - [ 6.81720003e-02, 6.50990009e-02, 6.22790009e-02, 6.21900000e-02,
          5.93140014e-02, 5.90530001e-02, 5.89970015e-02, 5.75219989e-02,
          5.55699989e-02, 5.55449985e-02, 4.49390002e-02, 7.01799989e-03 ]
      - [ 7.50709996e-02, 6.50819987e-02, 6.27499968e-02, 6.24740012e-02,
          6.20869994e-02, 6.10430017e-02, 6.08640015e-02, 6.05870001e-02,
          6.01180010e-02, 6.01169989e-02, 4.64660004e-02, 7.96199962e-03 ]
      - [ 7.42499977e-02, 7.18180016e-02, 7.13459998e-02, 6.89880028e-02,
          6.73250034e-02, 6.70730025e-02, 6.68229982e-02, 6.58240020e-02,
          6.48249984e-02, 6.36579990e-02, 5.21089993e-02, 7.47299986e-03 ]
      - [ 8.17790031e-02, 7.15740025e-02, 7.09050000e-02, 6.98089972e-02,
          6.85340017e-02, 6.81959987e-02, 6.37769997e-02, 6.07200004e-02,
          6.03369996e-02, 5.89010008e-02, 4.50589992e-02, 8.61399993e-03 ]
      - [ 6.35399967e-02, 6.11639991e-02, 5.89549989e-02, 5.82440011e-02,
          5.79780005e-02, 5.79509996e-02, 5.69359995e-02, 5.54939993e-02,
          5.53250015e-02, 5.45249991e-02, 4.16669995e-02, 7.40400003e-03 ]
      - [ 6.78839982e-02, 6.62840009e-02, 6.60239980e-02, 6.52619973e-02,
          6.47139996e-02, 6.46950006e-02, 6.46219999e-02, 6.32200018e-02,
          6.30389974e-02, 6.27449974e-02, 4.79700007e-02, 7.74599984e-03 ]
      - [ 7.90909976e-02, 7.69179985e-02, 7.25589991e-02, 6.89769983e-02,
          6.84610009e-02, 6.79820031e-02, 6.61439970e-02, 6.31589964e-02,
          6.13459982e-02, 5.98959997e-02, 4.83379997e-02, 7.82200042e-03 ]
      - [ 6.86089993e-02, 6.51139989e-02, 6.50240034e-02, 5.89019991e-02,
          5.80420010e-02, 5.78420013e-02, 5.69479987e-02, 5.68209998e-02,
          5.64990006e-02, 5.63869998e-02, 4.73099984e-02, 5.57000004e-03 ]
      - [ 7.37629980e-02, 7.06539974e-02, 6.37279972e-02, 6.30740002e-02,
          6.07860014e-02, 5.77830002e-02, 5.76010011e-02, 5.69300018e-02,
          5.64600006e-02, 5.61939999e-02, 4.81639989e-02, 6.86800014e-03 ]
      - [ 6.37999997e-02, 6.29670024e-02, 6.24650009e-02, 6.24580011e-02,
          6.17699996e-02, 6.12219982e-02, 6.02170005e-02, 5.98209985e-02,
          5.95269985e-02, 5.94559982e-02, 4.63090017e-02, 6.99299993e-03 ]
      - [ 7.19439983e-02, 6.96130022e-02, 5.94369993e-02, 5.91679998e-02,
          5.74669987e-02, 5.73179983e-02, 5.64810000e-02, 5.48480004e-02,
          5.44399992e-02, 5.43420017e-02, 4.23719995e-02, 7.54499994e-03 ]
      - [ 7.29010031e-02, 6.70979992e-02, 6.40750006e-02, 5.77969998e-02,
          5.76829985e-02, 5.74540012e-02, 5.66029996e-02, 5.62629998e-02,
          5.61759993e-02, 5.55239990e-02, 4.44639996e-02, 8.12199991e-03 ]
      - [ 7.27220029e-02, 7.02480003e-02, 6.99160025e-02, 6.86130002e-02,
          6.68160021e-02, 6.59279972e-02, 6.35349974e-02, 6.34540021e-02,
          6.07400015e-02, 6.04749992e-02, 4.86240014e-02, 7.78000010e-03 ]
      - [ 6.12660013e-02, 6.06379993e-02, 6.01300001e-02, 5.85860014e-02,
          5.81850000e-02, 5.65360002e-02, 5.62330000e-02, 5.59649989e-02,
          5.49420007e-02, 5.46180010e-02, 4.14829999e-02, 7.05899997e-03 ]
      - [ 7.37489983e-02, 7.12400004e-02, 7.07719997e-02, 6.91139996e-02,
          6.90850019e-02, 6.78969994e-02, 6.72169998e-02, 6.61579967e-02,
          6.59319982e-02, 6.41729981e-02, 4.80859987e-02, 8.31000041e-03 ]
      - [ 6.69910014e-02, 6.67160004e-02, 5.95000014e-02, 5.93780018e-02,
          5.93390018e-02, 5.92130013e-02, 5.88320009e-02, 5.87109998e-02,
          5.80679998e-02, 5.72570004e-02, 4.25130017e-02, 8.31000041e-03 ]
      - [ 7.85029978e-02, 7.69110024e-02, 7.03470036e-02, 6.81139976e-02,
          6.73459992e-02, 6.66150004e-02, 6.42549992e-02, 6.35920018e-02,
          6.34900033e-02, 6.32850006e-02, 5.05900010e-02, 7.55700003e-03 ]
      - [ 8.10950026e-02, 6.46679997e-02, 6.45850003e-02, 6.45459965e-02,
          6.36520013e-02, 6.35100007e-02, 6.26330003e-02, 6.25569969e-02,
          6.17499985e-02, 6.17020018e-02, 4.89820018e-02, 6.93099992e-03 ]
      - [ 7.14199990e-02, 7.08910003e-02, 7.02560022e-02, 6.82080016e-02,
          6.78189993e-02, 6.66790009e-02, 6.63980022e-02, 6.61439970e-02,
          6.56450018e-02, 6.43789992e-02, 5.07880002e-02, 7.61599978e-03 ]
      - [ 6.45209998e-02, 6.18590005e-02, 6.17469996e-02, 5.94099984e-02,
          5.87759987e-02, 5.75800017e-02, 5.73819987e-02, 5.54290004e-02,
          5.48250005e-02, 5.42640015e-02, 4.73689996e-02, 4.98099998e-03 ]
      - [ 8.08100030e-02, 7.22450018e-02, 6.93930015e-02, 6.48069978e-02,
          5.93839996e-02, 5.76590002e-02, 5.73539995e-02, 5.71010001e-02,
          5.57189994e-02, 5.54450005e-02, 4.61190008e-02, 6.68000011e-03 ]
      - [ 8.04869980e-02, 7.92519972e-02, 7.65409991e-02, 7.51850009e-02,
          7.38020018e-02, 6.99789971e-02, 6.91810027e-02, 6.85639977e-02,
          6.65690005e-02, 6.61529973e-02, 5.01720011e-02, 8.96800030e-03 ]
      - [ 8.12650025e-02, 7.96950012e-02, 7.13969991e-02, 6.84520006e-02,
          6.63020015e-02, 6.62709996e-02, 6.61600009e-02, 6.57130033e-02,
          6.51429966e-02, 6.48790002e-02, 4.72149998e-02, 9.42299981e-03 ]
      - [ 8.46360028e-02, 7.39419982e-02, 7.06870034e-02, 6.91289976e-02,
          6.80719987e-02, 6.62999973e-02, 6.52870014e-02, 6.30450025e-02,
          6.27010018e-02, 6.22869991e-02, 5.18859997e-02, 7.25199981e-03 ]
      - [ 7.37169981e-02, 6.88060001e-02, 6.54970035e-02, 6.20739982e-02,
          6.19239993e-02, 5.92150018e-02, 5.91519997e-02, 5.72220013e-02,
          5.69140017e-02, 5.60950004e-02, 4.41710018e-02, 7.16800010e-03 ]
      - [ 7.49400035e-02, 6.52310029e-02, 6.45309985e-02, 6.31960034e-02,
          6.25189990e-02, 6.22269996e-02, 6.20369986e-02, 6.15740009e-02,
          6.05180003e-02, 6.03430010e-02, 4.69020009e-02, 6.82500005e-03 ]
      - [ 7.84619972e-02, 7.54150003e-02, 7.24989995e-02, 7.17429966e-02,
          6.66550025e-02, 6.31769970e-02, 6.19129986e-02, 6.12209998e-02,
          6.10359982e-02, 6.04319982e-02, 4.82029989e-02, 7.87799992e-03 ]
      - [ 7.81769976e-02, 6.64099976e-02, 6.37919977e-02, 6.34720027e-02,
          6.31579980e-02, 6.29070029e-02, 6.18680008e-02, 6.04659989e-02,
          6.00089990e-02, 5.97000010e-02, 4.35330011e-02, 8.47600028e-03 ]
      - [ 7.61469975e-02, 7.35040009e-02, 7.24529997e-02, 7.20330030e-02,
          6.89399987e-02, 6.81150034e-02, 6.78099990e-02, 6.76859990e-02,
          6.62140027e-02, 6.45140037e-02, 4.77739982e-02, 8.06600042e-03 ]
   decision_functions:
      -
         sv_count: 259
         rho: 8.8123434782029264e-01
         alpha: [ 3.1250000000000000e+02, 3.1250000000000000e+02,
             3.1250000000000000e+02, 3.1250000000000000e+02,
             3.1250000000000000e+02, 3.1250000000000000e+02,
             3.1250000000000000e+02, 3.1250000000000000e+02,
             3.1250000000000000e+02, 3.1250000000000000e+02,
             3.1250000000000000e+02, 3.1250000000000000e+02,
             3.1250000000000000e+02, 3.1250000000000000e+02,
             3.1250000000000000e+02, 3.1250000000000000e+02,
             3.1250000000000000e+02, 3.1250000000000000e+02,
             3.1250000000000000e+02, 3.1250000000000000e+02,
             3.1250000000000000e+02, 3.1250000000000000e+02,
             3.1250000000000000e+02, 3.1250000000000000e+02,
             3.1250000000000000e+02, 3.1250000000000000e+02,
             3.1250000000000000e+02, 3.1250000000000000e+02,
             3.1250000000000000e+02, 3.1250000000000000e+02,
             3.1250000000000000e+02, 3.1250000000000000e+02,
             3.1250000000000000e+02, 3.1250000000000000e+02,
             3.1250000000000000e+02, 3.1250000000000000e+02,
             3.1250000000000000e+02, 3.1250000000000000e+02,
             3.1250000000000000e+02, 3.1250000000000000e+02,
             3.1250000000000000e+02, 3.1250000000000000e+02,
             3.1250000000000000e+02, 3.1250000000000000e+02,
             3.1250000000000000e+02, 3.1250000000000000e+02,
             3.1250000000000000e+02, 3.1250000000000000e+02,
             3.1250000000000000e+02, 3.1250000000000000e+02,
             3.1250000000000000e+02, 3.1250000000000000e+02,
             3.1250000000000000e+02, 3.1250000000000000e+02,
             3.1250000000000000e+02, 3.1250000000000000e+02,
             3.1250000000000000e+02, 3.1250000000000000e+02,
             3.1250000000000000e+02, 3.1250000000000000e+02,
             3.1250000000000000e+02, 3.1250000000000000e+02,
             3.1250000000000000e+02, 3.1250000000000000e+02,
             3.1250000000000000e+02, 3.1250000000000000e+02,
             3.1250000000000000e+02, 3.1250000000000000e+02,
             3.1250000000000000e+02, 3.1250000000000000e+02,
             3.1250000000000000e+02, 3.1250000000000000e+02,
             3.1250000000000000e+02, 3.1250000000000000e+02,
             3.1250000000000000e+02, 3.1250000000000000e+02,
             3.1250000000000000e+02, 3.1250000000000000e+02,
             3.1250000000000000e+02, 3.1250000000000000e+02,
             3.1250000000000000e+02, 3.1250000000000000e+02,
             3.1250000000000000e+02, 3.1250000000000000e+02,
             2.4666591320158560e+02, 3.1250000000000000e+02,
             3.1250000000000000e+02, 3.1250000000000000e+02,
             3.1250000000000000e+02, 3.1250000000000000e+02,
             3.1250000000000000e+02, 3.1250000000000000e+02,
             3.1250000000000000e+02, 3.1250000000000000e+02,
             3.1250000000000000e+02, 3.1250000000000000e+02,
             3.1250000000000000e+02, 3.1250000000000000e+02,
             3.1250000000000000e+02, 3.1250000000000000e+02,
             3.1250000000000000e+02, 3.1250000000000000e+02,
             3.1250000000000000e+02, 3.1250000000000000e+02,
             3.1250000000000000e+02, 3.1250000000000000e+02,
             3.1250000000000000e+02, 3.1250000000000000e+02,
             3.1250000000000000e+02, 3.1250000000000000e+02,
             3.1250000000000000e+02, 6.5834086798414404e+01,
             3.1250000000000000e+02, 3.1250000000000000e+02,
             3.1250000000000000e+02, 3.1250000000000000e+02,
             3.1250000000000000e+02, 3.1250000000000000e+02,
             3.1250000000000000e+02, 3.1250000000000000e+02,
             3.1250000000000000e+02, 3.1250000000000000e+02,
             3.1250000000000000e+02, 3.1250000000000000e+02,
             3.1250000000000000e+02, 3.1250000000000000e+02,
             3.1250000000000000e+02, 3.1250000000000000e+02,
             3.1250000000000000e+02, 3.1250000000000000e+02,
             -3.1250000000000000e+02, -3.1250000000000000e+02,
             -3.1250000000000000e+02, -3.1250000000000000e+02,
             -3.1250000000000000e+02, -3.1250000000000000e+02,
             -3.1250000000000000e+02, -3.1250000000000000e+02,
             -3.1250000000000000e+02, -3.1250000000000000e+02,
             -3.1250000000000000e+02, -3.1250000000000000e+02,
             -3.1250000000000000e+02, -3.1250000000000000e+02,
             -3.1250000000000000e+02, -3.1250000000000000e+02,
             -3.1250000000000000e+02, -3.1250000000000000e+02,
             -3.1250000000000000e+02, -3.1250000000000000e+02,
             -3.1250000000000000e+02, -3.1250000000000000e+02,
             -3.1250000000000000e+02, -3.1250000000000000e+02,
             -3.1250000000000000e+02, -3.1250000000000000e+02,
             -3.1250000000000000e+02, -3.1250000000000000e+02,
             -3.1250000000000000e+02, -3.1250000000000000e+02,
             -3.1250000000000000e+02, -3.1250000000000000e+02,
             -3.1250000000000000e+02, -3.1250000000000000e+02,
             -3.1250000000000000e+02, -3.1250000000000000e+02,
             -3.1250000000000000e+02, -3.1250000000000000e+02,
             -3.1250000000000000e+02, -3.1250000000000000e+02,
             -3.1250000000000000e+02, -3.1250000000000000e+02,
             -3.1250000000000000e+02, -3.1250000000000000e+02,
             -3.1250000000000000e+02, -3.1250000000000000e+02,
             -3.1250000000000000e+02, -3.1250000000000000e+02,
             -3.1250000000000000e+02, -3.1250000000000000e+02,
             -3.1250000000000000e+02, -3.1250000000000000e+02,
             -3.1250000000000000e+02, -3.1250000000000000e+02,
             -3.1250000000000000e+02, -3.1250000000000000e+02,
             -3.1250000000000000e+02, -3.1250000000000000e+02,
             -3.1250000000000000e+02, -3.1250000000000000e+02,
             -3.1250000000000000e+02, -3.1250000000000000e+02,
             -3.1250000000000000e+02, -3.1250000000000000e+02,
             -3.1250000000000000e+02, -3.1250000000000000e+02,
             -3.1250000000000000e+02, -3.1250000000000000e+02,
             -3.1250000000000000e+02, -3.1250000000000000e+02,
             -3.1250000000000000e+02, -3.1250000000000000e+02,
             -3.1250000000000000e+02, -3.1250000000000000e+02,
             -3.1250000000000000e+02, -3.1250000000000000e+02,
             -3.1250000000000000e+02, -3.1250000000000000e+02,
             -3.1250000000000000e+02, -3.1250000000000000e+02,
             -3.1250000000000000e+02, -3.1250000000000000e+02,
             -3.1250000000000000e+02, -3.1250000000000000e+02,
             -3.1250000000000000e+02, -3.1250000000000000e+02,
             -3.1250000000000000e+02, -3.1250000000000000e+02,
             -3.1250000000000000e+02, -3.1250000000000000e+02,
             -3.1250000000000000e+02, -3.1250000000000000e+02,
             -3.1250000000000000e+02, -3.1250000000000000e+02,
             -3.1250000000000000e+02, -3.1250000000000000e+02,
             -3.1250000000000000e+02, -3.1250000000000000e+02,
             -3.1250000000000000e+02, -3.1250000000000000e+02,
             -3.1250000000000000e+02, -3.1250000000000000e+02,
             -3.1250000000000000e+02, -3.1250000000000000e+02,
             -3.1250000000000000e+02, -3.1250000000000000e+02,
             -3.1250000000000000e+02, -3.1250000000000000e+02,
             -3.1250000000000000e+02, -3.1250000000000000e+02,
             -3.1250000000000000e+02, -3.1250000000000000e+02,
             -3.1250000000000000e+02, -3.1250000000000000e+02,
             -3.1250000000000000e+02, -3.1250000000000000e+02,
             -3.1250000000000000e+02, -3.1250000000000000e+02,
             -3.1250000000000000e+02, -3.1250000000000000e+02,
             -3.1250000000000000e+02, -3.1250000000000000e+02,
             -3.1250000000000000e+02, -3.1250000000000000e+02,
             -3.1250000000000000e+02, -3.1250000000000000e+02,
             -3.1250000000000000e+02, -3.1250000000000000e+02,
             -3.1250000000000000e+02 ]
         index: [ 0, 1, 2, 3, 4, 5, 6, 7, 8, 9, 10, 11, 12, 13, 14, 15,
             16, 17, 18, 19, 20, 21, 22, 23, 24, 25, 26, 27, 28, 29, 30,
             31, 32, 33, 34, 35, 36, 37, 38, 39, 40, 41, 42, 43, 44, 45,
             46, 47, 48, 49, 50, 51, 52, 53, 54, 55, 56, 57, 58, 59, 60,
             61, 62, 63, 64, 65, 66, 67, 68, 69, 70, 71, 72, 73, 74, 75,
             76, 77, 78, 79, 80, 81, 82, 83, 84, 85, 86, 87, 88, 89, 90,
             91, 92, 93, 94, 95, 96, 97, 98, 99, 100, 101, 102, 103, 104,
             105, 106, 107, 108, 109, 110, 111, 112, 113, 114, 115, 116,
             117, 118, 119, 120, 121, 122, 123, 124, 125, 126, 127, 128,
             129, 130, 131, 132, 133, 134, 135, 136, 137, 138, 139, 140,
             141, 142, 143, 144, 145, 146, 147, 148, 149, 150, 151, 152,
             153, 154, 155, 156, 157, 158, 159, 160, 161, 162, 163, 164,
             165, 166, 167, 168, 169, 170, 171, 172, 173, 174, 175, 176,
             177, 178, 179, 180, 181, 182, 183, 184, 185, 186, 187, 188,
             189, 190, 191, 192, 193, 194, 195, 196, 197, 198, 199, 200,
             201, 202, 203, 204, 205, 206, 207, 208, 209, 210, 211, 212,
             213, 214, 215, 216, 217, 218, 219, 220, 221, 222, 223, 224,
             225, 226, 227, 228, 229, 230, 231, 232, 233, 234, 235, 236,
             237, 238, 239, 240, 241, 242, 243, 244, 245, 246, 247, 248,
             249, 250, 251, 252, 253, 254, 255, 256, 257, 258 ]
